{
  "weights_summary": [
    {
      "layer": "param_0",
      "mean": 0.0013310468898710096,
      "shape": [
        7,
        192
      ],
      "std_dev": 0.05347435206160167,
      "values": [
        -0.001602332201042425,
        -0.009248713535915234,
        -0.050138332199996305,
        -0.007724099051945398,
        -0.05386414366068745,
        0.0029741380249901648,
        -0.05284239292328111,
        0.025462588285098668,
        -0.05493183963303265,
        -0.11616943164859586,
        -0.052075789224505356,
        -0.058245526778125306,
        0.0032520259569505054,
        0.030007049149587104,
        -0.011666677911929536,
        0.010107432592308358,
        0.018410651763979755,
        0.0012249491877550202,
        0.06810179457524873,
        -0.020936103836670775,
        -0.05344780428880781,
        -0.0006514774709160761,
        0.003570232115162022,
        -0.001496843957974363,
        0.00016631212329047747,
        -0.03811061792310569,
        -0.015956375492044983,
        0.02607462653024556,
        -0.07491785646302034,
        -0.004817142710578248,
        0.006780523086469849,
        -0.0478055308603061,
        -0.06853222664903677,
        -0.047800857197885606,
        -0.10199279306398208,
        0.0033280769928044334,
        0.07711939228573943,
        0.057200809771883646,
        0.020311262405473082,
        -0.0030346376810068097,
        -0.08509699068901333,
        -0.02081559449534373,
        0.01670773219379129,
        0.0023123440970782075,
        0.07038561338654042,
        0.02503346695749399,
        -0.03278453951853985,
        -0.039011216329280285,
        0.008163203082197978,
        0.010312061056644856,
        -0.03186579047238895,
        -0.10925614545116935,
        0.01739452063625287,
        0.00015363292510539963,
        0.03512748602339916,
        -0.01727600969912768,
        -0.0003167922686142579,
        -0.001959165676274824,
        -0.0023386995350464512,
        0.03184819249376728,
        -0.0033700002052099148,
        -0.0332470765440112,
        0.034801011736308826,
        -0.005179587171105799,
        -0.027774745773732998,
        0.002498648676672362,
        -0.04732470451116953,
        0.021755987723662253,
        0.027008678341180953,
        -0.009971682984474008,
        -0.04332885706335412,
        0.037525438521398294,
        0.0075052508875967485,
        0.07261828989810266,
        0.056636708101776886,
        -0.007491546418823165,
        0.0012869153819624513,
        0.0760620772920457,
        0.00027055595109342853,
        0.07576750359066896,
        -0.08583304906840122,
        -0.024661170547355574,
        -0.04101751064861031,
        0.018764484294818907,
        0.050705229598714215,
        -0.0028980568494009085,
        -0.032638658659165674,
        -0.0008782323798466058,
        0.016922500342224808,
        0.004822320988222587,
        0.04752007809294542,
        0.02589818054805898,
        -0.0029987354345124362,
        0.06842291304633484,
        0.004599588395908927,
        0.0007930544214304471,
        -0.014684600654290832,
        -0.0011957403980821651,
        -0.011353559326656007,
        9.816677610354288e-05,
        0.0011201517432879518,
        -0.0694623446414036,
        -0.0035770520583878838,
        0.005411031541993805,
        0.0021770455925528244,
        -0.011115461898572949,
        0.004590629206702343,
        0.00501188406421301,
        -0.08339159310404927,
        -0.022162930177758215,
        0.08671855429485939,
        -0.05796942228831062,
        -0.0007773332226943261,
        0.018840506132386158,
        0.015648168390616314,
        0.03012021799222906,
        -0.0918550477388423,
        -0.00025605913202081886,
        0.0875043905938635,
        -0.00035592617538889677,
        0.00035811975433222055,
        0.005654945475303026,
        -0.025065741391833454,
        0.061186067507283295,
        -0.0014582120607650607,
        -0.025708069452857477,
        -0.002651119597156815,
        -0.025627647494231846,
        0.07662723951348373,
        -0.08876800649810859,
        0.016923855177858608,
        -0.10788443972510695,
        0.020309042538143605,
        0.04091420577891144,
        -0.07624340370589058,
        -0.034580986495538646,
        0.04434878226012093,
        0.01634669238013504,
        -0.05680660632507,
        -0.15168296699452255,
        0.08349108940904913,
        0.08240262860691347,
        -0.054152371126052,
        0.005215094097722415,
        0.08918066060262553,
        0.15122789607701184,
        -0.02962615252848936,
        -0.00863120125885986,
        0.04444653094726906,
        0.016860567031286612,
        0.024076861015178926,
        0.12114241288986313,
        0.033662291096950604,
        0.07330843767312142,
        0.0020252923368508768,
        -0.11982817288879154,
        0.1240899222618341,
        -0.041270801541251054,
        0.0007418811823008808,
        0.15132721233189292,
        -0.021387184108306416,
        -0.0634807006957365,
        -0.09507293275806569,
        -0.01728484199409379,
        0.019795592279597304,
        0.017266158046294743,
        -0.11263994293985258,
        0.010080159846850893,
        -0.07514972418417318,
        0.029344139519128686,
        0.059173867747056484,
        0.0019860961262367603,
        0.013215968383591408,
        0.089895470420253,
        0.05489763363281751,
        -0.021409929606692038,
        -0.04457785605670306,
        0.03146059350584748,
        -0.04492461278238655,
        0.07964949100467941,
        0.05199329961895194,
        0.03523448431058736,
        -0.09719670646765063,
        -0.040742927171811646,
        -0.07383974162561233,
        0.06355504051423447,
        0.024170109648518824,
        0.05911888661506472,
        -0.12201886755384538,
        -0.08609479598115144,
        -0.05484394028716315,
        -0.040708104375687046,
        -0.09882372233082472,
        -0.05888626925473531,
        -0.002629353171799103,
        0.01570553689631133,
        0.02617201334248648,
        -0.01170010894104422,
        -0.04195442006420482,
        -0.021340602704301544,
        3.88787333417542e-05,
        0.01890787571489245,
        -0.00024765528871920506,
        0.09265204829075907,
        0.005897661413531938,
        0.011039336646295483,
        -0.0487458266732884,
        -0.005054590000020629,
        0.10204899416537996,
        -0.07272938575048987,
        0.0015875400826679572,
        0.007057539975341217,
        0.06899406670098798,
        0.02757158512506831,
        0.0485175912110958,
        -0.021211914755961556,
        -0.003901556756127005,
        -0.04039793652711357,
        -0.02473005788842658,
        -0.003917393864861908,
        0.008243252193278282,
        0.01955331042658381,
        0.029817856212834656,
        -0.0012930050647490272,
        0.03761278865396538,
        0.030030585263840143,
        0.01736022177969251,
        -0.014415266969130796,
        0.059616695960545626,
        0.05646556056431233,
        0.02861665704907434,
        0.10687559310214524,
        0.008367138736919418,
        0.026027975765285483,
        -0.0024294895826718122,
        -0.05186524947668894,
        0.015442953703959502,
        -0.01939301240043293,
        0.005005192276754691,
        -0.01795503637024323,
        -0.00877762524818668,
        0.0020228627921740866,
        -0.028151146640522606,
        -0.04547676600981676,
        -0.03321429750502909,
        0.03884435460302961,
        -0.001402724087783767,
        0.09973919882608591,
        -0.0006567940557565908,
        -0.003671977658663301,
        -0.0259825393714903,
        -0.004099672013767877,
        -0.0027758734964170423,
        -0.004558577007978768,
        0.030331618627695532,
        0.0394733203002082,
        -0.0459728227024654,
        -0.019542135143140838,
        0.023848192291580368,
        0.0059564373051339825,
        -0.03596160962307403,
        -0.0519385049382527,
        -0.09123455476388952,
        -0.0028351842416606448,
        0.05540805005703111,
        -0.08621113401396231,
        0.06055058303585868,
        -0.00638117818172068,
        0.09213394240430084,
        0.0009548934017909733,
        0.0002138055196219168,
        0.06223191763378935,
        0.015025771129946542,
        -0.0008346170280449337,
        0.019915177437685255,
        -0.08979921143710368,
        -0.021628649758902385,
        0.08005108934224497,
        -0.09958147357417267,
        0.0028684613961764012,
        -4.9176100020724245e-05,
        0.03435365370211535,
        0.00469155689799548,
        0.10522188038887381,
        0.010717128434338878,
        -0.05795443504296321,
        -0.0341813061321516,
        0.0041820604833863444,
        0.036190152379576845,
        0.027596523189749957,
        -0.031735191319641254,
        -0.0559940677806631,
        0.06031939710612984,
        -0.018613661470293554,
        -0.003407626528328195,
        -0.023254751726190848,
        0.058333563757957604,
        -0.0019785792051634867,
        -0.02193293584734097,
        0.03131940337990032,
        -0.04333305524054863,
        -0.015506920869332792,
        -0.08292193694124729,
        0.02736649875064414,
        0.024592769283797347,
        -0.004869365731444971,
        -0.08284769844677664,
        0.008541833306339341,
        0.005479180547042797,
        -0.03659239056167271,
        -0.07628689253217807,
        0.0024490869575896556,
        0.007250802212988394,
        -0.027091956323568166,
        0.013162004613136862,
        0.006401647817042833,
        0.03299425869836341,
        0.04769100825562585,
        -0.0009071574280976236,
        -0.005561400312612852,
        -0.09218598635540765,
        -0.08238863770807214,
        -0.09604116762493871,
        -0.128069772488007,
        0.0451131246495019,
        -0.014278750924693492,
        -0.03499281332366582,
        0.09949347701428463,
        0.15590514131970748,
        -0.025843544082208188,
        -0.036166621835413845,
        -0.007650512317971232,
        -0.0653030233347184,
        -0.043026039984704875,
        -0.017276888634293282,
        0.08064835205770787,
        0.015023607598550362,
        -0.01677511652926314,
        0.05118349170110016,
        -0.07688058905743542,
        -0.026651068349055385,
        -0.06474160329187131,
        0.009370131445504304,
        0.029177443529922978,
        -0.08836271033689716,
        0.041846245599407576,
        0.048147566721069596,
        -0.06940483857534543,
        -0.12287595987926728,
        0.09692403316379503,
        -0.03197845945365983,
        0.00436634039879499,
        0.11003880806549296,
        -0.1028806253410357,
        -0.05737097436312279,
        0.06755187143354514,
        -0.03414878397520607,
        -0.06247077325034917,
        0.1336571126626661,
        0.09710655512139477,
        -0.040362964619569904,
        -0.02662619589992144,
        0.10289778390494658,
        -0.024925126935366252,
        -0.12076312396783562,
        -0.015038846444594599,
        0.004117733109920769,
        0.09919600221656309,
        -0.10227136631538628,
        -0.0939034680838243,
        -0.03821099528143491,
        0.04714633133783774,
        0.025798850984213653,
        0.009093940352011326,
        -0.005192172495107885,
        -0.006887472550517219,
        -0.0678984373745382,
        -0.09417809906053122,
        -0.10283742630954865,
        -0.05286125444328206,
        -0.024179819364769328,
        -0.006918694632180594,
        -0.04241013170110444,
        0.027050611611072053,
        -0.008746392386489287,
        0.0019087621547529646,
        0.00918438516648688,
        0.021460648722090376,
        -0.05993024968960943,
        0.015700526615115916,
        0.011313632971210422,
        -0.08207132029236511,
        -0.01714705754015145,
        0.04065569714739846,
        0.02493047257618334,
        -0.07522912387026431,
        -0.02243710290718117,
        0.051965896179671955,
        0.00010535141568006318,
        0.046917842207564106,
        0.006067828134662591,
        -0.006882594508580477,
        -0.01682372130822005,
        0.02860579181004525,
        -0.010045203665490256,
        0.009936014800205213,
        0.0010283192977976032,
        -0.006829039068738154,
        0.00786585035665312,
        0.054354795865037775,
        0.024171937759351923,
        0.052326159650004846,
        0.0017059914012812643,
        0.008951177260567898,
        -0.006981999098441794,
        0.05006666079826284,
        -0.0006083709368868221,
        0.10451337191600713,
        0.0848654571381484,
        -0.003849715471387345,
        0.02107788894164493,
        -0.0015416715398584853,
        -0.056350140813547306,
        -0.026243208895609594,
        0.06868841407413664,
        -0.10016997597409835,
        0.00860323018102733,
        -0.051592438610226166,
        0.054625103434577785,
        -0.09314591258370453,
        -0.012316296309762746,
        0.00020622414473759417,
        0.032808430385071544,
        0.014553951817683285,
        0.011578363601941265,
        0.035931295543576186,
        -0.013013527991661175,
        -0.021928922144580504,
        -0.013052144695897282,
        0.01142573928147265,
        0.00032875532252167334,
        -0.023589492540785392,
        -0.002377615462150078,
        -0.020528395437997893,
        0.030852060075195798,
        -0.011404164816153504,
        -0.04608736395759932,
        0.0069859150142017705,
        -0.0016240388627506226,
        0.011453875367822336,
        0.06986962327407137,
        -0.004851504009455565,
        0.006813967182342369,
        0.022320188718644822,
        0.018676585259843073,
        -0.027647090382834194,
        -0.0024311883370431884,
        -0.00211554475691125,
        0.10251790133340025,
        0.08263254390562219,
        0.004481410728896686,
        0.044730767426409385,
        -0.021336460099091098,
        -0.012074901039699486,
        0.05389851386078289,
        0.09168818307069812,
        0.008123584020010637,
        0.09628652413833322,
        -0.002369530409957496,
        -0.0077903883212583555,
        -0.003988728805520191,
        0.02542178798128663,
        -0.08083228392626504,
        0.015833607320809892,
        0.014560334934218797,
        -0.0008988306525202655,
        0.013032282195937394,
        -0.007255600450012079,
        0.002083608564642229,
        0.047747771361865046,
        -0.09067064870146124,
        0.017709948767119746,
        0.021029869621009358,
        0.029976847601403567,
        -0.0012359526106599677,
        0.11009521810006252,
        0.007021850533246289,
        0.006898841346367808,
        0.033834264960231314,
        -0.004280711788088269,
        0.02146655170748936,
        -0.0017263425426143242,
        0.021342240827699824,
        -0.016566474297397993,
        0.011437520698630646,
        0.03507377953862935,
        -0.07740337537926831,
        -0.004185348544573943,
        0.0049398713948571715,
        0.006681947851672544,
        0.022753634026172365,
        0.003218735612960014,
        0.0018506906771206914,
        -0.02639840729302801,
        -0.005807103949456467,
        0.003307550065924082,
        0.0934559485564433,
        0.05324313668441373,
        -0.09437471877320197,
        0.013656695589979862,
        0.030204609202307216,
        0.08574648757246389,
        0.06436189592415292,
        0.1458836483645084,
        -0.056676046009774564,
        0.08622960293220533,
        -0.11072444299225379,
        -0.07392391947501822,
        0.023711418098418008,
        -0.0434174906389522,
        -0.09803254823459132,
        0.007267074980260578,
        -0.005266587300663669,
        0.00919110310120368,
        0.01964868768358998,
        -0.020468379613158026,
        0.004454693506984606,
        0.09920224287336013,
        -0.07497177189721288,
        -0.02729836484169975,
        -0.11626114921515386,
        -0.01884861736378968,
        0.022632682308806315,
        0.10526336919557308,
        -0.03660855800580323,
        0.029662609303306442,
        -0.004749285040759576,
        -0.06408782356001878,
        0.06590180605705517,
        0.004945509497139525,
        -0.017106677635703553,
        -0.028257832713842378,
        0.046598292372839155,
        0.015024952329984482,
        -0.11388954949785546,
        0.08722987488346848,
        0.035173632297413,
        0.039252515323286566,
        0.08472434349634556,
        0.10014185988162977,
        -0.052384195882893,
        0.06825815170565111,
        -0.136808939657026,
        0.06325365937198135,
        0.05997663854431725,
        -0.04559094934210888,
        -0.08333545153773383,
        -0.049812291537928086,
        -0.013293644294093776,
        -0.07865643375506577,
        0.010289342007346443,
        0.04261225107735839,
        -0.006507610333656367,
        -0.0871643903138537,
        0.13527333322062157,
        0.03274806277404081,
        0.0300587334866501,
        -0.05336605046263239,
        -0.08282810737720978,
        -0.019671797581821703,
        -0.014496470832607512,
        0.0030345108962870695,
        -0.06647226062256867,
        0.15275464921445792,
        0.023266213311592253,
        -0.09550943029666499,
        -0.03026451667260456,
        -0.0010274211821386767,
        -0.025653476262865422,
        -0.02209530475641986,
        -0.06988832316423883,
        -0.024534210668790305,
        -0.0010602416575992341,
        0.046224166793060184,
        0.05356812128485667,
        -0.011487723107410629,
        -0.008761190557031399,
        0.02622876647558725,
        0.006508365328948768,
        -0.0009208176299951784,
        0.03793642062970519,
        0.013076613669507763,
        -0.05853556002940377,
        -0.04401939064378056,
        -0.013834167772088906,
        -0.022207084294209506,
        -0.016533744765832095,
        -0.01384088490672138,
        -0.018335891005197127,
        0.08991377449499668,
        -0.003798705895030694,
        -0.0030196627309229318,
        0.05354294374991282,
        0.020382673784747472,
        -0.06186113968855971,
        -0.0679994631693582,
        -0.010979360344592477,
        -0.0011372268915833044,
        -0.07564403621619709,
        0.07609745795652709,
        0.009316926757661085,
        -0.028611478872992716,
        -0.008407594434393404,
        -0.05880425705438519,
        0.10469402382701158,
        0.023496668521376645,
        -0.05561545633433218,
        0.004557760684261359,
        -0.09680797430718135,
        -0.0106499381764712,
        0.03940211255521986,
        -0.0010462270564081473,
        -0.0954735872356587,
        -0.012533612820208082,
        0.0063514033840303035,
        -0.06177946663686095,
        0.0017468153976434027,
        -0.08535174079577389,
        0.033753701782193606,
        -0.048063986973348585,
        -0.06269852306464553,
        0.004741284790133168,
        -0.0010338784728612046,
        -0.018941476207586704,
        -0.0878139922262627,
        0.06496350026188756,
        0.011098425274875789,
        -0.008531565353613779,
        0.024804833413775377,
        -0.003078697813700384,
        -0.06783666481814199,
        0.0040257453025457635,
        0.0009464402073591059,
        0.012302100570924339,
        -0.07468612549060005,
        0.00713712012411126,
        0.0014061771627101546,
        -0.003142783204372657,
        -0.006008847879821731,
        -0.012030154886260403,
        -0.0046340658620197175,
        -0.038522240023859566,
        0.0014453155993848425,
        -0.009034537369653907,
        0.0004440317423197765,
        0.023763696459978202,
        0.07556773600785172,
        0.013482800115099926,
        0.007709724330131805,
        -0.006659824848259565,
        -0.0008852226934351374,
        0.007145639888209273,
        -0.0014912273434347628,
        -0.0010910800130864268,
        -0.0019779303154366856,
        -0.02014438883103495,
        -0.011299704902596516,
        -0.09715684167342795,
        0.006204602719947012,
        -5.855909970547194e-05,
        -0.08650457601311401,
        0.01859140223881669,
        0.004148874260449273,
        -0.03128051553226034,
        -0.050092597346845714,
        0.01192226891679058,
        0.004719286659907002,
        0.037948497863170096,
        -0.05631042775172805,
        -0.0005405617459877119,
        0.05865334882942559,
        0.10847642694528918,
        0.05059911192570067,
        -0.022786636191078343,
        -0.005773874957906048,
        0.05170710829320556,
        0.0460101752226007,
        -0.0842521399693533,
        0.023031193954221284,
        -0.033215035627770464,
        -0.015116957663608713,
        0.08118162640522167,
        -0.007221863208724566,
        -0.002980794387879085,
        0.0049334930816579275,
        0.020576316529996398,
        0.02699769917131238,
        -0.06460511324302126,
        0.011537105849491993,
        -0.08481033033967292,
        -6.107277638866022e-06,
        0.056176443115249775,
        -0.0010723300649119337,
        0.046559711975781536,
        0.08036935194500958,
        -0.0060511770292913155,
        0.08499186113975979,
        -0.07806665051349407,
        0.04020242306791784,
        -0.0037536688318743406,
        -0.10665306105185089,
        0.04138959716205156,
        0.08984922673133239,
        0.02875926585903907,
        -0.14899347381099293,
        -0.09886130517880748,
        0.03435942235631605,
        0.0713223942479771,
        -0.0032841038170343863,
        0.026326535662154378,
        -0.04967393820771465,
        -0.0010370112262158403,
        -0.08692307422753955,
        -0.0786300931277712,
        -0.14308315392932108,
        -0.03748439122225658,
        0.02689934405554268,
        -0.0320569287264497,
        -0.07361533494384076,
        -0.15504915981100015,
        -0.006753840646385815,
        0.06273810628900882,
        0.12775214713460628,
        -0.02253229113972373,
        -0.01029366737454645,
        -0.06347313502624943,
        0.10233536562809077,
        0.003768860012538589,
        -0.054317234481929946,
        -0.033869228433562645,
        -0.04531008797423508,
        -0.0796068153841922,
        -0.0445969761246585,
        -0.05403784770505835,
        0.07821261994751814,
        -0.025512526480346256,
        0.08795185100139336,
        0.0007330643016019372,
        0.04409375632183972,
        0.09958131397654507,
        -0.05407831666779144,
        0.019281860099038907,
        -0.10524023995087628,
        0.13015513517310748,
        0.09925726852041641,
        0.09548911931625517,
        -0.021611054680761327,
        0.029281931227372684,
        0.002977372191696229,
        -0.04961476746768392,
        0.05935984866944228,
        -0.08427228238522197,
        0.08685899993503692,
        -0.035866011218001745,
        -0.06884983566846214,
        0.014125291316132386,
        0.05436895001265683,
        -0.02788205066633382,
        0.0031345807145261094,
        -0.04489431925338033,
        0.004948277017870872,
        0.06378589236348539,
        -0.0805027925885329,
        0.03651895584899992,
        -0.006919772783711106,
        0.001346321083245924,
        -0.02325959807268884,
        -0.001007394436176578,
        -0.007897755802085259,
        0.00828357997434164,
        -0.0032087353914170926,
        -0.0008520496131192558,
        -0.004702744426351964,
        -0.04687828332868492,
        0.033734611678095924,
        0.055403793260768996,
        0.05163082065681119,
        -0.08253905943247541,
        -0.0011166791366615492,
        -0.013601989878906423,
        -0.006550995911935699,
        -0.01067854682616532,
        -0.0033275274452343262,
        0.053146655405106616,
        0.0500093589181064,
        -0.024938673185330787,
        0.01893322305188519,
        0.005189913693308583,
        0.08625103184663396,
        0.09367271915814487,
        -6.73106000293669e-05,
        -0.046015940636096056,
        -0.029381781839462773,
        -0.01481219519376612,
        -0.040704109686483296,
        0.006558337839676949,
        0.006099338381182037,
        -0.011029598489601921,
        -0.01064544246683316,
        -0.00163850509814079,
        -0.008678927981949828,
        0.0005583258742857893,
        -0.0530992038561952,
        -0.01723440730619774,
        0.001333788186250501,
        0.07766497281100841,
        0.006240202291393866,
        0.09129187280087073,
        -0.0751799164163519,
        0.024729310647272656,
        0.03500150132482646,
        0.05405694449474203,
        -0.04826740851944668,
        0.06393845640204106,
        0.02600636237479216,
        0.04562899061710652,
        -0.0024158898113984394,
        0.0009581832012755581,
        -0.0010094860814109754,
        0.0590115844417164,
        0.06798816955868581,
        -0.06351460775628773,
        -0.002878265912387978,
        0.03614575199522123,
        0.10374730304701435,
        -0.005362933388494,
        -0.026391904933651004,
        0.05831704922576126,
        0.013593178479679988,
        -0.056142333138830214,
        -0.030076237738508156,
        -0.012812698128814826,
        0.020966725144285638,
        -0.009431811882386513,
        0.0031381906380616473,
        -0.03864121727249404,
        -0.051571921251463385,
        0.011702873011316514,
        -0.01160288534199987,
        -0.0005917250273587968,
        -0.0030146956366309523,
        0.014461650901445364,
        0.014150362996880089,
        0.02653687980544208,
        0.049826139817416897,
        0.005809053759012603,
        -0.0031171319668544736,
        -0.030065830861625634,
        0.03187847312236183,
        -0.0345736273342932,
        -0.01929645236207498,
        -0.04052830565927831,
        -0.0017885307381193245,
        0.05922341207721278,
        0.015306948836983652,
        0.09648962647240852,
        0.1137130297353646,
        -0.0020194468792567133,
        0.00014912590600442644,
        0.0883324829645387,
        0.011550297371912835,
        -0.004343168880939129,
        0.08355388149193098,
        0.0056377076778730256,
        -0.030891463629621453,
        0.02615077972470943,
        0.0784531970504832,
        -0.03282233204540322,
        -0.011272983146349162,
        -0.028501253572128973,
        0.0005518223757183073,
        0.010627455204901276,
        0.03312956512127807,
        -0.021427690989317752,
        0.019150061602525192,
        0.10055157091861985,
        -0.004181061223410328,
        -0.025395688272460772,
        -0.0006151336777053168,
        0.058098367401972634,
        0.012378346453918877,
        -0.0454284488522,
        0.08186604112101684,
        -0.08404163968712507,
        -0.0008879459472533523,
        0.09168531098152545,
        0.003258694994672548,
        0.07921697927033386,
        -0.0703679782944289,
        0.06793974461659491,
        -0.04535909321964291,
        0.011941424134535365,
        -0.042656284896830265,
        0.10525805354552556,
        0.0144488174775518,
        -0.02652063791773453,
        -0.08752842982466269,
        0.0001532562685211168,
        -0.04465461790210309,
        -0.04352164053793342,
        0.03637390366973816,
        -0.12073417145599655,
        -0.05244903580885105,
        0.13322048443180262,
        -0.007881919366772055,
        0.016699094581090205,
        -0.002163283557846513,
        0.06616571894232165,
        -0.044970018772902444,
        -0.026955957283531583,
        -0.008727647203124338,
        0.041714067241471545,
        0.10105127136706821,
        -0.09341744754571253,
        -0.05317010744921788,
        -0.021063686757587397,
        0.006460926231789725,
        0.12316370576111108,
        0.062260445114567166,
        0.01655040383080269,
        -0.10327262991457895,
        -0.13567131256425996,
        0.0156752132280771,
        -0.017906441407232424,
        0.004102884808293612,
        -0.0077140978576002795,
        -0.07029857632978416,
        -0.05123013679382998,
        -0.10851439606174873,
        0.02326705291454849,
        0.08420601364646077,
        0.06002012703721833,
        0.030702119173137594,
        0.012816789532570544,
        0.1211424634044903,
        0.10134867382322273,
        0.14341275322111968,
        -0.14400345734672645,
        -0.04817273002170296,
        -0.07426496739481947,
        0.030271756378480473,
        -0.06165531589381523,
        0.04585446494966071,
        0.04399540805435954,
        -0.0113634002678322,
        -0.03485304723905832,
        0.08347135242424622,
        -0.12804836058698948,
        -0.020364499843434,
        -0.04904289893523976,
        -0.0004737718876960172,
        0.04761845103617944,
        -0.045704652015052076,
        0.06166616915019163,
        -0.019512359572978318,
        -0.03057741354157245,
        0.0038635084019782344,
        -0.0013744501797924174,
        0.05789492568978409,
        -0.05365507455023713,
        0.015384287214724242,
        0.02911178223135718,
        -0.034220411994420545,
        0.05420446640459466,
        0.009991526664306624,
        -0.021765327401605604,
        0.017590615116980665,
        -0.005600680323169755,
        -0.03817068933517205,
        0.017935018536313865,
        -0.043020607328505545,
        -0.00149066671287618,
        0.0026735840722834237,
        -0.05511389663548668,
        -0.03119009117808856,
        -0.09216920025779406,
        0.06866919546119235,
        0.005306989080853678,
        -0.05529451151452976,
        0.07997037984001813,
        0.11516773367347662,
        0.03310003063587494,
        0.0016247854416128575,
        0.04002434737366325,
        -0.00021900566864910061,
        0.07260554725966861,
        0.07013597431298985,
        0.004015932676097986,
        -0.016281745222839615,
        0.07753416374549593,
        -0.0034443350114465193,
        0.05591423723866641,
        -0.02646587132348905,
        -0.001986258882899122,
        -0.024875822839138334,
        -0.0005684955333954859,
        -0.005742835187011594,
        -0.06820744367442279,
        0.004163059065215637,
        -0.04993677127117907,
        -0.03599440984358644,
        0.025486305252827416,
        -0.01852560989896969,
        0.11747333518479813,
        0.004338009669851117,
        0.008677882930509934,
        0.018342899490677772,
        -0.02035509052695416,
        -0.004794787551104459,
        0.01818869498462916,
        -0.018142455262077795,
        0.00843346245991766,
        0.09677966035293216,
        0.051656176014623564,
        -0.0012480677678209583,
        -0.0804195894833746,
        0.00795304976325684,
        -0.0016502607802395164,
        -0.0037765273962649957,
        0.06759618964494452,
        -0.09714800436386938,
        0.007208039987328477,
        -0.012139383271591576,
        0.0004589892424151478,
        0.01490647476585533,
        0.047409555024351006,
        0.030803368214072785,
        -0.03652184766736408,
        0.0026919254216262404,
        0.007050331846693864,
        -0.06203459405936035,
        -0.04315790715926424,
        0.10100541334807837,
        -0.06605702498067176,
        -0.08602964641936878,
        0.041521234088412594,
        -0.04486449513250305,
        -6.353966691692502e-05,
        0.0995668037143912,
        -0.0576890452912585,
        -0.00872437757808466,
        -0.10389597714572134,
        0.0009259483559176293,
        -0.000808468392451922,
        -0.015100718498838098,
        -0.0007709008260310593,
        0.0660117761274027,
        -0.0068973426676901695,
        -0.029597212862395215,
        0.04220056156200897,
        -0.002521149776822059,
        -0.015494225578542858,
        -0.008430415570433124,
        0.08152701353127273,
        0.007900373013205897,
        0.006604937176190111,
        0.020043932869950078,
        -0.009547212439548019,
        -0.005514237207829041,
        0.014215869311978161,
        0.08348604897584314,
        -0.024293409784635858,
        -0.07726785579707156,
        -0.0019160459744211062,
        0.012031638033262296,
        0.012417571046065681,
        0.06727368304700485,
        -0.019350737038896178,
        -0.006210453231427944,
        0.05034152567303313,
        -0.028045900874768805,
        -0.056034259990640725,
        -0.0046082514285456675,
        0.019045327052756557,
        0.056006587937963176,
        -0.03968318435561001,
        0.017285777287386294,
        0.005378481778956126,
        -0.003314126682051004,
        -0.14014325195338886,
        0.019269742270559657,
        0.08331179850052123,
        0.047296913495380434,
        0.10060885343054146,
        -0.04337832702960581,
        -0.048514393872198226,
        0.0006405158244535596,
        -0.1385898697701262,
        0.08749253996755055,
        -0.010698937352961607,
        0.04124532043493638,
        0.006128548317551008,
        0.04892142269107265,
        0.019172454548624356,
        0.06028184357714053,
        0.009932673906215958,
        -0.005248093931561423,
        0.009944018662071067,
        0.09131186102404867,
        -0.03294922692468456,
        0.0925395425124575,
        -0.07213439313241973,
        -0.054319226684255185,
        0.1214202246547882,
        0.0464033370129532,
        0.05441111542056348,
        0.023348247362718757,
        -0.04164129624909698,
        0.15961648511050808,
        0.022712040350356795,
        -0.0162870784782347,
        0.043128204104769384,
        -0.05400233798569578,
        0.11352090168091236,
        0.049355956078016884,
        0.019173527933525947,
        -0.09613346814286458,
        -0.028905659764479275,
        0.014882304761400594,
        -0.0015660175298865325,
        0.08649527785466157,
        0.08669379423773349,
        0.08555458193165,
        0.04573453137029751,
        -0.08677746178861336,
        0.022801802572452685,
        -0.03912458167132769,
        0.028032625532214098,
        0.023082644111043077,
        -0.11658605117623705,
        0.026162770699754694,
        0.0016068394723063237,
        -0.1590837827540261,
        0.05951839331099124,
        -0.02895810034492157,
        0.10161166530690662,
        -0.046024128116461116,
        -0.08855587142915572,
        -0.010374915486926354,
        -0.033372544689798,
        0.10935248604085626,
        -0.11017958702770436,
        0.07323830097307027,
        -0.0015065697772590502,
        0.009799646002796182,
        -0.05011414092405843,
        -0.016171912307029752,
        0.03551457609549903,
        -0.09456738844101367,
        0.0011035429619764888,
        0.061699114698961645,
        -0.1292609584682018,
        0.11968100122565395,
        0.07627493543637916,
        -0.004929701254190011,
        -0.04726349818397499,
        0.003802800321127969,
        0.09930818344118238,
        -0.03799381291402716,
        0.018011739596592993,
        0.09642810803758863,
        -0.027606888883427928,
        0.004053542236221274,
        0.004623669365604773,
        -0.053538355138956426,
        4.033694336343602e-05,
        -0.06262801872386228,
        0.00047066799982685084,
        -0.07357271940935042,
        0.03711573933943086,
        0.003495245755150595,
        -0.10138680636212302,
        0.02936064884478122,
        0.0028494592593392596,
        0.027536839228890903,
        0.053855683761188225,
        -0.007255087506054993,
        0.0025090628046493422,
        0.09385438438571964,
        0.06850580858284194,
        -0.03297248141452107,
        -0.035221124637766776,
        -0.08021317774608182,
        -0.05616536369659555,
        0.06667603338075628,
        -0.0043522471500069704,
        -0.08334811306783443,
        0.0011526473551606885,
        -0.005515142768177892,
        -0.0016613649932055946,
        -0.055474064261514716,
        -0.03007520234242267,
        -0.025771040451983,
        0.005923749910866869,
        0.03468259880068415,
        -0.00126671931768914,
        0.05411303198812783,
        -0.0041693776064780684,
        -0.022991373002974425,
        0.0013926827203224153,
        0.001178359216574673,
        0.0089534338462226,
        -0.015466799740624981,
        -0.01649992012546038,
        0.09462978520744064,
        -0.01704390832104161,
        -0.06055848855418475,
        0.03163923622779051,
        -0.0948835852882498,
        0.019597654979575534,
        -0.014957117728073718,
        -0.04744487739672455,
        0.010340187588848495,
        0.0005142890070810297,
        0.11276025450073154,
        0.009701500331258422,
        0.028395231314454608,
        -0.0009574635345399873,
        7.82406149113527e-05,
        0.05575199429415076,
        0.02285270611908572,
        0.05371290242019282,
        -0.047975891257550154,
        -0.0005609017755703665,
        0.01644728786515834,
        0.04502303751159177,
        0.04137267808543489,
        0.03592901504736869,
        -0.00873080380745169,
        0.0015180134291804806,
        0.0038068913604156936,
        -0.0358160105162489,
        0.023388493119342112,
        -0.011922481711934028,
        -0.11306448970506637,
        -0.04783088079694302,
        -0.0035192429476816603,
        -0.04054641878328909,
        -0.02589597092130959,
        -0.058848430500513214,
        0.035469748035786355,
        -0.0012440824563606677,
        0.05699945452464211,
        -0.025132637078269446,
        0.009614848286163434,
        0.05518420127276398,
        0.005788858382603718,
        0.0062149681899830896,
        0.005034061494273982,
        0.08629554276594745,
        0.01564369972757952,
        0.024193346835815213,
        0.045820663827484495,
        -0.05080234741491786,
        0.048076363821206,
        0.0029912472692923495,
        0.07024338248939377,
        -0.05245004843859241,
        -0.014873029392365615,
        0.0006175159811317864,
        0.024100446844134024,
        -0.03775788784512539,
        0.05707612858294567,
        -0.00048701148598887813,
        -0.014759471972044559,
        -0.012055188205415766,
        -0.03524376077256354,
        0.076115017929901,
        -0.0019989457635336202,
        -0.008390529812632747,
        0.05136555473234817,
        0.011404367028846323,
        -0.021613110925462403,
        0.043680974301789174,
        0.10600625574650199,
        0.05652985942755756,
        0.1092760309064664,
        -0.018802102222723584,
        0.07537052254001042,
        0.1539951493460698,
        0.07922210856441526,
        -0.07089912284677982,
        0.023033896786861012,
        0.008886821057529436,
        -0.00946038729960174,
        -0.06203132153264364,
        -0.03568336440015407,
        0.01662565262571295,
        0.03041933985217326,
        0.12049663436892101,
        0.0036556545886643425,
        0.017565108546900958,
        -0.11942896645305895,
        0.06319325613732645,
        -0.11696701912384083,
        0.02496432309989304,
        0.0525502286245894,
        0.12743218495585162,
        -0.02327122718686471,
        -0.07405387659424455,
        -0.1149471134273195,
        -0.03273600026460281,
        0.11834090997589239,
        -0.005206385125230957,
        -0.08883393396504091,
        0.10590501233318368,
        0.004325152965233305,
        0.05190251088422437,
        0.1400816813720051,
        -0.02449951326192576,
        -0.10137909838877394,
        0.03324094095854879,
        -0.0008593485490793053,
        -0.019533354158885633,
        -0.0516710842086735,
        -0.012107225817238838,
        0.06888623455862085,
        0.12633826429832085,
        0.03139280180101445,
        0.09458160230937011,
        0.11105132755978983,
        0.0080845912750089,
        0.019587390268541314,
        -0.057776586910522315,
        0.03221857358482544,
        -0.1017106236952521,
        -0.05527718456089476,
        -0.10904411774973966,
        -0.022716777666859297,
        -0.012001449683128721,
        0.11571908494969921,
        -0.052933997521638895,
        0.008116746162569757,
        0.04973905983924721
      ]
    },
    {
      "layer": "param_1",
      "mean": 0.00019100498059059423,
      "shape": [
        64,
        192
      ],
      "std_dev": 0.05213595824616413,
      "values": [
        0.03962226926198284,
        -0.003963808587133874,
        0.03927893902554433,
        0.013856302098388193,
        -0.020708223689327936,
        0.07357887165406886,
        -0.034438775670058194,
        -0.008004856722792482,
        -0.014169238035567208,
        0.08182686155356961,
        -0.07250883410504955,
        0.04822049556125475,
        -0.038852542232310154,
        -0.032512316466458704,
        -0.004580484109373104,
        0.022354599955586557,
        0.0746638917698666,
        -0.001900161144048288,
        0.09039874015882068,
        0.044118129751058804,
        -0.0496731554478335,
        -0.07046832927134983,
        -0.00482488995582764,
        0.028945640660616515,
        0.07764177875391018,
        -0.05776300969976471,
        0.11314662997585176,
        -0.0734381578387001,
        0.11211806029114536,
        -0.011310943400766238,
        0.023517763320645466,
        0.0647976243725932,
        0.01731661548369713,
        -0.06454500982659447,
        0.04890439563498297,
        0.027879044827681932,
        -0.029211306864590305,
        -0.09643314076407239,
        -0.0021554454294778168,
        0.0030158354058131744,
        -0.02044501758345329,
        -0.02141546379520861,
        0.13450512430543018,
        -0.019414277336131783,
        0.04230030278177632,
        0.03920649648923372,
        -0.08583835415807134,
        0.03175329815626349,
        0.011709842855037286,
        -0.045511241672853864,
        -0.05926886568472548,
        0.026952772409553336,
        0.021121455426426516,
        0.01416400165315413,
        -0.006932266263771771,
        0.014386486380459862,
        0.024457145179382432,
        -0.022537983830738482,
        0.03999912068419229,
        0.019402184699438395,
        -0.042994807048527484,
        0.005773207574829051,
        -0.06715026526359102,
        0.005563046592475248,
        0.10686742105602526,
        -0.07041437303940444,
        -0.09910047455096752,
        -0.01973692865618583,
        -0.022263563674440216,
        0.04179996300359024,
        -0.023243803008930065,
        0.05564688326048638,
        0.050940203657699065,
        -0.052754013585297896,
        -0.08972386248332749,
        -0.019094213875249157,
        0.05048417176950974,
        0.00642049795550617,
        0.0662821574242396,
        0.005771032879693102,
        0.06666794441283974,
        -0.012464512758574714,
        -0.019059004104759754,
        -0.027525664625970746,
        0.007545727941596348,
        0.10064671279456522,
        0.07852681933588482,
        0.0382570814266477,
        0.09446394330825356,
        -0.027926923647132427,
        0.059821055792102666,
        0.07125275713891531,
        0.04265094032926795,
        -0.04403867012988705,
        0.07654814270874871,
        -0.08324704959903545,
        -0.08023255496810303,
        -0.014116317372278543,
        -0.029400564313641145,
        0.017843514564810183,
        -0.06607910521299865,
        -0.027009827642791716,
        -0.005304675791204916,
        -0.00849386769469814,
        -0.034860011845232464,
        -0.047210819861525914,
        -0.056937161912681555,
        -0.03744904232406664,
        0.03259101279636066,
        0.12837393829747307,
        0.01345566130628624,
        -0.034863822494744345,
        -0.03888693655113958,
        0.0006241230377588228,
        -0.07985126883449194,
        0.060921619765773996,
        -0.024950419476676713,
        0.053362545801972125,
        0.10191125423951775,
        -0.02518871446434502,
        0.005333090395197695,
        0.015425337702252559,
        -0.034373851445766615,
        -0.0594334826693242,
        -0.058472595605911844,
        0.0036100950693840478,
        0.026095168503184062,
        -0.08224159253472817,
        0.010120277076843667,
        -0.015191826462474117,
        0.028029252551217944,
        -0.06465436654445614,
        -0.015221723878823229,
        0.03406620240546073,
        -0.06709780223330365,
        0.015440414177401785,
        -0.022624855316333726,
        0.008075227055734002,
        -0.03264360470239669,
        0.02396197194158572,
        -0.017180870359148635,
        -0.07679945576803393,
        -0.029757755170749287,
        -0.01741739714209523,
        0.0033508021825757114,
        -0.01194432036968478,
        -0.03305913063191076,
        0.023410080230767263,
        -0.015275768462975828,
        -0.08018340230856014,
        0.014757373710517167,
        0.0070965688300577276,
        0.05351888388562674,
        0.04744834989339004,
        0.04136840395064834,
        -0.005397144359078437,
        -0.020565849676633316,
        0.03690901248727989,
        -0.05614386045248461,
        -0.02159922784959982,
        -0.06245532782462131,
        -0.05135358506222133,
        0.040174376131532165,
        -0.020407767666402822,
        -0.032901079254812254,
        0.10675106630193551,
        -0.07218852733580733,
        0.03558620666408902,
        -0.015225855967544152,
        -0.05719987602355957,
        0.017868286465545336,
        0.07530927179452462,
        0.02806565816395932,
        0.019680008013110692,
        -0.06774014649523957,
        0.055862901709414894,
        0.06345573014003608,
        0.008484462393111732,
        -0.033464963336991,
        -0.03547597513465989,
        -0.04344774368302571,
        0.01903494769977412,
        -0.00012622043573490282,
        -0.025868797744690596,
        -0.0050560139085561034,
        0.09460355461532798,
        -0.011276911686981039,
        0.048820337710846734,
        0.07626738187864933,
        -0.018759728245843675,
        -0.1104141243510838,
        0.058255199447450036,
        -0.023264482559789447,
        0.04794753475308931,
        0.025925220635747204,
        0.006516203576846395,
        -0.05289463364460206,
        -0.07039946834002303,
        -0.038737220950050076,
        0.000997126588715115,
        0.042199405029618664,
        0.04338127431334467,
        -0.005733865278074599,
        -0.049962995087668355,
        -0.07707604576561616,
        -0.04269495703010013,
        0.01612072808296516,
        -0.027760540965758727,
        9.563785806782771e-05,
        0.014037691603894082,
        -0.04119439560233472,
        0.022847867465735847,
        0.03751922372123574,
        -0.057723813578282164,
        -0.1571863489392809,
        -0.03657277366060828,
        0.0585069483035516,
        0.004411491728214034,
        0.05715629909795773,
        -0.10398163400098578,
        -0.026299296736463435,
        0.06381043551177996,
        -0.07339359840496154,
        0.00801464128971116,
        -0.008119600077862634,
        0.0618436776384151,
        -0.03515374250214918,
        -0.0886006536335397,
        -0.018865100353941094,
        0.019690263124466215,
        -0.021273231065201074,
        -0.046821999214453305,
        0.07433576762432222,
        -0.018976916677176436,
        0.13615650161468246,
        0.033562939393066635,
        -0.04010787723165049,
        -0.08409794909476404,
        -0.009106281256851034,
        0.0151261485972385,
        -0.047954970200335345,
        0.05232569117602007,
        0.07003273260835091,
        0.020229700834133,
        0.018407170289960653,
        0.039002174391820424,
        -0.004350985477178515,
        0.044938868227775076,
        0.07055032030489676,
        0.04928523042226553,
        0.022927044227295093,
        0.06613293186834443,
        -0.03550524369929815,
        0.03901780035228109,
        -0.012943577919866597,
        -0.049573395585772936,
        0.08690246634831454,
        0.015762056784823304,
        -0.06382616067515305,
        0.08922965654144474,
        -0.06390587012178311,
        -0.06657631567768044,
        0.009435726826850076,
        -0.007671992885487198,
        -0.021771446560596684,
        0.007382402016622849,
        -0.06982934595063074,
        0.042665725332758656,
        -0.04649187665633894,
        -0.07217494736351368,
        -0.027231071729452556,
        -0.08654249084656102,
        0.010098189203133781,
        0.01471801248689502,
        -0.05151588884770153,
        0.052986666149640746,
        0.030571080049709286,
        -0.057770052341723555,
        0.04858090381727906,
        0.07856738981018657,
        0.015252919231933358,
        -0.008222192532946322,
        -0.043969601013085995,
        -0.027940077400916304,
        -0.013558836648622537,
        -0.02488118364540462,
        0.024815946358708478,
        0.014811946939894727,
        -0.050763200846498026,
        0.04420210204549423,
        0.06225731797423735,
        -0.03878979136055977,
        0.0008933850348912366,
        0.07401088417592451,
        0.040362471868756994,
        0.033242979860138425,
        0.013721311822725596,
        0.0024371543393238264,
        -0.04296332782767074,
        -0.012378195762962306,
        -0.023241710340821738,
        0.03397255058280777,
        -0.08469320517353929,
        0.03414398555191945,
        -0.06233641618261564,
        -0.018856694911111374,
        -0.07446880990807621,
        -0.09419923959946522,
        0.037144702844909526,
        -0.03126280463521349,
        -0.07041378252429531,
        0.011898469785987523,
        0.006786524336054416,
        0.030042201462333676,
        0.05863823213851181,
        -0.02394758304148438,
        -0.005200129459430675,
        -0.04842889117481666,
        -0.0755781294622061,
        0.006678315710440193,
        0.021409613017274492,
        0.06531665203440215,
        -0.12039697992967252,
        -0.004420951496179205,
        0.023801381895095355,
        -0.07311827001839791,
        -0.017741950994685823,
        -0.08107817997413905,
        -0.03459260639463292,
        -0.03567652550736028,
        0.021194902376227502,
        0.04541394989989447,
        0.006811009244807884,
        -0.016298218333450035,
        0.0061108992149127945,
        -0.0300684139996423,
        -0.08230927377374113,
        0.056582665937385763,
        -0.04469429017620928,
        -6.98053733145243e-05,
        -0.0022273165051464577,
        -0.02675388232955963,
        -0.023986350231055872,
        -0.017623270404741914,
        -0.026433527348640636,
        -0.031837825102047745,
        0.025867263745019832,
        -0.07913261481024499,
        -0.004561615141260671,
        -0.032780545235459924,
        0.020827023079904097,
        0.050370188100037364,
        -0.028426601625715794,
        -0.0014231422932457372,
        -0.009062213253770893,
        0.0821711991197807,
        -0.09548759610338672,
        0.10790012802131735,
        -0.04576955600192316,
        0.03718765546412746,
        0.021416825101186008,
        0.008870061873585416,
        0.027476161583058694,
        -0.09940015425790066,
        0.035877569698447985,
        -0.08418569044852736,
        -0.08752611311853839,
        0.06992699201565686,
        0.02670997774396371,
        0.05414283306987221,
        -0.07402161925721104,
        -0.13687076568058304,
        -0.014576734334270498,
        0.07301071094550306,
        -0.081656319878429,
        -0.09576314844843564,
        0.07440706529043058,
        0.11827172573018097,
        0.06390193606549915,
        0.024609312093245864,
        -0.008371301768398207,
        -0.05438943242677227,
        0.008572182427359548,
        0.021434893752435694,
        -0.02788031117148601,
        -0.10816991603358068,
        0.08730783305460257,
        -0.004000658346888944,
        0.06989882371342857,
        -0.05081362070107827,
        0.020706394782713928,
        -0.13267877638782308,
        0.13397784066851556,
        -0.09091152740967207,
        0.058638441426874854,
        0.09196293935102696,
        0.06276076677241633,
        -0.053261442438801196,
        0.02810463358485759,
        -0.14151637298162706,
        -0.04545072001199857,
        0.09361534060497838,
        -0.08106878624134013,
        0.023202835920392628,
        0.05229906058607553,
        0.058028456301455325,
        0.055681463616459474,
        0.11078145540326248,
        -0.012694411137013147,
        -0.008442987787679566,
        0.057554188945148944,
        -0.01983451976067053,
        0.04398144328150631,
        -0.018594240591840002,
        -0.034640159898291945,
        0.010184959095687035,
        -0.04838453687026255,
        -0.09506061146650462,
        -0.011268311131923447,
        -0.05396223856846348,
        -0.04359711781877695,
        -0.14166604588856618,
        0.07308395731785275,
        0.015367647341402632,
        -0.08355827704224364,
        -0.0043401696632897075,
        0.06962945572561897,
        0.05500927794477693,
        -0.030624807037823075,
        0.0013294508848071245,
        0.09089285477255772,
        -0.03998411751944017,
        0.015200947614207611,
        0.07778829149246975,
        -0.04215202179187424,
        -0.04663260577325887,
        -0.017481783478733276,
        -0.02118845138032641,
        0.09762734703210413,
        0.046398278431286584,
        0.036752510921672074,
        -0.0013061375989768323,
        -0.05123422826567471,
        -0.05332492889218335,
        0.051510872833953086,
        0.030107072272001385,
        -0.03643528953559433,
        0.0531854533476366,
        0.05437174375226041,
        -0.0753759369450035,
        -0.02220749730470792,
        0.017238823260586175,
        0.05929081541838957,
        0.09552132816726566,
        0.012807782769305005,
        0.0014486665855297058,
        -0.09929325666940514,
        -0.010618986151921805,
        -0.004668255487088062,
        -0.02828868578946836,
        0.10195121454218124,
        0.028044578370761807,
        -0.0075456426550371755,
        -0.014187148742663996,
        -0.029727146063205513,
        0.018526288608324594,
        0.06641681712641449,
        0.0014253536425329894,
        0.07773234300513987,
        -0.07288698866037992,
        0.06296305218138831,
        0.03690026923742918,
        -0.06955883185487716,
        -0.03804865851908111,
        -0.07540100607585185,
        0.0800489431365021,
        0.12416874759343102,
        0.016561819222767265,
        -0.05695102382032495,
        -0.023699356171801123,
        0.004067064297154581,
        0.11597232302688161,
        -0.00949789757407226,
        -0.04176844015225426,
        -0.022893366949758596,
        -0.05776439233790259,
        -0.029966192286244784,
        0.07823923621753,
        -0.02705961922512433,
        -0.08385120013493161,
        -0.0589474566616329,
        0.06808722562391094,
        -0.050185266306507714,
        -0.027704359021189423,
        0.1265993804186572,
        -0.02897187807072593,
        0.017223715586670272,
        -0.05811149043497242,
        -0.08515840389086084,
        0.06532147834075626,
        -0.021946921811204154,
        -0.03822210978274605,
        -0.04473457718035818,
        -0.05882481909733539,
        -0.018390269059665138,
        -0.024145263897892462,
        0.0233813024418807,
        0.033043281704461136,
        -0.002077047194559538,
        0.03200780450982011,
        0.012589068202702218,
        0.07327548468385259,
        -0.05040134275776238,
        0.03168348526655786,
        -0.06649558800886597,
        -0.0695476495062801,
        0.09813015762166638,
        0.00044655691366311985,
        0.023485762722440823,
        0.048410566058903926,
        0.009253593996400668,
        -0.06163183721971975,
        0.08279978006430606,
        -0.026825888849791046,
        0.03383548200602712,
        -0.01355172412880444,
        0.04196578333261727,
        0.11195427276452902,
        -0.004245124409090004,
        0.024169615473334842,
        0.016345649976955326,
        -0.0037247632723442954,
        0.06859981912818751,
        -0.035429294647185396,
        -0.013048806341230105,
        0.052962867700899995,
        0.004423149214820796,
        -0.0145972842644673,
        -0.05370760704410577,
        -0.01909175847989096,
        -0.012114668740611591,
        0.0008224653493349859,
        -0.009632161031066747,
        0.07523845528126341,
        0.012508044604015646,
        -0.01925810503195694,
        -0.024350644575837806,
        -0.04867457525632539,
        0.028803114559687162,
        0.03889486675803453,
        0.02408657648575746,
        0.11838237104452887,
        -0.004506085865419749,
        0.05121541980552897,
        -0.02673392405470079,
        -0.04145232035693991,
        -0.02548582061558042,
        -0.02721125340413622,
        -0.04991540576767532,
        -0.05954652766885476,
        -0.011426266262814922,
        -0.05354286847402874,
        0.005040250983379431,
        0.06536388426969915,
        -0.04566302591982257,
        0.03529283692614067,
        0.07965326916558974,
        0.021342854470158563,
        0.1122972312416061,
        0.08865267415110381,
        -0.021282079133145337,
        0.04881019140133085,
        -0.02789510631464164,
        0.0007629697058839102,
        0.010609951449978658,
        -0.003950638092174092,
        0.055075236261020774,
        -0.009233659891833928,
        -0.042807339018189165,
        -0.011358147894178001,
        0.014451246103231785,
        0.0027567126562897445,
        -0.10456746866970829,
        0.004946703329041579,
        -0.08845223754912773,
        0.04127779678924123,
        0.08011797478380248,
        -0.012651818749063033,
        -0.019215149297656005,
        0.06069960527082528,
        0.046888129837792746,
        -0.010608562348280049,
        0.047431867364822855,
        0.1321116610506973,
        0.006535986766920716,
        0.06262982938060076,
        0.06098195401200327,
        0.054591977478353426,
        0.0037580417238861213,
        -0.05255379061082322,
        0.060085719488813624,
        0.14642115046714183,
        0.04903205885373242,
        -0.015817712769940075,
        0.021813891450625622,
        -0.0034654694621988787,
        0.016760944526969312,
        0.04644501016425548,
        0.07259888779776597,
        -0.07231372666557165,
        0.0643467054827274,
        0.0421998290029785,
        -0.059585623300439525,
        0.032383533873102346,
        -0.009679435562099357,
        0.04308221765259411,
        -0.02386897687123519,
        0.08489969680241635,
        -0.07154439840858716,
        -0.028655756169668124,
        -0.005965734763966923,
        0.05466063711400794,
        -0.06018972480029859,
        0.037017464188946525,
        -0.05266713695088819,
        0.03217913862628999,
        0.03109903678737238,
        0.030263855398398362,
        -0.05542686693526781,
        0.0186442930121819,
        0.041340650159860735,
        0.0413027922520937,
        0.0004648514508768173,
        -0.03569287422945913,
        0.03341750868093212,
        0.015963247438465396,
        0.026176774743967294,
        0.04448924838100014,
        0.03585271478307126,
        0.01788366985261771,
        0.031278325100731676,
        -0.009229973707319643,
        0.0326968352921303,
        0.030443688676718993,
        -0.05245354288357157,
        -0.12036403485044675,
        0.04167357351317987,
        -0.06965592786490411,
        0.0021722488748022522,
        -0.11421072106580664,
        -0.033440866173953976,
        -0.010187920247727404,
        0.04906175399805275,
        0.051292759537182556,
        0.012214804990940974,
        -0.10855472295411127,
        0.07518535015675086,
        0.0038299188569042783,
        0.03627370894070485,
        0.015126851253370188,
        0.004286944479352767,
        -0.0263630550055166,
        0.017129521145518987,
        0.03477671891529211,
        0.05989893578217644,
        0.04026107342204764,
        0.01115493192965926,
        -0.018308445056456228,
        0.028371901912506006,
        -0.01195129895321044,
        -0.03183328819851853,
        0.004537596493284914,
        0.04310721852539852,
        -0.06722340495518445,
        0.08375311717698918,
        0.06749587741151987,
        -0.008661444001908863,
        0.04087478857716132,
        -0.033548461357648454,
        0.019716639192841695,
        -0.011426211047368514,
        -0.020306007676301793,
        -0.047120576370324053,
        -0.03913112352817024,
        -0.0073569015349902326,
        -0.06303171714862817,
        -0.03991870338372664,
        -0.026577873722712357,
        0.05559352514365826,
        -0.01989365246802568,
        0.042335054622582885,
        -0.04281142416346897,
        0.03303914927981858,
        -0.08403302621378275,
        -0.03259427888074645,
        -0.01531481392425467,
        0.046687215499779666,
        0.06701154371020948,
        -0.009481770838261874,
        -0.016078183922755153,
        -0.05240710486689579,
        -0.02078957233377194,
        0.108951729609016,
        -0.02155905526830299,
        0.1034394216889268,
        -0.05568921865338572,
        -0.05194855975757588,
        -0.027681816652797668,
        -0.0991679587970403,
        0.04761896718591169,
        0.01300325815380654,
        -0.03275503536430738,
        0.05680713231348178,
        0.05741691776835052,
        0.04796984142350098,
        0.06486772720234467,
        0.07055577009601671,
        0.0996056897412968,
        0.09264324477065003,
        -0.0086695178642016,
        -0.04828786528403542,
        0.002233750141493445,
        0.02715186088201853,
        0.03412616876158981,
        0.045168834666502886,
        -0.0834478673513386,
        0.02513150763433427,
        0.07582448795403512,
        -0.006580780529686137,
        0.08547873504965928,
        0.05864756463609004,
        0.01800266664077392,
        0.048789677077519834,
        0.05503686831291506,
        -0.03540974333101493,
        0.007675799386981618,
        0.011954001103557075,
        -0.03268566447438806,
        0.0010361001055375074,
        -0.08091635605444789,
        0.057018836011964204,
        -0.04958394824545333,
        0.03878238423580542,
        0.007774239755490025,
        0.09615403176031664,
        0.06759779521527053,
        0.016073820651232112,
        -0.09533448676390828,
        0.039521748859224035,
        -0.00892131751055851,
        0.007604697549919624,
        0.0833585969467318,
        -0.07208031913890323,
        -0.006842035876567291,
        0.022682679764733593,
        0.013355281135832692,
        -0.056035419080682505,
        -0.04325884951741042,
        0.027931976982393285,
        0.05345940570088627,
        0.05772968356201733,
        -0.09045354655109214,
        0.06142934852296114,
        0.011349079621168816,
        0.037307991100542226,
        -0.033816309275738234,
        0.05812674836227226,
        -0.022051394885592063,
        -0.00814035617367926,
        0.052709600820418166,
        0.042249688506541025,
        0.04084067237338658,
        -0.08662751392147831,
        0.05764799424707666,
        -0.020820457624969018,
        0.06409589452880428,
        -0.00478396350505498,
        -0.06283848318796591,
        -0.08550939345716199,
        -0.022266519045919406,
        0.06140107749258454,
        0.014787389744786418,
        -0.06838695968468965,
        -0.06504904400326528,
        0.03780101450125877,
        0.0027164067531487176,
        0.05007191187926604,
        -0.019753731067246053,
        -0.0027235047128276527,
        0.0010498742433986893,
        0.16172966176528145,
        -7.145616286331063e-05,
        -0.016763275892938995,
        0.03452631107856055,
        -0.06228386831873159,
        0.11213935806145885,
        0.020651214750793616,
        -0.05913103982538442,
        -0.0278908096370935,
        0.07554349216674656,
        0.008292397682869497,
        -0.11293112429765775,
        -0.06240925029959358,
        0.057054932914194376,
        0.054018617707400365,
        0.030355149556066045,
        0.03096811374580436,
        -0.04916782220446802,
        0.008878834531851957,
        0.03437743833629627,
        0.00017670413392050985,
        0.16203259117346533,
        0.03701384584492121,
        -0.03496203037412779,
        -0.06280756633064526,
        -0.03872552368689101,
        -0.04576865522314358,
        -0.028160634767148182,
        0.024763001064515025,
        -0.03764304351142761,
        -0.0016804434200023265,
        0.018631185933949024,
        0.028421023017498853,
        -0.0998189386444022,
        0.005085736085212595,
        -0.03019049110708976,
        0.05143071706547854,
        -0.03175144285480604,
        -0.09645546371003441,
        -0.03425479059948997,
        0.0033129772306155873,
        -0.06830900074713869,
        0.005372506123510732,
        -0.04309440329043493,
        0.10157442158137686,
        0.06503499035831573,
        0.1192108927464656,
        0.04184710171527116,
        -0.095728182210272,
        -0.04636119886708622,
        -0.07429527082088336,
        -0.01114370043366197,
        0.06624217445344317,
        -0.057797445091003846,
        0.056756649249733435,
        0.05901203958658738,
        -0.07158107396030548,
        0.01334662771778861,
        0.033270956821876835,
        0.13727882561749466,
        0.0008571453353395583,
        0.08088350918413394,
        -0.025173928594476896,
        -0.06739114543562154,
        -0.03553233081435446,
        -0.003428434117079094,
        0.0007737727862120077,
        -0.08095030618108148,
        0.040841491163184085,
        0.015601038450249186,
        0.04153317306200854,
        -0.01298720135624138,
        -0.059880509939455054,
        0.09611748934423076,
        -0.0018182890765154266,
        -0.029839784201815385,
        -0.01609719917134974,
        -0.031130795464733532,
        0.025022874996129176,
        -0.060013211681258935,
        -0.07253530151020089,
        -0.01185577673510163,
        0.04034021208198372,
        -0.029986120327223083,
        -0.0015665010677658082,
        0.02737347963122008,
        0.04357074571693743,
        0.04178492571127939,
        0.03852811589406526,
        0.03016314086668629,
        0.011406404017881545,
        0.027775889566933512,
        -0.007886121475832184,
        -0.04502326395335011,
        -0.07721323491702706,
        0.0007543304228244882,
        -0.06345784373879423,
        -0.09588241907872688,
        -0.025961356224512126,
        0.017586473801601978,
        -0.005409097366038652,
        -0.0957546512524248,
        0.0025594384116877523,
        -0.025413101971015234,
        -0.059715834368565195,
        -0.006206559375544887,
        0.032238467747929885,
        0.0537654115571445,
        -0.12217865981729642,
        0.051705585737335205,
        0.013680973917429293,
        -0.013607899575217061,
        -0.03746936718619106,
        -0.07134784521353535,
        0.052327742836205435,
        0.00979784976742238,
        -0.05679361250743751,
        -0.007275823361289184,
        -0.09016268314432066,
        0.04974832962448818,
        0.048205854988654005,
        -0.004227338083623718,
        -0.032687950670047046,
        -0.01843388562106965,
        0.04950207573338732,
        -0.03808347456526511,
        0.020643852522583373,
        0.0729069220867539,
        0.06177017970396974,
        -0.045947043152359326,
        0.03957736650799002,
        0.037204673670072186,
        -0.052544994859189904,
        -0.03608955333190633,
        -0.05666834170953522,
        -0.011477810898114385,
        -0.01704645767250887,
        -0.009124441014680004,
        -0.01367621927070442,
        -0.0019361574937253171,
        -0.0844259008899826,
        -0.02969367304684504,
        0.04288116234445159,
        0.009596799654287523,
        -0.10813026365469311,
        -0.018818577121337,
        -0.07224269481047865,
        -0.020242618399092433,
        -0.024285408673117927,
        -0.0634655346750391,
        0.031464515702312276,
        0.031122932599904025,
        0.03533693283914196,
        -0.03352552994476725,
        -0.030891041285201207,
        0.07987936446501229,
        0.004501760326288196,
        -0.14525067748226722,
        0.028434339667086833,
        0.03900188460871249,
        0.05883814852016726,
        -0.061256305701947525,
        0.08510733517471653,
        0.0378955742511606,
        -0.004004995781424797,
        0.012658536833787499,
        0.014681442243211195,
        -0.09099134122639983,
        -0.0264730556601806,
        0.0076184321873728825,
        -0.03264559115206876,
        0.09160609892879484,
        -0.03167731469687704,
        -0.01926980997684855,
        -0.028072691892231605,
        0.03704247661339781,
        -0.0631011177744819,
        0.08040316388480101,
        0.020318583650102688,
        -0.061472555006189714,
        0.06628263359585387,
        -0.026925281778977964,
        -0.08335445484780452,
        -0.08869055467583695,
        0.028698423151519385,
        0.031988736626438675,
        0.014485671499794411,
        -0.03861167645216772,
        0.006590633727098066,
        -0.0218782363643684,
        -0.10150317528169096,
        0.06123669043899516,
        0.019403945614528254,
        0.013806962957792573,
        -0.033378899539752406,
        -0.018314204113588483,
        -0.044786256072855496,
        0.013847378974653653,
        -0.11191447963485689,
        -0.026559594150031465,
        -0.01209070798521275,
        0.003396617357582732,
        -0.003694348537221461,
        -0.11696084962409778,
        -0.03704159535164704,
        0.0041733601178283765,
        0.0037221292368113026,
        -0.008996859383013298,
        0.08268166884258998,
        -0.05566284454502882,
        -0.1502540440790761,
        0.03834752700710821,
        0.08960875514475398,
        -0.019738383610758282,
        0.022991239956343036,
        0.10673055305309645,
        0.01813356754212734,
        -0.007516149497510831,
        -0.062820127495968,
        -0.04436384940339699,
        0.06198712415356013,
        -0.019850799060752114,
        -0.013666515811795656,
        -0.040375707001100304,
        -0.005344110321250525,
        0.07721213076504123,
        0.001530628065024105,
        0.0015810788498646228,
        0.05745858793877567,
        -0.06913566976398555,
        -0.02603163704340777,
        0.01860913145420791,
        0.022638846427107125,
        0.04258516497614467,
        0.053651037812466953,
        -0.007838200090033446,
        0.01888381427211658,
        -0.020951210320777243,
        -0.006049572037499689,
        0.0899844685364785,
        -0.027270293465866922,
        -0.10127942422636424,
        0.021026207895773752,
        -0.04262810504177836,
        0.012067356264029813,
        0.04340777292236713,
        -0.016922104872744773,
        0.020210801633377802,
        0.027272336640357386,
        0.008342613379262398,
        -0.057642906208688456,
        0.049843648572822696,
        0.045060690822716576,
        0.07492477102376474,
        -0.02775175206399797,
        -0.06230800122837037,
        -0.04702761474499907,
        0.0058583806292262595,
        0.107033815493342,
        -0.05216016538897453,
        -0.022855771237659223,
        -0.01744625298619032,
        0.010869750903442188,
        0.06348593886377363,
        -0.003654721136522227,
        -0.034437061726402415,
        0.05052405350847823,
        0.012251410912579695,
        0.054205436406375714,
        -0.038849267208382623,
        -0.009430271350261754,
        -0.008649179505344872,
        -0.028587963463707414,
        0.003216608276868045,
        0.04870726836316545,
        0.02093882263178394,
        -0.012982417302015999,
        -0.07668277982718234,
        0.12456426860605865,
        0.039838662452429605,
        0.056959451112408466,
        -0.025037234699408484,
        -0.013107227863078646,
        0.012285666499583504,
        -0.004346128026830704,
        0.04881779445604488,
        -0.01847764600855544,
        -0.016280530017740994,
        0.046299418674672355,
        -0.03819686581477215,
        0.027026331589923375,
        0.00936615779686735,
        0.026384837237697523,
        -0.03767351823814873,
        -0.07470160973354709,
        0.03592330017400589,
        0.010057804986179938,
        0.03501296015390852,
        -0.07264032991624766,
        -0.06245504471610649,
        -0.060365416005392775,
        -0.05986501051812913,
        -0.08150938619679042,
        0.05211222735502145,
        0.03918805462435786,
        0.019462418358418485,
        -0.041182113384583385,
        -0.05490257828986004,
        0.03677374672242587,
        0.03334957650182492,
        -0.0693367012353801,
        0.0015917569928390954,
        0.0031913678812729405,
        0.02516755781557461,
        0.07154387592195895,
        -0.010649130205305894,
        -0.022816758704178253,
        0.038798593802525164,
        0.05848488329722361,
        -0.03779063320818957,
        -0.024595950832272246,
        -0.006242705227060542,
        -0.0030715760259941646,
        0.0248677050537575,
        -0.03324419582974224,
        -0.06537031125246436,
        0.06999492043833218,
        0.018132329939646655,
        -0.05311105278716031,
        -0.04253734059221892,
        -0.11423772866824076,
        0.0053174766335401455,
        -0.06035974390113204,
        0.037451876758128264,
        0.04719180692534569,
        -0.0432930337468409,
        0.04593491175218389,
        -0.023067741301541288,
        -0.012952058321175401,
        0.09532685516176424,
        -0.13439504701234123,
        0.02392988053909395,
        0.07414855191149501,
        -0.014064412970030513,
        -0.00545882108077219,
        0.07609870720291345,
        0.05457235842268894,
        0.08732528150246358,
        -0.006939714238110704,
        0.04412612656056936,
        0.03482172601028987,
        0.017741540744620574,
        -0.01838637696033556,
        -0.03678623819574088,
        -0.040116317791959955,
        0.016811822062113894,
        0.029026486114376537,
        -0.0006622446035806397,
        0.0382875011012742,
        0.10612718797330363,
        0.07544222587581084,
        0.04187408656810804,
        0.004624833587511805,
        -0.07435673142527599,
        -0.012319826739864178,
        -0.02912078854196603,
        -0.060242442119916396,
        0.019173798463255197,
        0.05390143889961853,
        0.07447730922330259,
        0.008187565315174889,
        0.050275679659032416,
        0.06645340780247368,
        -0.02407160678350214,
        -0.008773277864494347,
        -0.06247036665878268,
        -0.02934306318683174,
        0.029243381428030218,
        -0.06175305950519567,
        -0.029663333615981575,
        0.05562087905909485,
        -0.018565917663286045,
        -0.08132905032646387,
        0.06422295861110584,
        -0.009738788735018846,
        -0.11677768739401326,
        -0.028851148237051878,
        0.0589084592113136,
        -0.05242128300634271,
        -0.035168042030317016,
        -0.014279037518864127,
        0.08226085484278436,
        -0.04349284463140744,
        -0.10201258371192237,
        0.005623064557426265,
        -0.004072259108780323,
        0.09921010903201771,
        0.0015334637323356076,
        0.11841641149276412,
        -0.06287739482844681,
        -0.07267446168870172,
        -0.01404931995147303,
        0.05948158633209305,
        0.049517081736943774,
        -0.10182071912440409,
        0.05856906669442188,
        0.021365484003520955,
        -0.014363907954738905,
        -0.04018131827337875,
        0.05057060227567768,
        -0.03578343101060616,
        0.004044897066816062,
        -0.12707455338109566,
        -0.04519509006952744,
        -0.006876564831702774,
        0.02856271203336289,
        -0.027923984189432746,
        0.05512549963361248,
        -0.15654519908392844,
        0.021270100772259232,
        0.027654426306013422,
        0.02309555318245292,
        -0.031085480561682578,
        -0.0025538801650035747,
        -0.059866246271934036,
        0.008653720171008197,
        0.0249487965763756,
        0.07046606390244876,
        -0.033747793304092374,
        0.00155356578884841,
        0.08651306513243687,
        0.014605685139425478,
        0.0140539065164902,
        0.02797205605652546,
        -0.04961367987436703,
        0.05366892491196748,
        -0.03448599027043007,
        -0.05597190251696726,
        0.04390502932201008,
        -0.014484090328615718,
        0.07602849978727967,
        0.019228839745930742,
        -0.03488299915836063,
        0.06106027506728228,
        -0.059236557586604316,
        0.02184256220236542,
        0.1342082554388282,
        0.07364120514233122,
        0.033661359049254116,
        -0.03560960736265687,
        0.05777043284689308,
        0.009243754592369511,
        -0.006322760681756863,
        0.045089334077412786,
        0.014705139587065798,
        0.06631401218007034,
        -0.037679689412048085,
        -0.049573426134251086,
        -0.045051261393016295,
        0.01113238052576792,
        -0.029842406530363092,
        0.025279117150549684,
        -0.041515972155714474,
        -0.038608185224167986,
        0.04738132105777168,
        -0.08153555696466687,
        -0.03474348170471895,
        -0.0015878075811755557,
        -0.0018975391469436519,
        0.05365034181042278,
        -0.008520282935802856,
        -0.03376309609754312,
        -0.05313152872259735,
        -0.11060632233163652,
        0.03655457933498615,
        -0.07007188286386526,
        -0.01927375305287184,
        0.03843673916084623,
        0.036110465874029815,
        -0.03518378612459983,
        0.01343753072984838,
        0.0030244447941327156,
        0.08249518750034779,
        -0.02076209165927594,
        0.049108506927994976,
        0.07216661206979544,
        -0.026876944068715117,
        -0.05440286820544093,
        -0.0012582809564198189,
        -0.07331820407029072,
        -0.1290743856385992,
        0.005387794841009312,
        -0.022060561623424714,
        0.023146764561551115,
        0.09091984989297394,
        0.08553299768348366,
        -0.08675170004935462,
        -0.041342044687576567,
        0.021258056357101505,
        0.014157416130063896,
        0.05928137900369846,
        -0.016135306327121443,
        0.009501070908275885,
        -0.03975482664490202,
        0.03798271191589328,
        -0.037238366041864424,
        -0.003924449963522689,
        0.06973643350307657,
        0.010946504893308347,
        -0.1326637847776577,
        -0.01503141058786696,
        0.022718232494113453,
        0.0694729258839689,
        -0.05718940501191215,
        -0.05331793216065524,
        -0.05454344761029264,
        -0.03675668618254469,
        -0.006651646702270642,
        0.06427950178851626,
        -0.008520128378708065,
        -0.12031763605435133,
        0.054536850128749835,
        0.045592835316819964,
        0.029340823406903086,
        -0.010587231607588277,
        -0.010473072937587927,
        0.030712359655088804,
        -0.012505613530268097,
        0.01843190526801502,
        -0.0997665161185178,
        0.01542969975411233,
        0.06706861599962824,
        0.0858200711874269,
        0.04363538297732677,
        0.0054076005497780966,
        0.0016559534121089355,
        -0.029835366129777705,
        -0.024734085836326393,
        -0.06130201635898835,
        0.07754867588947907,
        0.09602302595761301,
        -0.009124569945145058,
        -0.008326559013070368,
        -0.05041355774808296,
        -0.054920115483728785,
        0.038006087583158946,
        0.03558830525118793,
        0.013190241695112733,
        0.011417090035480942,
        -0.04676257114016508,
        -0.08527677416085284,
        0.032561574210090274,
        -0.01522898355625395,
        0.008913095088801412,
        0.10661430662219729,
        0.06019243823728713,
        -0.0885017453670875,
        -0.03305157236219844,
        -0.012502211009361362,
        0.027049709617532582,
        0.03506897539445692,
        0.10848237456924595,
        -0.05350642359611195,
        0.046134390089832326,
        -0.02170330497432257,
        0.10303169286931682,
        0.06846925277489005,
        -0.00016015623308307698,
        -0.0013908368826109144,
        0.10474801323382499,
        -0.043891948724804584,
        0.04616807828853013,
        -0.0019591330739452024,
        -0.09043000490043517,
        -0.044035110224816536,
        -0.0022016994604840212,
        0.04695487683383284,
        0.01742065109951258,
        -0.08345608024438633,
        -0.04135689959026665,
        0.031258036835692796,
        0.02466761222451243,
        0.0034326422521085646,
        0.018910544047959978,
        0.02159764703799109,
        -0.06645128527391522,
        -0.040937600782150405,
        -0.08700935740251206,
        -0.0012449127550292621,
        -0.003571190727680626,
        -0.056119170289805925,
        -0.028968314715580482,
        0.0751011419663002,
        0.015306719612157266,
        -0.04462442284861881,
        -0.0006624826553402571,
        0.0634141455827103,
        -0.0761881807176386,
        0.01672836694521678,
        0.0046506609993896275,
        -0.02873873968202224,
        0.015730321181006923,
        0.004626134378453949,
        0.08700588752776,
        0.03069430238331823,
        0.03293829173007521,
        -0.08420364565397485,
        0.024437278555086674,
        -0.032144460669418506,
        -0.02936375447241644,
        0.0137308867154925,
        0.07731931378813396,
        0.04233067617479629,
        0.0644873426767088,
        0.09239378792224505,
        -0.049190987656217856,
        0.005721007614923335,
        0.013481196038186032,
        -0.09228131619801133,
        -0.02748021722280588,
        -0.011724499106655899,
        0.0061874764425698045,
        0.046374834118474234,
        -0.003142300826102714,
        0.01127460532067446,
        -0.06638508411463194,
        -0.13396681628059603,
        0.015774333797310115,
        0.06799425411971323,
        -0.006362109293297526,
        0.02633499399017914,
        -0.0776315169521195,
        0.03254818450192167,
        0.07020213118892384,
        0.03470759558181424,
        -0.005904417266381436,
        -0.05049945079603912,
        -0.009322868312771744,
        0.039056602172147015,
        0.13673391325441916,
        0.0239693466855002,
        0.07639968066208183,
        -0.043714757517445885,
        -0.027270198426224048,
        0.008148866305589059,
        -0.0002981431914920174,
        0.03860454852223363,
        -0.009513525368738448,
        0.04270162683001315,
        -0.07292664429765243,
        0.030018429779362237,
        0.050981281397397896,
        0.022536953359778965,
        -0.04418902960252297,
        -0.007367834654275603,
        -0.01982948038194225,
        -0.05101515304471766,
        0.032347095999552676,
        -0.032122307248007395,
        -0.02966783127525858,
        -0.060580185281459725,
        0.05120741532923187,
        -0.0742315618520285,
        0.0638874738578192,
        -0.030810225324938073,
        0.011902018507096107,
        -0.010693080358933751,
        0.04860450759979697,
        -0.06297665897140106,
        -0.019503790379773213,
        -0.022511147933658614,
        0.028539581168768494,
        0.010192284307426799,
        0.01119185938710194,
        -0.015838438296361543,
        0.020199125886901474,
        -0.07789339669446771,
        -0.06138478705337718,
        -0.005934048160124454,
        -0.004713750048393616,
        -0.04119327302431125,
        -0.0026555996132836546,
        -0.0342589070013646,
        0.007954724150318766,
        0.06301449111651745,
        0.03927019649111084,
        0.0052151122227191045,
        0.07844405131830753,
        -0.006782883962932329,
        -0.049852191950495305,
        0.025780526140673138,
        -0.005641070050098625,
        0.022713966542719156,
        -0.006666850500877981,
        0.008141429010601607,
        0.0748824207271032,
        -0.019050923954404934,
        -0.0868117600633847,
        -0.0017127747838519766,
        0.02520709086254893,
        -0.08201820008606238,
        -0.08159332896994287,
        0.019147060432796452,
        -0.010615281524625849,
        0.07794001795512293,
        0.007264046171343788,
        0.030368298846332617,
        0.0396411853520076,
        0.010779298215001495,
        0.013398864937315293,
        -0.014890048703028153,
        -0.10791627711868161,
        -0.04576352059254164,
        0.06785364315963371,
        -0.006053168744928165,
        -0.06389411534837927,
        -0.0018594470294502744,
        -0.04711666115937174,
        0.028964930210851697,
        0.050923192176238384,
        -0.05983045394695245,
        -0.025987367985472333,
        0.04879644296608454,
        0.05145151374834274,
        -0.1093259061610099,
        0.026168661000670022,
        0.04804483620231631,
        0.09104104013648799,
        0.09064422779862666,
        -0.006211740420981528,
        0.07491347888471118,
        -0.0052628980898554,
        -0.07123803003351864,
        0.03982285129355604,
        -0.021216451880238924,
        0.022978204836469368,
        0.06656622423757605,
        0.018647789754353952,
        -0.0639662745318975,
        0.006572363157237554,
        0.03841872604912743,
        -0.05640558801936364,
        -0.04628736316354078,
        0.04335507626206395,
        0.01660774619591928,
        0.04232457912729976,
        -0.010304554930541523,
        0.014623789048359079,
        0.012524015157855055,
        0.06746171997988665,
        0.08614637986885768,
        -0.15385501124056564,
        0.021129881448297735,
        0.004235057523879943,
        -0.04333144402037967,
        0.09815465812275047,
        -0.04462461831364487,
        0.07490236605787524,
        0.06799535235671805,
        -0.017149021977999314,
        -0.0373376951399275,
        -0.008492764191940696,
        -0.09240419369770353,
        0.06526385090791309,
        -0.005224032324599432,
        -0.03480944229547703,
        0.027770971099980432,
        -0.03828577226229006,
        -0.07266466120845119,
        -0.06388872843066282,
        -0.0590781902749372,
        -0.20226245547489335,
        -0.09695021103214242,
        0.06056157536469121,
        -0.021563548426457975,
        -0.03831639513934762,
        -0.002330348625480566,
        0.08284618323918228,
        0.04258767216609345,
        0.053938466194242404,
        -0.07675146575338648,
        0.13463045570223936,
        -0.026711276944619087,
        -0.1044802990042171,
        -0.04112869732263491,
        0.0026443623118095286,
        -0.06494876938368847,
        0.11038671604065825,
        0.028836783565486357,
        0.07447549060154966,
        -0.07963212293855937,
        -9.93457597943245e-05,
        0.07504176248023667,
        -0.02312339163163125,
        0.06790600472447295,
        -0.01255744818031368,
        -0.015221866988491269,
        -0.028363267833744998,
        0.044539383660576144,
        -0.03651346833391049,
        0.0353436915983662,
        0.032727909792987314,
        -0.011798483673692245,
        0.05958176608535437,
        -0.050079460171934514,
        -0.07435244910200675,
        -0.05917262450932505,
        0.045957160999824394,
        -0.03080826345911126,
        0.13281069597255468,
        0.005313119546827151,
        0.051379939993384555,
        0.02488953917461433,
        0.027200469053308637,
        0.024508201507474625,
        0.00200595568142526,
        -0.0727170447359444,
        -0.09601805441059347,
        -0.004733169190220954,
        0.01853322173031679,
        0.051995020619911604,
        -0.10525121944521824,
        -0.03715707614294106,
        0.027362034656806054,
        -0.015321491370882272,
        0.05441928413127127,
        0.03903668788992954,
        0.07181523599436411,
        -0.03941660416221815,
        -0.1326524845455723,
        -0.013165098134684014,
        0.025648404109573475,
        -0.06893456845224732,
        -0.016853928615488054,
        -0.042479896178201686,
        -0.021209099446361113,
        0.018945248764855798,
        -0.06199256263096625,
        0.017609385110692082,
        -0.051278940272244354,
        -0.08389062001299062,
        0.0035719580533714324,
        -0.051273490947141245,
        -0.021142574158587023,
        -0.04654167016687663,
        -0.008564152356068725,
        0.022134422280001148,
        -0.028497502677635227,
        0.020221830072371938,
        0.03288489449097143,
        -0.051188178769694684,
        -0.08389259787048622,
        -0.024429241605272736,
        -0.06400657037158627,
        0.0031214320705817596,
        0.015076878533086847,
        -0.031174407928013462,
        -0.030222641284199322,
        0.03632006365131649,
        -0.05069340328994808,
        0.004324976664040751,
        -0.005975854219108491,
        -0.01898332750102292,
        -0.0007403372262091423,
        0.07725497392178211,
        -0.002523739293825558,
        -0.048746696185095494,
        0.030109127582786804,
        -0.05129999119020755,
        -0.05745630393620541,
        -0.07647669450800884,
        0.10687566949414255,
        0.04820142641400696,
        0.009735533841944578,
        0.03664837436470513,
        -0.007643163281871458,
        -0.06744299974885767,
        -0.030550124227930475,
        0.0290170174923881,
        -0.03533410792579114,
        0.017836038693441462,
        0.01934860772916518,
        -0.044896287316127846,
        0.00923697912987761,
        -0.02778317722135229,
        0.053959220768336716,
        0.029117398516856435,
        0.041246749632996516,
        -0.03373712175334942,
        0.05949426626642582,
        0.057283714403554814,
        0.0173612966252647,
        0.05010944974042984,
        -0.03956811974100392,
        -0.026862346437243664,
        -0.0469030317454594,
        0.00660022932786955,
        -0.059808972950011356,
        -0.082166918589972,
        -0.039340889226560094,
        0.029099702117866746,
        -0.020179549437224234,
        -0.04549380573631221,
        -0.039259163423080716,
        -0.011958608556963245,
        0.0030078750551505717,
        0.0006143791410072527,
        0.027800439622354945,
        0.024269983194020118,
        0.025726197442819336,
        -0.0036557722494753794,
        -0.0027628967316938036,
        -0.028939862983098308,
        -0.006609913990789964,
        0.02646890034972467,
        0.013338914787546827,
        -0.05910434517016269,
        -0.07317302847913926,
        -0.01047176740066606,
        0.043610711362993076,
        0.009053799221695108,
        0.030824074740134023,
        -0.028217875956267506,
        0.0399598955131961,
        -0.04736191372047356,
        0.06347241199226135,
        0.016507865221217808,
        -0.02605580476260186,
        -0.027593105273507126,
        -0.11816232930187827,
        -0.016361462012719014,
        -0.044607869059906005,
        -0.05612113183553605,
        0.02259587568444176,
        0.03982797564925329,
        0.008828902705816414,
        -0.012983093544556682,
        0.07915328506416276,
        -0.041927810505754726,
        -0.027441055124836806,
        0.03119660350644608,
        0.06059881700203293,
        0.019424452905853356,
        0.014394145937026225,
        -0.019199725449350002,
        -0.04078119633559163,
        -0.07821201970888883,
        0.009704965362356308,
        -0.019271488614760225,
        0.0014630115508632718,
        -0.029675018074559044,
        0.009886965370567363,
        -0.008039557527053098,
        0.030431970499379315,
        0.04982689800376745,
        0.09047307488581634,
        0.012993320130245432,
        0.06209212643977091,
        -0.03163114652868795,
        -0.07532217743791912,
        -0.023129223418943374,
        -0.08348691859106613,
        0.04311580503557999,
        0.04899482389181005,
        0.016784613871737703,
        -0.030943303366595114,
        -0.07215433188702469,
        0.0059907273678944176,
        -0.04175003081324845,
        0.025546066108922245,
        -0.001911211608159935,
        -0.018824496673636372,
        0.053794854112487946,
        -0.05022460421972129,
        0.011141939897790012,
        0.03673351185204518,
        0.025275183513488036,
        0.11908232803293618,
        -0.05247002389684123,
        -0.030533317563030682,
        0.039266322125907346,
        0.11466690276302477,
        -0.06010761711443925,
        0.06386352910737031,
        0.0179555327485806,
        0.004952429882430286,
        0.06984609826473867,
        0.014978087394042633,
        -0.004111073381208819,
        0.11140988737610817,
        0.06173642935650243,
        0.016534032979475203,
        -0.10873548761234875,
        0.10211639306229306,
        -0.034171454666654305,
        0.012562381221891787,
        0.08917075621567776,
        0.04060494881220328,
        0.07785033809093858,
        0.12456061618778602,
        0.05529825976852461,
        -0.05147195820280316,
        -0.049749331330801415,
        0.011842675820325482,
        -0.008004365870565092,
        -0.02874368337314851,
        0.08736705890309507,
        0.036324829667705595,
        -0.059425132149198985,
        0.13112127099111928,
        -0.12195307635363123,
        0.02122787075483302,
        0.09614526128656731,
        -0.02253157799684785,
        -0.08283782256542913,
        -0.04657901691637965,
        0.08611746968089141,
        0.003108626323055863,
        -0.047558160990551046,
        -0.07104942958460411,
        0.08804794045466852,
        -0.020572822317487346,
        -0.021119261553949196,
        -0.03430578297152667,
        -0.014366808845984319,
        -0.050579926038007525,
        0.055542403354807424,
        0.009305561143013112,
        0.014921464898741438,
        0.002921126450497036,
        0.05551489558650314,
        -0.0021450406089194183,
        0.011481870555337755,
        -0.06039029208613958,
        -0.05641065834906455,
        -0.0092781198939767,
        0.014714997895393909,
        -0.021093976474664912,
        0.10137054397167734,
        0.07727811900302775,
        -0.019165090080503766,
        0.012452111671082806,
        -0.00832246479035123,
        -0.00386233870738835,
        -0.04939147395884075,
        0.020057665966400476,
        0.04949965670246016,
        -0.025896830992892333,
        -0.028488069348736034,
        -0.04390861709234988,
        0.1803347892473224,
        -0.09795221894508899,
        -0.02739951739736827,
        0.07048199284865106,
        -0.02907239313697295,
        -0.0230438739873764,
        0.00032593820170999203,
        -0.09271345681543074,
        0.021028657383396945,
        -0.028779688408592605,
        -0.033969497236883014,
        0.0264810285883517,
        0.056650746032647775,
        -0.05636402804350901,
        0.10057387462074893,
        -0.018966028347093225,
        -0.06444209355665012,
        0.04213235347898786,
        -0.01384769892272427,
        0.0192594568906427,
        0.06624147313728593,
        0.015706958893724164,
        0.044204545546676716,
        0.031968465542745725,
        -0.10769991014038557,
        0.0562467612106671,
        -0.01780425682467009,
        -0.013989083540606548,
        -0.015877752422619403,
        -0.029537994936388833,
        -0.013602296966541886,
        0.01996824942909635,
        0.08133124229260574,
        -0.008087062107611946,
        -0.028683321719946867,
        0.01025794592116242,
        -0.024453142374124576,
        -0.017034780344593225,
        -0.0045020463364666575,
        -0.10823040091705106,
        0.051847052458203785,
        0.007259988342408402,
        0.0010814904230007734,
        -0.028053786875587083,
        -0.12907350110138954,
        0.02716944055693027,
        0.04504839708540337,
        0.02090762185950729,
        -0.008742795317645201,
        0.03693837928286507,
        -0.09695463746493141,
        0.027617615119242316,
        -0.061629419834275806,
        0.03610245867448398,
        0.006155619849881796,
        -0.08226919074492041,
        0.04602197946076594,
        -0.08438999354654712,
        -0.06503050298459077,
        0.015235345718397724,
        0.026579298757715877,
        0.042739764420891904,
        0.008797759329976111,
        0.14718651205828853,
        0.05801831868299845,
        0.029471563669571006,
        0.01811617725756441,
        0.006359471417311399,
        -0.0460631651096355,
        -0.027067133398522625,
        -0.0073545715565652816,
        0.04875459279181539,
        0.04350974823968454,
        0.04519248856927764,
        0.019233103563038714,
        0.008866204037245097,
        -0.004965231227081491,
        -0.024503508784866665,
        -0.056487167377749545,
        -0.006685967300517314,
        0.004258166972682395,
        0.02001455152327506,
        -0.05726120737238005,
        -0.07728107775847717,
        0.05775987234330418,
        -0.04808448861544217,
        0.03920006990166537,
        0.09515090593568024,
        0.05260612249091213,
        0.02714919954100109,
        0.08327045850006856,
        -0.028402005522296214,
        -0.002260582149168796,
        -0.06797218181033254,
        0.03868843052067508,
        -0.024074346822566622,
        -0.047295738164735146,
        -0.05374346988574328,
        -0.0726024423490535,
        0.05935406453772549,
        0.056565135467234004,
        -0.027388364331181796,
        -0.012546696340365114,
        0.10637031899651296,
        0.019155688839990297,
        -0.05052754183611416,
        -0.016400142398743937,
        0.03772745794466155,
        0.0385937935962214,
        0.07457372656948127,
        -0.04838695657269623,
        -0.06935160750624568,
        -0.07829099238885294,
        -0.04969302716964011,
        -0.030326661536283175,
        0.01890142818528065,
        0.0049133035737162,
        0.04023392177947928,
        -0.05103166800721618,
        -0.07140761001023957,
        0.07896675849381692,
        -0.05321284937895372,
        -0.035689812345818084,
        -0.01782430155078012,
        0.02572888437793585,
        0.09364658210199764,
        -0.15365773037499791,
        0.09717052808521601,
        -0.07684609896119447,
        0.0066928562832587035,
        -0.01881839830885816,
        -0.02026786138027404,
        0.006829038957354618,
        -0.013126003233863044,
        -0.04360986553092958,
        -0.0026310529727020223,
        -0.007689688686567074,
