{
  "weights_summary": [
    {
      "layer": "param_0",
      "mean": -0.0010660609761902417,
      "shape": [
        7,
        192
      ],
      "std_dev": 0.05199674871737126,
      "values": [
        -0.00950676542013513,
        0.0004453461399260991,
        0.015243339689783763,
        0.006227781919030676,
        -0.019791118321080665,
        -0.010065923684487874,
        -0.018823519033953358,
        -0.0025333792812588856,
        -0.06121369801431559,
        -0.01778768599499211,
        0.020223678619021697,
        0.05985689072533357,
        -0.06865109911807865,
        -0.06751560950898366,
        -0.008353858992799376,
        0.000170231004127801,
        -0.012576520862560513,
        -0.037439939965426286,
        -0.02625174013172086,
        -0.06595575269097745,
        0.05371282248674216,
        -0.011938053170542494,
        -0.06018317585094807,
        0.005291429501749296,
        0.08620012678552536,
        -0.004901394948859942,
        -0.03281003454942922,
        0.02061815151074859,
        -0.00857274824762337,
        0.0064573155104108906,
        0.002881315932558321,
        0.016240527702720386,
        0.011442990732342062,
        0.00267142105665808,
        0.024509112453370244,
        0.005880830600638486,
        0.10364495501797186,
        0.00011314250164663525,
        -0.08164020908806637,
        -0.07627166871846366,
        -0.012313518140528307,
        -0.006295044259330888,
        -0.001158296915289791,
        0.019460869827374827,
        0.002101991624293284,
        -0.05002226751337413,
        0.013100346790710874,
        -0.044640160299035295,
        -0.04049855589262594,
        -0.01638668371418367,
        0.002514970906692346,
        -0.011251433740096262,
        -0.005914252940310166,
        0.0007734132485364318,
        0.0010657809643435266,
        0.03731339180957631,
        0.04879531952524667,
        0.0001617487162538964,
        0.011392359851101723,
        0.010612671693311256,
        -0.009735983975392607,
        0.008940165649864232,
        -0.04132725162679197,
        0.04103254566552569,
        -0.0005076250859654988,
        0.0853731100737734,
        -0.07839916380373288,
        -0.0018509536838953293,
        0.002125041687635283,
        0.05086094112338919,
        -0.0734975738704078,
        0.021434261622924868,
        -0.013666584127692451,
        0.01664180691469319,
        0.028003497768485833,
        -0.11804187048106021,
        0.02457196410893943,
        0.09728430733700716,
        -0.04255529536343682,
        0.0005295258347673822,
        0.05031699478005268,
        0.06407719069653844,
        -0.00267506519937164,
        -0.0717456605363702,
        -0.0062453558708768,
        -0.0011260534317296665,
        -0.05076469848054421,
        0.041612277422172786,
        0.004757111672018916,
        0.004292991422489001,
        -0.03775363095368245,
        -0.007764245211577851,
        -0.03603934695553889,
        -0.0007275123902317386,
        0.0008924857820915811,
        -0.025840215564691835,
        0.008341758127947352,
        0.0020071109950251078,
        -0.034425020631388595,
        -0.0246065281009111,
        0.00014761192309016777,
        0.006647963823352542,
        0.005403900598952216,
        0.004145284028951069,
        -0.045872216434139676,
        -0.0013289183545658594,
        -0.01657211749344903,
        0.012694890008627852,
        0.06629064044339218,
        0.011178966339008565,
        0.0012254636172335269,
        0.06652762951302281,
        0.004182586972212491,
        5.453114582082701e-05,
        0.02659466478135495,
        -0.006415169287775578,
        -0.038671471548654704,
        -0.00034430601443505694,
        -0.06596192472185763,
        0.010049377702688843,
        0.006917330756036407,
        -0.0774802557152201,
        0.004310661863455353,
        0.0003255208165345179,
        -0.02584440845613261,
        -0.009685078265215696,
        -0.03236837527399122,
        -0.03196662977883062,
        0.06771119233246123,
        -0.017079793879841647,
        -0.14940027057281685,
        -0.014518519006120202,
        0.0265294126229624,
        0.10818595032154818,
        -0.05226490458426199,
        -0.047045174660039615,
        0.06530737422276056,
        -0.043487793063024166,
        0.10359089045076486,
        -0.046175116832473016,
        0.08930847518505851,
        0.0652292615981955,
        -0.10038573524333971,
        -0.0667959564162424,
        -0.07404620120654093,
        0.009800393487623273,
        -0.15311556004302906,
        -0.011578919209826757,
        -0.09800877037919906,
        -0.044462964287780515,
        -0.0767981117656873,
        -0.03433320412670439,
        0.09882195070300666,
        -0.050573059474833905,
        -0.0965120870800259,
        0.01727875884953122,
        0.07319114644192742,
        -0.08462970859851934,
        0.12561662629976283,
        -0.035997813508974456,
        -0.02237374397425198,
        0.014840169883310782,
        -0.050162784613028005,
        -0.06288147971069397,
        0.04649437831611956,
        0.043786261984080074,
        0.013525990607588615,
        -0.04193811175268028,
        -0.10941016858899731,
        -0.004524632160392996,
        0.05334264207121136,
        -0.07969451203076397,
        -0.11467978458871281,
        -0.047839537588585945,
        0.06215595213985138,
        -0.1654480420442035,
        -0.0943223289212988,
        0.00478074036100215,
        0.11356196494820348,
        0.005909573752051698,
        0.016793169992673416,
        0.028721749053183684,
        0.0737534350397469,
        -0.029520683125591387,
        0.02964715325985262,
        0.04069815847697711,
        -0.03113510094009627,
        -0.06498409999734094,
        -0.04163536059825729,
        -0.011281426927947681,
        0.08718900998518006,
        0.0531640442171917,
        -0.04137838915686172,
        0.040087174934099426,
        -0.016124358228454518,
        0.012802916199650311,
        -0.065351209562453,
        0.006276193241673281,
        -0.008843236377821362,
        -0.009248618339411225,
        -0.07419511871725724,
        0.0025404768397335247,
        -0.09997205601906536,
        -0.01545635656588364,
        0.07981930728070924,
        -0.0003712393453288073,
        0.005224009387997084,
        -0.05733664558968207,
        0.001898601671094061,
        -0.016552700680989164,
        -0.01728006798038669,
        -0.003401795984384214,
        -0.09050568423221657,
        0.08266137192640002,
        -0.02273552477106955,
        0.06349626088818189,
        -0.035427549049488055,
        -0.015165939288887206,
        0.07051721497451198,
        0.06131999573667833,
        -0.007187154702581815,
        -0.0007410407004638121,
        0.003036034501067329,
        0.012383899278416197,
        -0.007002707958161951,
        0.007406376021041147,
        -0.0736382996258878,
        -0.026029056388250277,
        -0.06071367020913207,
        -0.00946278689910272,
        0.05995275032720528,
        0.003599489992040108,
        -0.021905549577451812,
        -0.006353461710949164,
        -0.04464707740879737,
        0.021488747696498896,
        -0.011763110515534206,
        0.007703444677837075,
        0.06260831122162733,
        0.01387513320871021,
        -0.002556649496612449,
        -0.023945281448280887,
        -0.02282035110411794,
        -0.011896478287999394,
        -0.03549403707973244,
        0.0010999328809361468,
        -0.005244501749067069,
        0.029185146784653053,
        -0.020475684551765086,
        0.008560097537711355,
        -0.006993292303339053,
        0.05945535116592757,
        -0.006015579780169833,
        -0.01837778908805244,
        -0.02477254904556666,
        0.0009699622481592683,
        0.0521099781142559,
        -0.002103122122451696,
        -0.012924423577914766,
        -0.007233639466785767,
        0.028271217897971535,
        -0.02593991112192373,
        0.0005646500468067647,
        -0.08722369601766117,
        0.06867975084954372,
        -0.0769549172846527,
        0.005726572389597399,
        0.09507359484293632,
        -0.0016815688566217853,
        -0.01555022074496245,
        0.0020910143835838812,
        0.01554223391237185,
        -0.004398958623972002,
        0.0033054511167141653,
        -0.0030488961436763787,
        -0.033644220210750364,
        0.0019498235293226363,
        0.00042730953875889005,
        0.008227397576376404,
        0.021552831352307608,
        0.004654770367492192,
        -0.08396390322919418,
        -0.025558612226577397,
        -0.0595351395743229,
        0.06592835892573222,
        -0.0008489836641519166,
        -0.01724181046314647,
        0.001650644384452418,
        0.004490397424244407,
        -0.00236169596683169,
        -0.021996456325514342,
        -0.0017218871254269345,
        0.03718644843802307,
        0.03441651603896005,
        0.0056244084019369135,
        0.0038353690626100083,
        0.004758357638124599,
        -0.0009604686393122395,
        0.04729841989895668,
        0.01733413188652523,
        0.03400396351922359,
        -0.004314072354608281,
        -0.08204384156011701,
        0.003782520109392485,
        -0.010027961405824619,
        -0.0003605361746185802,
        0.0008544396360184509,
        -0.029035060390159753,
        0.00502898226899458,
        -0.03547613793180443,
        -0.015541017944335845,
        0.05384258047122826,
        -0.10672442306273323,
        0.03983780681751789,
        0.0006322782389774674,
        0.0004740915556307026,
        -0.003283399813064771,
        0.03832648714143983,
        0.005119403886924305,
        -0.02036277619756386,
        -0.024820351416842253,
        -0.015180525100729555,
        -0.05421780104313806,
        -0.004819118129051543,
        0.03187383604616562,
        -0.008996560866794557,
        0.006689880413518005,
        0.11661548071484747,
        0.06889278902583615,
        -0.028961380913054672,
        -0.13091637712256057,
        -0.02693066476578273,
        0.07618938803472138,
        0.15080918266443166,
        -0.045694967902694617,
        -0.08081987630545791,
        0.025636440829972792,
        -0.10782304399736006,
        0.04939010002777499,
        -0.026947983834766945,
        0.07018615304257267,
        0.15102712029107085,
        -0.09482946360785553,
        0.046409166069389725,
        -0.00934035939755105,
        -0.07123776835443116,
        0.03577908540060959,
        0.09509054906314535,
        -0.041168459100107094,
        0.06802745306109415,
        0.05769636148111092,
        -0.017369150988567145,
        -0.013314326565727229,
        0.0700639326844045,
        0.0001977049894680955,
        -0.023861120934992743,
        -0.041497547314168756,
        0.07332469654894863,
        0.09492019346627209,
        -0.008605044792422927,
        -0.04790234803722524,
        -0.09425375644329316,
        0.021805489061790896,
        -0.08471920758236623,
        -0.10472561100489758,
        0.12992504042698233,
        -0.036301789747854585,
        0.016825990433845202,
        -0.07552277542645887,
        0.0420898766015685,
        -0.1038022859544592,
        -0.028308733624352284,
        0.07592214138407945,
        0.039665647761068054,
        -0.09885793676238261,
        0.044962085421515384,
        0.03280689865436164,
        0.09789086422799095,
        0.017489382313802662,
        0.0601905398845802,
        -0.006711255229786179,
        0.05993341679879477,
        0.09505962954226553,
        -0.011471748302394703,
        -0.006543968011309053,
        -0.0012409614766577515,
        0.050666577295837456,
        0.008588580792510792,
        0.02052561788208272,
        0.03485191605862363,
        0.07268206874718044,
        0.08048366983715667,
        0.014214240492377926,
        -0.003483161489905502,
        0.03775489598937273,
        -0.016881169282040635,
        -0.007188149002178115,
        0.0683290789888948,
        -0.010951962424021392,
        0.0899228530657882,
        -0.01872022161218815,
        0.05221714725336338,
        -0.016954762641828793,
        -0.020416797644216354,
        0.09199172694956284,
        0.003556846931680968,
        0.037084746648968075,
        0.008369053206028555,
        -0.014753011500778943,
        -0.04388949996520845,
        0.010843402998578087,
        -0.02446626793024293,
        0.05626571730526582,
        -0.0004439738692695559,
        -0.05068350050246476,
        0.06163931152955497,
        0.08977962236593988,
        -0.031257860138472954,
        0.03322955403046943,
        -0.04469113366808272,
        0.014262292744229384,
        -0.06800702714167438,
        0.017330571880134434,
        0.008206214669320791,
        0.0082885276128567,
        0.0032156303158643092,
        -0.055257500061285034,
        -0.06352271639315057,
        0.025284729223718945,
        0.012390936107340145,
        -0.05207545303213913,
        0.024802396448074776,
        0.0067527785801729,
        -0.0038189352572937357,
        -0.0006263984106809701,
        0.01194841412426631,
        0.044748567892589186,
        0.014414130146904885,
        -0.05164901150896735,
        -0.02217573103498055,
        0.02173705704183588,
        0.050723768823657714,
        -0.08291391503837267,
        -0.011700265948892674,
        0.004130935972856435,
        -0.034360962110211085,
        0.04711219161982885,
        -0.04339398438437017,
        0.06635416376705847,
        -0.051365423527982526,
        -0.0016148347027129472,
        -0.016873793159488074,
        0.010014129528973393,
        0.09664730638506112,
        0.06267705410846354,
        0.0021458929041338537,
        -0.09750242980666209,
        0.08118654066186679,
        0.0455165078508261,
        -0.07526590090721408,
        0.003446238696149175,
        0.07828525834605946,
        0.004552486503819508,
        -0.06683698806892757,
        0.025678331731628444,
        0.04164929238226722,
        -0.003718899932776648,
        0.00353120687422408,
        6.477683658064007e-05,
        -0.04808542504128176,
        -0.0026115701802693018,
        -0.010666245759150003,
        -0.09914486431213285,
        0.030386203740501525,
        -0.05360578056568997,
        0.019090989842962036,
        0.0012916443818712868,
        0.06906296819863594,
        0.01985373165413721,
        -0.00813163750513253,
        0.006506627414116686,
        -0.019506411798604194,
        -0.010762290739230403,
        0.0007667719282233127,
        -0.0016269674355618427,
        -0.0005201225171632879,
        -0.05140281013305334,
        0.0018944171622114405,
        -0.10769048545726292,
        -0.0491526413279879,
        0.006003790597122161,
        -0.002017088848064682,
        0.03765576213723719,
        -0.0920359153707947,
        -0.0039109930974790385,
        -0.07230972870489463,
        0.007336474901263691,
        -0.03547483972274066,
        0.0007089605673186114,
        0.08710176113543383,
        -0.0341545676138922,
        0.004710482071879844,
        0.00017718274133495264,
        0.00291957596490788,
        0.05690407985732288,
        -0.009549362418730691,
        0.045535995812087164,
        -0.04839438946757712,
        -0.05665411449910331,
        0.00735297511868269,
        -0.026424821469632563,
        -0.0016545036390989386,
        0.09038961763501294,
        0.00819348321907466,
        0.15006124188420444,
        0.01931268142002744,
        0.1052401863188919,
        -0.13345032408982005,
        -0.06353944403718463,
        -0.06543869360628793,
        0.05339826617862531,
        -0.15208119868157255,
        -0.05135096087430964,
        0.047084397978028034,
        0.08155605786579685,
        -0.059406736668835836,
        0.01940847670000282,
        -0.14145246670527656,
        -0.13077745166588703,
        0.022851909928021955,
        -0.0166075193386762,
        0.022525320042965098,
        -0.09070984637408847,
        0.022215248094208453,
        0.0670484484018955,
        0.011678429360467278,
        0.04946008327364572,
        0.05251462684630863,
        -0.02795652207197653,
        -0.11697418249605897,
        -0.08082973671839028,
        -0.020558812759518395,
        -0.06504198213581158,
        -0.030138328565115894,
        -0.01756443069729626,
        -0.029158481210124994,
        -0.048926991444636136,
        0.04174300827421724,
        0.04302156283074562,
        0.046203680938737196,
        -0.11510089932010542,
        0.00043595307615597323,
        -0.03422726153648151,
        0.025724400781051558,
        0.11582205674844398,
        0.05733484165540167,
        0.06614844992272524,
        -0.0002662935172593983,
        0.0020982768106213813,
        -0.08811189051614593,
        -0.02819437599997506,
        0.0901346878341325,
        0.07268135557632208,
        -0.05912925157454926,
        0.043054268877241564,
        -0.03889779880777553,
        -0.07417477098632982,
        0.031861264063161435,
        0.06469089498688232,
        0.024158630189533053,
        -0.12046151228521329,
        0.00016772577065715454,
        -0.018419888318072813,
        -0.14458685259371834,
        -0.0721270725555416,
        0.00043598744913404363,
        0.026983833746337168,
        0.0007448157301488342,
        -0.09160296928734335,
        -0.06262359823965048,
        -0.0021381973369939532,
        -0.05052342833543445,
        -0.008423880240052932,
        0.03687324588586455,
        -0.02147971697711986,
        0.0006994287800794129,
        0.011120381992866715,
        0.05258536849948819,
        -0.03074463648194148,
        -0.00022162554564003568,
        0.061095004237943965,
        0.030844354423683554,
        0.007057947899847876,
        -0.0017993084409408154,
        -0.046928219896192516,
        -0.012705965886698473,
        0.042309025240839224,
        -0.0034575885650319975,
        -0.008642727679116908,
        -0.001281103914412561,
        0.017646637599441798,
        -0.015332084725378007,
        0.045362245740838344,
        0.014291755083742834,
        0.059787020211694825,
        0.01608638869804553,
        -0.008141525159455248,
        0.015056362814807558,
        -0.012925357156595416,
        0.0028596806024334957,
        -0.03906423333498219,
        0.001621431748799098,
        0.0053409666104148636,
        -0.03208253258498266,
        0.038998450937426335,
        -0.009848256878184617,
        -0.011680623810238426,
        -0.058577542153521636,
        -0.058541597028766774,
        0.050324064684937365,
        0.00915435384786844,
        0.07818741181882535,
        0.014277268074069252,
        -0.07112558049587298,
        -0.0028375931394333817,
        -0.004265772532310894,
        0.013532663773930673,
        -0.006931125405441205,
        -0.009615254297590838,
        0.0009997282583611255,
        0.027546003720949556,
        0.0022948666126243996,
        -0.07401321722179324,
        0.049076825092208995,
        0.02299990853327219,
        0.013548572516388826,
        -0.08151146050720834,
        0.045890994372615776,
        0.03900091016180456,
        0.02575352809766096,
        -0.050869185837449996,
        -0.023735355990853833,
        0.007217614314745822,
        -0.01654564678494396,
        -0.04249648477052252,
        -0.05034257109926574,
        0.000926547295238421,
        0.0013094857558057088,
        0.0432320838419762,
        0.042473685742401984,
        -0.002227485566147654,
        0.011345035878833705,
        0.0020382233143081173,
        0.0019157935888565554,
        -0.06716654025464791,
        0.011239060420830727,
        0.007590183328859833,
        0.03696373067845855,
        0.02616490001741963,
        0.013626322749119008,
        0.014778640275068883,
        0.03977168810134852,
        -0.003749979580926697,
        -0.003854243385391501,
        -0.030401569290466238,
        0.01371660959916968,
        0.001303885822801591,
        0.023427144869586275,
        0.02673607702780243,
        -0.0007191752426924892,
        0.013668924092417538,
        0.001804580454898409,
        -0.03711548509821179,
        0.05172507739916819,
        0.0034823171920909026,
        -0.0011340271302692846,
        0.0183231918439427,
        -0.08257055196460361,
        -0.02334089472263321,
        -0.045056602446040456,
        -0.05703943562145255,
        -0.03326265942343357,
        -0.007520573786971,
        0.023283575051527963,
        0.01699248128237678,
        0.0033819708257779983,
        0.07391726865782926,
        -0.09270737675317811,
        -0.0005599303254864327,
        -0.05841166166021145,
        0.0016724200647685644,
        -0.0001748014693671807,
        0.0012199254057162574,
        -0.03449289068927024,
        -0.051498371141874444,
        0.01290314842612169,
        -0.050112156083533504,
        -0.026570055950193218,
        -0.09294095985507042,
        0.008202270963812427,
        -0.005803429223512579,
        -0.02216947779663026,
        0.09460274805149899,
        0.07409908064611637,
        -0.08672440404881752,
        -0.014379606630312423,
        -0.06598376637557464,
        0.017098544711258466,
        -0.04202349656718435,
        0.055806382957932665,
        -0.08343454129380487,
        -0.05381373027857243,
        0.07743857957900696,
        -0.12741246589637145,
        -0.1276445743052147,
        -0.10395192078461074,
        -0.09109193339774184,
        0.15541798113061375,
        0.04204506335576766,
        -0.03141760683002865,
        -0.028375800345226222,
        -0.05145489760888815,
        -0.015423839673527229,
        0.08767445829504755,
        0.0324855868394676,
        0.015462937307446238,
        -0.025531408244949642,
        -0.038182445198588724,
        0.07237827681497461,
        0.024459015242657943,
        -0.07706446104853175,
        -0.06708862290586362,
        -0.04525482553240821,
        0.016379651307389324,
        -0.05946036157372668,
        0.10240409177877235,
        -0.046132587646411,
        -0.04422451969606013,
        -0.08377843704843105,
        -0.07590431146292759,
        -0.07967956379357419,
        -0.0748936956147492,
        0.06181565000577191,
        0.11571760118992988,
        -0.07045057533168472,
        -0.057107584209435375,
        0.028918034016394176,
        0.05678576956381968,
        0.0053769082186095815,
        -0.007430836863716286,
        -0.1407197953630722,
        0.08657370494208799,
        0.01850280203845358,
        0.05996869117981243,
        -0.077195289339898,
        0.06310340489344948,
        0.010004710972614215,
        0.02114636455343119,
        0.09812698612219173,
        0.02511249853923906,
        0.0705380885529327,
        -0.07114323866053726,
        0.09959762362908667,
        0.03642416685194947,
        -0.08529485691122289,
        -0.09457648768395456,
        0.05567645556226868,
        0.05105856321361456,
        -0.0006791354402023312,
        0.08039378101860548,
        -0.008595777562583968,
        -0.02943520075041716,
        -0.017908603894273453,
        -0.0720746169862963,
        -0.0013734193873988932,
        0.08086920633059361,
        -0.002265668328960955,
        0.0018863745225001635,
        0.0042283793934499644,
        -0.02107910590729592,
        -0.01475539837674975,
        -0.006830139010086587,
        0.036637157009632784,
        0.06412656075692261,
        0.02141861998399288,
        0.040682369834285415,
        -0.0018495629057744185,
        0.004253123669073653,
        0.06534872972717477,
        0.004590975469135214,
        0.09354490413140948,
        0.027124775269055143,
        0.07904723839750223,
        -0.01488381598728446,
        0.09668682233871898,
        -0.052672998252879036,
        0.030195284697252085,
        0.058317957225851313,
        -0.009157093829742943,
        0.01563342456220461,
        -0.05275780681609801,
        0.0003482979044254626,
        0.007754764500314533,
        0.002170662461371731,
        -0.0027871199175793153,
        0.013231393441315116,
        0.009085534347024568,
        0.04597418915450137,
        -0.029387741426992735,
        -0.07288985104592333,
        -0.052908428868104526,
        -0.010606320310383681,
        -0.0731023122532666,
        0.07564116523620815,
        0.012417507976532228,
        0.0904032512315893,
        0.00542740678423538,
        -0.07778480385692797,
        0.03195817240433302,
        0.036319550792306435,
        -0.022264087125118893,
        -0.008754789644062703,
        -0.0006988161740555705,
        -0.05736129112262941,
        0.028956191523953588,
        -0.001816470356637418,
        -0.10535743104424522,
        -0.05425338322531999,
        0.02020739246802055,
        0.017976992739949876,
        0.06373677588097568,
        -0.07770836525220398,
        -0.000395453173172625,
        -0.07270826508200336,
        -0.0272524959269703,
        0.003702350052106028,
        0.005777676539105103,
        0.008952270487920157,
        0.003515572601242621,
        4.145036067720961e-05,
        0.025313468318383464,
        0.05516287347337836,
        0.0031272948168737445,
        0.03506942964902256,
        -0.062217543109325535,
        0.07700983058838413,
        0.0162905111900713,
        0.021941326756033185,
        0.012910055381864936,
        -0.005300290321971557,
        0.03179632473056468,
        -0.0005294148756479676,
        -0.08352545892977867,
        0.00531668602471295,
        -0.03771096878435001,
        0.0016305660735437305,
        0.07972268586089591,
        0.038918545158103744,
        0.029450988980765588,
        0.013027973123302018,
        0.0012277732815470957,
        0.00247355712361613,
        -0.03436804228309594,
        -0.02566800372611685,
        -0.01851074993225041,
        -0.07231799217663239,
        -0.025946045496377697,
        0.005211011357650348,
        0.0988832378662663,
        -0.01785801002851665,
        -0.051821881952755756,
        -0.004071582190511841,
        -0.004323368743349896,
        0.036196113657200844,
        0.025104190935718806,
        0.07720253595034188,
        -0.04053251449596097,
        -0.08197792949943286,
        0.024363761798020772,
        0.03386607681255707,
        -0.009630649514025548,
        -0.0211899542734061,
        0.027922951592984316,
        -0.0009580307254045458,
        -0.05162417100080548,
        0.017665512931361024,
        0.0073720309373654066,
        0.002733394960821383,
        -0.0387960884249645,
        -0.04397672775408025,
        0.09519472214832864,
        0.0051589629940232825,
        0.005360076710952662,
        -0.006630732030362008,
        0.07693239253644807,
        0.006140621054319081,
        -0.014000717148020626,
        0.08152133151216057,
        -0.09571600109019174,
        0.01910614204864398,
        0.041213563958488034,
        -0.030308412377467092,
        -0.05299940739888616,
        -0.032186408840470054,
        0.1404096128357752,
        0.0377329115051905,
        0.1236453608106296,
        -0.08736484511708315,
        -0.0853959765217418,
        0.01730483664429224,
        0.061478665909408106,
        -0.01467039858955782,
        -0.013916523500806664,
        -0.1444273679978864,
        -0.010770035605481097,
        -0.08655278940507515,
        0.020833600693994182,
        0.08678813244025184,
        0.041325983776220016,
        -0.030964847696952465,
        0.02248701377352566,
        -0.021361541198440723,
        -0.001508123628557676,
        -0.0006902027121498093,
        0.060176183914856005,
        -0.02001212602836333,
        -0.04692159808030889,
        -0.018084898556373456,
        -0.06335408688357043,
        -0.005891237099009542,
        0.1270178990877277,
        -0.02086940281929586,
        -0.026150638507751955,
        0.06109915556413759,
        -0.09839590440651642,
        -0.09173819286256943,
        0.016248904888530043,
        -0.05126916520304797,
        0.10916448472272086,
        0.06613599985678607,
        -0.014237299767832692,
        0.04751874351168822,
        -0.07707687474834363,
        0.12358666375243288,
        0.05088852565125717,
        -0.0664903595427942,
        -0.11251032223702376,
        0.038961953271643965,
        0.07756991166299161,
        0.04302394262587591,
        -0.0242817758206675,
        0.02386812060651507,
        -0.08706654296170402,
        0.13125568932549259,
        -0.051285485471037534,
        0.03526370918700142,
        0.01366199478186175,
        0.018889501474216166,
        -0.06993307628836884,
        0.12011232996955348,
        -0.004975453068051739,
        0.10434408515616006,
        -0.03974187671726444,
        -0.07667072844916226,
        -0.002827257093606878,
        -0.07242108172517858,
        0.0043688171827008584,
        -0.09189109780333757,
        -0.0007078594393263404,
        0.03537572522303414,
        -0.0020197961647238525,
        -0.017493783460919815,
        0.08376849325877556,
        0.017728347008545017,
        0.03909836918517902,
        0.03940291931446343,
        0.06145096682075715,
        -0.0005576983496041692,
        0.08110844870513821,
        0.009692313456298509,
        0.0202123042503864,
        0.009934101581985242,
        -0.018712568165654704,
        0.012260504641625154,
        -0.006076761077415472,
        -0.002378427805786088,
        0.0015305361671618845,
        0.027675363153456874,
        0.0023918939207695413,
        -0.0004317117212286795,
        -0.0058439937018480905,
        -0.039213634923378066,
        -0.038333214240323724,
        0.0032830170119260414,
        0.04454094972108464,
        0.06242379265445547,
        0.004406647151085443,
        -0.03394050382153163,
        0.0037567286866241993,
        0.02045171686924816,
        0.03425908775422446,
        -0.04258690643444022,
        0.00614977149552463,
        -0.06800645265383098,
        -0.028572216211923296,
        -0.04041863754714709,
        0.07197135801054291,
        -0.07894244973054412,
        0.010376553522379092,
        -0.008463736447619798,
        0.0001262129723934361,
        -0.0013550147385292316,
        -0.05842177078133331,
        -0.012230102826157862,
        0.048073278379308144,
        -0.04899910670955372,
        -0.02608622182257592,
        0.0002491803743232845,
        -0.003878541416125036,
        0.005410901409234619,
        -0.0070082858025566856,
        0.02196358016265279,
        0.060448815847207224,
        -0.06795456792344315,
        -0.00013870445730602683,
        0.09748499421686857,
        0.007246593116091013,
        -0.00068736571271447,
        0.005277666785431583,
        0.04305014800604935,
        -0.0032782565011944802,
        -0.0030960055743507377,
        -0.014438557861588177,
        -0.034675025192166795,
        0.0386797429194544,
        -0.024370398212414504,
        -0.04015006540734517,
        -0.07639755929016219,
        -0.033394826711492895,
        0.006609199441980786,
        -0.030077868356761316,
        -0.030450184191641354,
        0.0020628241404636568,
        -0.008590666581092997,
        0.0004285985607182976,
        -0.005018182357930547,
        0.04784677692948511,
        -0.04203620863471752,
        0.011023119597889534,
        -0.06135187270507595,
        0.005784003374689983,
        0.03992167912041596,
        0.027934764173385168,
        0.0037355207237192113,
        -0.0018940994392411276,
        0.03766268228434816,
        0.016109866553179045,
        0.016211760004418995,
        0.030285428752880685,
        0.03940302912862582,
        -0.03896975101546686,
        -0.012324499960982237,
        0.02380767163819244,
        0.032955534008788846,
        -0.022779260260389178,
        0.0004975475769323215,
        0.026744543600938406,
        0.031712958148515824,
        0.09566681226779725,
        0.07092567836653052,
        0.004387319838394766,
        0.006481791692635533,
        -0.011475736113465317,
        0.02075765051188192,
        -0.09907731574106174,
        0.026610404091888112,
        0.00567732901001518,
        -0.015496699718288234,
        0.00011302382799028334,
        0.03782368475649194,
        0.005853727379521882,
        0.05081839147026526,
        -0.005183294476673211,
        0.00439915919075785,
        0.08975259458184945,
        -0.062024171522312474,
        0.041721720694665024,
        -0.024139742905687395,
        0.1053579937415115,
        -0.07340988735541154,
        0.09293417543160506,
        -0.06952086941732583,
        0.07708509948422733,
        -0.0975787817046025,
        -0.003773430365787399,
        -0.03479170715904919,
        0.09772608457388532,
        -0.0028304189262898507,
        -0.08328549578839645,
        -0.03395541007304991,
        -0.051428445842329626,
        0.04781662190412844,
        0.024789448434493443,
        0.09445197279137715,
        0.126083861762129,
        -0.02055317117075324,
        -0.08024193272695057,
        0.011978057609652837,
        0.01984799524758029,
        -0.03593701074587808,
        -0.10165974138813229,
        0.002949073803121618,
        0.10925506450412502,
        -0.12794796593851407,
        0.022029982302252782,
        0.06470502224928248,
        0.0782384535991722,
        -0.011131096196872121,
        -0.06455181040294579,
        0.07758145544661102,
        -0.09178369353539184,
        0.0040049939547066,
        0.0016191818363996812,
        0.10518943036367959,
        -0.01290429001063621,
        0.03044480684656272,
        -0.0289257534285923,
        0.030952468296267698,
        0.12452049596511339,
        0.005951020712900616,
        -0.00247242517408245,
        -0.09694179901971228,
        0.027644706893163683,
        0.04086788278800019,
        0.09594808743125102,
        0.05594305588786923,
        0.019502979706521095,
        -0.08841393468321224,
        -0.0699764320977248,
        0.00176355950179607,
        -0.005045471992762849,
        0.03495786495181303,
        0.10123863388229756,
        0.11385826370350605,
        -0.09654067300513189,
        -0.03344304200215542,
        0.11217600677573655,
        -0.0767505328428198,
        -0.10636183089429184,
        0.13164059834251024,
        0.05621218206896643,
        -0.1013160089098015,
        0.009128468333924111,
        0.010962812318648471,
        -0.012516017809648308,
        -0.1122091146450131,
        -0.025081741897004357,
        -0.03642660627237889,
        -0.030722844011042992,
        -0.07410093411983001,
        -0.041910429799885844,
        -0.0239947508917654,
        -0.05490369781208538,
        -0.0397351731857267,
        0.002092840118948753,
        0.010613927923639521,
        0.012686541903675321,
        -0.004996704019226979,
        -0.04524171942091651,
        0.0046001906377969495,
        0.07450928012273972,
        -0.07697567334076863,
        0.04914684540916578,
        0.0014765757787650697,
        -0.018588835335951806,
        0.037693364402945864,
        -0.10119867813958083,
        0.005726463105611973,
        0.014648561472282511,
        -0.05592410375391306,
        0.013591563091530149,
        -0.05320809641988379,
        -0.007563610955381784,
        -0.018331921628734434,
        -0.039769643533145715,
        0.02813827449322715,
        0.03086560416033212,
        -0.0051498286843634136,
        0.0010885472058458248,
        -0.039167424802278,
        0.006809670507669572,
        -0.01252032673250819,
        0.02928071921585994,
        0.009631281264343585,
        0.00393552726707964,
        -0.0258109844937075,
        0.08138324354060392,
        0.029500200118088613,
        0.011481099383339511,
        -0.08709082334628704,
        -0.07338043378961395,
        0.009963118962290376,
        -0.006002726805987003,
        -0.08315015563841163,
        0.004823117870248235,
        0.00042075542155515556,
        -0.0006680033933575765,
        0.026679264149269886,
        -0.009305683584778273,
        0.08422592153017931,
        0.020825606756026224,
        -0.0024397731758780566,
        0.02470310472968824,
        0.04433142779585217,
        0.07976459370139324,
        -0.050601147983592235,
        0.00023648460249862366,
        0.025374577477326184,
        0.00830282054263552,
        0.024414654151809986,
        0.04302690968302275,
        -0.09250790958726918,
        0.007155212025572159,
        0.0008308954600058744,
        0.10686599304921508,
        0.07201591264388872,
        0.029140819842642652,
        0.0011803940890204592,
        -0.03999432479059207,
        -0.0047176176041158644,
        -0.047133466561288875,
        -0.09285358231596741,
        0.003181606530190997,
        -0.059109915103734936,
        0.051032241754523575,
        -0.010598607428234775,
        -0.025916783015812427,
        -0.0362719637304503,
        0.025711066058795945,
        0.011289792432116004,
        -0.00934885542779165,
        -0.006094099641849432,
        0.005303637565552679,
        0.03244560116667711,
        -0.06280215929699541,
        0.03643460636293497,
        0.023282472498682264,
        0.021210429885657696,
        -0.0037969525448748,
        0.06874628356644642,
        0.043318584337375524,
        0.06795998893134308,
        -0.0032175778912820964,
        0.008799628136554351,
        0.06399868495276725,
        -0.023005639208166444,
        -0.012572916408300324,
        -3.464665308046168e-05,
        -0.0046582393296183385,
        0.010566342846358573,
        -0.00479743478698627,
        0.087011677662549,
        0.010632439678794136,
        -0.005759397236641595,
        0.003586158460414819,
        -0.05356855258079983,
        0.08954870273524607,
        -0.004010656722166129,
        0.0019279120183630883,
        0.013926690903317522,
        0.004380032640295729,
        -0.025365881197061013,
        0.0010936533641642296,
        0.011475844788518656,
        -0.03563124763177307,
        -0.062448007933261926,
        0.0045418812876565065,
        -0.048808090019470264,
        0.0023137721176475336,
        -0.04125982324694333,
        0.033648190505817646,
        0.07364480697092918,
        0.04902311955962716,
        0.09320265978969508,
        0.007082007974440986,
        0.02028502544216668,
        -0.06286604295707286,
        -0.008960509106784836,
        0.15197915790558797,
        0.01386648505905605,
        -0.0014046146728305883,
        0.0861482408449849,
        0.04790677665198089,
        0.005824282933293352,
        0.026062932808673774,
        -0.07677649117763913,
        -0.039986191868736316,
        -0.028009055712870864,
        -0.1394034528143105,
        -0.06468046757962423,
        -0.0405926266805032,
        -0.06906717121525056,
        -0.07059871970296898,
        0.12713173737903838,
        -0.04359463499609051,
        -0.08751187021709644,
        -0.157358626240706,
        -0.10222088348847966,
        -0.033625385045554,
        0.013609630555610083,
        0.05616912688276286,
        -0.04405349737611335,
        0.016047665738520168,
        0.005933801610541513,
        -0.011515471516053085,
        0.005321137974913542,
        -0.008300110532158051,
        0.161410060367884,
        0.05436903113968913,
        -0.062426206347255764,
        0.018449495768418114,
        0.051774221204605744,
        0.03717113267597637,
        0.014602907436369297,
        -0.10579642349448609,
        -0.049477125933762536,
        -0.06487369433981924,
        0.13490582312516974,
        -0.04548909493422718,
        0.04776916316002893,
        0.049263079541830165,
        0.09884165073762778,
        0.13088826896691763,
        -0.09410045273420709,
        0.061661119352289046,
        -0.0832193467925493,
        0.037856696019585474,
        0.014522113347445152,
        -0.02916974347271937,
        -0.026835629066304528,
        -0.06970559801771209,
        -0.09189757774954987,
        -0.12722681636779667,
        0.013879919711662038
      ]
    },
    {
      "layer": "param_1",
      "mean": 0.00030613164857993765,
      "shape": [
        64,
        192
      ],
      "std_dev": 0.05254668721801982,
      "values": [
        0.05275881679899883,
        0.011632030641467568,
        0.02454974363694333,
        0.02688152162296307,
        -0.07713219553682499,
        -0.022838778984035954,
        -0.019722162552281725,
        0.01960749435934215,
        0.09677372325732236,
        0.08612945017323792,
        -0.0473348599918098,
        0.10960818729621603,
        -0.008703157922398397,
        0.018420399647112194,
        -0.013662563516281388,
        0.052140425999808705,
        -0.030375055803755435,
        -0.052917177882131815,
        -0.000798576064594915,
        0.08037479096571859,
        0.002450753786596606,
        -0.011576411111532466,
        -0.02639983652093577,
        0.08562984259707065,
        0.0018419482335957763,
        0.0537601333598173,
        0.08124006037560239,
        0.034575120296773204,
        0.03466607030862576,
        0.10212399507822832,
        0.015419311887464565,
        -0.009506539864176398,
        -0.016582306993539506,
        -0.07710481441037981,
        -0.04773787681104079,
        0.007545054328615427,
        -0.06403521722209676,
        -0.004649117960501936,
        -0.010388003917403367,
        -0.018927281066684256,
        0.03980018263233991,
        0.024372983158185722,
        0.07679186579733208,
        -0.05335269985326149,
        0.006068270260746848,
        -0.024668180473562448,
        0.05484599643042545,
        0.09514133954971432,
        -0.04490716119339906,
        -0.007227452897227629,
        -0.11038467386158449,
        -0.06950169925519141,
        0.06522333638566787,
        0.03288933202722592,
        0.09628385293341213,
        -0.04398917087398656,
        -0.03657855781920569,
        -0.03285313110181404,
        0.013982150481585404,
        0.03817703053883098,
        0.004782928890870789,
        -0.029702603461154168,
        -0.029087860424231365,
        0.03841611337698772,
        -0.023107948136001685,
        0.021006797003937518,
        0.0392728438285262,
        0.024368534647551867,
        0.01908738617329326,
        -0.028387365040338723,
        0.12619193078388657,
        -0.11348805382088333,
        -0.08441296130853693,
        0.04136210883215801,
        0.05819862743705245,
        0.1079952218500874,
        0.08317488584537829,
        0.003425382193860592,
        0.027533158433226634,
        -0.07468558498401537,
        0.0022696515008974374,
        0.009645923163321093,
        0.04244870531458016,
        -0.04284682814233699,
        -0.019678191999819957,
        0.00788455380985648,
        0.011129173945768726,
        0.010203739664458762,
        0.07590394371822605,
        -0.023128298099382306,
        -0.017545337562192093,
        -0.08045914075241278,
        -0.07492017817507743,
        -0.04959370001696761,
        0.06675773405632002,
        0.03962399085129814,
        -0.03248029760531093,
        0.13301813076054586,
        -0.03883563600807706,
        0.0012509226301822152,
        0.05344675784174539,
        0.0025929253549118255,
        0.08883047211955077,
        -0.04482549999506198,
        0.06067285491354025,
        0.012297241600160522,
        0.005681579669315033,
        0.05382034997139796,
        0.049681130062939706,
        0.07743529653245673,
        -0.013106716103213512,
        0.016587502004429898,
        -0.006328545999805001,
        -0.039955874134807175,
        -0.01257669032113894,
        0.033281334620299155,
        -0.01919221890067265,
        0.027010583285342997,
        -0.022894494468527343,
        0.05149515206310294,
        -0.04144190468465104,
        -0.054507217503773894,
        -0.03507899976915664,
        -0.0412227637815744,
        0.0744150850019377,
        -0.009758246867691002,
        -0.04147042148978524,
        0.1070059481111714,
        -0.047021595997978324,
        0.018935176241916117,
        0.08538722474740243,
        0.0032547324248537006,
        0.03295565136130403,
        -0.06562621531263169,
        0.07075693591213536,
        -0.09253041327513908,
        0.06105115708739213,
        0.017902753063958,
        -0.010311829441587768,
        -0.01643959289328457,
        0.0386155389545451,
        0.1103174724063654,
        -0.0644895209083987,
        -0.022640914380682362,
        -0.08889896858257741,
        0.04014211109535229,
        0.0590501070576749,
        0.023470508499378574,
        0.02308914917899789,
        -0.10324849560025673,
        -0.054098112448001556,
        0.0486704084742693,
        0.09904373364730645,
        -0.02183669747864709,
        0.05623727736159479,
        0.09679580499575105,
        -0.009157332409877823,
        0.016511547646375878,
        -0.04077033046180023,
        0.03663001743676321,
        -0.019788599431336353,
        0.035420839459110474,
        0.08515845257007941,
        0.09861518156915253,
        0.017952397695187132,
        0.009640310470984194,
        0.08304500431859042,
        -0.02684697434657763,
        0.023237066701099148,
        0.0397230135552681,
        -0.05792458133236006,
        0.03799544458112718,
        -0.019751240036713157,
        -0.13064044562058766,
        0.06832107860741818,
        -0.016063678857025136,
        0.017366807422441906,
        -0.0007299555800925322,
        0.06203766235472441,
        -0.03754562167899545,
        -0.009512965723118192,
        -0.028032685443451583,
        -0.0029353295981277283,
        0.036256657768149375,
        0.014638101434239284,
        0.09525158616799695,
        -0.04576230854208324,
        -0.014674380632599484,
        0.0671280169704269,
        0.050115723498083145,
        0.04288052473820134,
        -0.016905697211839,
        -0.00601815148735024,
        -0.0447391373611083,
        0.03516004438955711,
        0.058291470996809716,
        -0.08223683936036738,
        0.0025040154936470313,
        0.021769120554485898,
        -0.004605809393209089,
        0.028400653037759262,
        0.09149252548275656,
        -0.1074384318684686,
        0.07217524717373971,
        -0.009183160115419734,
        0.00011082406508713168,
        -0.0050230118254496955,
        0.06364907282044405,
        0.050822938819109625,
        -0.018859012128178688,
        0.03637178461291252,
        0.11295487575372253,
        -0.06595799322427894,
        -0.008668581851395471,
        -0.03848805288194003,
        -0.0867964691625131,
        0.04776835491761913,
        0.047317596130458744,
        0.07444106250508234,
        -0.035161951591979046,
        0.07773293314379917,
        0.032321780269614485,
        -0.11380562158432722,
        -0.05060583485480519,
        0.028023506992686548,
        0.02364472566886375,
        0.04010872578905281,
        -0.06860453056532202,
        -0.008905959634795197,
        -0.039744112819109154,
        -0.10662458310873876,
        0.0030836779561633776,
        0.1263620215317789,
        0.038196372812350256,
        -0.022305166190562886,
        -0.08179730277864816,
        0.0005918986956722754,
        0.05843950901308158,
        -0.020600800716758582,
        -0.024700819380492962,
        -0.03815041985130825,
        0.01251830473085866,
        0.05222634018229581,
        0.0751649647737899,
        0.019986851982953767,
        0.001027622081627027,
        0.05858320329839226,
        0.005047497106964945,
        0.03824909184235156,
        0.017599145283925793,
        0.0012050856237113324,
        -0.10354599991944982,
        0.040096390536493706,
        0.0003994594096628466,
        0.06233020662887045,
        -0.052812449423903306,
        0.06938022001832245,
        -0.002426905824635752,
        0.027886382585437925,
        -0.04890168980704462,
        -0.022105032293330266,
        -0.002756002350262469,
        0.016936192455121887,
        0.005577945189112319,
        0.004291968952282132,
        -0.05027512603445444,
        0.03013824435950865,
        -0.01497495606233768,
        0.0779612482233899,
        -0.05543984371617552,
        0.1273862547762612,
        0.030095517064779108,
        -0.01882730294009239,
        0.0019934067892431323,
        0.05151364816477701,
        -0.00965967268681461,
        -0.00925710291797336,
        -0.010383462266861102,
        0.036041938903483374,
        0.032948731073273924,
        0.016659249751609387,
        -0.11547413710253049,
        -0.02857432690599728,
        0.1545048677963619,
        0.05275321700261948,
        0.10488748010725474,
        0.028200664070064538,
        0.03848578276320638,
        -0.04952354005910756,
        -0.027073725335888935,
        0.10088024867453238,
        -0.07760677651576191,
        0.14723785892392854,
        -0.030477211752797252,
        -0.041240453506080646,
        -0.146575511746368,
        -0.03254690465113326,
        0.002308824106342155,
        -0.045501214492142256,
        -0.06618633292832038,
        0.06760679083890418,
        0.1049969150298288,
        -0.10163447881657081,
        -0.08143573708383446,
        0.04481525348993545,
        -0.021682424332830866,
        0.03948104456137262,
        0.04152227494278211,
        -0.01785109091996762,
        0.052519261356981754,
        -0.0011723510244905366,
        -0.052757786617788655,
        -0.010191708679457973,
        -0.08167390018783893,
        -0.002509747546026673,
        -0.056260534366644466,
        -0.002963045897793383,
        0.029296170302844045,
        0.01570094862640173,
        -0.06381005303827472,
        0.04341148510895353,
        -0.05647280224593911,
        -0.08007986088044244,
        0.02481534166356994,
        0.0003291567406504964,
        -0.03496646801692191,
        0.01219683829858258,
        0.07653643539707507,
        -0.03657569366258185,
        0.03754565804780546,
        0.004175981821980989,
        0.09299371453916999,
        -0.08752963219373715,
        0.00973744229251295,
        0.005913204087122852,
        0.008852245378093919,
        0.08730529144969462,
        -0.017928433176334586,
        -0.030371202155236386,
        0.06253601979657193,
        -0.017465501264947378,
        -0.035931784133110545,
        0.010028738803752123,
        -0.049959914468313396,
        0.04172123733991617,
        -0.03137553767993417,
        0.02108108363333267,
        -0.028991409333577575,
        0.03617722963517534,
        -0.04020742689677431,
        0.018799154656359264,
        0.010569852536127366,
        -0.0647757465548196,
        0.016218280673606554,
        -0.024968165261507167,
        0.04260347349816479,
        -0.03357124293895367,
        -0.020982513158576268,
        0.0723268277596509,
        0.012503636483591679,
        0.06450877519983776,
        0.02217771726100297,
        0.027162208334512276,
        -0.054462318479027716,
        0.018018814841226766,
        -0.04456631860463482,
        0.12303119613085452,
        0.09035683752210577,
        0.13037343613851943,
        -0.04141985457323073,
        -0.03135987099561321,
        -0.033903235956244546,
        0.06992247801156154,
        0.10103732067457219,
        -0.0015282154815198096,
        -0.0028494863643295336,
        0.08155612751828867,
        -0.0011404887966231284,
        -0.02632541737257772,
        0.05378281112285509,
        -0.0759858967136261,
        0.029115157493796083,
        -0.03102579027638764,
        -0.06858934268945341,
        0.008091350786277618,
        0.029215254708788344,
        -0.008712821200157185,
        0.011153958796297499,
        -0.011230194656337532,
        0.04183913339127898,
        -0.013875908160016104,
        -0.061535283840848914,
        0.10122232078681714,
        0.015206552264550647,
        0.01367883679916574,
        -0.04700925388203511,
        0.06320037819623921,
        -0.07240323107689418,
        0.009654127504036712,
        0.05506206538580363,
        0.06005273400005987,
        0.05590251148828908,
        -0.001836615892775794,
        0.04258964293111464,
        0.0023237278413489543,
        0.11455009428974183,
        0.010006185825028683,
        -0.017016945873625764,
        -0.06524420337770333,
        -0.02358465593322019,
        0.024287095434279857,
        0.023084009263202927,
        -0.00858240379826541,
        -0.13302447883972826,
        -0.050124293129849055,
        -0.08211726241231468,
        0.06633658865681472,
        0.023924850073287478,
        0.025007838105610393,
        -0.04664386779516681,
        -0.001240139064173331,
        0.06586594433546487,
        -0.02865251631180308,
        0.09856991727015138,
        -0.058077747212349165,
        0.04801746567578112,
        0.011825535931428037,
        -0.08762217378509395,
        0.05747114177521621,
        0.009078172437975256,
        -0.028740058422258914,
        0.09296256849231814,
        -0.01039147369202699,
        0.05329515170184557,
        -0.1043381009335459,
        0.014660737985706926,
        0.011685348587889714,
        -0.04800156437444882,
        0.009113936834732148,
        -0.008965745854444533,
        0.05670209128476219,
        -0.10007434664062892,
        0.0037587793173155205,
        0.041948446695773564,
        0.056340390816642265,
        -0.017853560266834427,
        -0.041099976551999005,
        -0.08923880437794034,
        -0.052869398862546255,
        0.026301869371701342,
        -0.07993693746688231,
        0.018071496731309887,
        0.03720653698889595,
        -0.07449569209861709,
        -0.04978570077314855,
        -0.036229088037066315,
        0.023621477522395705,
        0.07169097772598858,
        0.06632432123412305,
        -0.02302664501605098,
        0.06059170307131221,
        -0.10878560639117504,
        0.011846507947903748,
        0.02598689470821546,
        0.03871471920599431,
        0.030230091683607893,
        0.02347136245224709,
        0.06266423919408037,
        0.05620853214212563,
        -0.01310836103992401,
        -0.059798887876446,
        0.0185302395279903,
        -0.06403579266007556,
        -0.03914700876724585,
        0.02525156850618867,
        -0.025757335404164854,
        -0.13347680918561633,
        -0.005221506206707653,
        0.03415169326536592,
        -0.03493564933234918,
        -0.000910569006308674,
        -0.04267705467060264,
        0.08106909109188035,
        -0.02132279278994526,
        -0.03651010510123963,
        0.051223616106288755,
        -0.005745932293450771,
        -0.023989831335637993,
        0.05840219961786202,
        0.055854357780935095,
        0.035564836095160944,
        -0.02173285981988942,
        0.0715656039916437,
        0.07184012775924607,
        -0.06603747865177714,
        0.006139305701364076,
        -0.04260691609256556,
        -0.004657557394183706,
        0.06080782851717651,
        0.0082379861731924,
        -0.0036857349555614915,
        -0.004601645730553324,
        -0.10220866389829697,
        0.01725292412332244,
        -0.07282653362779876,
        0.02517697067213118,
        -0.003828122047684729,
        -0.02474196304205959,
        -0.015007506992846864,
        -0.0409873882990752,
        -0.06027689827052216,
        0.055933522594419444,
        0.01534777166612385,
        0.025768812123532846,
        -0.017083819863233114,
        -0.0464612025926026,
        -0.004418923730173385,
        0.03038935907555445,
        -0.04175487509614543,
        -0.048108692603341906,
        0.030966115702220555,
        -0.07898356947365398,
        -0.09892843481936539,
        -0.00882197582282978,
        0.0647460258012974,
        0.016390036787877454,
        0.014809524116200866,
        0.08256446094714485,
        -0.044091927739428736,
        0.049246586729470805,
        -0.03358993740383579,
        -0.016764460325091823,
        0.013792873188125086,
        -0.012327311539618729,
        -0.005569259764069308,
        0.0068189252349236795,
        0.0917826362106536,
        0.06800331529154277,
        0.07160062259538025,
        0.06112318924169486,
        -0.047290483592686866,
        -0.01591480614232809,
        0.1234570125483443,
        -0.02939109520834359,
        0.05658985562231848,
        -0.0424727754050063,
        0.004308871012743375,
        -0.03945687777979563,
        -0.0927251940513674,
        -0.04914700871482782,
        0.029342861813943827,
        0.06447330877721205,
        0.025656551482402208,
        0.019299426369016253,
        0.028824606538066865,
        -0.02728661478641422,
        -0.00010410021799543354,
        -0.00414393343467355,
        0.005716011892831524,
        -0.0021638381019605663,
        -0.013985623094984388,
        0.02220957294776057,
        0.031203575169844892,
        0.07949192159130872,
        -0.1046961000669934,
        -0.02181745535926633,
        0.045020439112995865,
        0.01444680547646986,
        0.13965309443261387,
        0.06751875204261562,
        -0.01693807605739958,
        -0.10755099907671323,
        0.02712570661242049,
        -0.016258092375774892,
        0.07534423367384868,
        -0.017806592657362313,
        0.015498175043281319,
        0.08516351519986552,
        -0.02594037265728277,
        0.07040494331506986,
        -0.025737907513982014,
        0.04280837921811276,
        0.048561792135771706,
        -0.010501040517522571,
        -0.0016762835715819456,
        0.01197585485044865,
        0.0307660685085896,
        0.03249323001490828,
        -0.06911953694959194,
        0.008735137368786457,
        -0.007396605700371218,
        0.0373509788298323,
        0.011092760728588355,
        -0.0847416871002562,
        0.06955295776621201,
        -0.054830096222550334,
        0.048629922408823245,
        -0.09871128084007763,
        0.1729381532564301,
        0.030263310354635926,
        -0.03397448860812482,
        0.06511639176168814,
        -0.01784708580338297,
        -0.08712670205129772,
        0.06883390800361538,
        -0.0030198406706997763,
        0.01850954034365087,
        0.03071431326327522,
        0.027093087755545593,
        -0.19289923772511858,
        0.09813678167475934,
        -0.07847389790341128,
        0.005622690095815363,
        -0.019678899204863168,
        0.08268268602239817,
        0.01479156816907979,
        0.011309888694851795,
        0.013997810216599734,
        -0.026185445266938317,
        -0.05318047170134946,
        -0.01684723117488946,
        0.03381839338387342,
        -0.11569397430698203,
        0.018877943355202827,
        0.07744926147264783,
        0.05223955902895727,
        -0.03429969975398135,
        0.041559392697126954,
        0.09942575949182567,
        0.0879995880742368,
        0.008340476701088237,
        0.02753821861100808,
        0.09502617370648575,
        0.006276077928822675,
        -0.043313323539646766,
        -0.017713635304431548,
        0.03993108390985194,
        -0.009657845038973888,
        -0.033345225187871176,
        0.054142021038551785,
        -0.012750719902676913,
        -0.12033035240075347,
        0.05212671766669717,
        0.043154104614663215,
        0.09557545659486588,
        -0.06747274879575552,
        0.014229141672732405,
        0.015013442804164208,
        0.018845029613891305,
        -0.04287353953491243,
        -0.11537485735527656,
        -0.04396760190319143,
        -0.016969041283968637,
        -0.0011286166722048784,
        0.038571362144337006,
        0.02435152727716069,
        -0.0399605122038707,
        -0.0411924916562143,
        0.011481514458397991,
        0.10014404317186468,
        -0.057910499542555914,
        0.04473522534576867,
        0.0050566363341581185,
        -0.044041700359168656,
        -0.02052705635983029,
        -0.015062049753423505,
        -0.040019565382388975,
        0.07764236983774023,
        0.025259363563030046,
        0.00876097263002746,
        -0.020969995982503365,
        0.029025494946863118,
        0.04152269459191201,
        -0.07279664888023009,
        -0.0162647478985585,
        -0.05140302382225946,
        -0.029420502540075427,
        -0.07868971293973384,
        -0.0773795502807002,
        -0.013591903506045708,
        0.09306618799440608,
        0.0846871710962683,
        -0.0658876181767,
        -0.032500526119848744,
        0.02941861887263748,
        0.03550341971655345,
        0.013443903308806779,
        0.010255726638649838,
        0.04871527443044958,
        -0.0481504838568306,
        -0.013281607958133275,
        0.0012107666356544998,
        0.03364051081450175,
        -0.10545411972694704,
        0.0030341913182509103,
        0.013493196619076504,
        0.009198155418479168,
        -0.009785083628438544,
        -0.07658487011153146,
        -0.09776204679996713,
        0.015867411575580026,
        -0.0925790025912356,
        -0.09872191582679896,
        0.1319004234699289,
        0.026672096777284698,
        0.04217956198662838,
        -0.02665313607243866,
        0.0210228172335902,
        -0.002702517917342176,
        -0.040957068593895814,
        -0.0696060103041885,
        0.05194481402848354,
        -0.03506533263087267,
        0.035249678893436685,
        -0.05581729225779394,
        0.08241438428303846,
        0.009348727959796093,
        -0.08255566381363229,
        0.03993226764981807,
        0.06151062604793983,
        -0.058101031506389594,
        -0.03195928899561347,
        -0.0007468871165303773,
        -0.032440130996812935,
        -0.0772838511174633,
        -0.03539067281740598,
        -0.11750044385331065,
        0.055017433363117416,
        0.02007628565974003,
        0.018272893966621972,
        0.0940714335779332,
        0.010687282924152337,
        0.0855288677620531,
        0.015890304313987146,
        0.06753033131087594,
        0.06481679002593647,
        0.014324061517458983,
        -0.07418052393343398,
        0.05741901274245867,
        -0.008358689618134671,
        0.1128051997242756,
        0.023553019810820728,
        -0.023020810642593245,
        0.011928344420695767,
        0.022183939089358368,
        0.00994348898214139,
        0.04212600260261593,
        0.045783295476247376,
        -0.026690109539722867,
        -0.09559726803777971,
        0.07195537961948169,
        0.032058085577397574,
        0.002380210633168893,
        0.029415646229083877,
        -0.02388237110503127,
        0.01671057899690643,
        0.08305756749705892,
        -0.005271623640822643,
        0.0316595389377795,
        0.13136884565841958,
        -0.0592385871298639,
        -0.03387583209508292,
        0.0866175952491033,
        -0.01214230272945589,
        -0.013829030636188436,
        0.027121149272409082,
        -0.09145258074222734,
        0.014580982889199562,
        -0.009514671520651545,
        -0.03885261179106896,
        0.06598288267087804,
        -0.0168971601495338,
        -0.001227856366575606,
        -0.01788465373525381,
        0.04655246807896301,
        0.02687107774034954,
        0.03492154997830807,
        0.01762670761203962,
        0.008108270305059388,
        -0.04902330482846235,
        0.01468677552254325,
        -0.09699705729428362,
        0.09001801500817652,
        -0.0108234540247149,
        0.03551145558125812,
        -0.030057524146550794,
        0.027546693674936056,
        0.10387391396385845,
        0.06718990912270145,
        -0.04796320182280262,
        -0.009052577669284342,
        0.0635925131234927,
        0.025065942845086023,
        -0.025783282886260625,
        0.08116049835677303,
        0.014314418503467702,
        0.039013302294253115,
        -0.0005704713338028494,
        -0.006532039038597677,
        -0.05322306718179759,
        -0.086348905798279,
        -0.07685861220325998,
        0.04351022046745642,
        -0.005479425024561453,
        -0.023230505820502782,
        0.005109234446839736,
        -0.009940260423098164,
        -0.007354037964387013,
        0.04647083108725496,
        -0.06570945977951413,
        -0.08980474542304026,
        -0.021722966505735714,
        -0.033084602300963405,
        0.16993548515503296,
        0.003070848492583815,
        0.000170267527271728,
        0.001720933960924917,
        0.07861750509768184,
        -0.049305644385573916,
        0.06324269230194873,
        0.024762268735328358,
        0.001876827029518944,
        0.08486748171341696,
        -0.060575417945179726,
        0.022021544192750403,
        0.014312435591481133,
        -0.027504210178532346,
        0.027436904539270824,
        0.125079684397373,
        -0.01727043870540249,
        -0.03583967318516203,
        0.021566607425462764,
        0.01440222601254737,
        -0.06178110245426155,
        0.0011127638147862308,
        0.040826535621001796,
        0.014440402656610625,
        0.07174822467335946,
        0.030972455290702944,
        -0.04109806021901762,
        -0.05045757633155983,
        -0.004667306508416479,
        -0.040030087955124916,
        -0.00957937944922112,
        0.0341443632637042,
        0.007735340979413696,
        -0.005749137129371872,
        0.0074850779786175825,
        0.03697702536572409,
        0.1184884014585532,
        0.01921615073025763,
        -0.04796988946087979,
        -0.0265630453037484,
        0.0297203508342819,
        0.05950817842288512,
        0.014432259901219179,
        -0.125116511299247,
        -0.09277029143442364,
        -0.023913261814367617,
        -0.010800339717827581,
        -0.010291154617373847,
        0.0687231462662149,
        -0.018055526502244887,
        0.03665144876604183,
        -0.048524365476190455,
        0.02748008530025252,
        0.018041105273085,
        -0.10260650696098741,
        -0.0007816521776342292,
        -0.029460240876012896,
        0.031403413276065856,
        0.03001612961962101,
        0.05614923707649139,
        -0.0056858511187998124,
        0.08754733013723454,
        0.08923300061029463,
        -0.05872929297014265,
        -0.0019827711077622335,
        -0.016958943652760947,
        -0.018743971158388467,
        -0.012984496552832566,
        -0.02293542816495401,
        0.04958505781379822,
        -0.03486682392089314,
        0.012512429239476233,
        0.04313565555792321,
        0.08355476639214726,
        -0.031166780317058135,
        0.0881660069095301,
        0.11854714557268782,
        0.029415352966787614,
        0.0017272071513331237,
        0.008946672184665758,
        -0.010634610040538492,
        0.07090790810261799,
        0.025354175623569147,
        0.10445763520966767,
        -0.0016118114677831207,
        0.06940137501578286,
        0.029285467130331873,
        0.046267185282561143,
        0.004460747938235959,
        -0.03637050039084357,
        -0.020157222550559385,
        0.10356250814082359,
        -0.05668391164466525,
        -0.046680894747797255,
        0.005805037783451065,
        0.08533755251329289,
        -0.017271335674299268,
        -0.058929466945961975,
        0.030213504541423124,
        -0.029509147916999292,
        0.11831851907593872,
        -0.012932350830080049,
        -0.08348939502405948,
        0.09611280851071496,
        0.03262069015462311,
        0.029354527078894015,
        -0.02683505826745713,
        -0.06091052198695425,
        -0.0038611620313901696,
        0.050759111915349375,
        -0.034040827060462346,
        -0.1050222181418749,
        0.05872879533041653,
        0.029363948449162944,
        -0.010788587903764897,
        -0.061673867598076776,
        -0.011790236780211918,
        0.05000049661715057,
        -0.004755678431518364,
        0.023449199925859126,
        -0.0810255767683663,
        0.07855418975513771,
        0.03634501366193659,
        -0.06263811327543145,
        -0.038152340251653045,
        -0.06247262673948907,
        -0.0660026453508717,
        -0.0013518411105413975,
        0.01979445980312115,
        0.04573653393829124,
        -0.14292258020299253,
        0.04966780763042099,
        0.025185613519564977,
        0.07644513751833235,
        -0.027712620896749838,
        -0.12621635948323967,
        -0.04854983099272251,
        -0.1136664992690649,
        0.036896292112804305,
        -0.051965068755800814,
        0.06548442858710729,
        0.0010515811521208118,
        -0.1656447714506815,
        -0.021838371800947498,
        0.07800801965409476,
        0.043511972575558625,
        -0.0023648273711516996,
        -0.0604596407410179,
        -0.05082559889548967,
        -0.05455080373975351,
        -0.03423715367122566,
        -0.0033867108192469596,
        -0.07063862363909089,
        -0.03384960857663279,
        -0.034557849484532326,
        0.10119448300366199,
        0.014800587933945036,
        -0.022456518227608017,
        -0.08712690214078345,
        0.06916925384111018,
        0.05802462618976585,
        0.03617381932910897,
        0.02575159943719757,
        0.06844658454546969,
        -0.02044005707480347,
        0.007948282054737084,
        0.0034316530597263434,
        0.027900769074346153,
        -0.03917929225556981,
        0.021398074995779132,
        -0.00047325947998411166,
        0.03509714234263549,
        -0.06645105621500791,
        -0.04728550012885299,
        0.01465912077650049,
        -0.012260918652268697,
        0.030023525301323795,
        0.0026988807439284473,
        -0.02095458902343314,
        -0.00518143738845675,
        -0.032185511843322294,
        -0.010771070785568482,
        -0.0983610532285006,
        0.0006209295713057034,
        -0.06215315517238114,
        0.09686419131375934,
        0.05144002460094228,
        -0.020185753364864223,
        -0.08464283643457055,
        0.04056422398795516,
        0.04196394882886949,
        0.03896374042771033,
        0.021033974040877205,
        0.004894302650290679,
        -0.07177418949563807,
        0.086279333672797,
        -0.07213529090824242,
        0.015239271119428483,
        -0.10072215471354296,
        -0.0409054644007988,
        -0.005022953203473179,
        0.04245486833288554,
        0.08792777806873489,
        0.11311272372937495,
        0.0038309712262900412,
        0.05626889835458243,
        -0.04990328606245457,
        0.10774172592705307,
        -0.040970915093715685,
        -0.017093172733826843,
        -0.11288829412822307,
        -0.012861595846524822,
        0.07583735580469533,
        0.0403314077810184,
        -0.13165670223359197,
        -0.0564080705384826,
        0.04083000265912115,
        -0.04073791572430588,
        -0.028507444602570164,
        -0.0033175022577028174,
        0.05102281449027333,
        -0.12754980064032362,
        0.03291986886305814,
        0.02858795790057181,
        0.0012754437808966297,
        -0.11300844821362717,
        0.04233395576186262,
        -0.00916535324864311,
        0.02014358896989459,
        -0.017431776234735394,
        0.0018550043917733789,
        0.08075612621344437,
        0.041007256446771174,
        0.00579472559353237,
        0.033424961825390634,
        0.03244543632444497,
        -0.030339986802773132,
        0.030363803487603876,
        -0.06188844792563769,
        -0.009158913509716295,
        0.01539857269683166,
        0.05934418186960915,
        -0.024639334530458024,
        0.0136156245450684,
        -0.015521140662006647,
        0.020110170923174023,
        -0.011372760475869497,
        -0.011911157931044771,
        0.01647994878428599,
        0.038916640227047994,
        0.026436351054258338,
        -0.05691406136746953,
        0.001171733071886864,
        0.001480681536130522,
        -0.13340060849391283,
        0.07360513966519024,
        -0.030990354339513346,
        -0.018728619020393158,
        0.03298106511305304,
        0.07646868138334312,
        -0.09600665781662752,
        -0.018582915125708876,
        0.07762951508223633,
        0.0896996963772673,
        0.043538228808075695,
        0.02979680561494081,
        0.0205878468315987,
        -0.025110866656400083,
        -0.021004051264632728,
        0.04765904042873499,
        -0.08278158420278085,
        -0.04694044607845817,
        -0.0034078968081528646,
        0.006528725463582489,
        -0.03951498506719428,
        0.002554517048733376,
        -0.05362021920988885,
        -0.0006356537021688759,
        0.014813164972880141,
        0.00414862328638671,
        0.059543566484957663,
        -0.05842156560397545,
        -0.03728862311537582,
        -0.0059367519602302465,
        -0.05103598823812884,
        0.05215039623425238,
        0.06646672091671903,
        -0.08410959676132573,
        -0.04040399922342379,
        -0.022632892233360943,
        0.057935892955031244,
        -0.06586508395388613,
        -0.008906924250790451,
        0.01976044761657802,
        0.015820790746853303,
        -0.03713920572627117,
        -0.009591960037839839,
        -0.0448286364332656,
        0.007723975748757997,
        -0.024268458587773496,
        -0.049047236414781724,
        0.001524259530246051,
        0.07640033658977545,
        0.062729009922665,
        -0.0008524567607359305,
        0.037509146470499084,
        -0.03677070947447343,
        -0.034313819147125446,
        -0.006579015378704867,
        -0.021505340131228866,
        0.012896302468747683,
        0.0932801991206261,
        -0.005082025249678646,
        -0.044594767447587606,
        -0.04491200524439793,
        0.01715665472681657,
        0.04710194361027178,
        0.04393687866826349,
        0.015556562694707175,
        -0.05733408806909228,
        -0.036288745502706526,
        0.011073575000874341,
        -0.020757465922740425,
        0.036291173696760964,
        -0.0107378070953236,
        0.04105057927072185,
        0.004912051481576557,
        -0.03132854969927415,
        0.0016049827073055661,
        0.024233081413938613,
        -0.10426341305167701,
        -0.04753661365707003,
        -0.015130499648720805,
        -0.002977500093856001,
        0.03419416735084348,
        -0.03156256127558039,
        -0.08073935624124527,
        0.028220111328851185,
        -0.0020304896941602396,
        0.0032269057455045456,
        -0.09652351446514398,
        -0.05194542026742589,
        0.05861573690240217,
        0.014075568183462717,
        -0.016242503085162622,
        0.11452148294136,
        -0.03787379344427712,
        0.07664415578647331,
        0.12582149021275077,
        0.0014199160728766112,
        0.09588611905502986,
        0.0607589691064304,
        -0.037794928256597554,
        -0.0030856227860194263,
        -0.137464136044687,
        -0.039332638632800336,
        0.030854434596189487,
        0.07554581293621535,
        0.13014762625604737,
        0.061142971779684,
        0.025514203456801096,
        -0.04236171444427929,
        -0.04058709273735053,
        -0.08656702059827139,
        -0.04334204394758741,
        0.11386341768276433,
        -0.0007622432780860677,
        -0.024694247843193257,
        -0.00045601349591808255,
        0.1471438025778849,
        -0.06444847463250775,
        0.06018767552804064,
        0.02874928082155777,
        0.0737423019984037,
        0.023915436711565548,
        -0.021525647302884414,
        0.008944068827889552,
        -0.04532182380878319,
        -0.06973866452950843,
        -0.055327289770848234,
        -0.032243724355631345,
        -0.05621274334773459,
        0.07075072587788617,
        0.049142051741617045,
        0.05410806626697047,
        0.03415917112740759,
        0.008837341403232155,
        0.10498602188660613,
        0.0047382247014489745,
        0.04636095393292544,
        0.02416423186676404,
        0.06582553855779394,
        -0.01882535742229947,
        0.011235524134552921,
        -0.008468680590654054,
        0.015562574143842212,
        0.05745971336175644,
        -0.024720273977942422,
        -0.10808909526976121,
        -0.060721332616849207,
        0.018195765422728084,
        0.009930048367160549,
        -0.01766414709279087,
        0.03174248363250799,
        0.04831816716512567,
        0.0509808146747356,
        0.04744435469515512,
        0.039868359350158415,
        0.0880766567106295,
        0.03584440648229551,
        0.056809752750796375,
        -0.03321204947489117,
        -0.0021002563937273303,
        -0.02655043132427021,
        -0.07307487294008283,
        0.11337640675235322,
        0.02734483557292863,
        -0.029931058878267754,
        0.02783209966097646,
        0.00583845257974637,
        0.03984024538908692,
        0.0057821003655827916,
        0.030267192339402987,
        -0.03620735057976012,
        0.03519759027792322,
        0.0015931936772671045,
        0.03828775679092478,
        0.07189950806762795,
        -0.046108840361839654,
        0.0051333400462816176,
        -0.007592055654606519,
        -0.015278339904006198,
        -0.047865341668112224,
        -0.052503642066115574,
        -0.009313641421133001,
        0.11893849287145034,
        -0.07562645168276722,
        -0.001273976582755746,
        0.010975769190036577,
        -0.02440826254677899,
        -0.05145890691588213,
        -0.1319570167618384,
        0.0119548297083973,
        -0.12844486562873186,
        -0.03819220974223282,
        0.054031884152353785,
        -0.0002027398102868519,
        0.005583887017963135,
        -0.0008826133418860221,
        -0.02214292288341359,
        -0.03932302371068985,
        -0.004496822050379233,
        -0.019260247715419277,
        -0.033321923985180926,
        -0.02306230300567249,
        -0.08031981726322482,
        0.07603701708757431,
        -0.023202733702758754,
        -0.03662047382210853,
        0.027707733557776087,
        -0.04875223885913285,
        -0.00555029929944828,
        0.027412231735147147,
        -0.08119058900974932,
        -0.025188199623699812,
        -0.06514687604345641,
        -0.07680548177936439,
        0.018481097599372498,
        0.07480503677548933,
        -0.06677438048921838,
        0.0311518546033074,
        0.0702372103985717,
        0.04890233694306364,
        0.05069316973348347,
        -0.01899183963214075,
        -0.05430996249513832,
        0.02930681476758665,
        0.010486183735730296,
        0.027896561022865283,
        0.03486061271428842,
        0.0785077621974629,
        0.010960311175209788,
        0.032223687427625075,
        0.016708765532052347,
        0.02388687993832149,
        0.005476564798986598,
        -0.03769252558656771,
        -0.002405864047639421,
        -0.09567295598307525,
        -0.0623263239852133,
        0.039071103375221114,
        -0.0744088283891804,
        -0.007935556880585684,
        -0.014259353418264595,
        -0.02695482032573311,
        0.038110201629581474,
        0.044874896853589315,
        -0.01842174791356911,
        0.04920020525970013,
        0.02284002620417487,
        -0.05949078850891125,
        0.003540293566560118,
        0.037375982209794094,
        -0.07252170351834868,
        0.03777700275918516,
        -0.03699814255961927,
        -0.06175916188589768,
        -0.0448340177098608,
        0.010404232638583387,
        0.005540293451367757,
        -0.01862399165474255,
        0.1317935769730469,
        -0.03276582715942486,
        -0.04953386292113296,
        -0.04863978403949295,
        -0.051236729213547196,
        -0.057195419044937856,
        0.03839116038298739,
        0.10826347214117174,
        0.04833881819715475,
        0.030275516620752698,
        0.1247447632288649,
        -0.01773520069310159,
        -0.034456995277139045,
        0.03600286860453312,
        -0.023472140772684565,
        -0.01818610299232922,
        -0.0012091852997018898,
        0.05213735688348367,
        0.025390439476206263,
        -0.003792902018397569,
        -0.06374158786857473,
        -0.005026854751349409,
        -0.04088090868184662,
        0.04695745607514098,
        -0.05350064569769031,
        -0.01585746602164684,
        -0.05062156167127799,
        -0.0024183382128752755,
        0.04394481433327176,
        -0.041948156388707705,
        -0.0821380473433893,
        -0.0013991891182804934,
        0.08086137690313754,
        0.037394046402351576,
        0.0567433651263744,
        0.010229962781158956,
        -0.00013936272339429637,
        0.06883537359203636,
        -0.09610666048167474,
        -0.06145364106608403,
        -0.00032549115977605764,
        0.023292832791038914,
        0.03088025581888437,
        0.03374792833563439,
        0.11665144287819942,
        0.018045661149791635,
        0.015361425535912505,
        0.05963499220405432,
        0.0031906268410767363,
        0.01706804174602758,
        -0.0058155720038617215,
        0.08393917776041193,
        -0.04564501727752657,
        0.047381046040771334,
        -0.10326321094611221,
        0.054965289191195144,
        0.08630638746795852,
        0.09375719337344438,
        0.03722950486925815,
        -0.06770530928033944,
        0.03429987519822012,
        -0.04823675138868565,
        0.04909707914588522,
        0.09802843063786287,
        0.05281843542477295,
        0.03751913376794534,
        -0.059543200736806606,
        0.016313331443463183,
        -0.0038568275554709507,
        -0.008704475864890086,
        0.012407315961795125,
        0.10125226311558257,
        -0.01350245983327186,
        0.006115862647124985,
        -0.05511942843593204,
        0.04509635798922911,
        -0.004660628482571261,
        0.07503771388839744,
        -0.023249639918527132,
        0.04480714577418625,
        -0.026851063242734112,
        0.010000823695570689,
        0.026501620761675632,
        -0.04014068244311711,
        0.005499418760720701,
        -0.020633276877031644,
        -0.04926242596194083,
        -0.020100083507549726,
        0.09346206052947625,
        -0.028251762067254542,
        -0.035220821420122596,
        -0.032255165491242965,
        -0.03060892637892766,
        -0.04427655889704766,
        0.0886433398079517,
        -0.04907541200616263,
        -0.050957451553624314,
        -0.0035776283637859,
        -0.047985255736108845,
        0.006200633574791406,
        -0.019271369887959418,
        0.003885081567360643,
        0.04713242900151279,
        -0.058298275701826406,
        -0.008164351994964611,
        0.05529532345135087,
        0.023822412074319024,
        -0.0326150568653898,
        0.0005028665685061495,
        0.042339195773012754,
        -0.04010930419554629,
        -0.08872749318524809,
        0.04088571114252317,
        -0.023397711506972157,
        -0.09706260951033936,
        -0.03820197877430816,
        -0.04783690022717068,
        -0.061295325650662036,
        -0.01731890049386678,
        -0.016237880080071536,
        -0.009298543529303288,
        -0.07583828609935583,
        -0.01386464145621355,
        -0.05581932399464952,
        0.07855312986716168,
        -0.005850481593175673,
        0.04375888856515977,
        -0.001937340448490565,
        0.076717258324975,
        0.03875150977358065,
        -0.020207272858572933,
        -0.037893040952751776,
        -0.025898888534254004,
        0.017993308012170514,
        -0.09672939297407052,
        -0.005405814721680988,
        0.07633331097577711,
        -0.10220001628444972,
        0.031478957196720225,
        -0.07891011877015483,
        -0.04082827919572538,
        -0.022952324650524138,
        0.04431348592355074,
        -0.058235976899885106,
        -0.023301356700561538,
        0.03260631941102077,
        0.025784673537276842,
        -0.02130439268324866,
        -0.02138157954434871,
        -0.04572105425414023,
        -0.02299455971377188,
        0.06512549989683793,
        -0.03632658946758418,
        -0.03754579786745885,
        -0.010757247559344454,
        -0.06445606566812001,
        -0.039632624014360296,
        0.09034965134329162,
        -0.07925039577825524,
        -0.017762570678919877,
        0.055880539838048714,
        -0.034708702050835136,
        0.024049341388101903,
        -0.0068187318182411725,
        0.04075785628068462,
        -0.023139424050516708,
        0.02406255383212274,
        -0.02002772867778616,
        -0.013098650448447616,
        0.03827251854112523,
        -0.008839433191174174,
        0.024970328799081003,
        -0.08308581095372823,
        -0.002207148774716894,
        0.030058391197712486,
        -0.13879889188049946,
        0.06078661131596728,
        -0.069282342730634,
        0.012121103562762265,
        -0.02998893529015196,
        0.12643747644670536,
        -0.04181949017111106,
        -0.0028345870276303906,
        -0.028003277056193314,
        -0.03777879349240415,
        0.049018135322962265,
        -0.08048261988573095,
        0.01573459225179487,
        0.13054399490068613,
        -0.001805263928433061,
        0.012782431479349106,
        0.0023443616999409937,
        -0.044651187823945594,
        0.019370393233549082,
        0.05338907390220338,
        -0.13633556597914775,
        -0.010077622545273557,
        0.00035227495975389406,
        0.035109382897169986,
        0.0647231454018129,
        0.015110089499623745,
        -0.028631796143868717,
        -0.050407449575869664,
        -0.08069614281076368,
        -0.13628444400855283,
        -0.045493274581351786,
        0.04656237503060999,
        0.05288590595037884,
        -0.03922733781527417,
        0.008331451458553345,
        -0.04335845421184509,
        0.07749586516444268,
        -0.038666176698052335,
        0.046978563794723385,
        0.07189200550491545,
        0.03851558580488368,
        0.0585359358004767,
        0.008067440777792152,
        0.026117563755251285,
        0.005383709695303017,
        -0.05195416769030754,
        0.04564236588216357,
        0.04163850167612625,
        -0.06428028801205408,
        0.061313849166637825,
        -0.015170420631064604,
        -0.013241504759209127,
        -0.054884733680661796,
        0.018053355711903394,
        -0.06288946405075352,
        -0.03931919500340454,
        -0.026137408144705044,
        -0.04013408882072289,
        0.03139363038512038,
        0.10085300179883215,
        -0.059158861709499085,
        0.029896957474339476,
        -0.038857757682535465,
        -0.07084868928230353,
        -0.06004382175924279,
        -0.012322213348242293,
        -0.0018757413792649278,
        -0.02732493789808997,
        -0.000923240654456637,
        -0.06553023550076044,
        -0.05411862003489157,
        -0.048236578718682525,
        0.10031418584783892,
        -0.0789622835260792,
        0.03387058209663318,
        -0.06368502832211048,
        0.06819560641956082,
        0.0172366249991506,
        -0.007524369452768433,
        -0.04373760413393703,
        0.023440549953483207,
        0.09006805093298222,
        0.03853972474012518,
        -0.033992374683150306,
        -0.010086062288630234,
        0.0330396184239785,
        0.04692576222200499,
        -0.09840216757923266,
        -0.018554697020016393,
        -0.042383666065232584,
        0.0945726182957245,
        0.03971287268970776,
        -0.040012937739883944,
        -0.02660003324721528,
        0.11718044433546676,
        -0.03121286061079537,
        -0.010546513170299891,
        -0.03340490732982788,
        -0.011894992132960714,
        0.01035229245061603,
        -0.0029121104441036383,
        0.06744081546430991,
        0.03643116359225595,
        0.055192530939138576,
        0.017773815459008177,
        0.03214829372485618,
        0.07057921614178428,
        -0.05877370858107264,
        -0.006952509003865588,
        -0.09320704861610608,
        -0.015229321016178625,
        -0.0059407320928510365,
        0.04504243185997094,
        0.0260100046365936,
        -0.09079940659661737,
        -0.0415500550269924,
        0.11894111816384903,
        0.01707425124553087,
        -0.014155033059794934,
        0.060282145145923546,
        -0.027908364041767324,
        0.045647035335320864,
        0.05880727505110577,
        0.13325060217947982,
        0.059732119530454264,
        0.010381625545462037,
        -0.07288385512821555,
        -0.009580008879848431,
        0.013477537562376943,
        0.11587249662316726,
        0.049646670375644526,
        0.02494264002802439,
        -0.007508208604630135,
        0.018222865743096367,
        0.10782908721933751,
        0.002423531326241672,
        0.0838212930396918,
        0.00791110127204939,
        0.09253309643462085,
        0.008870104874040864,
        0.013057842722780742,
        0.017615206007527792,
        -0.02440277275194929,
        0.04565893374486782,
        0.08460141802402302,
        -0.031719060727799474,
        -0.045142497517802055,
        0.0781000741959291,
        -0.09516873867600797,
        -0.024643015754655197,
        -0.03204633533176177,
        -0.04970552123375161,
        0.044972999758632504,
        0.0685182663146927,
        -0.014765913498963772,
        0.04208584647486697,
        -0.030111920052534574,
        -0.08520565780285913,
        -0.03522870368130476,
        -0.06523073469533615,
        0.06113374415158792,
        -0.09027331272801882,
        0.00010100683233204254,
        -0.04605407837867047,
        -0.0033887726524135936,
        -0.07685709889606432,
        0.00239231406049028,
        -0.0424483614065538,
        -0.03269077017189261,
        0.025373239044790746,
        -0.00032939129385694925,
        -0.08231866509039398,
        -0.053980539330746986,
        0.0009075861882550584,
        -0.08449302515378912,
        0.10509388518328278,
        -0.014562235847428613,
        -0.026949707733817968,
        0.059802790713057684,
        -0.04879061183018505,
        -0.006637511378712435,
        0.008852485278333475,
        0.0700619765196156,
        0.010651660491920591,
        -0.004907490327297304,
        -0.0033113807390590068,
        -0.024822620748938262,
        0.013754020255575563,
        -0.05487297063314091,
        0.015103423247913628,
        -0.09183319223274972,
        0.008159644263399895,
        -0.05795788743944218,
        0.0042408462417593724,
        -0.07254127537917167,
        -0.00585017077047853,
        0.012238701518991368,
        -0.034375616165049104,
        0.024219364632922537,
        0.08320445883192057,
        0.11313102480173473,
        0.0055183875577037855,
        0.025737299473041802,
        0.06653919419801961,
        0.11554730110636315,
        -0.02545127792328961,
        0.13147213190993362,
        0.06696164915522579,
        0.06349795772282585,
        0.03668237244263134,
        0.022237856131683272,
        0.046017175999060675,
        -0.037961053810791984,
        0.049539308610255635,
        -0.03542541896132218,
        0.022820778379695997,
        0.044617784464212544,
        0.041112792125544834,
        0.00537714889288326,
        0.0011476241277893415,
        0.08590836301123658,
        0.03172509618377896,
        -0.0034181636869753153,
        -0.06469780181168466,
        -0.08149538014853375,
        -0.016248708011596936,
        -0.04022019414354425,
        0.0034594045159571825,
        0.019357269367764177,
        -0.008222544756469283,
        0.07985223802109823,
        -0.06650824949901261,
        -0.056532122245521114,
        -0.009282031807506278,
        -0.1144626676673541,
        0.01274632361656691,
        0.04894688481410421,
        -0.013702030533037873,
        -0.016535292659970106,
        0.04621844740602632,
        0.055864405154896574,
        0.001203542258875024,
        -0.009094243061561428,
        0.08928468491738918,
        0.04187903041248216,
        -0.027655810419297308,
        -0.05667109502855647,
        -0.008934455337937578,
        -0.0165767037700365,
        0.020621736375389995,
        0.037537890491768644,
        0.0036029332221493154,
        0.1194423866330691,
        0.047709423986891805,
        0.0032559128120050462,
        0.025002330766710552,
        0.023609055411022886,
        0.06940758293245378,
        -0.05171225814407242,
        0.00908577481504217,
        -0.03412579748400273,
        0.07440083642153957,
        0.04040053579106176,
        0.09143359648833921,
        0.049795949259503786,
        -0.06965663518114716,
        0.02870938291179817,
        0.015257077801538569,
        -0.09573303970564048,
        0.035221648897524084,
        0.05230217871568528,
        -0.024401072110263676,
        -0.002206141831987824,
        0.11458390260321083,
        0.051323923974374575,
        0.006128016783780027,
        0.027562139553801594,
        -0.03216501311798598,
        0.02795447961910303,
        -0.056707788449077944,
        0.061776546564941096,
        -0.09333900404382287,
        -0.02161000442449465,
        -0.03786374056255008,
        0.0583388822939814,
        0.025087226798011678,
        0.11199730531587468,
        -0.002900888475900901,
        0.03110091364996545,
        0.06528255270164113,
        0.053434592577826935,
        -0.07028081124756522,
        -0.05494095618850248,
        -0.0016969274506905534,
        -0.08540094982120912,
        0.06562985686108674,
        0.07466309219004089,
        0.00945447624613394,
        0.012089492786720057,
        -0.12770760559358052,
        0.09558109718810401,
        -0.08061159706534804,
        -0.04876662997671646,
        0.03868319712598553,
        0.06610823052082561,
        -0.016801089198793053,
        -0.040181824772108535,
        -0.02757383904529714,
        0.0036443649755367874,
        -0.03340000260356649,
        0.011199982310337961,
        -0.0077284416401317575,
        0.04228825238981018,
        0.07880413897697636,
        0.04848145437703317,
        -0.004001045700611307,
        0.11446917844062546,
        0.03498359022066878,
        0.025848815852768336,
        0.024008067475865754,
        0.023142196313206288,
        0.005155125711383157,
        0.04689134624920142,
        0.003473125832904933,
        -0.002715004947512388,
        -0.06384753175962708,
        0.04847510964354342,
        -0.07493424745748696,
        -0.007234102102166233,
        0.07313366714426806,
        -0.006778794581275727,
        -0.05516666522853177,
        0.03450848440991793,
        -0.06599217577877428,
        0.010824384153312563,
        -0.0664693374253755,
        -0.025960205989920923,
        -0.02343954293942828,
        -0.10406049025505552,
        -0.036384821385679604,
        -0.008139776702918104,
        -0.04679634989287171,
        0.05669116817913909,
        0.1228343795379469,
        0.018845712874929553,
        -0.0687067953890539,
        -0.039332126636030126,
        -0.0476212874511881,
        0.005195776517314246,
        0.0719987237070884,
        0.0274705224528013,
        -0.031057588302437496,
        0.024370865953433147,
        0.115502171784361,
        -0.03295225457923538,
        -0.08263492998470334,
        -0.001668771191170611,
        -0.07092329787516073,
        0.051947146737963294,
        -0.067293664123556,
        -0.10373191963084373,
        -0.016061238977517683,
        -0.05251027025046563,
        0.10458105611880059,
        0.12222385062020483,
        0.08411912362403917,
        -0.01833933656316631,
        0.031154212826921938,
        0.12224624540439982,
        0.01994513702522343,
        -0.00011753498759577499,
        0.030006847097238488,
        0.02739113552456594,
        0.05984969303597042,
        -0.08642164001890906,
        0.05098799041680334,
        0.057185196909275655,
        -0.023861811947334992,
        -0.007931879726664662,
        -0.05796451742003307,
        -0.009747792047555204,
        -0.06838995110528327,
        0.022852762981472145,
        -0.11550572818839042,
        0.0030061852624497826,
        -0.01851116717854575,
        0.021144124118454857,
        0.056730168469331654,
        -0.0404024425938774,
        -0.00924691916164816,
        -0.09335370409759222,
        0.005756693273618994,
        -0.08246960797058031,
        -0.03402902147076834,
        0.01490516223721599,
        0.013229483935204397,
        0.019126992878144143,
        0.02077468623429303,
        -0.037998810012754416,
        0.01564759661116827,
        0.08199566945053063,
        0.01786457949278543,
        0.007487736855395135,
        -0.005863627757056494,
        -0.09416406196645054,
        -0.08281650720053074,
        0.02290167305931594,
        -0.014583532033212297,
        0.04695661358845084,
        -0.08229564015283947,
        0.0714630310154413,
        0.0036825446247276995,
        0.08430280083575643,
        0.0600191146661914,
        -0.03854269032073315,
        0.009183319548014556,
        0.06251851075315745,
        0.03839740929886987,
        -0.07306934480084633,
        -0.09517087567217619,
        0.05578545668974905,
        -0.019528097945184737,
        -0.0627097257672673,
        -0.006784227641927515,
        0.16981425603891692,
        -0.04102889906146542,
        -0.0019081206336414164,
        0.021098350689600434,
        -0.08409638519284363,
        0.0474606690281938,
        -0.10282740573516594,
        -0.00588894768087651,
        0.060575879754700065,
        -0.04812051670112652,
        -0.048100646075083894,
        -0.023056611358609338,
        0.11630352959868023,
        -0.005139592709164221,
        -0.005036672176274737,
        0.0532287879397438,
        0.01299333830738058,
        -0.01272914925321347,
        -0.01314760040209971,
        0.05438838594692097,
        -0.009500772080032728,
        0.017266124788945108,
        0.02760594311907121,
        0.09530224047391751,
        -0.11775353247802131,
        0.11850631541904906,
        0.023982212600735273,
        -0.01057468918549499,
        0.04283435222301325,
        -0.04894895301859012,
        0.06350150613287903,
        -0.14257590346700366,
        -0.06958195641167118,
        0.09457773736375594,
        0.007032367478996097,
        0.03031332487357246,
        -0.040873259860232256,
        0.08711627548786238,
        -0.04440947398521497,
        0.04983024291991523,
        0.051677175703369646,
        -0.05564884640228881,
        -0.06877677595909344,
        0.07887192014563585,
        0.13751292920182293,
        -0.03384255701878204,
        0.07246514363376613,
        -0.027961918589793182,
        -0.04854552534905003,
        -0.005538177083427156,
        0.005194372399250646,
        -0.036722317403734404,
        -0.03309045636414244,
        -0.07840538165672499,
        -0.029151782519412195,
        0.06478689415460061,
        -0.017032863232399477,
        0.09353811766653444,
        -0.017522453825531074,
