{
  "weights_summary": [
    {
      "layer": "kernel",
      "mean": -0.0021697140277380737,
      "shape": [
        7,
        96
      ],
      "std_dev": 0.06531651902723529,
      "values": [
        -0.0776956267321145,
        0.006629178019498505,
        0.016300584333741007,
        -0.043483289489934886,
        0.01742069727342451,
        0.013622784091733668,
        0.037570442557198866,
        -0.013056375272564154,
        -0.03770911945090616,
        0.012587414743835177,
        0.010031147212911734,
        0.0326649000107949,
        0.060853663701031846,
        0.0022745782915693192,
        0.04852878707229937,
        0.005786311874451416,
        0.002763120482404045,
        0.01121634640658579,
        0.007038968060083023,
        -0.09615596588545142,
        0.0013758265927262556,
        -0.12813836283159696,
        0.022939536535257828,
        0.06291817688170719,
        -6.197830849378315e-05,
        0.022555067923469112,
        0.002047038545303889,
        0.023177354370904193,
        0.035506151922953574,
        -0.004478392109994947,
        0.08584484279959625,
        -0.007696965393048942,
        -0.008614476322867687,
        0.06614999226120649,
        -0.008195684022195438,
        0.018571046339959145,
        0.04658830906210905,
        0.021017010788372675,
        -0.028294127640037976,
        -0.01168175793145433,
        0.00013166565992176388,
        0.06302166620179708,
        0.1508658123663597,
        -0.03659625661534752,
        0.02645554773232222,
        -0.018589327382275308,
        0.005579434700352296,
        0.05993256447512475,
        0.04635576096359281,
        0.03859666251000788,
        0.026840954300661177,
        -0.010454280379829196,
        -0.06903793217865585,
        0.13949795924326608,
        0.041646669619838,
        -0.002035356341221226,
        -0.11430045233775803,
        -0.038635295445221846,
        -0.002491735165213086,
        0.037530698361710274,
        -0.022263647634666185,
        -0.017034881302352,
        0.007775515753159776,
        -0.006127461886020308,
        -0.05443497091568536,
        0.017617119399102182,
        -0.0407996340320869,
        0.03445889353759551,
        -0.07325488963229071,
        0.12744243938584532,
        0.0754402675223057,
        0.04215016040582432,
        0.09835263978283844,
        0.04422232828924583,
        -0.019913951831405492,
        -0.005190784500621359,
        0.030265055145243004,
        0.03837725336983659,
        0.10586957985765025,
        0.13343885240148873,
        -0.012963242404810404,
        0.019463898868246517,
        -0.11746350519707224,
        -0.06100433404304002,
        0.16238559584284262,
        -0.06135540283791369,
        -0.1290844448353988,
        0.03137560474080135,
        0.03764816598640404,
        0.034117653056481345,
        0.09905742562995459,
        -0.13882114249389252,
        -0.12328733919021541,
        -0.037048906571343174,
        -0.004799272802828889,
        0.0127294739900604,
        -0.00854529721401331,
        -0.009560537729239812,
        -0.062322981279282694,
        0.04700521098853768,
        0.02457529013274568,
        -0.000587181732773116,
        -0.001903331435582801,
        -0.02297370580077171,
        0.0007527785753941626,
        0.09966319547110575,
        -0.07196531110958043,
        -0.011942851019799482,
        0.03810402830512742,
        0.0315102264167004,
        0.025487531371574466,
        0.025512744299330186,
        0.07151192799983333,
        -0.035695657824692334,
        -0.04525605855504819,
        -0.01637162858576774,
        -0.04619596807118141,
        0.06780788984269419,
        0.016108290268351276,
        0.02744346202205647,
        -0.015394135579048559,
        -0.076860120730593,
        -0.020005884570914186,
        0.10142619896155024,
        0.031709752787425716,
        -0.04768704142560111,
        0.007092161963150852,
        0.04768003053919305,
        -0.0021178319658442025,
        -0.005810398278025151,
        0.0293824579172818,
        0.04074159195290404,
        -0.011486159746558986,
        -0.05208737339980646,
        0.03830383681330799,
        -0.0002496811392643706,
        0.04149922996076323,
        0.046850349353930856,
        -0.02989587480234092,
        0.0007573777743983068,
        0.015550817144267242,
        -0.005369262401552454,
        0.08303855137001495,
        0.02315885274721781,
        0.007631688619445449,
        -0.03972454643954673,
        0.022845611049616986,
        -0.002938501889647245,
        0.0006975216874043301,
        -0.09399901807310554,
        0.022834756027852995,
        -0.007513845329995775,
        -0.044797123428548184,
        -0.0457570434835876,
        0.011119690487491488,
        0.032813226917614985,
        0.0019875714342248636,
        0.004108357876384878,
        0.0076754882629384,
        -0.0021449327287611387,
        -0.17201726876904094,
        0.04656298347708775,
        0.06532698882038895,
        0.1394291876971166,
        -0.04899426911722275,
        0.17325361555490568,
        0.020051127655226188,
        -0.11056513812039251,
        0.10664077317174793,
        -0.08491014034614024,
        0.12802833204652286,
        -0.02699183821334014,
        -0.15537372900491797,
        -0.04066622246058685,
        0.07817232561065515,
        -0.08978088097368783,
        -0.09202004096317862,
        0.07931989420299358,
        -0.0038298402417891635,
        -0.10738162371952001,
        0.048392697740471294,
        -0.04379116290638901,
        -0.08011496685582659,
        -0.1515988066014487,
        -0.018562599904972173,
        -0.0036622576325762283,
        -0.08090708246408435,
        0.05195195631380263,
        0.007961139409538676,
        0.0369859228991537,
        0.01845120503879454,
        -0.05928100614496837,
        -0.014413070882045478,
        0.024981721776611905,
        0.03426691752665171,
        0.04799627243187331,
        -0.011121032394502843,
        0.008364023098845505,
        0.0640484239145481,
        0.01496875627488125,
        -0.0009918251845992734,
        0.045690472313581865,
        0.08480072751531637,
        0.05424532072329063,
        -0.15814116502078807,
        0.004456415298952989,
        0.026365710438818597,
        0.018745579063180993,
        -0.02821292686817893,
        -0.09265520202460265,
        -0.058166309561787366,
        0.06862306018224953,
        0.015600924797681819,
        0.13323927731715562,
        -0.028894437074670477,
        0.0100566756324959,
        0.05628808016473945,
        0.017738266364719233,
        0.001207591029196014,
        -0.0852858827338821,
        -0.14674178819706352,
        -0.011386157334123483,
        0.009383146796601786,
        -0.062400721076912136,
        0.03216595108067677,
        -0.02879725339070721,
        -0.04738802777069376,
        0.038117593810025,
        -0.014740267928547747,
        -0.08980830965977618,
        0.00196278879287218,
        0.04164501921417452,
        0.008757428077838504,
        -0.001873261892532793,
        0.036556336053596164,
        -0.07366951821448636,
        -0.024578027741737042,
        -0.007970532279649188,
        -0.02118319475274333,
        -0.009879029794308606,
        -0.0944668258648434,
        -0.008497113964352699,
        0.01277325090131463,
        -0.022272750200830936,
        -0.005085728569969574,
        0.03793918117343642,
        -0.013537365395669137,
        -0.002412057278888069,
        -0.062419936119120646,
        0.012522930356244698,
        0.002641799637467815,
        0.02430599677387251,
        -0.008644902506841592,
        -0.025054084067558612,
        -0.002228023670964717,
        -0.0011090501692439874,
        -0.007707626107980456,
        0.017031904740403735,
        0.1165912643360415,
        -0.10916395926976644,
        -0.10959955810276557,
        0.13990703764043982,
        -0.14093739038606928,
        -0.05454590979188996,
        -0.06533484157024597,
        -0.031140971104451486,
        0.14951942824922299,
        -0.0021949977144977133,
        -0.02149528264029292,
        0.11585146852849754,
        -0.03175333489253629,
        0.06798347387983258,
        0.158301092996874,
        -0.061153690606263134,
        -0.02892204397001999,
        0.017381078449517605,
        -0.042843013823252396,
        -0.1372705177446847,
        -0.019798286118356136,
        -0.010837262447675872,
        -0.00630133002879825,
        -0.08915588821414963,
        0.11306547125025126,
        0.08598627707196227,
        -0.11456864712719865,
        -0.0993524863309608,
        -0.09031465448606825,
        -0.17804937803876836,
        -0.02111205480073977,
        0.004129735631342259,
        -0.0239673702112793,
        -0.030323222844449778,
        0.01903875614122359,
        -0.051072874815074186,
        0.060818906021155104,
        -0.030193274417864673,
        0.0011834853278098836,
        0.008636709681165764,
        -0.07019697495147045,
        0.003592559254911038,
        0.029492062059064628,
        0.011316350911369129,
        -0.024696847415899816,
        -0.002548400721351275,
        0.042633687789998424,
        0.009120559788501879,
        -0.044342621454061856,
        -0.007017206480552417,
        0.04417645593054638,
        -0.015030939678360944,
        0.0357192892789399,
        0.009804136549257257,
        0.03355327748118571,
        -0.00767287217224466,
        -0.06175601178082223,
        0.0004461981726141159,
        0.008606837846943903,
        -0.06016231804344592,
        0.0268670426244542,
        0.050480600007711623,
        -0.0035519227205089605,
        0.017230182155921606,
        0.043543977815715534,
        -0.031151434327067375,
        0.0444598476540025,
        -0.053323746601192,
        0.0914515574098524,
        0.13285150177159993,
        -0.022331612005866308,
        0.02647332952732855,
        0.13869340576575484,
        -0.030896880778759073,
        0.03548362221836312,
        0.015511309159980956,
        0.004319178718614764,
        -0.028764127449980803,
        0.03608944221047584,
        0.04296150814102509,
        0.04896648365451104,
        -0.02260199162348154,
        0.006488436700253731,
        0.02932242135293242,
        0.013651735594940411,
        -0.00751820400876985,
        0.04997039528682095,
        0.01691762195665518,
        -0.001482998423749031,
        0.029766424135366336,
        0.004774890955942607,
        0.05823745240941513,
        0.007106623547308363,
        -0.03043472371163142,
        -0.04671818669459867,
        0.02770899168033171,
        0.0021573860926171516,
        0.1441843541984299,
        0.18384601591756577,
        -0.08804146578838618,
        0.10414775720135373,
        0.04802701437792997,
        0.008971991720131432,
        0.0602607725498735,
        -0.017256709201295874,
        -0.06156713248442611,
        0.009048926696702281,
        -0.07984402340792632,
        0.009908178547538785,
        -0.17782596245467783,
        -0.10156004074010203,
        0.1915031677752038,
        0.005389892106653511,
        -0.20877789851632061,
        -0.039853544728119125,
        -0.13780428510103093,
        -0.06218790931972193,
        -0.004486698276935302,
        -0.013655573432067828,
        0.043369927098463934,
        -0.13981593365312844,
        0.008746166329495273,
        -0.0707706244224506,
        -0.058010674200823224,
        0.03415014722470773,
        0.053765218513608104,
        0.05315566239202052,
        0.013866190576321208,
        -0.08184138956382836,
        0.014511807580243088,
        -0.010255963914955615,
        -0.036426089021385055,
        -0.008538758212922173,
        -0.028103556999126575,
        0.019498509066719797,
        -0.01703465283553351,
        -0.055470932958844,
        -0.061484507604633906,
        0.05062547203231808,
        0.0005753528047521038,
        -0.010861854983867922,
        0.005148234927529556,
        0.024727066946938714,
        -0.03053648722724677,
        0.02053948883434225,
        -0.0422607306551366,
        -0.007862561413854387,
        0.022026597428808338,
        0.026783753840123437,
        0.01398872769709866,
        0.02933462811745042,
        -0.013602623369454645,
        -0.02938820746373658,
        -0.022248460607229487,
        -0.011025471801925393,
        0.0008918115179255811,
        -0.05306556686510504,
        -0.03102785388456685,
        0.017767231830980793,
        -0.08215454671416797,
        -0.015195127188853802,
        0.04640482320781242,
        -0.0008403512787164976,
        0.059495337432034334,
        -0.0026382473063633815,
        0.04396572926601222,
        0.011420702552948829,
        -0.01728508431150687,
        -0.07330528006385209,
        -0.014193042128490395,
        0.019962062539447996,
        -0.0031879656977132245,
        -0.003389698522351765,
        -0.016573062277152772,
        0.06209169422605959,
        0.06751581638831478,
        0.0392860208392324,
        0.010516559925705164,
        0.010053981633040079,
        -0.15858648437207884,
        0.030487170020444328,
        -0.004179779981091038,
        0.0339203293972115,
        -0.06854514246360881,
        0.06386673077723215,
        0.0223211117230191,
        0.09437271360431101,
        0.11568582554717846,
        0.010659118060468369,
        0.031478622230481354,
        0.11533033274195328,
        -0.0649347227914786,
        -0.17352541676192818,
        -0.02153735067293351,
        -0.04961784686951254,
        0.1272772965899627,
        -0.05625856129784612,
        0.016033785621015536,
        -0.08478580922545612,
        -0.01161105498794366,
        0.06905539406074293,
        -0.016583412962277902,
        0.12859085130472925,
        -0.023246205800426772,
        -0.05563103465922145,
        -0.055115249749834574,
        -0.13194515328826228,
        0.13729950865709278,
        0.1299871515763119,
        0.1909167027667861,
        0.03351953522509468,
        -0.044084999191340374,
        0.04906902092798278,
        -0.18168367012341846,
        0.004293691626258221,
        -0.07892489339962502,
        -0.13118160106544435,
        -0.1547316982983169,
        0.05525699463714451,
        -0.1027719497634127,
        0.023547893741631614,
        0.07819635968171573,
        0.007521062915967765,
        0.015176819382373212,
        -0.049866595760472365,
        0.051820302535908636,
        -0.04261878740962944,
        -0.03360079370520986,
        0.0862622062694336,
        0.060686848159303336,
        -0.0032906795125618284,
        0.07529483622762148,
        -0.0350284510899668,
        -0.10066759576038575,
        -0.05843000649223079,
        -0.024383896466973705,
        -0.0610062443578554,
        -0.02726028441505427,
        -0.03881665438145767,
        -0.036805827719889765,
        -0.073436608308583,
        0.01730876286641999,
        -0.025737070534422243,
        -0.053100031854465206,
        -0.06706533027206248,
        -0.014852818001743614,
        0.04946817553577936,
        0.022619681333771423,
        -0.0195043488565625,
        -0.048006233791752576,
        0.05781099325555325,
        -0.010523233559837631,
        -0.015861278373856716,
        0.005851414278179316,
        -0.011338051232891305,
        0.005750506217752575,
        -0.06747167758553702,
        0.02247558190300316,
        -0.05164303694598976,
        0.043827747768869565,
        0.0272570049641519,
        -0.0018227412785737475,
        -0.00868583145302801,
        -0.03252865257214642,
        -0.05747462922097722,
        -0.05473145875609085,
        -0.018128918993991713,
        0.01023957023024586,
        0.01916293347114343,
        0.032823740875566665,
        0.037745864055381245,
        0.023485811182233425,
        -0.030111212810559267,
        -0.050138740108398305,
        0.014689232602535312,
        0.07296477766691176,
        0.037503787043030916,
        0.006118019227192044,
        0.026088899615670104,
        -0.022807454144619127,
        0.0018534739003542924,
        0.01879604711033181,
        0.04084995904272175,
        0.05677311759957335,
        0.0013497318142554828,
        -0.0033996940275274074,
        0.025373711802470136,
        -0.03579126083892663,
        0.044955967331178646,
        -0.1519675265209422,
        -0.088297356675062,
        -0.04844912106359573,
        -0.026325366614831282,
        0.011489089023168059,
        0.009854588523464415,
        0.02980290945045765,
        0.03915330127517501,
        -0.0032958841789495485,
        -0.10411138898551613,
        -0.017074939302484476,
        -0.038103293114674336,
        0.06339573858899128,
        0.13685446943899793,
        -0.27656399640702783,
        -0.04878726574562056,
        0.059437572746412905,
        0.03705054094631166,
        -0.14254024800171472,
        -0.07898046870075344,
        0.07506194965488953,
        0.10063413688318595,
        -0.0031992187617675126,
        -0.06150561217011076,
        0.14165872908063692,
        -0.040598915322714785,
        -0.08820487838016249,
        -0.11184164515373679,
        0.057346827602372405,
        0.013493589560962999,
        -0.10577126434827863,
        0.05110922677913165,
        -0.010773948940338996,
        -0.049801404662275034,
        -0.07762942416347463,
        -0.01240417569421459,
        -0.05328562114902115,
        0.0021844802775692522,
        -0.07214143400850362,
        0.051969298300586206,
        -0.0314309520679672,
        0.008404029884641449,
        0.01743034410546514,
        0.019451328770029714,
        -0.04001730477523456,
        0.07943613232994536,
        0.027241347116097176,
        -0.03407334790824186,
        0.03951313833468367,
        0.02801362901090377,
        -0.0009953567941051206,
        -0.04647501317113863,
        -0.013166885269303697,
        0.018787659608308638,
        0.0017742798530462345,
        0.015314792349659517,
        -0.05754566026470423,
        0.015030316520332243,
        0.06567919776569443,
        -0.01808603597062915,
        -0.025455318679278013,
        0.013118656069116027,
        0.0688876307767688,
        0.07297567067426294,
        -0.04244395235939953,
        0.0377611692842621,
        0.07863389212356739,
        0.0051105782408908985,
        0.01891877789435216,
        0.008789708490431675,
        0.020869501532265355,
        0.026639979086766102,
        -0.03901530589905665,
        0.01593729811761036,
        0.007354337499321114,
        0.012914409682173675,
        0.026448669761970994,
        0.012020138451258267,
        -0.07124230671937759,
        0.0325784325536968,
        -0.00648015440669945,
        0.007117441307864351,
        -0.06506815144072894,
        -0.041455214373288335,
        0.0023928331664537753,
        -0.07779777571577681,
        0.03305635128444014,
        0.06282661876974757,
        -0.01932974382375676,
        0.017719572345471033,
        0.024597742128355853,
        0.004600031584534564,
        -0.012368289774974566,
        -0.047981805226186,
        -0.11861802991821103,
        -0.09865156073646,
        -0.002874971938752546,
        0.07101374529703629,
        0.08395603298434855,
        0.1799910612905194,
        -0.17316357859078477,
        0.01525824104035235,
        0.07095233940117562,
        0.036141675457912734,
        -0.10329445893299366,
        -0.10701925755377792,
        -0.09014527348455369,
        -0.161629857758745,
        -0.11425936828740105,
        -0.056265078572677804,
        0.05951502928417825,
        -0.12027181084211974,
        0.07178940664038652,
        -0.20312009373219259,
        -0.22956151805465114,
        0.05737420388921646,
        0.04737924511170541,
        0.060303501507093696,
        -0.0710855076161423,
        0.07058388813433632,
        0.10447739863213365,
        0.1456092884626195,
        -0.0015509050876028252,
        0.003739261151822732,
        -0.02242249449137665
      ]
    },
    {
      "layer": "recurrent_kernel",
      "mean": 0.0032233095663171804,
      "shape": [
        32,
        96
      ],
      "std_dev": 0.08193666891864643,
      "values": [
        0.020397743556806253,
        0.063347024672252,
        0.079450647279768,
        -0.006131061717601962,
        -0.11323038050224324,
        -0.004941742305649121,
        -0.012327664088493763,
        -0.0032292851824085762,
        0.14489766384989572,
        0.06188103999339008,
        0.04004762061596763,
        0.0356352929542379,
        -0.11723006599919014,
        0.0633085348008081,
        0.026262449209894283,
        -0.09274286429928583,
        0.014456384637235349,
        -0.03314022075351629,
        -0.0859876088709909,
        0.08884374274666235,
        -0.04113126323786571,
        -0.03664228188531151,
        0.060731169478314806,
        -0.04386516187948843,
        0.0001032368598551631,
        -0.017559883773349317,
        -0.0587166320345337,
        0.04815517695263116,
        0.045366860548520044,
        -0.08983157717965314,
        0.11376163720866306,
        -0.032237725504348946,
        0.06576479437939406,
        -0.061236076172633686,
        0.05423795101621187,
        -0.10744314709617578,
        -0.04582556367800816,
        -0.05230381021363319,
        0.10932797000755279,
        0.0029055065821407726,
        -0.08566861790824296,
        0.06020532678310636,
        -0.08681487622245354,
        -0.05433726462251558,
        0.08679071623731888,
        0.019835431978886476,
        0.077537980789569,
        0.05629181060761067,
        -0.09931401169191985,
        -0.03983807013155165,
        -0.005419605798482214,
        0.15547723645181166,
        -0.007426824351580951,
        -0.08582544234792844,
        -0.06116745210210066,
        -0.1168939137317855,
        -0.03504398254825919,
        0.09495161881246761,
        0.03527852434928582,
        0.029746244863254286,
        -0.044567294668096474,
        -0.013274645993054314,
        0.049501612453706836,
        0.012490907200849326,
        -0.06593705392887661,
        -0.027999403973550614,
        0.04606100243488956,
        -0.04288047068019235,
        0.10522534566857226,
        -0.065490080727694,
        -0.06513095770994153,
        0.023656713887746168,
        0.028814923301297583,
        -0.0693665914376271,
        0.027685528119385856,
        -0.06139514111062907,
        0.10326609225598272,
        0.09294336845393472,
        0.056718758109902165,
        -0.0734538260729832,
        0.1344275217192486,
        0.08922741636097913,
        -0.026197685263090527,
        0.06890376788270725,
        -0.01662710761857615,
        0.023182408234178407,
        0.10648860475470495,
        -0.0036108033113837353,
        -0.07732497681901787,
        -0.038548024386745934,
        0.12064605500556767,
        0.06353505737056775,
        -0.14139632113999323,
        -0.13656270105925977,
        -0.031246553704441418,
        0.0229770540350704,
        -0.04324189887081341,
        0.10648654543925157,
        0.0180698488143119,
        -0.025543922556558,
        0.014356290547751852,
        -0.03217827817546809,
        -0.012267880934260306,
        0.09324637726812803,
        -0.0360525730089785,
        0.03244524778475864,
        -0.05279359389073663,
        0.1779038782179633,
        0.04524347253359,
        0.0688305902571535,
        0.040478194393636896,
        0.08574140471636003,
        -0.06301150100600561,
        0.002943033688043565,
        -0.05043229569657509,
        -0.024144666404879403,
        0.02476701060828133,
        -0.03257006152328103,
        0.05587765707601278,
        0.09871272663948753,
        -0.0075157711780789475,
        0.09845420709360773,
        -0.003392365045907647,
        0.14779786019214108,
        0.035207943498447206,
        -0.05988143574952206,
        -0.08414394527314603,
        -0.025433430325714143,
        0.12147899408490356,
        -0.09288085921063291,
        0.034432704638314604,
        -0.007596420758036338,
        -0.024146947572997703,
        -0.07000686588895191,
        -0.03193516584414926,
        0.08510988287386964,
        -0.029969005605435674,
        0.013612367870394335,
        0.017851053697563183,
        0.14257085688535653,
        0.04953919080545877,
        0.029663998641205586,
        -0.04447353852132335,
        0.11291565196197598,
        0.00200427870416703,
        0.03563362616865385,
        0.09058911188400144,
        0.04328367641346565,
        -0.2141584095868218,
        0.030107629240596318,
        0.018485361329469468,
        -0.03001066015927801,
        -0.0956196206203268,
        0.019517370839059647,
        0.12413935944559956,
        -0.008143777159739166,
        -0.09428314090602724,
        0.020310799636403296,
        -0.024634861301738066,
        0.01699694593163323,
        -0.012060752979081456,
        0.1369005791389476,
        0.1422464982263825,
        9.946448162372291e-05,
        -0.035959576098395535,
        -0.003803785393467191,
        0.021942419098264193,
        0.07652345755030651,
        -0.14453876975565014,
        0.12433047439755279,
        -0.049247122641522645,
        -0.02592228550343397,
        -0.07623887997409595,
        0.11038202579732498,
        0.014017308006609542,
        0.15821246058577504,
        0.026896145271098376,
        0.08747493404117382,
        -0.07633917986725144,
        0.035864937747036266,
        0.10805097006845624,
        0.01533757467656539,
        0.09231746527988081,
        -0.008060108102811353,
        0.02801350544793417,
        -0.03512942021702341,
        -0.03485015443554369,
        0.17489349094121548,
        0.014701908957536963,
        0.06488990259031834,
        0.06411022191321276,
        -0.06323215437338106,
        0.10408432616216987,
        0.013888494319810431,
        0.1585748354867927,
        0.15631065479754794,
        -0.04466711883944189,
        -0.11781732105098491,
        0.12006830258070576,
        0.16973833907248648,
        -0.10958989795044602,
        0.11698509668025384,
        -0.06706652225134146,
        0.07552831585992814,
        -0.13013251830827005,
        0.022718515472290035,
        -0.01939901318111672,
        0.004539824602511313,
        0.1134989351710407,
        0.0896133114828967,
        -0.003414682245189599,
        -0.0058781563160552434,
        -0.06481808824744653,
        0.16524787342663966,
        -0.1227110657123078,
        0.03833633670058055,
        -0.038960969712059146,
        0.0043338749097863415,
        -0.02241608367853,
        -0.0429497841906631,
        -0.06850283045194722,
        0.0908796464579836,
        0.1572808926037298,
        -0.1057475084313046,
        0.04659196563581283,
        0.04063805721875401,
        0.0227711917890425,
        0.11302394791523704,
        -0.07549607395967295,
        -0.1053783006427654,
        0.008049336662862814,
        0.04759795154867692,
        0.09043777446130144,
        -0.1849549851514335,
        0.011311383452392248,
        0.08760111206256124,
        0.0007262895423447676,
        0.020063565035139827,
        0.0015824338827382977,
        0.000804237758847724,
        0.05479578675305581,
        0.07481121158165178,
        0.08172195630709767,
        0.015945561579090772,
        0.0757227556409126,
        0.025454281294045387,
        -0.09825113990063007,
        -0.010945568321654922,
        -0.058185219407124546,
        -0.0628219337011138,
        -0.030571752004008017,
        -0.016750632050079203,
        0.004959166976140502,
        0.07995746910057715,
        0.06895299410269914,
        -0.013635012734940343,
        -0.11095832500342286,
        0.03196361694785674,
        0.027495788901585376,
        0.058018505557932795,
        0.07107874916975843,
        0.02274344145612129,
        -0.001882928456826364,
        0.149480366656778,
        -0.01899472366508817,
        -0.12446167843154364,
        0.011418232554802184,
        -0.08152016020279707,
        -0.0010168570738237552,
        0.07038153798549909,
        -0.0628704813118442,
        -0.02265104858687362,
        0.03122059763287404,
        -0.057950017506915544,
        -0.06717659771242647,
        0.10770093080000535,
        0.10258527600700282,
        0.115680444307771,
        -0.14805852858250518,
        -0.03881918912472217,
        0.21417351755582525,
        -0.04619842045108918,
        -0.023503987304919642,
        0.02299832862326939,
        0.048497210402489326,
        -0.06480855233798566,
        -0.06990008039558075,
        0.02888430229438982,
        -0.12270225650057072,
        -0.06744385176044038,
        -0.034197758272384235,
        0.0887669919450973,
        -0.052303702333363705,
        -0.06237092434071232,
        0.04944140470422875,
        -0.019239140313009963,
        0.01975193155449185,
        0.011918582987827782,
        0.011968918043064242,
        -0.023878714104387473,
        0.06300661590275664,
        0.008449666607038707,
        -0.006361491008634055,
        -0.021886348032732313,
        -0.07786920853394412,
        0.14998131245751062,
        -0.02466300170308981,
        0.07672347772579688,
        -0.018549579764857462,
        0.12323179958775354,
        -0.04922196342960568,
        -0.05492042799300152,
        -0.0012518420659590112,
        0.05806573426453475,
        0.15268641397956026,
        0.06318434237205162,
        0.059541512407794116,
        0.0669087530941701,
        -0.04540188771729404,
        -0.050359166882595306,
        0.014326460522765202,
        -0.059082655297446496,
        -0.0916264752715617,
        0.06497716245317642,
        0.009571098991089707,
        -0.1897276822553436,
        -0.03533203267530483,
        0.00841584711214402,
        -0.033184677446458755,
        0.006492579479016493,
        0.07949044717233922,
        0.06324368028901384,
        -0.04498398600487768,
        -0.08816850075875446,
        0.005653463897844081,
        -0.05302469425656085,
        0.24770443935635078,
        0.0986999857973572,
        0.13425287504436667,
        -0.07392078645803907,
        -0.002141496779546625,
        0.043803712000827236,
        -0.07952518448784718,
        0.09760979379348425,
        0.1126237849834208,
        0.014555118977242012,
        -0.12563628403119637,
        0.06191344809495482,
        -0.0370912719364863,
        -0.04425656470816175,
        -0.08942525958656626,
        0.052872134392650115,
        -0.027615065358125482,
        -0.06458900143325476,
        -0.009778920734558043,
        -0.013159481467579146,
        -0.015084486805061083,
        -0.14331800321919064,
        -0.13857760531163793,
        0.0059340536192766195,
        -0.008554541543310042,
        0.001109961683624278,
        0.014919407013381762,
        0.0378512289816987,
        0.05343485625453358,
        0.10984601512225912,
        -0.027162373828999387,
        0.06715977277644601,
        -0.031675487121004084,
        0.1089590051149281,
        -0.01097966187687778,
        0.14475566512555488,
        -0.045120973442835347,
        -0.08671503839125053,
        0.07256894256478616,
        0.07176322932379989,
        0.07744638610644268,
        0.05143024355397646,
        0.08694827284755485,
        0.0011109622075185922,
        -0.09944298855361786,
        -0.0060193042356230745,
        0.09623863202294108,
        0.02081257236013386,
        0.1020215188627622,
        -0.0010586541034933198,
        -0.10842836082726555,
        -0.05395049295812355,
        -0.11750076813139265,
        0.019455463799564816,
        0.030778366590649683,
        0.11657481826707713,
        0.0910264461192172,
        0.05017242105138075,
        -0.08799401187176545,
        -0.10780976896883197,
        0.12322880872083186,
        -0.0016794595708985597,
        0.04685446992202852,
        0.09330905854769035,
        -0.1262948229295403,
        0.010851135442841942,
        -0.05075568400815979,
        -0.08042588559161815,
        0.00838630739623256,
        0.10129390618757222,
        0.10046054129444104,
        -0.07067852006748405,
        0.05389994763000053,
        0.06211719795803107,
        0.06569487546188205,
        -0.0567415293059004,
        0.10486011834148862,
        0.07467144901477235,
        0.07580656204514283,
        -0.10210105955633525,
        0.02725782883086955,
        0.04932090615146795,
        0.06470203246985062,
        0.038593325808595993,
        -0.0013857009243574436,
        -0.009142425731614303,
        -0.06003218653625851,
        0.01877304437290394,
        -0.009875342681229034,
        0.08177036420707362,
        -0.006125280179254856,
        0.0467677052297156,
        0.17178563797751586,
        -0.10076229708793019,
        0.033445088673997425,
        -0.017183623183840743,
        0.016016047275160726,
        -0.016975557089404753,
        -0.06987572739739789,
        -0.04522035583946741,
        0.003303457629363698,
        0.05184130256308571,
        -0.11545039701308127,
        0.004757930077640761,
        0.0019193379559466765,
        -0.1180290416286085,
        -0.12520450484973705,
        0.0422314218117389,
        -0.1366826516927328,
        -0.01883591873970375,
        -0.017715450928165646,
        -0.06311670424000035,
        0.12557316051704412,
        -0.03203503685876054,
        -0.09446157731264807,
        0.03174522096279838,
        0.012215377805799767,
        0.0008276495052849542,
        0.0564069919019658,
        -0.05555207001609763,
        -0.11536258958611637,
        -0.06350201576794624,
        0.14783164904425022,
        0.06069222956113606,
        0.023351610869490835,
        0.015856068062302955,
        -0.16120902475066773,
        -0.11236033679109848,
        -0.07600900444830702,
        0.08794818734154554,
        0.06304082358427571,
        0.12316998080510824,
        -0.11901062673590511,
        0.0759132426121891,
        0.1661856482580239,
        -0.0297954708045481,
        0.10914238743121751,
        -0.061926901257259026,
        0.07724172443215227,
        0.0872830271174879,
        0.02346354401616234,
        -0.003882474151126845,
        0.029752822757368506,
        0.05807917862388391,
        0.08734653868098097,
        0.009891919177876483,
        0.062362883041694225,
        -0.018300591398790554,
        0.03314687531230448,
        -0.08274684734361981,
        0.046163087502650586,
        0.07066826820171425,
        0.04816753064134427,
        -0.01785294863881578,
        0.025887941811481525,
        0.1123901983618619,
        -0.13570526153359486,
        0.030757295530578904,
        -0.008693318227219003,
        0.10217861361749432,
        0.056256539217286156,
        0.006779293093549708,
        -0.06106541805999044,
        0.007931864630527884,
        -0.04690308159422464,
        -0.029191864947937442,
        0.10803735893053569,
        -0.08274861098745083,
        0.025664818822400813,
        -0.12326597677780382,
        -0.02757790365453379,
        0.004789235999689552,
        0.008935876702800888,
        -0.08642625858919094,
        0.12952185248950196,
        0.09065952731765242,
        0.08039711481513764,
        0.005838130341259522,
        -0.03139002381081532,
        -0.07442861483068294,
        0.021071645782023342,
        0.05843379014416991,
        0.07855337592520137,
        -0.010767653902005974,
        -0.03792757844996379,
        0.04267966873926282,
        0.008957731608921101,
        0.115072494231504,
        -0.10208460981959576,
        -0.06774891494749732,
        -0.10085783305696291,
        0.025089809893242877,
        0.039202130490119294,
        -0.030862133996903053,
        0.01199240513465865,
        -0.10930352646976471,
        -0.1270118311191334,
        -0.026583703854898652,
        0.19429303934049344,
        0.0013034077718466692,
        0.015297839170833693,
        0.06796329164793222,
        0.03180658472803323,
        0.019683532163953483,
        0.15868342660841744,
        0.14148685972840988,
        -0.008697561210587451,
        0.0009927902160086985,
        0.057905408688924645,
        0.05709455647732539,
        -0.07330914798648452,
        -0.053158364986803174,
        -0.05187208280188814,
        0.20301425174021254,
        0.009034382456293549,
        -0.06852984139293897,
        0.11152009088433719,
        -0.09233068455061727,
        -0.036633799928603605,
        0.01889104923170705,
        -0.030440685794134302,
        -0.03438454920116965,
        0.08345158959147381,
        0.10141014199414149,
        -0.02490762526586161,
        -0.058493614637389876,
        -0.03202345928702329,
        0.11980412816922938,
        0.15353068136963846,
        -0.10682202210208648,
        -0.17959543504122505,
        -0.08901362974994606,
        -0.06581771221744519,
        -0.03827653686041583,
        -0.03175776105682111,
        -0.04918370329409211,
        0.014643038281049705,
        0.03944616795224054,
        0.07363043489639548,
        0.011597533879070221,
        0.1965684072567236,
        0.09769103213710967,
        0.05290910030718482,
        0.0033448876210391966,
        -0.1030881286686806,
        -0.06125376432316415,
        0.03563290299507097,
        0.022736929323670108,
        -0.05591753823785438,
        0.05013628805619416,
        0.10532066536184811,
        -0.000148429832927838,
        0.03537500034504265,
        -0.08866835255706476,
        0.04462802353691335,
        -0.03488896786388801,
        0.032960683409022515,
        -0.028534517652476263,
        0.038544497111083424,
        -0.048525892199682466,
        0.02633199614303707,
        0.06986551368418487,
        0.04088429403483259,
        0.18070531430259384,
        0.1575789601482106,
        0.0076775406257896615,
        -0.11356337685546065,
        -0.01739100594741959,
        0.10746951439014255,
        0.009991503531063818,
        -0.05793687481244755,
        -0.07646164117737561,
        0.18659815282675687,
        -0.0047606559508075255,
        0.007276242771359446,
        0.009393195716806272,
        -0.008880769182353981,
        0.036225618374983046,
        -0.044748082010061335,
        -0.0009930227542228505,
        0.062224080142561325,
        0.005902829394345962,
        0.1807683403443866,
        -0.04317207516861446,
        0.02189074879023077,
        -0.1134829596404423,
        -0.04657784670223295,
        0.04898083907050678,
        -0.004087774364241809,
        0.06506358892070052,
        0.02931904986689404,
        0.010452422302133266,
        0.03448563295821659,
        -0.14656412512943384,
        0.08351135486878034,
        0.09294010780952924,
        0.1580875102710958,
        0.003193946704894043,
        0.05528601356963697,
        0.03821213914703718,
        0.09722745277750502,
        0.024893604520995205,
        0.021807203591242424,
        0.09160601236618776,
        0.07105993261331728,
        -0.006850190579947634,
        -0.028165725970744463,
        0.06494084430492075,
        0.053085625170702914,
        0.006546338572164669,
        0.06933447254141223,
        0.030431556488792255,
        0.02765194215743935,
        0.029866190022275398,
        -0.03080113479813662,
        0.0556518901472196,
        0.1506824802494152,
        0.05498711300238562,
        -0.05765879928600663,
        -0.009301644199076958,
        -0.007969298399747774,
        0.01290169119662261,
        0.1345463429701874,
        -0.034106607965688714,
        -0.03183246765470228,
        -0.006070354393760358,
        0.05457791556377244,
        0.12375414738631935,
        -0.03441198623967353,
        0.07828295780602498,
        -0.08075529594764336,
        -0.17236002908249792,
        0.006236071725777333,
        -0.0005926599488054634,
        0.07452601191031472,
        0.029613834801540943,
        0.02969399534018775,
        -0.07246575226358254,
        0.04385611378936976,
        -0.040159407388431156,
        -0.05108585205399899,
        -0.081556222877597,
        0.06603302008417646,
        0.12143061063237343,
        0.004540442581310301,
        0.06796433283100597,
        -0.11966693450757404,
        0.04902438890268916,
        -0.03849301756207272,
        0.05166501500642323,
        -0.14254356461286843,
        0.008831589389438907,
        -0.030722838856877367,
        -0.22490894232881314,
        0.08900591206258908,
        -0.033121835230795385,
        -0.09799603567959259,
        0.046424331738203,
        -0.08550636631287842,
        0.12730879140512083,
        -0.01566580401541099,
        0.0776063372400724,
        0.004783354552536851,
        0.01517312446274241,
        0.10008552973442633,
        -0.049720864483568605,
        -0.02293249015897095,
        0.07434627511958183,
        -0.09233034979142489,
        -0.0008470209643260788,
        -0.010455142769371073,
        0.0012791784765514881,
        -0.10405013573721822,
        0.057385831605193845,
        0.0538436791502825,
        0.042547747022924326,
        -0.04625402818092349,
        -0.008128740464615756,
        -0.039567385475536336,
        -0.026103529676697407,
        -0.06726294339263411,
        -0.1526848949236348,
        0.05713187407354286,
        -0.013203025197166311,
        -0.11228396004924915,
        -0.07589757728704496,
        -0.09530535800101443,
        0.09878660439042747,
        0.11320263901092437,
        -0.031696547875244965,
        -0.1439361529222181,
        -0.01512031962420663,
        -0.07235869753334243,
        0.07792735653930463,
        0.01029009544576337,
        0.0886833145593805,
        -0.09651606368106166,
        -0.09804914211276264,
        -0.14362904937156534,
        -0.0484388687004889,
        0.05827206026004551,
        -0.01807276245750795,
        -0.02250787271246991,
        -0.10107598957763266,
        -0.13687857305171536,
        0.10488091232432653,
        0.014363151977806313,
        0.11562012106018413,
        -0.035579808328273684,
        0.1413632170458679,
        -0.10022754576044346,
        0.12153329447199852,
        0.0215454503935486,
        -0.03303836463376346,
        -0.007243341483421995,
        0.07558101905677923,
        0.11385092065217685,
        -0.04725973689092804,
        -0.16491936768256915,
        0.04612947667569041,
        -0.09487161315054256,
        0.17187239015322286,
        -0.04652683248730258,
        -0.018181199412390502,
        0.042193810009098054,
        -0.035336419510581016,
        -0.017318871075370994,
        0.030325995603666084,
        -0.008591622695032199,
        0.09442724449700177,
        0.002967319660189125,
        0.1478323157294353,
        -0.041965052616713544,
        -0.13938746511772093,
        -0.04238147469762153,
        0.043855460010159227,
        0.0019301726877447062,
        0.022570997083266056,
        0.1263158686815123,
        -0.030667191267775545,
        -0.19711731393230456,
        0.10124165342861269,
        -0.0456687964938147,
        -0.030770886246856567,
        0.10699726592357447,
        -0.01821969756261898,
        -0.04850711009629288,
        -0.03700154770817645,
        -0.008557581155637985,
        0.08044873426266463,
        0.1191523570469231,
        0.10928902516701361,
        -0.05204457963625335,
        -0.08195885194436633,
        0.07059318388853675,
        0.09332700537753236,
        0.08708113338979676,
        0.01971590012373516,
        0.1206912339344833,
        0.08889116525704131,
        0.04172007600579382,
        -0.02540326318535439,
        -0.07356795653274395,
        -0.017133985692524046,
        0.023730939260572764,
        -0.08833829702290906,
        0.010826086961147445,
        -0.09358720036783445,
        0.13694913115379137,
        0.11256755789678127,
        0.11505670962652412,
        0.09027351540660276,
        0.07634341927603472,
        0.013523492677972267,
        0.1225110163025662,
        0.07168586318370651,
        -0.05577448166549158,
        0.03284866045139753,
        -0.004184620936292653,
        0.002489860305629388,
        -0.05740414015445311,
        -0.04059352260952338,
        0.041734458011323416,
        -0.005971226757754543,
        -0.24779760504979112,
        -0.044276897419579395,
        -0.0857464616398623,
        0.02748347531457283,
        0.056619059361174985,
        -0.008070428311714664,
        0.13613585237406828,
        -0.027634656102099583,
        -0.01770957544823482,
        -0.07891152069709192,
        -0.07165592093833398,
        0.033422780077577485,
        0.02080228863857078,
        0.015040129487950932,
        0.08533129375476536,
        0.034635122672002985,
        0.06586313319535345,
        -0.017390841519688047,
        0.1493673757999836,
        0.169236435853932,
        -0.023849698829157297,
        -0.012338229589495396,
        -0.07751301659356025,
        0.13023058740943438,
        -0.14419270980645638,
        -0.06243209681038635,
        0.009269570039571996,
        0.007699495771030593,
        0.03593638264866499,
        0.08529662425965143,
        -0.046102876994656955,
        -0.017993003861792173,
        -0.12527364123185494,
        0.08779972572883993,
        -0.04586972020268308,
        -0.10507986901414754,
        0.06093831634012401,
        0.08833116027921346,
        -0.19738939757295743,
        0.0814453225890369,
        -0.015317035308088502,
        -0.0035779238946823423,
        0.03612344714478629,
        0.036380061117948566,
        0.07606402951732788,
        -0.056774612580001674,
        0.015067372260613141,
        0.004196421662742102,
        -0.08164078977046478,
        0.08439710885769122,
        -0.08849740265256777,
        -0.1006413963177276,
        -0.06651434319723162,
        0.03459723060097404,
        0.03160555755963214,
        -0.08687841654315404,
        -0.09402914315730179,
        0.0573760675725095,
        -0.057731830391202534,
        0.0034565626651229617,
        -0.029193780647218302,
        -0.0950664366663431,
        0.07590251741791726,
        -0.06035365338183134,
        -0.017309328462265676,
        0.049064308151968355,
        0.08495316171157191,
        0.06340593545572921,
        0.07839811752546533,
        -0.06559930165827124,
        0.05287861777860012,
        -0.06661348804121398,
        0.16816474940722365,
        -0.07561509422693596,
        -0.1553307535793711,
        0.060681571172933546,
        0.07787562871651295,
        -0.06653648330975492,
        0.002945091154214303,
        0.09411479567735287,
        -0.06078726865298871,
        -0.044973234184998684,
        -0.0300783926844713,
        -0.04926953645884863,
        -0.05674392432852142,
        -0.121137170115964,
        0.05455774775207835,
        0.0931821287477323,
        0.04797303023740605,
        -0.003815577952552899,
        0.14975553138414394,
        0.10583995831058687,
        0.003261952712970818,
        -0.07797711811723065,
        0.04352374263083612,
        -0.21268808241790071,
        0.09722362966730676,
        -0.11348316822585452,
        0.02531118217783234,
        0.05855020222881846,
        -0.042061373163046686,
        -0.11379014904270973,
        -0.0644094597771797,
        -0.09888267194882902,
        0.07088828046094961,
        -0.005143108353225947,
        0.0028862865126208564,
        0.05203040345451567,
        -0.034312738984640864,
        0.08417162736714727,
        0.152597351117975,
        0.025959591632928037,
        0.1358738866473732,
        0.0035899170281741316,
        -0.07583005203956035,
        -0.06362302653775143,
        0.008660551859051561,
        -0.08680141222872818,
        0.07554664166220225,
        0.07695379768600899,
        -0.04624588109859956,
        -0.03841226156652109,
        0.08078268804868698,
        -0.12685385869895832,
        -0.014066843347128431,
        -0.016280218316747863,
        -0.0615267392422664,
        0.0719002497467191,
        -0.0025886221909498575,
        -0.10960504911157395,
        -0.019415821361283864,
        0.033723454599649705,
        0.03975269709987658,
        -0.05082371865206693,
        0.09153588552617631,
        -0.044995124953944345,
        0.0747990897345886,
        -0.010466824963213241,
        -0.049580985214354445,
        0.07513338873386126,
        0.1407912902598254,
        -0.06936623771943673,
        -0.06071363024431682,
        -0.09068446192556365,
        -0.04135245785705147,
        0.027320443579293995,
        -0.0555990246744267,
        0.08741262172763578,
        -0.006473205816727251,
        -0.046825753391913597,
        0.015061887955805469,
        0.17630616563408674,
        0.025799494093037625,
        0.057510753185071664,
        -0.1151080548207905,
        -0.07195826669841286,
        -0.03339143513288413,
        0.0352240801635409,
        0.0672061464509117,
        0.07696244500102946,
        -0.05560303718103159,
        0.046224027885771235,
        -0.06758419643407852,
        -0.034808048439063786,
        -0.04446984367814312,
        -0.08580509233366442,
        0.07351295012544465,
        0.08486509940238805,
        -0.1819540719159144,
        -0.049109755545251835,
        0.03552838839137732,
        -0.029000887053554733,
        -0.03792659796128803,
        0.05778628319813265,
        -0.0010835325365454343,
        -0.018288549058178154,
        0.020165686367568422,
        0.0054706436798350085,
        -0.11800348693508447,
        -0.03920107691616427,
        -0.015192142751432122,
        0.06934836726095431,
        -0.008145046344828277,
        -0.014770826362272779,
        0.07146625525701399,
        -0.05323084561945503,
        0.12187223460896959,
        -0.054665025140904044,
        -0.022748859370152974,
        -0.001700206983956713,
        0.02529018191571173,
        -0.0074074529298507955,
        -0.026952813089317157,
        -0.003835835538557945,
        0.06615588185830884,
        0.030194007676844714,
        0.11597779236486037,
        -0.0673099690582277,
        0.2625952451069278,
        0.08605663622703169,
        0.18079029180162792,
        -0.12813096997919846,
        0.14023604032745815,
        0.11731470558265494,
        -0.24853197822075812,
        0.014163523043897331,
        0.08725512606069719,
        -0.004418269264308692,
        0.11713500624408124,
        0.0799774649295061,
        -0.11883430481384676,
        -0.02475531695036636,
        -0.04874396539115255,
        -0.058083307280814886,
        0.008046556798661793,
        0.1156739140626069,
        -0.00462634434472161,
        0.00895410374433452,
        0.1005308325349602,
        0.07103970227053368,
        -0.028729964933426944,
        -0.14507633883796806,
        0.11449841754239096,
        -0.040395880973467455,
        0.11375701065148527,
        0.037879802517434225,
        -0.09744867080137057,
        -0.04558888356728363,
        0.14709143410413028,
        0.1834596911464531,
        0.13777529342065506,
        0.02892441728205184,
        0.02975990472081393,
        -0.07441444113643511,
        0.04419289561261975,
        -0.05290333000996682,
        -0.09231029385145087,
        -0.011392616155420629,
        0.01352621276800569,
        0.01168625716038318,
        0.03264515979566841,
        0.11367976795592845,
        0.020588880734862786,
        -0.03493073822164934,
        0.011323583497109962,
        0.059728850229913005,
        0.10843575837019045,
        0.007232881801021954,
        0.02460274047071159,
        -0.03313344655671188,
        -0.056442078548397875,
        -0.03709687432308257,
        0.0648099843842743,
        0.09065504650058664,
        0.024963576586099455,
        -0.07650034010129393,
        0.11180462800354696,
        0.03081092128544515,
        -0.03332851228693376,
        0.006593264045794969,
        -0.12411863065263651,
        0.005155990065051491,
        -0.0968392425257111,
        -0.0023412552270012546,
        -0.04388288795159951,
        0.0928591885097877,
        -0.05011713600593777,
        0.09418314897392546,
        -0.18649200892494425,
        -0.015942754308140426,
        0.024085210431390218,
        -0.02117463036467527,
        0.0523263086689315,
        -0.006456231945853104,
        -0.037201119962158455,
        -0.08995592914057648,
        -0.08128639790531574,
        0.08924949464385046,
        -0.04891871734381272,
        -0.11465822827270883,
        -0.0111446134398062,
        -0.10903724420144445,
        -0.09025287102188946,
        0.035559401080910893,
        -0.010472564269342434,
        -0.08742280114668677,
        -0.06789988730723032,
        0.014818201205911062,
        -0.12687479172237887,
        0.04612438245720529,
        -0.0158651680183799,
        -0.0006103249229955333,
        -0.0365078051804127,
        -0.08659913376868741,
        0.07835027518837132,
        -0.04166029313905947,
        -0.024539871289514785,
        -0.0495491997373345,
        0.019211852241114206,
        0.04283837324791974,
        -0.09065545679495465,
        -0.0731226949862381,
        -0.10140855550601442,
        0.008871266821009614,
        0.016824199834709917,
        -0.11710385710879752,
        -0.0336132859140362,
        0.0764082870340754,
        0.02165291871399795,
        0.015429715978712474,
        0.03180275128192482,
        -0.12876794784185833,
        0.01175202025284838,
        0.0835250486390143,
        0.006126694730533128,
        0.026340001059417376,
        -0.0732966961614821,
        -0.031173897773961397,
        0.16585019244884752,
        -0.05914201658485936,
        -0.224959664447565,
        -0.11613323766284317,
        0.05154466819738221,
        0.12788427438022631,
        0.01645406437691839,
        -0.07645314753968435,
        -0.04150803388448944,
        -0.1834961013773493,
        0.12496156582886604,
        -0.0444978844242688,
        -0.027270306964304443,
        -0.08445990561695793,
        -0.07348408217879665,
        0.032638566974515705,
        0.1861710320284056,
        0.08494402869483328,
        -0.09969427782682147,
        0.08635508491001402,
        -0.050500117252107055,
        0.09517475548933339,
        0.2993224942480054,
        -0.011630707737890097,
        -0.07741288291238646,
        0.003442074686239323,
        -0.17810326170358415,
        0.07432413656757447,
        -0.0819745310239455,
        0.06266730113816113,
        -0.09018568084621875,
        -0.04255340670543112,
        0.0055435761234393045,
        0.08198793550572124,
        0.051286109019239814,
        0.05435372059210096,
        -0.011033064549304398,
        -0.04133263796347642,
        -0.0072185005401147525,
        -0.03978263588685693,
        0.0596568578463115,
        -0.09510157522356893,
        0.0828782307616117,
        0.20464515691293628,
        -0.06659043328186454,
        0.08416092700560249,
        0.08218564576677106,
        -0.050403908928999715,
        0.02346466517035019,
        -0.01496718538176367,
        -0.03780652843664589,
        -0.02886216984934216,
        0.0005369002856422467,
        -0.01533575976171,
        -0.010844625106631724,
        -0.0194827806048063,
        -0.16453233472894666,
        0.10929890060411149,
        -0.028687622316282503,
        0.062004258953600656,
        0.060879368741879325,
        -0.02651235009804412,
        0.15474100478897515,
        -0.07137981227122317,
        0.019216458802259105,
        0.11847148025186491,
        -0.05479670406723782,
        -0.0480136885296769,
        -0.007362851723512343,
        -0.03259326483702943,
        0.039972293845520146,
        0.001132502168553419,
        -0.0056298314051969195,
        0.04138867189125584,
        -0.02522230792620663,
        0.005321718538456705,
        0.03507925870991725,
        0.13164447297252535,
        -0.11094328009446516,
        -0.1345162971414141,
        -0.11441502809818307,
        0.03662095864149298,
        0.16258933885981586,
        -0.046987193010089426,
        0.06776408498070437,
        0.011014511890012646,
        -0.010975670739057568,
        -0.10363387988988776,
        0.024449158492429564,
        -0.043411653416294826,
        0.014886795414153579,
        -0.00510981034260891,
        -0.10891468434161734,
        -0.07513349659840622,
        -0.00509357765911138,
        -0.08497704905781965,
        0.19280964324824806,
        0.08880307197398404,
        -0.1266585592894193,
        -0.15457265677525994,
        0.2558657317444323,
        -0.02138682060042804,
        -0.03975519814069989,
        -0.07003665197596524,
        0.031055644641999544,
        -0.14089018944519233,
        -0.033811275195572504,
        -0.0687848630764444,
        -0.04982915277788258,
        0.10732253384895102,
        -0.14453839799662144,
        -0.001112584693382132,
        0.12570385740235074,
        0.040357025569840804,
        0.004786699308962453,
        -0.03536380270285189,
        -0.058208998281437704,
        0.018164178881318733,
        0.09631699659338322,
        -0.01444020802182127,
        -0.051001071040133183,
        0.03286792728619837,
        0.14178278797947041,
        -0.018411662692940034,
        0.006373290530224753,
        0.22193897686180503,
        0.04951330472033806,
        0.18091571360841036,
        0.032391959526607825,
        -0.041400986077355595,
        -0.018265660261814785,
        -0.04217520630832583,
        -0.010325494173939673,
        0.044818286642358776,
        0.05098060205929693,
        0.011566405123752602,
        -0.05703141191283137,
        0.0060586868838436074,
        0.027995613863406505,
        -0.06554462556092086,
        -0.12968996166888297,
        0.06912389205337285,
        -0.043784017907759196,
        0.050519463488363406,
        0.005459459808758196,
        -0.002366120687042117,
        0.058050184288073556,
        -0.02892784358550512,
        0.01697182853028536,
        0.009251464886143899,
        0.1335238544470162,
        -0.07698739446829847,
        -0.029141603937037346,
        0.019442260202452776,
        -0.026037105542117703,
        -0.2157389458705264,
        -0.10486265605262522,
        0.025316537552939028,
        -0.13078289553589295,
        0.0953885489568072,
        0.04461011407419053,
        -0.04373338647215566,
        0.011582026214705094,
        0.04067535584027844,
        -0.13686735829184507,
        -0.01032872721665884,
        -0.009384718337809716,
        0.0323733819674419,
        0.10009588204244556,
        -0.023972422843437466,
        -0.07985628791402982,
        0.028845270445391334,
        -0.15445870489097482,
        -0.11264500119725132,
        -0.20456827494551644,
        -0.0975189706588814,
        -0.031241519820965825,
        0.0988700481223257,
        0.037557741187299584,
        -0.012752213698214688,
        0.014849303634958328,
        0.03855837227961292,
        0.0012456725468368614,
        -0.0020009089170572284,
        -0.009947984571518555,
        0.13047273324472786,
        -0.008636622349040578,
        0.1411655022481855,
        -0.06086730102757472,
        0.016708147352763818,
        0.04662078435302146,
        0.07632803749505038,
        -0.06852314819550662,
        -0.209870189789851,
        0.1638665466719313,
        0.016303635401996454,
        -0.020860535176132695,
        -0.11588352783914924,
        0.0697410961292877,
        -0.05737469961806213,
        -0.017046677555634507,
        0.10511247351868203,
        -0.13871503181605976,
        0.1483864794025668,
        0.038162377886875334,
        -0.013230948263121439,
        0.02827291276752656,
        -0.03689642369101635,
        -0.16295488450044684,
        -0.012738467531689984,
        0.09444766718036807,
        0.14566723763873918,
        -0.002375830228958898,
        0.11358027433136425,
        -0.041384353082424274,
        0.1132755586804258,
        0.059031918071270194,
        0.0816077436351369,
        0.13739724823142424,
        0.11268124517119565,
        0.025471015678007303,
        0.16107784960087476,
        -0.05722518305687855,
        0.11034095846928396,
        -0.08309232447093434,
        -0.032250151920044476,
        0.011809781112200806,
        0.09196918609708847,
        0.020219559652388024,
        0.1752023995557856,
        0.04626731567285268,
        -0.06737932732411908,
        -0.04303222194730787,
        0.00796743624582534,
        0.13193212052926653,
        0.06620962460748017,
        0.06442543030854059,
        -0.059878236824581335,
        -0.11832968697666013,
        0.06317258464596731,
        -0.060216793120863275,
        0.013665208820416358,
        0.16697386849740609,
        -0.06587985904407687,
        -0.10594271335339947,
        -0.0586863713444635,
        0.05938034175169575,
        -0.14874428612728496,
        0.006639592402784411,
        -0.01715951985994427,
        -0.17327591617303814,
        0.08388766386233104,
        -0.03151822613975536,
        -0.019646721732208966,
        -0.045371371140708716,
        -0.10649624859788802,
        -0.06989594783308467,
        -0.10160224098531387,
        -0.036023435384537575,
        -0.1285466159819506,
        -0.09110838176493184,
        0.04433162710623821,
        0.005676610414584867,
        0.08329933750034063,
        -0.045599377357130315,
        0.10822440016339901,
        -0.0024157497467960504,
        0.006946671240593805,
        -0.04193959821148557,
        0.017624028770255137,
        0.030873974048785217,
        0.1552158142737735,
        0.08270336785001656,
        0.1603668177679327,
        -0.039444484514399636,
        -0.005683292086621706,
        0.08217206543021623,
        0.2881736124358302,
        -0.021340945955100197,
        -0.09957212084306032,
        -0.08416056584952569,
        0.030141993977785254,
        -0.007261445704972628,
        0.06613113590496439,
        0.04901575191451566,
        0.02020103297212161,
        0.09930148191869194,
        0.05398472893908297,
        -0.05075574170157908,
        -0.047479225533834435,
        0.010379742988063035,
        0.0721808218553957,
        -0.05103350675069191,
        0.08111450655781961,
        -0.008961092465823425,
        -0.0801128492242818,
        -0.008667535564798701,
        0.00835247730245281,
        0.05711088948817428,
        -0.05815803945480897,
        0.09128357801368032,
        -0.08019516745188807,
        0.016518029615575972,
        -0.0407629280494955,
        0.03709534109811181,
        0.009738257684102523,
        0.09548575825811893,
        -0.01936138468785929,
        0.03154794136701543,
        0.0055136117665406,
        -0.11048894551498817,
        -0.10118477374505333,
        0.02141577090592802,
        0.08950897595070598,
        0.06619579659509044,
        -0.01248698064672971,
        -0.1672218792849834,
        0.01892422598435682,
        0.1369413697106848,
        0.0011967566056597797,
        -0.07190684780087014,
        -0.1291885483781438,
        0.037168015571025226,
        0.06274217337819263,
        -0.11450551166677272,
        0.0371060849540821,
        0.052132202313933146,
        -0.11928809233162185,
        -0.07591775482617638,
        0.025282121115596377,
        0.031679125352883544,
        -0.007558230075364493,
        -0.09368325371048893,
        0.0007093254151477016,
        -0.02967450472488215,
        -0.06146598187104762,
        -0.06032837319471769,
        -0.07318678814531632,
        0.025887115697706263,
        0.007594738369502156,
        -0.055975910077379724,
        -0.09059166703955966,
        0.021991959477493463,
        -0.057561263683439404,
        -0.027804994660782976,
        0.0843697857731846,
        0.02164173151752078,
        0.010134289037603262,
        0.06287763457596193,
        0.07338322388468199,
        -0.08303987982986046,
        -0.1751247111754044,
        -0.08611143161435186,
        -0.019977480045219237,
        0.027421055472994567,
        -0.005914406376652545,
        0.10191933827073787,
        0.00427292359303752,
        0.03664863138490079,
        0.004536950866149372,
        0.02979895586688627,
        -0.052151168124401695,
        0.14651186762401042,
        -0.15353499947110055,
        -0.009572860763067717,
        0.03707096030678785,
        0.001250847651400808,
        -0.018391655965745466,
        -0.1232288774508016,
        0.03773186558433435,
        -0.11112573735751391,
        0.18498104065577042,
        0.00195896185883349,
        0.1493997412031973,
        0.03460692892529947,
        0.1185540967919486,
        -0.12814498928001755,
        -0.04380540546954458,
        -0.12996171848242433,
        0.008768777754063501,
        -0.02718475358830461,
        0.012206388840968552,
        0.15166443509812763,
        -0.010652986403924447,
        0.019011398119968242,
        0.10047968624017134,
        0.1989146870167545,
        0.09248680377728191,
        0.03792393774274545,
        -0.06423513311775857,
        -0.11461219709356413,
        0.015824002278009883,
        -0.07048127821416693,
        0.1014944121962076,
        -0.0371190280959261,
        0.10178096911190657,
        -0.011678439559697473,
        0.10232515945144825,
        -0.046427272710659315,
        -0.03165284393532429,
        0.024937363964486724,
        0.05811596299970352,
        0.04747243032740771,
        0.044023848983580485,
        0.02324867090562817,
        -0.07595300495238369,
        -0.05041320609602079,
        -0.15462276993808907,
        -0.06769710797419143,
        0.08003095680064479,
        -0.11896787314089424,
        -0.09958118166210811,
        0.0031864384796196393,
        0.15313374334228513,
        0.029565615681961577,
        -0.027185399788771537,
        0.06090899628091048,
        0.04554192244036604,
        -0.014107025984282824,
        -0.05057536956389998,
        -0.14187241064210623,
        -0.022958578167054274,
        0.02688407772798181,
        -0.008100525026699147,
        -0.0659884169154735,
        -0.020347693097917226,
        -0.06731444054347789,
        -0.09831334145502518,
        0.13848173946776265,
        0.10602505551161717,
        -0.0641929089698458,
        -0.04826196785802586,
        -0.03425406567185088,
        -0.08263847802615368,
        -0.01833205107973479,
        0.010283769070435177,
        -0.004570597284525222,
        0.0343876487790978,
        0.04342915655844092,
        0.004768460908693076,
        0.10677729913046541,
        -0.12794630118082756,
        -0.12667307745422618,
        -0.045267504758177854,
        -0.05214774389524758,
        0.031716991716250524,
        0.03765162033169708,
        -0.030045958716457558,
        -0.03605124533569487,
        -0.10519036970667428,
        0.03192308658482355,
        0.007374170610134717,
        -0.14445745512538352,
        0.033375303928837294,
        -0.017828079215513767,
        -0.028482882531082304,
        0.10362507640718738,
        -0.06389461047743838,
        -0.04355349989592531,
        0.08328689570790646,
        0.08447476497196536,
        0.050394181582838767,
        0.055257657071812544,
        0.045256361562951014,
        -0.01942883366889872,
        0.1316585996213417,
        0.059598970091882614,
        0.10885832299883379,
        -0.05003887183762925,
        0.08043390723166778,
        0.032103786601343755,
        -0.04973086725683303,
        -0.08294737501252251,
        -0.1301757939895313,
        -0.1036745617467077,
        -0.05277452925969245,
        0.004270759626503215,
        0.14940937603955284,
        0.13441406444994075,
        0.0792775051861351,
        0.060073013168502304,
        0.19542715141090722,
        0.06787287455958119,
        -0.043420135278704544,
        -0.08383800185668687,
        -0.010504580179675135,
        0.010568932810071823,
        0.027068083857519354,
        0.009359544017869445,
        0.08926912846701904,
        0.13880169800696576,
        0.07267243170085755,
        -0.06617987654574692,
        -0.027183599553132435,
        0.010208650995421967,
        0.07500849946754637,
        -0.012761639352821548,
        0.04750089192149057,
        -0.04494253695279797,
        -0.036199205742067316,
        -0.0673379665468413,
        0.05406070972556695,
        0.05459998071255692,
        -0.05732669668058335,
        0.019444040828544167,
        0.1292660135496514,
        0.034116998008363014,
        0.06682966016023126,
        -0.017685150685583056,
        0.0359313644239335,
        -0.14929885375505364,
        0.04494521283919448,
        -0.0714702404027676,
        -0.05778735244844642,
        0.10042443482304042,
        0.12682002435513778,
        0.026450303265007802,
        -0.053862315142570026,
        0.02865242968183867,
        0.028689671568667544,
        -0.0164802239543773,
        -0.05236246079630669,
        0.046141192551140395,
        -0.11258123938986289,
        0.08693372997089734,
        0.021662266041071528,
        -0.10239897499097653,
        -0.10168168982540482,
        0.05836203559549011,
        0.009311393988010909,
        -0.05265198631123977,
        0.05794749875853784,
        -0.10004590050166427,
        -0.1051842085305843,
        0.15676339884718096,
        -0.023635125972917757,
        0.12871622421210172,
        0.02979067752934894,
        -0.016408966651294356,
        0.04536565027818068,
        0.05044701222412774,
        -0.015694308811222274,
        -0.08864713470520683,
        -0.0823581547860715,
        0.12768687119093702,
        -0.028972988570270773,
        -0.11060770992817487,
        -0.038530913921496227,
        0.11066650765636094,
        0.023749730143165684,
        -0.05029999659521889,
        0.1000218800767598,
        -0.0223733875482771,
        -0.024216039748986517,
        -0.18128373365086103,
        -0.07276973919182056,
        0.0910905701744894,
        0.0516960316913361,
        -0.035625437184451464,
        -0.002906797257067651,
        -0.06545096393280904,
        0.043190909129196306,
        -0.07485482779261315,
        -0.11636994272176304,
        -0.06255195132717253,
        -0.1297731223198955,
        0.04874457176650588,
        -0.06369899830718678,
        0.01556820750866609,
        0.014645991360258341,
        0.1479406174516238,
        -0.0701018165491807,
        -0.032682943278878364,
        -0.038003832054053895,
        -0.0116206106736075,
        0.04033961932917157,
        0.11925116995618251,
        0.05508122933322558,
        -0.06766073816826468,
        -0.08433255907926325,
        0.09076682570438194,
        -0.050316649008405406,
        0.1563542929157181,
        0.09777076786406122,
        0.020323756431692278,
        -0.0498303469134337,
        -0.12335653803991779,
        -0.07568454122132384,
        -0.1051231047339901,
        0.08193380123014277,
        -0.06253171587354213,
        0.012472997731166884,
        0.13792102641073542,
        -0.10386878339276534,
        0.039901747537997925,
        -0.08722636112895446,
        -0.11908157837614931,
        0.061818923787886566,
        0.07055185643876863,
        -0.026573220376833226,
        0.15441345576062293,
        0.020794421150222085,
        0.14825574430661898,
        0.07561580937977752,
        -0.00042079066120268385,
        -0.03920662030917726,
        0.059788638265381694,
        -0.010182332009926236,
        0.05566280668441975,
        -0.056945159538709614,
        -0.025912848529752983,
        -0.05277703227364622,
        -0.06583036440898868,
        -0.135350236794207,
        0.12723748091653544,
        -0.10230449030043726,
        0.10795838004826153,
        -0.025494234527736196,
        0.11295657804520262,
        -0.004739686732774946,
        0.0018344436223009424,
        -0.053332665040900167,
        0.04715536038056413,
        -0.042799925058258,
        -0.029747365658318654,
        -0.060530929451298655,
        0.07819256279179347,
        -0.14822819296295456,
        -0.010531597481252646,
        -0.0031138597776780032,
        -0.09219383741414788,
        0.11829606606509954,
        0.015300320893455224,
        -0.0017801744823451393,
        -0.02009083281198283,
        0.09647826505442711,
        0.11776724012425405,
        -0.10632524696177983,
        0.10967126334917983,
        0.011837546744629028,
        0.021963917966582078,
        -0.05302372559337682,
        -0.05538082081862236,
        0.20701660929134802,
        0.03782154433088393,
        -0.045848632645824866,
        0.011428068647142426,
        -0.04624917069483256,
        0.0035058556502608764,
        -0.05485345276200079,
        -0.13579844274120256,
        0.03707333804446518,
        -0.03356988040093718,
        0.11587497439403634,
        0.04404982375492894,
        0.02017229893925375,
        -0.04666769770274641,
        0.057041652490943784,
        0.02331426967813758,
        -0.1317486535151126,
        -0.03749011583934605,
        -0.07673537077808609,
        0.06831276363369138,
        -0.22603468281972067,
        0.10747159607035037,
        -0.0962484143473733,
        -0.006860492745039349,
        0.0074389952033763855,
        -0.07204573360750079,
        -0.24648679281221936,
        -0.055299776896117835,
        0.01666011036650559,
        0.05623127437419952,
        0.03421364548048905,
        0.015354939318846704,
        -0.0437341812547051,
        0.08988425508985651,
        -0.0863848965038087,
        -0.007948893120172325,
        -0.1509231740817092,
        0.048610592963940685,
        -0.07125828826147568,
        -0.11072117707015305,
        -0.06787718446392198,
        0.11625867123352501,
        0.15171523889206912,
        -0.17856602341304448,
        0.12860234260355044,
        -0.07121722449135132,
        -0.11697181611318178,
        0.13610591815472778,
        -0.10710190006360015,
        -0.05315148514731583,
        0.07684699414699886,
        -0.03923616799285551,
        -0.07429398371659195,
        -0.006754494919148277,
        0.13786932009676245,
        -0.025068490621949983,
        0.034374511462331205,
        0.0602827264351822,
        0.12639285447042023,
        -0.023241507505015538,
        -0.08040583436608062,
        0.006728623386202691,
        0.21002332793205114,
        0.07337505400892216,
        0.027223369140266827,
        -0.08809017399653865,
        -0.09492171032116517,
        -0.10794264874562061,
        -0.003791592513176168,
        0.09351900195133012,
        -0.030008057109273047,
        0.038427572693011336,
        -0.020315319321226377,
        0.015219032809465903,
        -0.06705968008122255,
        0.024309977739943638,
        0.13292387856728022,
        -0.15891916802058767,
        -0.10103204238365882,
        0.0871692158447685,
        0.114179706886908,
        -0.013871114692270918,
        -0.016357196997780505,
        -0.1203587637192706,
        -0.04869324258593387,
        -0.007617797677292018,
        -0.02381997817500118,
        0.08120757305898738,
        -0.04413554942091008,
        0.07645611500510013,
        0.11698416217200015,
        -0.08743494024846868,
        -0.06288701330222143,
        0.18228385385354134,
        0.0022518642119144314,
        0.10720274477782038,
        -0.01580933991521516,
        0.06103787954730798,
        0.03302791572956043,
        -0.02190024239464073,
        -0.01401509000428956,
        0.006663925772830381,
        0.03808615903430418,
        0.11814173514948567,
        -0.007612482022616515,
        0.11746120498395825,
        0.028323844931349054,
        0.01876798608689361,
        0.08490464949972823,
        -0.09723957800728039,
        0.031597706133881666,
        0.046393909502195865,
        0.06696936477412374,
        -0.11737367296787538,
        0.07629226112861506,
        0.1868881983999975,
        -0.007036860289532227,
        0.09735207948388144,
        0.041427535389081976,
        0.05171736038979838,
        -0.0196846096219698,
        0.004914188898770617,
        0.14500070583319058,
        -0.03472947647340848,
        -0.0644258211643306,
        -0.09236103212197097,
        -0.10599653115360956,
        0.011283583423989677,
        -0.03180418180644326,
        -0.09669574965668157,
        -0.04520859237191974,
        -0.04622206593667596,
        -0.11647460946846375,
        -0.0836946171865878,
        -0.03490262774549269,
        -0.006589546042231324,
        0.037754731723327974,
        -0.04505273080068463,
        0.05533289993043025,
        0.025542816461481647,
        -0.03767429727290298,
        -0.0030812198161943053,
        -0.19319532121052083,
        0.20380047785360333,
        0.02157524661276868,
        0.17199847616268965,
        -0.12445578438693651,
        0.03732764144050252,
        -0.10157412617334818,
        -0.19327858691726935,
        0.08139531133900285,
        0.0692865588624604,
        0.07209607541070989,
        -0.16316924552861803,
        -0.014128906388777994,
        0.055030598472183695,
        -0.0015663875303519163,
        -0.04095130298402093,
        0.05287505279398826,
        0.10340175769907042,
        -0.17543286017341825,
        0.050113615148941915,
        -0.06285272326651345,
        -0.009106566461869517,
        -0.1364817367459555,
        0.0040431777692081965,
        0.020612079341187875,
        0.06289313121169889,
        -0.05209020099060574,
        0.08496171622884355,
        0.08208858295021952,
        -0.09421187161363942,
        -0.0800440772226469,
        -0.060696018813961,
        0.06466396229885366,
        0.0012212440678430626,
        -0.0157955685952864,
        0.09109370342120968,
        -0.028137082987551625,
        -0.03536650440754237,
        0.033602844820263184,
        0.09908510150716189,
        0.1152522540633559,
        -0.08271265807659431,
        -0.02344673466106081,
        -0.028336709345174554,
        0.011571042775181516,
        -0.1447993750338187,
        0.02418582071689831,
        0.04098092864224503,
        -0.045580785035353254,
        -0.012317865998295435,
        -0.1148376488057466,
        -0.04761498621447708,
        0.04656406057990174,
        0.04566121231719197,
        0.014253947416683134,
        0.07124227126014523,
        -0.007396522846813176,
        -0.06882271882133298,
        0.07488737891692569,
        0.04382814858165622,
        0.03747713683206369,
        -0.045486162983121955,
        -0.02625367129534998,
        0.049471251682935036,
        0.12778799445869998,
        -0.0645158725824485,
        -0.0352574021188094,
        -0.03825030454488186,
        -0.0635387219392679,
        0.006055593288477338,
        0.14317726019291538,
        -0.019816945417344797,
        0.04959084115723918,
        -0.0614648166599235,
        0.11680337658217303,
        -0.04035870055124477,
        -0.036538065910373216,
        0.05895203281861462,
        -0.12797484158512418,
        -0.06371004615818165,
        -0.1118524592820963,
        -0.06453089327248188,
        0.21091173667995555,
        -0.038979102827663994,
        -0.03868518213118956,
        -0.020644598646277608,
        -0.017654548140099625,
        0.00998013554148626,
        0.10118460990539363,
        0.09271018099068587,
        0.02636996682641399,
        -0.006757464139317875,
        0.09096419921382076,
        0.05440367362939779,
        -0.04355152453787013,
        -0.1572468756403533,
        0.11594412703412507,
        -0.025501678313432717,
        0.05997067178978338,
        0.07110125548555368,
        0.10586669176120807,
        0.12984515942982242,
        0.07799775816904937,
        0.23632186001367725,
        -0.04218908994282113,
        0.03702247141050968,
        0.05653776975787944,
        -0.023092280660545278,
        -0.05249200278809036,
        0.031242188682343713,
        -0.049798799620577774,
        0.14101974772958714,
        -0.025530616735100643,
        -0.01058652944444944,
        0.03379949554045317,
        0.0721096285325108,
        0.0021393523151148597,
        -0.048233745224419394,
        0.022567610147757496,
        0.04619350723581751,
        -0.01477476585779287,
        0.03843192303976222,
        0.10267783226625148,
        0.06452185805086688,
        0.055521484686493455,
        -0.012886165362534828,
        -0.04075617671438085,
        0.112448174776123,
        0.025058424194260086,
        0.026383099007896794,
        -0.06798883939985989,
        0.08253023878604986,
        -0.1283706800151948,
        0.09143897810323373,
        -0.0012906886669156784,
        -0.0753946341682746,
        -0.09285426595692955,
        -0.06997749036974091,
        -0.08119138945708079,
        -0.1455247942487441,
        -0.043753159822324514,
        -0.16432505362633937,
        0.0019617979506227354,
        0.13387019178269116,
        -0.04337691822574769,
        -0.07727121126968726,
        0.014943696810084924,
        0.04516923055200785,
        -0.030075224766670933,
        -0.03337127596272357,
        -0.18588670469140672,
        -0.014239602611479352,
        -0.046296430391244585,
        -0.22897402923399707,
        -0.09040027357363603,
        0.02741149324748173,
        0.006397467416476522,
        0.1148000031750927,
        -0.0033637360726800837,
        0.011874868603530132,
        -0.06481322003545757,
        0.006630741456753301,
        -0.15113535876939585,
        -0.01813828488679204,
        0.07232884635783576,
        -0.06080460776265277,
        0.018775700172071315,
        -0.026644099310620097,
        -0.024779445355793135,
        0.024897440859049037,
        -0.07932885948632681,
        0.09066211749737549,
        -0.0016766028272252062,
        0.12946032606384678,
        0.0747737298817994,
        -0.10759918023371307,
        -0.17106644161897855,
        -0.019576573914755823,
        -0.07496082423298167,
        0.03190060794458229,
        0.0008775116344834167,
        0.057025933359984224,
        -0.013269926380929654,
        0.08146457304759802,
        -0.024896138745687392,
        -0.16157013339599693,
        -0.011740120959320241,
        0.1278918132226684,
        0.07149808772904362,
        0.1759650649641524,
        -0.025443450442118598,
        0.09388202526371923,
        0.021066837948019744,
        -0.10430681901985847,
        0.11626537945851088,
        -0.043289449171473676,
        -0.05199072593445353,
        0.05774350569662733,
        -0.04710101078014271,
        0.07306304484833098,
        0.13509013609858675,
        -0.12441650077449004,
        0.007450314678258002,
        0.20558604714730164,
        -0.10112862075629883,
        -0.020330101238864546,
        -0.05089518234955795,
        -0.1470814958519207,
        0.04691334907219564,
        0.09892230153270315,
        0.2633161677203055,
        -0.006937751555317138,
        -0.03245685757084396,
        0.11155037070449043,
        0.053197801846441156,
        -0.018461613982803736,
        0.03654345926474128,
        -0.19139441888018152,
        0.08281961890017556,
        -0.022731863869029253,
        0.045730161160308744,
        -0.06892788856115603,
        0.03150009171840602,
        -0.16685292630853327,
        -0.13048941487736726,
        -0.07497162563511528,
        -0.0012393670639424367,
        -0.06830608710802183,
        0.0006861339589094401,
        -0.015994286729029042,
        0.04019085034368265,
        0.029966107325933772,
        0.04046737729429504,
        0.041248228376010596,
        0.01503362473103648,
        0.04357038662726768,
        -0.021452793118756242,
        0.0468624364531589,
        0.021687736549013008,
        0.07049487536418987,
        0.07317728394726372,
        -0.07065129955584129,
        0.06625765567512829,
        -0.1269201617488123,
        -0.0259225907276195,
        0.13783291481907772,
        -0.07643399723560587,
        -0.09243136671508212,
        -0.06709135377166513,
        -0.009929792788327554,
        -0.04248799748309323,
        -0.07146015346068649,
        -0.03158369401350397,
        0.04570604641158772,
        -0.20908417511941718,
        0.07578361346950241,
        -0.023594290581884732,
        0.019514346613429028,
        0.0022421525693982905,
        -0.052621192307101765,
        0.001977898418474432,
        0.11770505712889692,
        -0.0247572692943043,
        0.16234732625689433,
        -0.01794127575440806,
        -0.07042396165566173,
        -0.0275179495010607,
        -0.06749856858259551,
        -0.09091550882835792,
        0.06113583043791035,
        0.05756555225442325,
        0.12479560566235684,
        0.05840474883680456,
        -0.10399769734971867,
        -0.019853058572817377,
        -0.0225216609203431,
        -0.14660147427492554,
        -0.13106568954334802,
        -0.09241047247791612,
        0.1550211731913721,
        -0.025993416370129648,
        -0.08238510995521717,
        -0.1420344420321596,
        0.07138715819100552,
        0.11319275257910158,
        -0.07316889010936979,
        0.03411567996610102,
        -0.04500037409567968,
        0.02316659667706751,
        -0.03950172117166959,
        0.03793627401264252,
        0.09943885029091762,
        -0.02900053443398111,
        0.14252786795349795,
        0.043285046287990424,
        0.08183214336261366,
        0.13399456796924963,
        0.02123634446000912,
        0.05046850358518601,
        0.07587758782938392,
        0.030048496098588673,
        0.0055553767324983076,
        0.03837063461432777,
        -0.1415253803027462,
        -0.03693952990313859,
        0.04627313349172589,
        0.01603729941791649,
        0.045555662713360444,
        -0.0049094931803771325,
        -0.029473969506506895,
        -0.12284352741481314,
        -0.027517868907602758,
        0.06011560493270042,
        -0.0675405418332633,
        0.019492570926458556,
        -0.12314946714943946,
        -0.021118225191204588,
        0.05092359886941772,
        0.030047410479490937,
        0.11648923588036308,
        0.03996420541200182,
        -0.04061612830145311,
        -0.07136733370031301,
        0.1402557665117661,
        -0.011916437342224284,
        -0.17876533584830384,
        -0.044286913717093854,
        0.18507237945025037,
        -0.05843540035113705,
        -0.11000536749100931,
        0.13533193650509315,
        0.039242013725454106,
        -0.09240690133492901,
        -0.0865175431169192,
        0.07739935257038248,
        0.07824346020524747,
        -0.1859589651313414,
        0.02834401130192673,
        0.0023213487026781353,
        -0.07376662013007632,
        0.0014121487561189472,
        0.03247760989339587,
        -0.0076803649923941645,
        -0.1146015282042458,
        0.12683314600725398,
        -0.044085677246304425,
        0.005865074723780988,
        0.025057220634536727,
        -0.050463274408582226,
        -0.015481574508323827,
        -0.10998429087738464,
        -0.022673579583176593,
        0.031315017903167014,
        -0.0958994761145421,
        0.07161166176545439,
        0.04917156356548049,
        0.05120694643860005,
        -0.07099453027071345,
        -0.03388418444916508,
        -0.08205908194153966,
        0.01072443397997443,
        0.04604262868673242,
        -0.04732118859171742,
        0.03390826093502784,
        0.10136467010292659,
        0.05398914043338214,
        0.0710786338298156,
        0.04116311300107639,
        0.02474643623803354,
        -0.05748267635169854,
        0.05182522782410363,
        -0.02175985358059027,
        0.19904554779211603,
        0.07301191211037424,
        0.03457449573133302,
        0.03233770426740708,
        0.07925172571007481,
        0.1061903776851669,
        0.08808774727714214,
        0.008187758438199216,
        0.02750516302410555,
        -0.07109302330808545,
        -0.050146070826759453,
        0.003931190660878537,
        -0.12015881804894679,
        -0.08588453746776094,
        0.06966640764637291,
        0.0030585582453156483,
        -0.08903231452801119,
        0.08468404153853623,
        0.02275811152025697,
        -0.039675401236208926,
        0.008492186168964102,
        -0.05042923609405349,
        -0.13307963044748966,
        -0.12185626601512867,
        -0.05617578782515295,
        -0.027364367659332978,
        0.036783452297259336,
        -0.004007854143211134,
        -0.173170485089859,
        -0.18810559731468632,
        -0.07672814071099758,
        -0.04068023322129102,
        0.005346578059138762,
        0.028228645278501635,
        0.031214360156928776,
        0.028438950212946915,
        -0.05948055631537533,
        -0.09282493567745163,
        -0.07164690740805679,
        -0.08760614508316278,
        -0.05270058030549927,
        -0.03655640490211709,
        0.1892557808074639,
        -0.08433889364388071,
        -0.041602170507848577,
        0.13821523458478674,
        0.034876380683676586,
        -0.07438724601001503,
        0.13522730196453148,
        -0.013437829991656798,
        0.14875462705504577,
        0.01606155384791484,
        0.0020354160792087923,
        0.0652644742370238,
        0.02194000704531514,
        0.15232189110203953,
        0.08014021521840944,
        -0.20069479804714938,
        0.1069737496315803,
        0.13627786757896793,
        -0.060051976664924664,
        0.0007929561766343008,
        0.1186045927321894,
        0.06322346871189483,
        0.17350903653640604,
        0.004383235881560404,
        -0.005870408505361215,
        0.15040232165963507,
        -0.04472503925181093,
        0.0843435150891216,
        0.11347221568749616,
        0.03964352449860925,
        0.14396559114759444,
        0.1189001125104871,
        0.03279793125680053,
        -0.05722015062827772,
        0.051542221914135405,
        -0.10258415893464676,
        0.02730470710073539,
        0.10182846904960054,
        -0.030397050595907037,
        0.12651012255094746,
        -0.13177244615203745,
        -0.024884725400303967,
        0.06721839089958181,
        -0.10362695594715478,
        0.014833130598402681,
        0.030119900224286192,
        0.057948652708463166,
        0.07497102177348036,
        0.0751724372232743,
        -0.012985090667406676,
        0.030465277715823892,
        -0.0231562546049894,
        -0.044093487979770474,
        -0.06226845571244763,
        0.1424512179220787,
        -0.0020353090561475934,
        0.07809275917317361,
        -0.09125759889380154,
        -0.0003501481721181241,
        0.1476105078756014,
        0.050339114946556324,
        -0.08684283177051763,
        0.04448388479916367,
        0.07853253295075457,
        0.10891190758800476,
        -0.09874813328235696,
        0.14422729470256804,
        -0.09032042788609461,
        0.03339775794161279,
        0.04978353686469413,
        -0.04620492738854229,
        0.03708054869837873,
        0.042281070947689486,
        -0.004918601487491696,
        -0.009004004343338916,
        0.045754873165323354,
        0.042319526218272466,
        -0.1421950551361255,
        0.008266153851630428,
        0.013916786884967815,
        0.0491172412979983,
        -0.003801784346844913,
        0.11425183891042366,
        0.027188426044587703,
        -0.006612601622378929,
        0.01891941551666367,
        0.05992401307319391,
        -0.011610254866386848,
        0.015989464506750033,
        0.03138703274670351,
        0.09297166390640049,
        0.07145652390774725,
        -0.04064629478245322,
        0.025810659120850742,
        0.023857232204000836,
        -0.028636364489416276,
        -0.033138590117323716,
        -0.08054877841121508,
        0.0811033102527462,
        0.026490579910239634,
        -0.01642347328262936,
        -0.06234128758178696,
        -0.017931414111345946,
        -0.003723494155327389,
        0.02229827718128867,
        -0.04851834792540359,
        0.07865371297423382,
        -0.0327965046652634,
        0.00796916786134641,
        -0.047296466389340736,
        -0.017654920925842834,
        -0.07602552961681344,
        0.052970382900129766,
        -0.002062570673750812,
        0.07762251746831773,
        -0.06638979255743928,
        0.12667153807125703,
        0.025173248147580957,
        0.01366662259757208,
        -0.004966448930264263,
        -0.053393174564396656,
        0.031991661143620356,
        0.031749692198823176,
        0.052807576817718915,
        0.09543965895219167,
        -0.07185177563387338,
        -0.10931592647612814,
        0.09970166038805113,
        0.04050144485637232,
        -0.024854808397527683,
        0.01867252379064739,
        0.003917167867224989,
        -0.07072343418843458,
        0.06820686460197714,
        0.08810415396480736,
        0.03830588984435962,
        0.08929663733024085,
        -0.009584886059410349,
        0.04032988771506604,
        -0.05740786303389386,
        0.005788312981929349,
        -0.004889222365501435,
        0.06401066529816417,
        -0.04855084483173122,
        0.06344580002490524,
        0.025801992114445053,
        -0.0175696707691575,
        -0.045937545325040234,
        0.09292530955795932,
        -0.2204256236434367,
        -0.07152261700573699,
        0.02147918232603864,
        -0.11310436579499028,
        0.005806331018929821,
        0.13891820570195734,
        0.10442190393138062,
        -0.05168372328062669,
        -0.07594873760577174,
        -0.0679523483706981,
        0.05411401672807839,
        0.0010920056882261322,
        -0.007509785087830791,
        0.013651184655710955,
        -0.044507470442881183,
        -0.21048296421067753,
        0.057366245092369636,
        0.0199468478643494,
        0.11462097225926243,
        -0.050821503772521634,
        0.022988696077112486,
        -0.12324130796717894,
        -0.010493183665713057,
        0.11061145414317369,
        -0.08097775122790113,
        -0.08715794437825485,
        -0.0537594216000567,
        -0.0231489217466544,
        -0.045483047905055994,
        0.16801882141363733,
        0.05259542035379766,
        0.120758279003438,
        -0.038310660515114156,
        -0.04272490626227664,
        -0.04438772129011975,
        0.12983452358991943,
        -0.0007442265724456711,
        0.007802264820144159,
        -0.08037751588078969,
        0.049560138212999184,
        -0.012675979658668554,
        -0.04877029453443747,
        0.03298490443572781,
        -0.027800535884235304,
        -0.12114983625288607,
        -0.03282693715438613,
        0.09693115818497951,
        -0.0447945774731475,
        0.03504923307158249,
        -0.08037587173302775,
        -0.07694911857330028,
        -0.09948625201233105,
        0.03508110522490547,
        0.13571490934970282,
        0.10216051982951141,
        -0.06496983439436342,
        0.004489096267283162,
        -0.0666407098427827,
        -0.0803554677625132,
        -0.03522140562579338,
        0.05406092998275666,
        -0.08160417430376796,
        0.027421669287089688,
        -0.07439819199789334,
        -0.2894321983857112,
        -0.25856698294006814,
        -0.05315962569283511,
        0.05391272772927219,
        0.053950819031627455,
        0.01067087958130921,
        0.08820330234823101,
        0.10410599550505362,
        -0.09212492916098633,
        -0.023075049016337,
        0.013375092355499715,
        0.10297986925455158,
        -0.06023769712149286,
        -0.032158637913207035,
        0.01697448195215772,
        -0.025435150611076658,
        0.10484514971149343,
        0.03735691371066266,
        -0.028342382337998885,
        -0.08715748742087212,
        -0.1112517716125625,
        0.02800487027312347,
        -0.03271999308186728,
        0.02491215978601928,
        0.048866287699718916,
        0.1853939445805614,
        -0.042962481994725535,
        0.1483369283573701,
        -0.07982259335625692,
        0.07860120738454676,
        0.01636122426126163,
        -0.022274817511337603,
        0.030582014055616488,
        0.0618576144479978,
        0.024021762412536438,
        0.06285339904775952,
        -0.0664099000141978,
        -0.03979277888437659,
        -0.005606140578032733,
        -0.026198041925299856,
        0.04343991825988964,
        0.03220830873670774,
        -0.04553814292744898,
        0.1098533099335463,
        0.1667619263429344,
        0.046419426507650706,
        -0.11428488816605067,
        0.04784340404801259,
        -0.027189870474545585,
        -0.009332329521270796,
        0.007344621326616023,
        -0.03177334476468217,
        0.07203701699851447,
        -0.053520001109240274,
        0.06652030655578234,
        -0.12371101394215579,
        -0.1318761485619958,
        -0.04929186881297001,
        0.07504570934679737,
        -0.04545087914405253,
        -0.10768545744149713,
        0.09189848930087283,
        0.021849104426365472,
        -0.07637181845479432,
        0.005277166558195528,
        -0.05241521668639594,
        0.03352968223941567,
        8.150765537696937e-05,
        -0.02174055981639113,
        0.07339716687508654,
        -0.16056199501707044,
        -0.10574066552244955,
        0.06840611881002404,
        -0.12572775213929138,
        -0.013694200010849502,
        0.10564159894047237,
        -0.043368283325064025,
        -0.09485971920488347,
        -0.07773607433378579,
        -0.09155755144866931,
        0.06308431563918923,
        -0.08568225479172684,
        -0.04012180393360449,
        -0.10099321589515148,
        0.042506677667752596,
        0.0010991743902698955,
        0.0222664566450564,
        -0.04290640998609294,
        -0.09621229554638952,
        -0.04442605417232709,
        -0.03770701474552964,
        -0.028586607792024987,
        -0.05476794717961003,
        -0.08760596261391652,
        0.1324592627748204,
        -0.07794739303353534,
        0.000652293728788183,
        0.011820940711629462,
        -0.11753722971195782,
        0.0041812572425153575,
        0.02700799399731587,
        -0.07106413624782604,
        0.2335472960789899,
        0.054819321370562585,
        0.07428091800445291,
        -0.04738902149053458,
        0.017952552679186818,
        0.06422174796954803,
        -0.0073301658114918525,
        0.11492187572307509,
        -0.05101779168540489,
        -0.008164982828307603,
        -0.076517998623786,
        0.1353418761409289,
        0.02592871616974041,
        0.018259268112936315,
        0.0999488426778696,
        0.036901112550577,
        -0.04526051821143667,
        0.03557016887395313,
        0.17136695717680958,
        0.046239708026226595,
        0.08353068578692513,
        -0.018087100858905684,
        -0.04781176544351561,
        0.04606184928656347,
