{
  "weights_summary": [
    {
      "layer": "param_0",
      "mean": -0.0006119311609187215,
      "shape": [
        7,
        192
      ],
      "std_dev": 0.048894332193311296,
      "values": [
        0.007469237629755035,
        -0.0713907612779798,
        -0.003627577138707695,
        -0.02297555439430221,
        0.004801634341219735,
        0.016930835179179246,
        0.061291710272965705,
        -0.1065810498700652,
        -0.002156194099690937,
        0.014344364068908034,
        -0.02735377153391022,
        0.036171750316171244,
        0.002301688933228695,
        -0.018630647560387712,
        -0.033762103115767564,
        -0.02186914023622559,
        0.06392836436563636,
        0.05253840370104547,
        -0.003963292827846304,
        0.019827383504372097,
        -0.03806095816248525,
        -0.007201372972926783,
        -0.00014892361860859685,
        0.0059298419307056436,
        -0.1006691397791997,
        0.0047353454385901045,
        -0.009501692124574163,
        -0.1036240663962314,
        0.01311068102853109,
        -0.0013974886448801086,
        -0.004198761090157428,
        0.002664141385862343,
        -0.07574615267520703,
        -0.04063540239183877,
        0.0220699112654915,
        -0.00013363588092189793,
        -0.05314975215377339,
        -0.006539241391764809,
        0.01964788976743511,
        -0.005186584608585026,
        -0.0008031735593654256,
        0.001536299011468372,
        -0.007964659717168473,
        -0.020098683618067922,
        -0.04857874924217482,
        -0.008508105096940315,
        0.00549304863284953,
        0.031139325512282198,
        -0.006031926737715003,
        0.09611548514752086,
        -0.0024839055349476003,
        0.07200024496384111,
        -0.023930834387817377,
        -0.009872912231585514,
        -0.052735634420362575,
        0.005049346853098631,
        -0.011401533263726105,
        -0.025662560161992136,
        -0.004171029322718714,
        -0.06128183361834613,
        -0.0019739191305221575,
        -0.020129062855667085,
        -0.03637089218705611,
        -0.0045460845864126005,
        0.03285472367847954,
        0.002744543144866202,
        0.004555592700299737,
        -0.009088066910450162,
        0.014505045014374267,
        -0.004292233782949337,
        -0.014400440533705653,
        0.016167595177813188,
        0.04261317419891576,
        0.06990504497734396,
        -0.011480127197225961,
        0.0036016712513734428,
        -0.020905153778376026,
        -0.006968006277562425,
        0.06732880513961687,
        -0.0012817230799498655,
        0.017793352303430814,
        -0.04173224870410373,
        0.01193454143327583,
        -0.09617894843267327,
        0.0004268168218429923,
        6.51260738128334e-05,
        -0.005142195658931087,
        0.07595431029317856,
        0.019097031689765565,
        0.03708874164187702,
        -0.049820717116866406,
        -0.00792097906592537,
        -0.004665148228071746,
        -0.002411356325489508,
        -0.012648465728722207,
        -0.030335334226137104,
        0.02512712524226987,
        0.03559417784148417,
        0.03943097421852919,
        -0.01040528767194759,
        -0.06411332768441522,
        0.0020128915316216514,
        -0.003956205685077805,
        -0.020901894110558133,
        0.0026930552366094453,
        0.04700104651656321,
        -0.006405339912016082,
        0.011965002491298286,
        0.003614700726465244,
        -0.03809341846094945,
        0.018535415581437727,
        0.06008007721186271,
        0.024311447253062758,
        0.00986328143054575,
        -0.06676955400696216,
        0.011009433092877278,
        -0.03356085822639943,
        0.004340867434911598,
        0.0033052424504106544,
        -0.0007039308681194535,
        0.044025800158844525,
        -0.09996702127020157,
        0.00668910964468597,
        -2.8881148094507892e-05,
        0.0013911715918191086,
        0.010217100445851066,
        0.04461705797502277,
        -0.0038623591830093847,
        0.005946340075726094,
        0.09406127960906474,
        -0.0569733879301197,
        -0.05573441366709245,
        -0.014031561095879056,
        -0.05214350203242493,
        0.04432466539595019,
        -0.04162490687442485,
        -0.005355806491328361,
        0.0012155309312795895,
        0.03460608201507856,
        0.03029738957682667,
        -0.08546338693369161,
        -0.11117045209477769,
        -0.024584438131595984,
        0.004721022566382163,
        -0.07888459279176482,
        0.058674476192258004,
        -0.08626386345321073,
        0.003716395676406795,
        -0.032514083480324564,
        -0.05452762349289763,
        -0.017537218249902304,
        0.13539151695881446,
        -0.07799545703578663,
        -0.014408141383939001,
        0.03409653765263833,
        0.05584657297613811,
        -0.017296568125817008,
        0.12286884214720831,
        -0.051867725335694434,
        0.05419377887954891,
        -0.008461530313242524,
        -0.11147439530992997,
        0.01590449830611406,
        0.09931576671026551,
        0.1105661624885034,
        -0.13138657046058486,
        0.01632651725161036,
        -0.01814925374240733,
        -0.06815103206588757,
        0.11147413605114037,
        0.05345204318080042,
        -0.019229359611480902,
        0.04547179216072085,
        0.015068213291814153,
        -0.052801226723413766,
        0.11364536410044289,
        0.02704620588997174,
        -0.12501610441023142,
        -0.05145029266068606,
        0.12284939665336425,
        0.013847395075647312,
        -0.056301095011883705,
        -0.02777643064673327,
        0.010790710473494013,
        0.03762017308990058,
        -0.022798333008033696,
        0.021208083722474916,
        0.0952328163684275,
        -0.02014423024763396,
        -0.00035506069112779896,
        -0.0025136862954612846,
        -0.005497659785605248,
        0.06971359029379018,
        0.005417915514077846,
        -0.0447327871871371,
        -0.040515287645173086,
        0.061612592252710055,
        0.00932392611172355,
        -0.05589881882687464,
        -0.015457965785274334,
        0.02481282920273927,
        0.02936379950095184,
        0.004454948380830123,
        -0.001874081454821644,
        -0.015698453380984807,
        0.03894018694710692,
        0.007883030585193646,
        0.01493571067836992,
        -0.005154846580277301,
        -0.030175467455200305,
        0.0006282189812635982,
        0.04525660530287194,
        0.02326624716932589,
        0.015577325674632261,
        0.0025537753733905384,
        0.004623529920570571,
        -0.0217471821031473,
        -0.05241178341314143,
        0.0014222057267525925,
        -0.009898486100796728,
        -0.02907780413302635,
        -0.011832735279034648,
        0.0658600677127858,
        0.009400561222568299,
        0.0028925770389022012,
        0.04974500496050811,
        -0.02735801725764621,
        -0.05376587001761593,
        0.0006674769692816271,
        -0.006469369358077804,
        -0.08309908913873373,
        -0.040487207626875056,
        0.03007797879776223,
        0.0019312992657276326,
        0.05246382912861427,
        0.005756268142187113,
        -0.004666259415272897,
        -0.048272810954077906,
        0.017598624170167793,
        -0.03803901713480119,
        0.0026731477606288627,
        0.05353171325381107,
        -0.002447133815391686,
        0.017671229934568676,
        0.026024102214908165,
        -0.011029815427202095,
        4.765392408263437e-05,
        -0.01073699410581131,
        0.09262783465159218,
        -0.07102047853143154,
        -0.004062321215284015,
        -0.03339641671917132,
        0.02698638065819789,
        0.00386802456941122,
        -0.004801700390675636,
        3.595407303951259e-05,
        -0.01840263382765967,
        0.001073128678296779,
        0.06586036316442358,
        0.004694008170064856,
        -0.06403461747153252,
        -0.10010506501765509,
        0.02044790974516557,
        0.1039709948561389,
        -0.011755123432588397,
        -0.0012178724376972793,
        0.0006699717651493973,
        -0.02734909699744513,
        -0.055207932890082134,
        -0.03955954730083794,
        0.04625584219447178,
        -0.0031017228404850794,
        -0.027584376934555004,
        0.011653066196535968,
        -0.07370619754197583,
        -0.0024431686566247224,
        0.0003647360754847759,
        0.0001285898045888661,
        0.04725385383492124,
        0.039874025990825214,
        -0.0011380720808165379,
        -0.032399988126132304,
        -0.0523138971222767,
        -0.00786239262532541,
        0.008865469795086279,
        -0.07212683878815179,
        -0.047308879950548194,
        0.005125354927968848,
        0.0034077374129309335,
        -0.0025953017536746266,
        0.07656109287625285,
        -0.06653079968583672,
        -0.04191506727818555,
        -0.04695894950305737,
        0.0678865695396819,
        -0.013252490986494492,
        -0.0075398240153690226,
        -0.0013204166758377925,
        -0.00021864646600124125,
        0.015598784417326147,
        5.073500398554908e-05,
        -0.004483478068719451,
        0.04531010081655766,
        -0.025981385058015893,
        0.10156566957103318,
        -0.019558389759299005,
        0.0011807587138313589,
        0.019572675674088186,
        -0.002532145012847181,
        -0.0030845973484243784,
        0.01083139266467793,
        -0.026556143515521387,
        0.00434174617912818,
        -0.05875587714713078,
        -0.031425992705006164,
        0.040282856270936196,
        0.0013955004836523673,
        -0.03674220253238725,
        -0.001289806158438587,
        -0.00786085172720679,
        0.07014743281838062,
        -0.07124383749647409,
        -0.07173937322046417,
        -0.04977071414755792,
        -0.07620612524272731,
        0.08168073254167832,
        -0.042640176060969495,
        -0.15701118811802128,
        -0.030776761419350998,
        0.10810134068346758,
        0.01707754767439591,
        -0.0005345881185742311,
        0.07923211209854289,
        0.02969657920462197,
        -0.0468466392802116,
        0.03826164460670562,
        -0.005288882385444688,
        0.07367142016241679,
        0.10066051656121504,
        0.04004771298266668,
        -0.06216588213509299,
        -0.08041735902263697,
        -0.02250570241275897,
        0.011421598064441579,
        -0.012164710334816772,
        0.006545468911868926,
        0.044907481181649195,
        -0.0686233708562713,
        0.01861288126710809,
        0.06113949027164805,
        0.12779482864728814,
        -0.05087789273723578,
        -0.012587207560585768,
        0.032545696260098726,
        -0.047823438231278395,
        0.14650726477428186,
        -0.07279593267954984,
        -0.14785307170947493,
        -0.1066894886366002,
        -0.02661892658989641,
        -0.050641474694588684,
        0.09031553132807098,
        -0.04080980063210528,
        0.051424494345943976,
        0.04576224667003488,
        -0.0003876452359826977,
        -0.12060370736837925,
        -0.1204377554838088,
        -0.04536945964228536,
        -0.12480055004665205,
        0.007039676589787006,
        -0.004774166525607775,
        0.036352593661123776,
        -0.01716983338809907,
        0.058505722123867246,
        -0.016295841898947904,
        -0.014812567595003294,
        0.025374592559858404,
        0.12270892422599898,
        -0.06670342110111013,
        -0.04788015854694842,
        0.03705532240358253,
        -0.0671726077929341,
        -0.08947496109115974,
        -0.02578764343291073,
        -0.10206646451421539,
        0.0043766281078933085,
        0.08359461742880989,
        0.042283817675894356,
        -0.04176723799662459,
        0.030711417829168964,
        0.002492242212446336,
        0.0030979431151392763,
        -0.02402764053175787,
        -0.016424914902741367,
        0.0313543720582921,
        0.010032501506365728,
        0.0175728088315913,
        0.030444231202392306,
        0.0039349030495064745,
        -0.016540556608843904,
        0.004936648031319313,
        -0.004707231674882812,
        0.010795007831610741,
        0.07514313399357933,
        0.00047060805007995686,
        0.00839622018272989,
        0.07051301192757681,
        -0.006071467256271565,
        -0.01646123891569643,
        0.045725661816529414,
        0.02045630587810108,
        0.021131265361981427,
        0.01825019241976881,
        0.004154594886550048,
        0.0008979682146499138,
        -0.018525733068010516,
        -0.01729472609493641,
        0.020513735871471248,
        0.00030237979065294196,
        -0.003279063037799403,
        0.06974495817928197,
        0.05446983189455545,
        -0.005191692628433708,
        0.0019431768244051457,
        0.021189779439688153,
        -0.08386123844550766,
        0.0019066232849860709,
        -0.002738279894806142,
        -0.010106541411057223,
        -0.020232114689122525,
        0.062107212759429604,
        0.0067275545874664194,
        -0.02227907690429943,
        0.036398971032395575,
        -0.00575589839004791,
        -0.031100764802979422,
        0.012290004431999464,
        0.031196984205207383,
        0.0022582997389817426,
        -0.024028424992564013,
        -0.030307710598316464,
        0.006566176055874805,
        -0.09233039537560885,
        0.0015120955673302218,
        0.005823708389044354,
        -0.007117190515364988,
        -0.005921422651123397,
        -0.015008641519391975,
        0.07665851412381522,
        -0.023117396887898232,
        0.0023112924870569685,
        -0.020296372156863758,
        -0.0020380909227108576,
        -0.005122930642408659,
        -0.07414271956403437,
        -0.005489798156204489,
        0.013381143392622849,
        -0.04563098528280331,
        -0.012880136752412626,
        -0.008753194629401866,
        -0.0009213128665958154,
        0.05334897150362756,
        0.0014906989503864993,
        0.042968221703936965,
        -0.04062879369905647,
        -0.04360532096264227,
        -0.06272253042143408,
        -0.006234377611630456,
        0.019431369424101525,
        -0.00871636456483725,
        -0.08662945384008396,
        -0.0015412627471932316,
        0.00539147827188327,
        -0.008852776115278868,
        0.023270280117965426,
        -0.061285949041364515,
        -0.00479164690547129,
        -0.024549731215884017,
        -0.03211780013345891,
        0.030453230193827202,
        -0.0010452132441371078,
        -0.07506771982089025,
        0.001475665055119947,
        -0.026257501893490687,
        -0.01897501909599346,
        -0.0029106965814661052,
        -0.00931935486091167,
        0.007705091344887171,
        -0.002138032424282423,
        -0.0026411077838874113,
        -0.02770160295857113,
        -0.023601531661317694,
        0.030718727876020376,
        -0.011098749754517023,
        0.03272000680875785,
        -0.0337513612695937,
        -0.010396098510405573,
        0.0013177690059196258,
        0.007209341976339835,
        -0.03568853534346969,
        -0.007979892570551487,
        0.005894748739584006,
        -0.0016972583924747943,
        0.01950919436167748,
        0.0028079611200447453,
        -0.0072188741005161745,
        -0.007639394079127771,
        -5.541997013380641e-05,
        -0.0018993908685632993,
        -0.005355037686937794,
        -0.0010365308941408065,
        -0.03877228935161384,
        0.11111430014381712,
        0.014197187277023586,
        -0.01984314676436287,
        -0.00011239308035588803,
        -0.05540455284892312,
        0.0959174149765478,
        0.0345720080919177,
        -0.015022331409787934,
        0.08590970648621937,
        0.08995225516594269,
        -0.12145250650222082,
        -0.013792366147861801,
        0.030523818760021165,
        0.06860888585890754,
        0.07319059565624164,
        -0.01727574990310585,
        -0.01871110696012347,
        -0.04849250380148776,
        -0.0778382331270624,
        0.09782679447171433,
        0.051758066436151384,
        0.08336348406055707,
        0.07547319536341043,
        -0.14562418337685562,
        0.007844773438153499,
        0.019409971459516798,
        -0.05963022183254049,
        -0.10121970177357796,
        -0.027065849101588844,
        -0.031732412795906814,
        -0.06421798051130875,
        -0.03750414271393912,
        -0.035163178247031864,
        -0.02458010860021304,
        -0.01979213069867877,
        0.004301648408487166,
        0.020957231150106448,
        -0.0489001041842322,
        0.14163442753707656,
        0.041605072260606835,
        -0.07595361150560509,
        0.022336478678795357,
        -0.023975462246913437,
        0.07536533330329592,
        -0.09669464679824427,
        -0.08414598434455398,
        -0.014057771821431406,
        0.048529342617191704,
        -0.11216252552588521,
        -0.03728563931107989,
        0.0552561860393075,
        -0.0447139310705876,
        -0.0724318213276201,
        0.1258042446991529,
        -0.0311525952118394,
        -0.046849680801495,
        0.14610456665388566,
        -0.03992847473806925,
        -0.09698452281376246,
        0.03602672972355726,
        0.07249144238834226,
        -0.010213930128896546,
        -0.07296533987397363,
        0.023217136434912872,
        0.08136346592196493,
        0.04180452744186264,
        0.02108459697498552,
        -0.005447906286517279,
        -0.04238985958263665,
        -0.003323656821540711,
        -0.08941081701888798,
        -0.07494133531434849,
        -0.02516688480012879,
        0.0043101929116216,
        -0.002006859566049477,
        -0.02754042697963867,
        -0.050772979220977996,
        -0.001385795386861581,
        0.019455515061610033,
        -0.012861243249105304,
        -0.011912533462237179,
        0.0007716618012050842,
        -0.03763080646745542,
        0.018906908292396274,
        -0.0023788431646081247,
        0.0010318500521765486,
        0.0007532074631150776,
        -0.03157628652738358,
        0.06900966347202281,
        -0.0279568608692454,
        -0.002677727979489089,
        -0.0035154176802906696,
        -0.029781610908288382,
        -0.008628618545569556,
        0.00775870472770756,
        -0.007319103202196097,
        -0.005163362266933699,
        -0.011245779923394985,
        -0.00018270743768105605,
        0.000922463578870105,
        0.09171095585859718,
        -0.01255311798354566,
        0.057188195399819716,
        -0.020052427916468343,
        0.0006581231596173437,
        0.03741480865025931,
        0.0013288416447263278,
        -0.015906416029581177,
        0.005953796955444419,
        0.0390446814685035,
        0.04141188453287975,
        -0.08585228969050347,
        -0.005132914214725929,
        0.01567096026662791,
        0.002314047500678762,
        0.014570451592448816,
        0.027067477923437448,
        -0.06098503534340023,
        0.01667841661545672,
        0.017501029653803908,
        -0.053723898160207534,
        -0.0017201423728931049,
        -0.0016978334504039758,
        -0.0037984848415581985,
        -0.008385141012633575,
        0.08282284772619192,
        0.002648361100477119,
        -0.024010835025156278,
        0.02977296535079591,
        -0.0246924982448987,
        -0.005534700390726751,
        -0.03804888949870507,
        0.0022815428535934083,
        0.01598998464482913,
        0.0034638548434387734,
        -0.07140991970329277,
        -0.001434391477819803,
        0.00040724404154184545,
        0.03928782081904079,
        -0.0686379653080259,
        0.002209931296121659,
        -0.0031839618913884135,
        0.09711906660450906,
        -0.006810507522260405,
        0.0057113403545098335,
        0.001118966611464052,
        2.551999603388584e-05,
        0.012111540718876745,
        -0.07088126174006847,
        0.0018109768719460021,
        -0.0009508030517402772,
        -0.0012754556643948397,
        0.00141155021305635,
        0.009181505694968183,
        -3.071064381082171e-05,
        -0.055187243418439016,
        0.050390602425510383,
        0.004822928586660374,
        0.00446826211477646,
        0.0037554064071046436,
        0.08207048058803483,
        -0.01464634421819721,
        0.005166940959027656,
        -0.0013437274360387547,
        -0.0693977541424437,
        0.0007623630802926604,
        -0.07174853718124272,
        0.0020542328070245804,
        -0.028421629677791903,
        -0.012056549355675076,
        0.02319054982909243,
        -0.022809333718766475,
        0.03332967996574522,
        0.013595567938288526,
        0.006720665096912782,
        0.002225652401888654,
        -0.015041855769872875,
        -0.0004551814926035851,
        0.006028113752865749,
        -0.000962006005924391,
        -0.05041230253938196,
        -0.00984415104084696,
        0.0007223876543539247,
        -0.00721536299760943,
        0.02054788423277316,
        -0.0035434347881586874,
        0.009093957720626092,
        0.0006148146050276621,
        -0.0394875990256759,
        0.0275149500490999,
        -0.004539780720219996,
        -0.05381983520013766,
        -0.012690545428665007,
        -0.14191185656712796,
        -0.02853041954136358,
        -0.0911862848581751,
        0.12907254651823075,
        0.02700791490406046,
        0.01644734571105895,
        0.03582331973514036,
        0.02301135125434718,
        0.031622176023828365,
        -0.007959918525968408,
        -0.12125283263903788,
        -0.06475011308940402,
        -0.07295302900230394,
        -0.03622049717659412,
        0.04868098387430943,
        -0.07681745973698971,
        -0.009580603775987207,
        0.042338231512587206,
        -0.005625048997970721,
        -0.03349834569276215,
        0.016529667474778034,
        0.1013888557814709,
        0.04559519490556828,
        0.08256002047456083,
        0.07739226133150265,
        -0.003515762312714805,
        -0.043264284674830816,
        0.0330754672829497,
        0.06300458081657816,
        0.07153621512491197,
        -0.00781861829430915,
        -0.052478254608634,
        0.002758059174210883,
        0.053510007612259484,
        0.0050773365075464354,
        0.025337740771230525,
        -0.060659635336606434,
        0.0033592342311420265,
        0.013549355229607093,
        -0.03558444854838012,
        -0.04566847205660553,
        0.04797759732685819,
        0.10531222623684289,
        -0.10501429903481149,
        0.0033430238420919097,
        0.02245818033405575,
        0.026624891909926063,
        0.09126798512682519,
        -0.008091086389221043,
        -0.026633127978235097,
        -0.03370267333974278,
        -0.06398526804623915,
        0.04430300113885545,
        0.04457361434697564,
        -0.1346409394365669,
        0.13534926485540646,
        0.11169967096954511,
        0.12099236599176905,
        -0.00660135891570256,
        -0.13058404610869595,
        -0.00020112522961964743,
        0.042467947527067215,
        -0.008915688196095506,
        0.08058255760869612,
        0.005310242989395254,
        0.070731513922727,
        0.01496671172875845,
        -0.029082277672718315,
        0.0716132235415507,
        -0.028743400011962565,
        0.001378053167974022,
        0.027746522770124397,
        0.0028501116590515497,
        0.017995159846640626,
        -0.010737157045606514,
        0.048114870687222075,
        -0.014628158978603936,
        0.08728475819111373,
        -0.0029854043169206244,
        0.008954113388493699,
        0.0024131247079798874,
        -0.0809308065328242,
        0.00020865680805840284,
        -0.05668088756666197,
        0.000381294962615674,
        -0.003147323698529652,
        -0.05586723728841167,
        0.042326174385615714,
        0.047368800460101876,
        -0.008969123682488558,
        -0.0027653469358007894,
        -0.01698361103712316,
        -0.0013557831569485973,
        0.005482835194832798,
        5.5140878024468524e-05,
        -0.02897696605825683,
        -0.07462602424468612,
        -0.0004782002819052816,
        -0.0055509157210963805,
        -0.030225341317430956,
        0.039790512395470906,
        0.06405492982390029,
        -0.04948247159117945,
        -0.08396945647003116,
        -0.002238105930030295,
        -0.03328929172779521,
        -0.025694368317093083,
        -0.017825382555837814,
        -0.0006889245980135024,
        -0.0751241269724634,
        0.03605834131475817,
        0.022626155295492813,
        0.0009497477218591067,
        0.01199406120800264,
        -0.006709929394373882,
        -0.0037415469107587615,
        0.01607279801666529,
        0.023202747284695728,
        0.04350605085957655,
        -0.014664924061155668,
        0.06068089599262673,
        -0.03871207832901355,
        0.00771265080877458,
        -0.01093708756629248,
        0.003351624149959047,
        0.0020505155200272575,
        0.010700706923800204,
        0.006651201744606558,
        -0.04893324593295194,
        -0.0936336858000958,
        0.06628693624930312,
        0.09107731828539087,
        0.09266034301749947,
        -0.05203776163604905,
        -0.07824570609468373,
        0.0203549342214355,
        -0.0023861166072138415,
        -0.036044847451962694,
        0.07494753548598812,
        -0.027367999889689118,
        -0.00952935326753233,
        0.03643900228135642,
        0.006444517566320014,
        -0.0054860459345733754,
        0.0029661543352252264,
        0.044931788423026406,
        0.016635969564525552,
        0.0436202800630314,
        8.277072909642044e-05,
        0.004057138495065736,
        0.05897934840291795,
        -0.08101809524262746,
        -0.0033321260626682243,
        0.0028772783899771734,
        -0.02209572781168464,
        0.006112173449927703,
        -0.042982022072519284,
        -0.00020460773722752012,
        0.011898104827134715,
        0.002945750544035602,
        0.0019648380628803997,
        -0.00014425828509040167,
        -0.03607197615654642,
        0.0019050599028108454,
        0.036229256663733236,
        -0.008606186531689241,
        -0.0026828802135567048,
        -0.03003067117686887,
        0.0014563896918215425,
        0.029127516394311034,
        -0.007589771763188591,
        0.03282807574803957,
        0.0017651786086192484,
        0.03292243577226253,
        0.006774944589849446,
        0.01118713532066789,
        0.029504349151622675,
        -0.0087488184187881,
        0.03162243677109948,
        -0.001064079735224735,
        -0.009140406378724857,
        0.04016621193474454,
        0.012865609022802309,
        0.07737014423503241,
        -0.04536027728116117,
        0.018276250676080998,
        -0.034044228107624815,
        -0.022232845056244545,
        0.034481104778330676,
        0.007569430503640942,
        0.026720178284661618,
        -0.02152159052141742,
        -0.019779529188866274,
        0.030392728604746188,
        0.025944054449047314,
        -0.10161730690218325,
        0.08705057363592347,
        -0.002853678711717825,
        -0.08916236385650292,
        -0.12378442204031953,
        0.019680069639510946,
        0.02205279335404539,
        -0.03792280030678652,
        0.09799378190583301,
        0.017358898440660717,
        0.001620221985169695,
        -0.09727926528374413,
        0.12160042360179163,
        -0.009291979833974635,
        0.019229039674134016,
        -0.007391541381643918,
        -0.11986071507676585,
        0.05626945108920672,
        0.05632905005669227,
        -0.0825691716043075,
        -0.09722034050438069,
        -0.11359938860159075,
        -0.04010639160436043,
        0.017262769113266567,
        -0.07846693482906589,
        -0.04468667942377927,
        0.10500083725985744,
        0.01445829830066776,
        0.1180288406559573,
        -0.14243610622880287,
        0.0034203147462332113,
        0.06884541789504767,
        0.0038957420314967156,
        0.060233201919744475,
        0.07661671604103877,
        0.13021606785750714,
        0.016394705179561597,
        -0.10864429491904753,
        0.0025014681742333835,
        0.13464552797850685,
        0.06349285975627061,
        -0.09570599898346835,
        -0.0293221572799214,
        -0.11452535356190904,
        0.0739117417941849,
        -0.03833659935472131,
        -0.0035183493891798763,
        -0.09003511322354164,
        -0.1026178273390525,
        0.07386617770047664,
        0.07012152324857387,
        0.03911446101349124,
        0.0313412233592008,
        -0.12460857432163053,
        0.036150046265211094,
        -0.008738785533145891,
        -0.049619894715402575,
        0.1010421770031156,
        0.061803489953133756,
        -0.03702304901710376,
        -0.0153151836463273,
        -0.0186295542425932,
        -0.08248302816251493,
        -0.038057997455035845,
        0.04637940130717692,
        -0.04310358474813325,
        -0.03342303838176776,
        -0.022926612358358835,
        0.0123373160432315,
        -0.09979188179340726,
        -0.0034021469463646307,
        0.026542428226773673,
        -0.02309485606024686,
        -0.0011826469699462165,
        -0.02038097650809192,
        -0.07098633637891014,
        -0.04171448639704774,
        0.003588793805948724,
        0.014938650592441004,
        -0.006447360108620008,
        0.00734207584988931,
        -0.0049273524214436745,
        0.05522130372270947,
        0.003797548754456043,
        0.0062489885372980485,
        0.013917702536496771,
        0.003581963102516614,
        -0.013836559868706057,
        0.08408421712824113,
        0.013169750442526225,
        -0.017385435865930308,
        -0.040300634579160215,
        -0.004300122333547675,
        0.06567863038332625,
        -0.028279849950823485,
        -0.000347568588174338,
        0.01867348938636916,
        0.04752774013091658,
        0.024778803422618127,
        0.0066194194713952515,
        0.0033330329832534844,
        -0.020906909812389594,
        0.0032662065629276158,
        0.006091703903713607,
        -0.01421914181933925,
        -0.014150932209895982,
        0.11488145369488673,
        -0.01079526242646981,
        -0.033078642729108376,
        0.003551098172481239,
        -0.001535042803008261,
        0.033104134619759994,
        0.00036105700069627596,
        0.06915597550752459,
        0.002027340817743458,
        0.0539272389986836,
        -0.023401713101146193,
        0.033663932351186296,
        0.01964098245148749,
        0.025484651042559724,
        -0.0012051746210749975,
        -0.008673881570865068,
        0.0023208227517327335,
        0.013644322662651472,
        0.049346103519286436,
        -0.016164454311178206,
        0.08153177586914465,
        -0.03913034438311633,
        0.01066676920309649,
        0.0002710336876511887,
        0.017685430484605313,
        -0.009262730245218632,
        -0.01367334645287115,
        0.003700899822142072,
        0.047134167797737804,
        0.05540885129020093,
        -0.01557801887572251,
        0.0626235191157386,
        0.0001756975190341155,
        -0.005325504094733014,
        0.002121856857696646,
        0.005487044170987561,
        0.05174925577734908,
        -0.002492313048447134,
        -0.0024260386325853475,
        0.0013167163340462758,
        -0.0008381564342886281,
        0.00046086386823308725,
        0.007089874090272181,
        -0.013377816075875694,
        -0.010575149756463686,
        0.003866442599691897,
        -0.0774070472437653,
        -0.0018788989825298892,
        0.058190956895633604,
        0.019944897779951128,
        -0.001385601530173203,
        0.02768470105011657,
        -0.07999312990651639,
        -0.0012152179421141872,
        0.025439228601417258,
        -0.004999458499050296,
        0.005203734044255027,
        0.011853293281601283,
        0.01478542638991517,
        0.04247925560874019,
        0.03342268018312637,
        -0.009661814628235097,
        0.008759933519023277,
        0.01693126192391982,
        -0.016524999563894312,
        0.009441841027278545,
        0.0035810719824791474,
        0.03776219211919006,
        0.02029829086038111,
        -0.0003116858153459186,
        0.0961113055316915,
        0.0256173481939172,
        0.04999885355114381,
        -0.030781953778270206,
        0.004564993769398442,
        0.04048704254932794,
        0.004282928700768662,
        -0.01243518651920362,
        0.0057111582161451825,
        0.002546146126397016,
        -0.0589470863083952,
        -0.07504388767682159,
        0.08160455172556885,
        0.02079924063028679,
        -0.04162654020010033,
        -0.08419540626395022,
        -0.1294659873455341,
        -0.007394023843712761,
        0.062309489831551094,
        0.009959095545725407,
        0.02869693886805729,
        0.06675166303441951,
        -0.02289163640874223,
        0.0495403468687179,
        0.0435700836513086,
        -0.056267832478005625,
        -0.033548688922819286,
        -0.011036777979736227,
        0.042054699833412056,
        0.05044649825301986,
        0.015044371054142294,
        0.05342263936937669,
        -0.07233965796040927,
        0.05623820430937199,
        -0.06635613601130813,
        0.08972387426584773,
        0.05784077360968688,
        0.00407514734691202,
        -0.02800520728730998,
        0.048869088963769965,
        -0.05669238125073796,
        -0.06188268654434325,
        0.005906906222564805,
        0.07546765594126936,
        0.10666428366876055,
        -0.014340348342243677,
        0.03997257361795199,
        -0.021385916401239543,
        0.06164231239923708,
        0.07240959911572419,
        -0.042418488980678584,
        -0.06281546705374286,
        -0.09140097007619341,
        -0.11808904042580749,
        0.07490860864685822,
        -0.07706294726366825,
        -0.04686884389140567,
        -0.03356456093000397,
        0.036163418736160996,
        -0.055622329426927304,
        0.022009158691595792,
        0.03392848528537981,
        0.06722145511374475,
        0.11825998617823036,
        0.045224162399491875,
        0.10449420772733697,
        0.045259538750108914,
        -0.13425477709824218,
        -0.09922069839484247,
        0.013771445077480675,
        0.0032943996427706995,
        0.07379078769095437,
        -0.0017066639791439228,
        -0.06833748174175946,
        0.041669822627685045,
        -0.02023990891650949,
        -0.008046257038056172,
        0.0039192416416800185,
        -0.04283008745639651,
        -0.11097770885766939,
        0.05655204766042018,
        -0.004317241934671522,
        -0.013368892733595223,
        0.0037653788045892756,
        -0.010799020406296534,
        -0.0064225003712363015,
        -0.015164347863485545,
        0.00470330681708369,
        -0.014944523408597858,
        0.006568353566476581,
        0.03214167894974625,
        0.01427634189151469,
        -0.04460232151808595,
        0.06099587453106471,
        0.008771972517971563,
        0.006585586129492934,
        -0.010279232520294168,
        0.0010247664336090218,
        -0.004618497801868908,
        -0.0063280571812606295,
        -0.01656021198019389,
        0.002569575292296184,
        0.056920246879632624,
        -0.0005391700881172182,
        -0.048358913973721426,
        0.06641186063220947,
        0.019195760243868244,
        0.0007144285125685499,
        0.02674973013123562,
        -0.023343976957915652,
        -0.0470871892799016,
        -0.08289223057711226,
        0.028316026536624343,
        0.007585317640662329,
        0.031077823571839042,
        -0.07805796791393604,
        0.032140219182373767,
        -0.00046151963962216044,
        0.005078057782352339,
        -0.020143942978436497,
        0.03970983546601317,
        0.03407859996396191,
        -0.06463637191680276,
        -0.031315718102339754,
        -0.02487140085245236,
        0.004333804010280256,
        -0.009240281106347675,
        -0.015511158009161632,
        -0.0178550366310207,
        -0.06241872533275505,
        0.0007439569701654103,
        0.07827348663187361,
        -0.03927888982430108,
        0.05658212498776477,
        -0.016314007694470813,
        0.012205851076358989,
        0.02539292164747992,
        -0.006630482045354536,
        -0.008900423871517505,
        0.02219611562447999,
        -0.09080770225840246,
        -0.0038183896126254553,
        -0.09846732199167746,
        0.0038188883245705687,
        -0.02604647970887341,
        0.00222195017526955,
        -0.04024041981690292,
        -0.006716882840018142,
        0.02706148799530533,
        0.0015759264761158172,
        0.012368103993033171,
        -0.0863035397488103,
        0.0004999610586934153,
        0.01587129862687911,
        0.0010048142840965633,
        -0.0032229665143974004,
        -0.0010454135137670114,
        -0.008448690883891493,
        0.02731148494869786,
        -0.0021566821870863647,
        -0.09885376569271365,
        -0.00684809774849908,
        -0.0692635217291592,
        -0.02090077260240701,
        0.07627619629242434,
        -0.008699339815754437,
        0.09206429999427534,
        0.007853387746149248,
        0.017892022365858386,
        -0.020722887849578004,
        0.04081453302196436,
        -0.004351963643973977,
        0.053480811837694715,
        0.0023807465433364518,
        0.016521064304674836,
        -0.011271106630223064,
        0.03872032268235301,
        0.0043595570382683295,
        -0.06078738878787066,
        -0.0030082211048581974,
        0.044244743777459905,
        0.0018278232142542586,
        -0.04179425464909603,
        -0.01744275351803114,
        0.007765374310787155,
        0.07553071257095315,
        -0.08365811773486516,
        0.031097797258548027,
        0.05457314865151286,
        0.053178951030194675,
        -0.019066690448424635,
        0.055870305381573324,
        -0.02422356991120421,
        -0.0007409612964071165,
        -0.00017198804556133734,
        -0.0853591106235638,
        -0.012104808998653998,
        -0.013665314084715444,
        -0.004584011483804248,
        0.0007765996080454622,
        0.05353765680342894,
        0.0028428191577375165,
        0.0017377134152316966,
        0.04105204474824682,
        -0.0205458250790699,
        -0.00461969848260523,
        0.12668891943783706,
        -0.10715079410226207,
        0.08558317651538967,
        -0.12890803697136027,
        0.06061562165632277,
        -0.02440404391131467,
        0.03332687164286417,
        0.054664393634595736,
        -0.09866173016853882,
        0.029681332590825123,
        0.025248979541587342,
        0.005236745230140258,
        0.03809305359711922,
        -0.10659646368732456,
        0.024739542169296302,
        0.027496983913600767,
        -0.023850446308113893,
        -0.11942234711491942,
        -0.012045804112475397,
        -0.04407262858563212,
        0.05467043057350582,
        -0.047972206741098276,
        -0.02829037638079409,
        -0.13678706771899968,
        -0.1180118732556622,
        0.08332305748103382,
        -0.11556861708239614,
        -0.013679264255286181,
        0.13033511238867862,
        0.10627422632557226,
        -0.030971721422975593,
        -0.07710347512697713,
        0.03274853611359339,
        -0.025202548551716233,
        0.01402683639639855,
        0.1467425215859247,
        -0.09484008860596127,
        0.017267712713866283,
        0.005140373414394539,
        -0.008704223794868323,
        -0.07868451248106333,
        -0.006640978238552779,
        0.024068200807602184,
        0.09098703688999264,
        0.17727745840986844,
        -0.021325678618230197,
        -0.07294001100841488,
        -0.006821813010445496,
        0.03963760573820579,
        0.12031406347733864,
        0.0648060584623666,
        -0.11773324605853527,
        -0.03717881781755382,
        0.04719355744313945,
        0.1448210067571825,
        -0.06117567624001999,
        -0.008083772613629008,
        0.028611327457018373,
        0.06392395730638373,
        0.012073320720991557,
        -0.047659639411828825
      ]
    },
    {
      "layer": "param_1",
      "mean": -0.00013870782624203113,
      "shape": [
        64,
        192
      ],
      "std_dev": 0.05231815313792296,
      "values": [
        0.008478166308894378,
        0.08718919754834287,
        0.10873348057556154,
        -0.062206596686216996,
        0.05095792719241449,
        -0.039004895398703165,
        -0.002255881093432586,
        0.10655477983912537,
        0.1091657334325026,
        0.034788054471912654,
        -0.005503108388740463,
        0.02068450185397558,
        0.028929594072626984,
        -0.06882406004844058,
        0.02481269486987457,
        -0.06279238984498131,
        -0.021219494473364138,
        -0.030988086241994357,
        -0.005189482400591001,
        0.008226573185380514,
        0.017298227097674458,
        -0.00483960299414082,
        0.01344733905734553,
        -0.056185830378066445,
        -0.015611595180578993,
        0.06664655997031396,
        -0.04543113201264122,
        0.006499546025784602,
        -0.01633775119005721,
        -0.04744653555292917,
        0.045876176762348814,
        0.029761741938872453,
        0.043946494605257576,
        0.03250059456599859,
        -0.00216782488621357,
        -0.07738965685913261,
        -0.02582059084115226,
        -0.07880095555681388,
        0.03800647323174351,
        -0.05799563114578791,
        -0.01640580828891707,
        0.00461010196116389,
        0.009318695319975107,
        -0.03238199346411744,
        -0.008990018202237831,
        0.03357236849364502,
        -0.07498642429548377,
        -0.06002258135776689,
        0.023065161062282846,
        0.02197918102046427,
        -0.020459798708113392,
        -0.10075592632896506,
        0.07754587194692542,
        0.08404418252241522,
        0.0034169318000927124,
        -0.003433260441764327,
        0.0959066948381409,
        -0.003563910695999508,
        0.1031144491531187,
        0.030114833339627133,
        0.015432040525226218,
        0.0013284768612804466,
        0.06126747321742883,
        0.12106251667563842,
        -0.04143196048834792,
        0.019503510315146563,
        0.006390399873256812,
        -0.04996007850787648,
        -0.04657817225735369,
        0.028533919359996364,
        0.016841162883098084,
        -0.03883156022597932,
        -0.0025921599566836213,
        -0.019064720323221256,
        0.03126441937960174,
        -0.07752919606803682,
        0.03779713614057228,
        -0.0007999007334399955,
        -0.03775326818181928,
        -0.05853126155625967,
        -0.001813434224591507,
        -0.009205815979225283,
        -0.039993199801542645,
        0.04690613489391225,
        0.09347750995217012,
        0.01754740594749202,
        -0.042476720649052155,
        0.004234992846219598,
        0.01559507005103928,
        0.029462450736572172,
        -0.020697347491843522,
        0.008186290768647412,
        0.08891767394523761,
        -0.049584252180690486,
        0.03013432527466695,
        -0.06980018545572018,
        -0.014665235095484754,
        0.04664452791347646,
        -0.05027833911955171,
        0.07274537364297881,
        0.0776040812821094,
        -0.04298139032865039,
        0.007925894934892642,
        0.028981993486842578,
        0.014000759070315935,
        -0.09601271996457593,
        0.07183586351849838,
        0.06858848349698682,
        0.05917989932224251,
        0.04553859348588883,
        -0.06275770908612932,
        0.033919945248649296,
        0.002565964224026239,
        -0.01780190349648387,
        0.10657713184672969,
        0.022946277685983403,
        -0.002175061473439349,
        0.06262846147275422,
        -0.06134109587493826,
        -0.007068537958592143,
        -0.018655914757241057,
        0.03684867726597557,
        -0.030833967027763476,
        0.042868474510535305,
        0.030883629272653028,
        0.008627486525489395,
        0.09408000917758749,
        -0.03515056954177961,
        0.05796152830068435,
        0.024270085653188046,
        -0.026384537041522556,
        -0.04331729550399098,
        0.05030357415248283,
        -0.0835037789579929,
        0.05618179140760326,
        0.0057595498416020754,
        0.0632429172361954,
        -0.02713545231561305,
        -0.003153372791294566,
        -0.0355187640914551,
        -0.022044477544303366,
        -0.02407853384633501,
        0.0760897133111604,
        -0.04641050421598767,
        0.03848286629682912,
        0.022035735094179013,
        -0.05254414056071823,
        -0.033460805783739216,
        -0.013132561861964398,
        0.024426439164606177,
        -0.015531613312061966,
        -0.004642941044587567,
        -0.04743798736469755,
        -0.021294260754760545,
        -0.01194515846230381,
        0.012036160350117227,
        -0.009453259495465395,
        -0.003957981572210979,
        -0.05119841830699336,
        0.11239715735651107,
        0.0464437600034088,
        -0.0632970871003662,
        0.009659669930085164,
        -0.06424572786259432,
        -0.021651293952788433,
        -0.011794239834970383,
        -0.03195944462274567,
        -0.016289295394557493,
        0.023238576006540543,
        -0.010062887058703998,
        -0.013479360295327515,
        0.03705885067872598,
        0.08532478774496503,
        0.06108512345834069,
        0.03822659141806486,
        0.031187009984698984,
        -0.025776668983395194,
        0.04011795544176256,
        -0.01591494253058704,
        0.03890864829044773,
        0.09293653593586071,
        0.09101101095890773,
        -0.004137819157949925,
        -0.06466371455019063,
        0.005121929836895526,
        0.005823381377513844,
        -0.0822195093282422,
        -0.040133262880763715,
        -0.018675000419391224,
        -0.009424877011882424,
        -0.029844207469669294,
        -0.027705168934008588,
        -0.008933856334323515,
        -0.09368914475106027,
        -0.0009584018646350417,
        -0.03140790279910896,
        0.005865636132281783,
        -0.06019743463373025,
        0.03497188848887223,
        0.005493520575662408,
        -0.018347635056060657,
        0.08762171087622271,
        -0.024931503395545923,
        0.018258118163890658,
        -0.03600899267432543,
        0.0056008106138910815,
        0.050421786460658535,
        0.003347153548171262,
        0.04720449528900275,
        -0.058405471213671824,
        0.001686227192291414,
        -0.07424030209365667,
        0.09693461100647638,
        -0.02908544675949955,
        0.014115638170007102,
        -0.021939366067760632,
        0.018881479714933508,
        -0.008351706208168167,
        0.021179575593077545,
        0.07758006669479334,
        0.10217378900229848,
        -0.02845532279056227,
        -0.008840755538651157,
        -0.07108713620315826,
        0.04628934556083136,
        0.010560593688141974,
        0.03658480810070047,
        0.005413313628265436,
        0.03798082692035744,
        -0.015064959760630017,
        0.03290411765793742,
        0.04241118645129638,
        -0.04662486399480334,
        0.003782682357187081,
        -0.0037768276046831533,
        0.01030604059320853,
        -0.1083193060210803,
        -0.046182509584101014,
        -0.056432375231790614,
        -0.007871613762302807,
        0.062412544720206284,
        0.09966053095539144,
        0.05838942523544048,
        0.0032379164949873727,
        -0.018789938562454638,
        0.05827574152802194,
        0.12358913139414043,
        -0.06261697417104843,
        0.0037152015873279896,
        0.01769291684401506,
        0.03685957014838195,
        0.015627935029247676,
        -0.009723147952585064,
        -0.06286841254511041,
        0.05704563270245165,
        -0.008917261632075207,
        0.0950413021534608,
        0.02415612334705337,
        0.022023457900109802,
        0.030869888481379195,
        0.013758633231060179,
        -0.03343648182461117,
        -0.024156595562766867,
        0.001698428705588605,
        0.035643491528687614,
        0.013718871483254572,
        -0.012528564266478956,
        0.1358773098236385,
        0.1118174203907022,
        -0.01288492322405102,
        -0.02999607022853884,
        0.0528950417978972,
        -0.046648964093403356,
        0.022102878181876444,
        0.004839914911564861,
        0.015681375476352098,
        0.03417416034822922,
        -0.0316944505860491,
        0.04262749156721872,
        0.05304991556337317,
        -0.012015158647277965,
        -0.09179852896582875,
        -0.1321744017285632,
        -0.1153284050740172,
        -0.01849456278253233,
        -0.027919255733735163,
        0.049630112006189164,
        0.044064627821571126,
        -0.005935204294373268,
        -0.08480477335563981,
        0.026766852372681053,
        0.0008323820480964882,
        0.02395290672943081,
        0.07910588047384198,
        -0.025688673562134445,
        -0.10656811612592827,
        0.06826614851940771,
        -0.053467635147835126,
        -0.10468191542692167,
        -0.0137763801718737,
        -0.025407400264204773,
        -0.006057531945572646,
        -0.0412700045901102,
        0.022535541896265405,
        -0.08002040359097468,
        -0.16265329454579341,
        0.029925522755603888,
        -0.01953747555005097,
        -0.0002020797018619097,
        0.012939317673929262,
        0.12039463582327845,
        -0.005657725714065087,
        0.11560499436689871,
        0.07301358151386621,
        -0.07780353485528542,
        0.03034138929907256,
        0.039247662051403086,
        -0.05029533307952598,
        0.03653199992342447,
        -0.037394353226830296,
        -0.029959974092329887,
        0.04812106498266936,
        0.06453405257425493,
        0.06123703725252035,
        -0.07180782099088348,
        0.0055797872436408255,
        0.06372710484481564,
        -0.05912760798396976,
        -0.025721289477745348,
        -0.005410403353976176,
        0.03851850024272087,
        -0.09200314893897188,
        0.002240833366114782,
        0.0010091706790747793,
        -0.003793513407345999,
        -0.0627917084521588,
        0.08336998111884823,
        0.008284016695101731,
        0.038323564366843164,
        -0.0962990203050583,
        0.12389651349302923,
        -0.014863568461337818,
        -0.029432313755646363,
        0.07559615540171663,
        -0.028619569402525646,
        0.05133092080927994,
        -0.015984746528061526,
        -0.024075908685142533,
        0.09899915444313837,
        0.047742553304958864,
        0.04398676080565658,
        -0.07095591766819008,
        0.04786157015299415,
        0.07372088020028102,
        0.08123517660350707,
        0.06717190452660907,
        -0.007813166665033601,
        0.01027073079432815,
        -0.010916392045225601,
        0.05311894455462812,
        0.05838754387692323,
        -0.02378591596797623,
        0.06402578693039773,
        0.047321905399550133,
        0.010262210666105782,
        -0.04327070862133564,
        0.022942542089165765,
        -0.0189666432348851,
        0.06947191794444295,
        -0.02620658099434486,
        -0.05685728355832814,
        0.06590334756749557,
        -0.017355537580018322,
        0.052087530027021114,
        0.011531027941535203,
        -0.05854860376823482,
        -0.0697506887687799,
        0.0462146225494609,
        0.044631104132901195,
        0.1165662213771744,
        0.044317625958961035,
        0.07095190612052366,
        0.0039578475481113085,
        -0.025076085921867133,
        -0.004511904102898968,
        -0.04067237962278103,
        0.034814156125089715,
        0.061742689208308735,
        -0.022450356176689255,
        0.01468178489604368,
        -0.02198716695804244,
        0.12499866753402539,
        -0.008202623520684984,
        -0.04389168437175267,
        -0.033872333429997153,
        0.05930609680810325,
        0.07547933912633245,
        0.015021274769467921,
        0.08727915004625605,
        0.03346781925649885,
        -0.06616598615928375,
        -0.02246064914451215,
        0.040881543809114074,
        0.08448551441679011,
        0.03224366390754203,
        -0.006172430638800649,
        0.06856506324196242,
        0.014133411571510643,
        -0.039138000760131235,
        -0.019078693577685085,
        -0.07225485968656152,
        0.02640074167114117,
        -0.00939055696468339,
        -0.001044920220172163,
        0.0074120168211450725,
        -0.026442614930239514,
        0.07619511043882132,
        0.004435639123803445,
        -0.03145091290399984,
        0.06893145312479443,
        0.05024448310052386,
        0.011473266758820908,
        -0.011681137879297449,
        0.028271035251801968,
        -0.006721166122680273,
        0.030903588218018273,
        -0.029671450812372824,
        -0.005737017130434237,
        0.09122757836450884,
        0.024477647309324214,
        -0.03897532656833466,
        0.04229386536807957,
        -0.050029002571721444,
        0.017275045598334794,
        0.017068736778281052,
        -0.13679158023244017,
        -0.01621129497802723,
        0.008226553724427732,
        0.07354370328998068,
        -0.023216214397554443,
        0.0034926821541895747,
        -0.10093384989022142,
        -0.04396608937392249,
        0.03785432893320166,
        0.02902759238977646,
        0.05112753544442307,
        -0.012978336159761673,
        -0.046489499233681904,
        -0.00826555330444363,
        0.028700553550975255,
        -0.04375238202599714,
        -0.03265603320637618,
        -0.0032922781005602433,
        -0.0070691179164706595,
        0.019856134671601917,
        -0.012925995759673195,
        -0.08160504912371633,
        -0.02706441531429015,
        0.07413422796038983,
        -0.08943175658597155,
        -0.038572674367801006,
        -0.02775341629300896,
        -0.06862929842124656,
        -0.00260824253368666,
        -0.05567931979852544,
        -0.020522257783772944,
        -0.036558728738542434,
        -0.05404842552511509,
        0.026655420812449412,
        -0.04961563758179064,
        -0.053921984256925626,
        -0.08206995806060949,
        0.035502988556611534,
        -0.029286200654433703,
        -0.023894698063615823,
        0.039142201539945416,
        -0.08969069432928733,
        -0.03540700997003435,
        0.03252453045483692,
        -0.02538997619098568,
        -0.019833340949610992,
        0.048844991153727826,
        -0.03549979596328931,
        -0.03083070599768955,
        -0.04388875377415875,
        0.08496175125169786,
        0.11083624776967799,
        -0.005850929806466701,
        0.007849788831915028,
        0.115398246152211,
        0.0017411223863075392,
        -0.11522916063409647,
        -0.03727407852658177,
        0.03741426209726773,
        -0.047755233299211074,
        -0.001973415948642379,
        -0.040713890881229224,
        0.001118907133964564,
        0.04427894563166202,
        -0.004170795674664966,
        0.07856821564240661,
        -0.035508444918096474,
        0.016914478824697106,
        0.03762341205252562,
        -0.05058731077559215,
        -0.021709693779295713,
        -0.0359670726841921,
        0.08502590952034167,
        -0.036012424207631885,
        0.039336510502463555,
        -0.012717328858064418,
        0.04835403952035253,
        0.014079365947464912,
        -0.02289524851213236,
        0.02747694950356721,
        0.022372302910259503,
        -0.04088346636372084,
        -0.029236500202470747,
        -0.05389277969161522,
        0.049526803529628544,
        0.02333508534493116,
        0.07567330608677535,
        -0.04451813638244987,
        0.012437443491872353,
        -0.043395417984275264,
        -0.012377206710085867,
        -0.03877456054678563,
        -0.009411726099360345,
        -0.10700088117200551,
        0.0530959789431313,
        -0.00274641564180147,
        -0.057056510179588786,
        0.014680506234424684,
        0.011410678605681672,
        -0.06475321963869263,
        0.021648818726001783,
        -0.04006598484273074,
        -0.05461096164914091,
        0.025339363734403538,
        -0.03741701566564424,
        0.01739579426483253,
        -0.05153397113766425,
        -0.05725185248842995,
        -0.08454441871798328,
        0.004852691740412034,
        -0.01405704414844805,
        -0.0595566053945696,
        -0.06603476939572811,
        0.11331798795975202,
        0.06984617662889764,
        0.05374276242748829,
        0.10365658328179757,
        0.04463151848520203,
        -0.10838845417394767,
        -0.012030034059317365,
        0.061919220300986705,
        -0.09006475056755422,
        -0.07399277293526108,
        0.04777207312335636,
        0.023907399122546906,
        0.08931217717604736,
        -0.019268789324765986,
        0.0015673509194633825,
        -0.0832777420887574,
        0.044790818179798936,
        0.0010464774474876187,
        0.04429368311533899,
        -0.14120127395532414,
        -0.06823810475971201,
        -0.09960561465919195,
        -0.011997231001354556,
        0.058532183249383515,
        -0.04357329178944956,
        -0.011801911701326922,
        0.03458779283717328,
        -0.004113571200039766,
        0.05213229258570703,
        -0.02123583476660332,
        -0.01619218135892,
        0.0003459596534743576,
        -0.08517047706172716,
        0.11415281590384786,
        -0.030998972001689246,
        0.11737406104370933,
        0.053344988091033066,
        -0.022770622643235906,
        -0.027015274538726108,
        -0.002851359071011488,
        -0.08424267685290318,
        0.05158708145302732,
        0.023872789997253032,
        0.06782258193726638,
        -0.004207147669096821,
        -0.03979611848404378,
        -0.04046017734988539,
        -0.009270131633190133,
        0.013520680492576494,
        0.056051333828694386,
        0.05484916104731771,
        0.0065807999109747835,
        0.049086071486565665,
        -0.06315240947179648,
        -0.018741769710455734,
        -0.036883836473353505,
        -0.013628636874700235,
        -0.0021899983110226437,
        -0.018189795908696967,
        0.05362965043697879,
        0.048541767592267304,
        0.12609947497270535,
        0.011677102775828414,
        0.09435030378771525,
        0.0282596523841886,
        -0.057835922252604297,
        -0.008401798261548157,
        0.03168196556182224,
        0.041140170650242336,
        0.060921655116086146,
        0.023805434464417012,
        0.016104569284039943,
        -0.040518032964258294,
        -0.05663648571558647,
        0.05342664092193205,
        -0.0703629593713744,
        0.01105710753222506,
        0.03559716532114594,
        0.10104211766755183,
        -0.030901138517880327,
        0.047104925657399134,
        -0.05629572051227779,
        -0.043959987190849245,
        -0.060700947381116074,
        0.05551923786777673,
        0.10514872946510308,
        0.011389597398911759,
        -0.0037514353488485377,
        0.006083476277948741,
        -0.10427968739590884,
        0.019611779607177124,
        0.09914030876906138,
        0.020884036071880836,
        -0.008702749328226095,
        0.010175265148076686,
        -0.039885128381641224,
        0.06345914240536445,
        -0.019480256384362765,
        0.023421392045918886,
        -0.0570220702966226,
        -0.027449390410155462,
        0.10375116882643401,
        -0.030601504781963974,
        -0.0205083677811578,
        0.07947454508495874,
        -0.08212151189206929,
        0.09276865198159495,
        -0.027840846636333585,
        -0.07682351364373541,
        0.08528936101468441,
        0.028068825122656783,
        -0.11717924245714362,
        0.07324758636620177,
        0.03275561189948849,
        -0.08480409723221646,
        0.026348105881692507,
        0.01927788590986277,
        -0.07085080259719131,
        -0.013061330194532324,
        0.03995497977521871,
        -0.0155957872093981,
        0.0950484699727184,
        -0.0035947956681301393,
        -0.023702884602485853,
        -0.08003273664257449,
        0.03627511737477601,
        -0.04113004807773656,
        0.006126538715241837,
        0.12122701269336117,
        0.0839480983261569,
        0.025320350834841077,
        -0.021326264932402236,
        0.0012868895434917731,
        -0.00256348426553373,
        -0.0009070509690830581,
        0.021631904168739863,
        0.07936019308019066,
        0.011008378858657498,
        0.07391559579540728,
        -0.00995122382544969,
        -0.062206112123024224,
        -0.033998308140841677,
        0.05298520098502152,
        -0.03571873858045471,
        -0.026055443417748694,
        0.05470807753494811,
        -0.023758198128478743,
        0.017559808756164877,
        0.03540520782959476,
        -0.04030623814887804,
        -0.001828748733935768,
        -0.032844169603491485,
        -0.008997463495714949,
        0.029220902860094954,
        0.0034746300041635075,
        0.014339455975014619,
        0.017650257876984952,
        0.018178213471501455,
        0.009315125043212144,
        0.002448155966159009,
        0.034918828484023855,
        0.02461729065098479,
        -0.025158321321738425,
        -0.04760484164618049,
        -0.08621869504282817,
        0.06092180475914785,
        0.10598169860310046,
        0.0060186328116669085,
        0.028554695414447228,
        0.09461814545727285,
        0.06722291314901538,
        -0.013465987210967333,
        -0.01407002708452687,
        0.017498459699319277,
        -0.08323407200367597,
        0.09591052451472964,
        -0.08199509498477078,
        0.08602825554904607,
        -0.008102971937419696,
        -0.011161049500462566,
        0.06149317249164912,
        -0.019848546132084838,
        -0.01747098567685327,
        -0.03657218738547657,
        -0.0020036983261748787,
        0.03704092752227889,
        -0.03023181555730938,
        -0.07352701692287694,
        0.006519272686275234,
        -0.01836059880924266,
        -0.030895435965456217,
        0.12527828124613477,
        -0.011235418476348652,
        0.001782181960534951,
        -0.061331602187967044,
        0.008229380396463544,
        -0.06703464197930109,
        0.013226325018156598,
        0.025247499879261705,
        -0.001904815074928845,
        -0.09941279530913172,
        -0.057616301848360967,
        0.020029935883570445,
        -0.009473589384342064,
        -0.028246045859411043,
        0.09081991828901,
        -0.05930691436192623,
        -0.021071356524980434,
        0.0041778205575385315,
        0.03317467953784055,
        0.02009963044093914,
        -0.050391300258673256,
        -0.046680885729660435,
        -0.062453322269580724,
        0.05370721134438005,
        -0.07176634363917794,
        -0.10425040952001874,
        -0.022224902680411728,
        -0.036300187453630395,
        -0.08326514172654909,
        0.004128316383515257,
        -0.026181291192603824,
        -0.01625211807478052,
        -0.02387870338790872,
        0.10271531486046848,
        0.12561163429637004,
        -0.08305440092513924,
        -0.011332749200605398,
        -0.03821689195188712,
        0.0344017909895718,
        -0.019008790422911263,
        -0.018479885708193273,
        0.15596849673608215,
        -0.003555499928060868,
        0.0192463588131428,
        0.032642455261659625,
        -0.09186814505936833,
        -0.029649452859955162,
        -0.03846518929892614,
        -0.026544799862691898,
        -0.07091261890890585,
        -0.0030897904750858277,
        0.04883118585498559,
        -0.00960689261403289,
        0.06545744713361192,
        0.052911886436988895,
        -0.07518837579408788,
        0.008658324233663202,
        0.052634758444722096,
        -0.0031819665708643016,
        0.0554830694111854,
        -0.054666102536483616,
        0.08245319932935313,
        -0.01552982807150103,
        0.1161831152283018,
        -0.12198077766583573,
        -0.027710898767655118,
        0.033527582637432496,
        -0.0831687209664343,
        -0.07200616460775226,
        -0.05203450134858429,
        -0.0517201920904205,
        -0.02810518783894964,
        -0.027649080617347,
        -0.07069239565761536,
        -0.040644634687512574,
        0.01799405048450732,
        0.024671451075226274,
        0.0739247801712612,
        -0.08998822653942219,
        -0.015464040700598859,
        -0.027502425473744294,
        0.017097461639402824,
        0.02220836534643381,
        -0.04821730483509797,
        0.03447699918866143,
        -0.039989609068598504,
        0.00695758969696594,
        0.0755286316398697,
        0.0734946574732259,
        -0.019581502844401813,
        -0.03036996993105045,
        -0.06275743979892284,
        -0.0787904778267908,
        -0.01596467849652612,
        -0.005852212271040493,
        0.06297350851694482,
        0.04072851086248952,
        0.07681548053349357,
        0.024204385117366164,
        0.01307080658728043,
        -0.0049560819762078795,
        -0.005165887039231376,
        0.05581348874012062,
        0.008250798292462884,
        -0.000496811224748088,
        0.012485533093764543,
        -0.0131460696877348,
        -0.04657245408903437,
        0.05429378312153258,
        0.017242534319386896,
        0.012934438273509461,
        -0.08832743671210488,
        0.12530490905677827,
        0.05043233771778663,
        0.09935691974049968,
        -0.06674443386859835,
        -0.019795679133502497,
        0.011937831551772067,
        -0.001103595040088363,
        -0.08601631332354495,
        -0.020660285643662266,
        -0.029654936005318,
        -0.00955243411671224,
        0.015019860563228214,
        -0.06848796934581682,
        -0.1259261826169099,
        -0.007002871572624286,
        -0.07051863136057945,
        -0.028211785293052124,
        0.038215898683783764,
        -0.04448108230966287,
        0.010341115488826255,
        -0.047080444621387364,
        0.04836784212204566,
        0.06081492734673916,
        0.05901131416167284,
        0.07364459471848436,
        0.030293303978604014,
        -0.017773555245579616,
        -0.03962919161606107,
        0.02832323960288932,
        -0.13640020287192547,
        -0.013385822076635093,
        -0.029834422999515997,
        -0.02563204926561593,
        -0.05105628765094771,
        -0.08777159765288906,
        -0.0336000989449855,
        0.06598409966170267,
        0.008012555076205852,
        0.03618044276123856,
        -0.035912142787024356,
        0.016837227929609556,
        -0.007084574963048235,
        0.026578906746686795,
        -0.018242117302126958,
        -0.036782947139906694,
        -0.022723010696899623,
        -0.013061946088649422,
        -0.015474541079978772,
        -0.06423040029848487,
        0.024460603019823002,
        0.09342388296144857,
        0.13162738996248086,
        -0.10522270422849914,
        -0.01838362332781414,
        0.01849458953086644,
        -0.023573173236517045,
        -0.024632206405094198,
        -0.030008113605003144,
        -0.013811259608830676,
        -0.04348093671273555,
        -0.049991646823714285,
        -0.03407135979354994,
        -0.003512291274460736,
        -0.08428123608056369,
        -0.03283627968622879,
        0.09136766407090069,
        -0.021585630010710677,
        -0.05653684956609166,
        -0.02774126245053341,
        0.08860456868966787,
        0.014415557506050222,
        0.022357451996634137,
        0.064138423282296,
        -0.08545206278354758,
        0.037636583161663656,
        0.1027304344549039,
        0.13081982661925173,
        0.016851877845086453,
        0.011807782998241954,
        -0.009945146076038532,
        -0.027926554054297677,
        -0.043281896712560546,
        0.011759949719272515,
        -0.00022658401206227669,
        0.021062067933287007,
        0.004084689099403176,
        0.03365012635713652,
        0.06642917087113416,
        0.062435402203462546,
        -0.011261942922370703,
        -0.0031806630760672396,
        -0.07614955705006621,
        -0.0035478020318784192,
        -0.021239670193108514,
        0.01160011362330808,
        0.08185566663247953,
        -0.013662181952549854,
        0.029435527391980194,
        -0.045245521499123545,
        -0.06024755586945791,
        0.059978451507374776,
        -0.003620585847033418,
        -0.02854275629790468,
        0.0027814686356609428,
        0.042821824512434006,
        -0.025725110159120435,
        0.002121993413961916,
        -0.012493386098086276,
        -0.04547994582264845,
        0.025285015164278363,
        0.021245596039201127,
        -0.04216897614026938,
        0.03365466930821166,
        -0.005850550732264141,
        0.09970339556589668,
        -0.009007788022943036,
        0.026747718378628275,
        -0.028238599360006625,
        -0.044694929993025455,
        -0.10534182794092148,
        0.05684579177012827,
        0.09732966441938717,
        0.05031639009974129,
        0.03753745157045677,
        0.01291967673501563,
        -0.00340115071604229,
        -0.004783638064151191,
        0.016360734823159206,
        0.035906286207353685,
        0.008963210401240908,
        -0.023933908991316637,
        0.03315600900253337,
        0.07323306866145704,
        -0.027814413195396355,
        0.06869052436501549,
        -0.049073181200707604,
        0.06623192965506886,
        0.010671960640440327,
        0.0680730302706465,
        -0.07493896241909867,
        0.13670300427770882,
        0.07647561927823673,
        -0.03947728038012222,
        0.00238363766993315,
        0.06656938267713283,
        0.023262619748640925,
        0.053824773058870706,
        -0.00013544247715719434,
        -0.053973163425929074,
        -0.027278569764090634,
        -0.003949901686391127,
        -0.04457820796046196,
        0.02543621376038851,
        -0.08122417749012407,
        -0.016582396423730654,
        0.06260670536197713,
        -0.11747738948361293,
        -0.03718625460709985,
        -0.046676853365013794,
        -0.058999768019291465,
        0.05873145145507127,
        0.053937701855038114,
        -0.04269141472154209,
        -0.03113920171472901,
        0.035816004533567036,
        0.01893928977063638,
        -0.04662042451390504,
        0.03912731650412507,
        0.012676475389619376,
        0.02225646399221142,
        -0.056627749890683594,
        0.07643391898950022,
        -0.02031052336540068,
        0.1314507198809903,
        -0.03325698926531023,
        -0.015726624272390397,
        0.0133437216405877,
        -0.0009023494456881082,
        0.031522587154996846,
        -0.08856605634251127,
        -0.024710439475943768,
        -0.01859147925828491,
        0.049444774475301906,
        0.0243942914459034,
        0.01455188870232773,
        -0.09781961054857186,
        -0.009255381884443761,
        -0.09924970920008491,
        -0.019018873168608307,
        0.049593543212886074,
        -0.005701868551356843,
        0.05527731975741715,
        -0.04014318096576576,
        0.028791396356977257,
        0.06666514333846804,
        0.02014183771389564,
        -0.013997238722028713,
        0.08015672077131261,
        0.017060929646028726,
        0.04659239093216461,
        -0.03034727629088855,
        -0.0014390188128161306,
        -0.040542108763389345,
        -0.033424260787888654,
        0.004127718925115705,
        -0.059527883444660604,
        -0.05127943003486436,
        -0.047707005014116934,
        0.06065420348974695,
        0.0684356225580509,
        -0.009920650086580614,
        0.022696080569470332,
        -0.013984315836316919,
        -0.10010116577068781,
        -0.010989484470469983,
        0.055605758213986375,
        -0.06877235162406362,
        0.03001515780353748,
        0.0655030522818831,
        0.03409287577962037,
        0.09625706051646798,
        0.004922458317282774,
        0.04385325995979623,
        0.02682933409168742,
        0.09363320555049512,
        0.008136629011872789,
        -0.018551300706135258,
        0.03781075887894182,
        -0.103216832495412,
        -0.028760377439243638,
        0.02557352033515008,
        -0.01898246806489546,
        0.040364323510549374,
        -0.005627300590689312,
        0.04110642297211993,
        -0.019550827588345587,
        -0.10809987617547306,
        -0.013126085434777418,
        0.015706615865235904,
        0.05446830296009057,
        -0.026089831933804382,
        0.07386054426104652,
        0.03291015418384254,
        -0.008944756799362609,
        0.05289193726669851,
        -0.03743696590768893,
        0.015438218076492743,
        0.021137336960111053,
        -0.06942864879159419,
        -0.0394828134748698,
        -0.0458852514616205,
        0.005122288577209652,
        0.038742196172278025,
        0.06145942911030232,
        0.01701530754972619,
        -0.006740870493971356,
        -0.026051468963261985,
        0.09522989459814957,
        -0.010973082639144663,
        -0.01543628714614931,
        -0.025288642136132255,
        -0.032915213042511784,
        -0.11701972618738554,
        -0.012742105142737832,
        -0.02081351165160892,
        0.04802126563056363,
        0.049084018965428994,
        -0.0013222881411952738,
        -0.022827425792349997,
        0.054910239839448274,
        0.05182227353464274,
        -0.027272877995096468,
        0.006808488738309443,
        -0.006566285594705231,
        -0.01759738651221968,
        0.0006565548178809229,
        0.0632320988036266,
        0.007534394456718,
        0.04626823035204028,
        0.033946601025103385,
        -0.08675831708334429,
        -0.016159016769437845,
        -0.06325386157880863,
        0.08036680914488925,
        0.05809723632068795,
        -0.09617317643948471,
        -0.0010209359663466352,
        -0.034847646098692654,
        -0.13741687027212535,
        -0.03412100793615805,
        -0.006526158434874361,
        -0.05882203552098599,
        0.0018102284410328323,
        0.007558949003965783,
        -0.06108392079423157,
        -0.05926643276835126,
        0.11024975075564025,
        0.04786971955007696,
        0.021630143674345653,
        -0.00613389182036754,
        0.015611657785088075,
        0.0867600600493448,
        -0.029794389994542994,
        -0.010432145642697371,
        0.0041674480673177675,
        0.05415074856796135,
        0.050688055273139285,
        0.027257014781849186,
        -0.0019264663951400057,
        -0.0007247108445986167,
        0.06945413369424663,
        0.033613525021464835,
        -0.12115153824740214,
        0.06241735697199688,
        -0.01969378979467311,
        0.004392599690897593,
        0.011585613360393914,
        0.005815347381673641,
        -0.06683949423598445,
        0.024040966508428657,
        0.09510457140646243,
        -0.05671580119960798,
        -0.008479928713925087,
        -0.05100834818276683,
        -0.04215509051440941,
        0.011300920435531586,
        -0.02057635571141476,
        0.042148119310816495,
        -0.03829340675326276,
        0.046991095549780086,
        0.06624631363078884,
        -0.06178889719447901,
        -0.029101564106231177,
        0.06797694966696807,
        0.016188225290238403,
        -0.02933342812002589,
        -0.15650934510161785,
        -0.06719127370314966,
        -0.013431753161064047,
        -0.07561804823473221,
        -0.01247842021779602,
        0.002713093684984777,
        -0.0682603096938177,
        -0.07582279848600648,
        -0.07515542417276966,
        0.06784246079564002,
        0.057436545260290975,
        0.023281449368597135,
        -0.13923507231526416,
        -0.017173809438295985,
        0.0647165909275034,
        -0.022522123070585633,
        -0.06966145724869302,
        -0.0810256548715919,
        -0.012567154238516516,
        0.11664278612352544,
        0.03060633651437131,
        -0.01179542018159734,
        0.04280667262923844,
        -0.009361012425716287,
        -0.06312837658469762,
        0.0254169900482598,
        -0.04073704579483724,
        -0.054927039256999446,
        0.0005395851031044785,
        0.022534416453585077,
        -0.08773820226466528,
        -0.03870767888684299,
        0.010769092172878494,
        0.043097263774399784,
        -0.0522918029136247,
        -0.0064131296609470645,
        -0.04326537577618564,
        0.04770615147994942,
        0.0021933778940760908,
        -0.0038276313803344572,
        -0.031052355991159332,
        -0.05576740535001069,
        -0.0864269188338255,
        0.015821858105720947,
        -0.0417807395684911,
        -0.04610061544635451,
        0.023829257051161085,
        -0.050089778365040964,
        0.022549864259060762,
        0.05018139418469228,
        -0.0031749302181214058,
        0.012246287652390527,
        -0.04318136462619284,
        -0.03713658320468484,
        -0.07002970426657724,
        0.05384805496257968,
        0.06732419563715075,
        0.12619437272775283,
        0.023508677305923,
        0.08055195641071461,
        0.0014658038566335817,
        0.02442386555003023,
        0.02666611972639195,
        0.02259751497632609,
        0.033204213021194744,
        0.09104199822117384,
        0.04704404678465048,
        0.04626804160100552,
        0.04099228057407024,
        0.09374735971156467,
        -0.007837297388671421,
        0.059203646393794815,
        -0.0016350946609808518,
        -0.09050390171066755,
        -0.031117496905930065,
        -0.04248785426273642,
        0.09705290592374216,
        -0.04689663293272295,
        -0.044089781286450025,
        0.08786528219170092,
        0.06767432820286287,
        0.02842322054403954,
        -0.07635152677710616,
        -0.06839773321976986,
        0.11603721807187495,
        0.037907700514797096,
        -0.04997155689531238,
        0.03638497240370926,
        -0.009682612178429023,
        0.08968743184945445,
        0.014264350352600343,
        0.04932165400407218,
        0.039625161634103165,
        0.03929791667677962,
        0.1104512417373882,
        -0.05560405781009467,
        0.04501513273937477,
        -0.029441626579834283,
        0.0867816758975696,
        -0.023393510598133695,
        0.017501859977026503,
        -0.033825527437789646,
        -0.05673720325874536,
        -0.06416254536905036,
        -0.014103808541459881,
        0.022845435783550236,
        -0.018830485539587646,
        0.02197476203233506,
        0.0008485455713671299,
        0.025696569861386607,
        0.031191677020318928,
        0.052376873536953514,
        0.0008861701236910213,
        0.08878392943268736,
        0.017896885850153393,
        -0.019076787423030376,
        0.05677140732452291,
        -0.028696148009363674,
        0.019226492410533053,
        -0.14035674253832936,
        -0.07373271576115087,
        0.13486736761384455,
        0.03854294090465396,
        0.06033055006902653,
        -0.029804219823585405,
        -0.049912355621611004,
        0.01912238956843548,
        0.037307198706539466,
        -0.026736476645296013,
        -0.08965592954130636,
        -0.035310485944758364,
        -0.029497391531357452,
        -0.05551317379419454,
        0.13385290898364607,
        -0.079350153643365,
        -0.03057007435129065,
        -0.02158625187537222,
        0.08402483827179341,
        -0.07305082495972127,
        -0.02432115120526089,
        0.04415573859207962,
        0.010154880707435171,
        -0.041996886813687725,
        -0.0286924985330171,
        -0.0502917639867264,
        -0.01995552026655857,
        0.011545000908660709,
        -0.15211497179720468,
        -0.028036729162632317,
        -0.013076121848903832,
        -0.01235478006190547,
        0.019109897105900504,
        -0.03560161030926875,
        -0.05878563134110251,
        -0.0064544923335433,
        0.006222614207742078,
        0.044498649510278446,
        0.037726309315950515,
        0.020473299599393473,
        0.11454269629223747,
        0.09292139975820121,
        -0.006565112253330658,
        0.11501751746348998,
        0.04567332624024492,
        0.05336677182761679,
        0.08459177933367726,
        0.02774926411328133,
        0.028724932778427522,
        0.02937377254217726,
        0.1628723190437781,
        0.03364226422735815,
        0.03464258589166183,
        0.11523320291993844,
        0.06862490002609065,
        0.06030384769983653,
        -0.03965505271435123,
        -0.05604918830233604,
        -0.030650169801559046,
        -0.0017717123252151972,
        0.05358599761104709,
        -0.08195495017601445,
        -0.05426140552262746,
        -0.0010440598857624321,
        0.03916699040187963,
        0.06158743957316863,
        0.08122801805243512,
        0.08057232691039437,
        0.07495556102858811,
        0.038402253220151145,
        -0.031101007411189343,
        -0.058120549478105424,
        -0.006351075032246087,
        -0.12489916228995417,
        -0.09538150086553111,
        0.07297140648068295,
        -0.003418217662321338,
        0.03638565971141573,
        -0.005819412553187388,
        -0.016914324369065148,
        -0.08601578088987968,
        -0.01471438176620896,
        0.07751454107222745,
        -0.04137169768201786,
        0.002068155847008513,
        0.10779552522348092,
        0.06242793229582054,
        -0.006704996949031299,
        0.02632664216541153,
        0.023398359685831226,
        0.01790548477656605,
        0.01940286183533612,
        0.08737741181111658,
        -0.04603107335081211,
        -0.04666907161387894,
        0.01213060850028131,
        0.04202230577548755,
        0.03931078548927962,
        0.09549213775471979,
        0.020264806920133268,
        0.019387467415244906,
        -0.013662548591387914,
        0.045467833813973554,
        -0.045917111539974784,
        -0.037146990611345534,
        -0.005811330883624774,
        -0.02102908675671529,
        0.05254212821576165,
        -0.05883212875100686,
        -0.020956318586348013,
        0.06641411560047188,
        -0.022752573463249222,
        -0.07654753536561193,
        0.030466099804219514,
        0.06602282692492499,
        0.01837457209429166,
        0.0166279362465167,
        -0.019097471341447583,
        0.02155843658194049,
        0.060341575458978516,
        0.0592342298245712,
        -0.026512583749039337,
        0.04026879007701761,
        -0.09978819796800328,
        -0.11599323936336302,
        -0.02764011508438585,
        0.0753523467207089,
        -0.01421275001512147,
        0.02384753377038659,
        -0.03450252743521683,
        0.002974841431940274,
        0.026794390349137134,
        -0.035957708248991166,
        0.05381025258385473,
        0.034544751367689246,
        0.041801161541215826,
        0.007165551663536551,
        -0.045434062586912516,
        0.007276894783203931,
        -0.0021138108238564005,
        0.020998644595237894,
        -0.0007300635150869761,
        0.027531459703163383,
        -0.005360458321063779,
        0.028199759263844625,
        -0.0054532096475966435,
        0.0445951649675716,
        0.08512458575916908,
        -0.07549003440211959,
        -0.03834309199937391,
        -0.05231347768785193,
        -0.05845859430315087,
        0.020933882153083786,
        -0.04219459302307484,
        0.007671582028507842,
        0.010019106196674704,
        0.02492341441592956,
        -0.0020602892718710603,
        0.0601649826396623,
        -0.03311855385867766,
        -0.006769503003985027,
        -0.06736389531218866,
        -0.06978563163812694,
        0.024946815618621443,
        -0.02999028532362321,
        0.03171193099846092,
        -0.003350392395905885,
        -0.026485501550425422,
        -0.03219712219530842,
        -0.05867822564506767,
        0.025982428723934026,
        -0.03576612946047441,
        0.09170105164223463,
        0.03348411190965789,
        0.04659863976808194,
        0.022721530569087506,
        0.10522586170570308,
        -0.013448361382606426,
        0.00495383311975784,
        0.061274909200641506,
        0.006835112750489949,
        -0.07183059878617797,
        -0.07734223053963557,
        -0.0022843409070662235,
        -0.12559623682513865,
        -0.04617054287127851,
        -0.049898278595062254,
        0.007981702806305425,
        -0.02286014827879998,
        0.03022541470834122,
        0.04790685572093122,
        0.046100725787689825,
        0.06899510843499934,
        -0.1036027012610621,
        -0.014520493085033507,
        -0.07827904667722377,
        0.046662013801409385,
        -0.0820348183216629,
        0.028916684096643303,
        -0.016249282055911245,
        0.023600167124664114,
        -0.0001851257035599338,
        -0.03896678043518454,
        0.04986750573566502,
        0.09906771669889095,
        0.044376333554342055,
        -0.01121670322600971,
        -0.053157602419596425,
        -0.07876826835552554,
        0.059517794420613154,
        -0.052453702091095136,
        0.059054253196134124,
        0.044791154025958374,
        -0.004924611702694456,
        -0.01421747260668444,
        0.04598865696771,
        -0.010504704057619586,
        0.006886434293949957,
        0.01243165636270472,
        0.0076831397463865934,
        -0.022025640625957917,
        -0.01946540179821128,
        0.059432959200410716,
        0.036169036987156004,
        -0.02265312716129756,
        0.05558825354217216,
        -0.03025187352568088,
        0.0672847646683948,
        0.04336880746203522,
        0.01239582421869653,
        0.060997272196091995,
        -0.09428299344577366,
        0.04108072282152031,
        -0.008615712279573536,
        -0.07018223299425314,
        -0.02610998988828367,
        -0.002150623349568573,
        -0.04269093900331788,
        0.02111071987594061,
        0.022040895156789038,
        0.03532969742607069,
        -0.056819507794557626,
        -0.08425300164355091,
        -0.06289028693245621,
        0.02231994734660904,
        -0.014696381954443265,
        0.02923164112113575,
        -0.09203927355772146,
        -0.008705577040259536,
        0.0191804868613043,
        -0.14350018381096336,
        -0.013445158266291501,
        -0.005004548520365568,
        0.07026569328529401,
        -0.11917085584669793,
        -0.02126928379995092,
        0.004783404914240272,
        -0.0453935710533155,
        -0.0574771484564692,
        -0.015642984911216157,
        -0.023024142567283704,
        0.019730066938527344,
        0.04465314694144368,
        0.0028053327882374413,
        -0.06922713197461754,
        0.03843454448017713,
        -0.005876881253220927,
        -0.051196992399321684,
        -0.08273568180589591,
        -0.07339225927134313,
        -0.030779642732150916,
        -0.07809205669926636,
        -0.009566104274283138,
        0.015138016749069463,
        0.029167893681605928,
        -0.005253950151633175,
        -0.056039403307960214,
        0.009476278021779128,
        -0.024170714037885947,
        0.018051634123638714,
        -0.0227751292837102,
        0.003497887690946123,
        -0.028864915577179455,
        0.08712011128875734,
        -0.009455241902644879,
        0.046628522825034976,
        -0.025463890790252495,
        0.011155759794179727,
        0.021232074478078775,
        -0.010037423726981565,
        -0.02790295476469238,
        -0.05886562697343127,
        0.015513241850265497,
        -0.1255991008006921,
        -0.08303577756146238,
        -0.008842189315996521,
        0.09440069643003746,
        -0.0652706963535293,
        -0.023237090796284453,
        -0.010761626879525747,
        -0.07117692632557102,
        -0.10665052075917274,
        -0.015292804614255272,
        0.057535920649483194,
        -0.02549948375822093,
        -0.056888320477283566,
        -0.04995306739740041,
        0.03935368814521407,
        0.0757674824222898,
        0.00942911342799111,
        -0.007387803818561958,
        -0.04867157871134918,
        0.09241936663654274,
        0.031624639665626356,
        -0.021130509307188933,
        -0.07322639433828224,
        0.10176546079376753,
        -0.031241142281688627,
        0.03960596103701962,
        0.01704880018038707,
        -0.07456451772232671,
        -0.022584746022015136,
        -0.059966307185786175,
        -0.02032438347204016,
        -0.031983096230688596,
        0.0583483358235597,
        -0.012568210733683777,
        -0.08888685379051497,
        0.07682157644902898,
        0.0035287430313906427,
        -0.02827014637137481,
        0.043951325844226494,
        -0.02361675459608611,
        0.047882976660801053,
        -0.04823187501220271,
        -0.00871567713973978,
        -0.05874658632419903,
        0.00698849790534805,
        0.04371322257257047,
        0.011148612005604238,
        -0.05073877267991654,
        -0.03720377554379445,
        -0.06575651909768179,
        -0.0917006900504179,
        -0.014375653346833802,
        -0.012368179423316684,
        -0.06989080782936422,
        -0.05038558127561086,
        -0.003292853639930971,
        -0.030338006057519105,
        0.03203203952226085,
        0.08276700058645713,
        -0.03789009388075089,
        0.05680938847477819,
        -0.007475318707923488,
        -0.02630050093025078,
        -0.08178265260742737,
        -0.006694643581315437,
        0.06073777964769631,
        0.009634445830117277,
        -0.014265160395223145,
        0.02304519513391479,
        -0.002944484385968735,
        -0.06165751433058532,
        -0.0684116955603232,
        -0.015534356517882512,
        -0.01605732712100098,
        -0.07171001194485599,
        0.032993237897602,
        -0.06175132306033299,
        -0.051802593061285776,
        0.07030929233130123,
        -0.014624250779048914,
        -0.08538463251889336,
        -0.05749755124281064,
        0.04912300471461466,
        0.0027617844501802782,
        -0.033386767335812015,
        -0.15826888140336226,
        -0.011502824429304837,
        0.05572147038666962,
        0.012758078106358078,
        0.0009750269476817338,
        -0.017178691379192923,
        -0.0065253894386589515,
        -0.09356768658803138,
        -0.038019192589194124,
        0.003885983548330968,
        -0.06745963490205421,
        0.04061647779108648,
        -0.02173211159344827,
        -0.03517660547604816,
        -0.009417941149353848,
        0.05278629455342079,
        -0.028169068410880085,
        0.10193033921351749,
        -0.09913005496284719,
        -0.02833464090954433,
        -0.04463553932029134,
        0.0060937126243110346,
        -0.07420797592984876,
        -0.05230145754889135,
        -0.06411867446035698,
        0.11507152680917596,
        0.04831217906566064,
        0.03551852871584133,
        0.06179272402137516,
        0.0388289771162036,
        -0.1097355331482593,
        -0.13037178592037119,
        -0.05011604510286565,
        -0.047541789974742864,
        0.02652835775403169,
        -0.0009361619366355968,
        -0.07959909742083243,
        -0.007868691715265273,
        -0.02784646269522399,
        0.03409725236735206,
        -0.018386457358954503,
        -0.01146855263751468,
        -0.030710674489046953,
        0.013488476678494548,
        0.02964449994034205,
        -0.05733457912336386,
        -0.07962841650767011,
        0.03173312908393469,
        -0.07893768401260262,
        -0.012472866395885598,
        0.042535393835108876,
        0.009564331200743348,
        -0.08011101272817406,
        -0.06287519905352469,
        -0.10310959545625166,
        -0.022071263328179644,
        0.024960291653128852,
        -0.054917909717555544,
        0.050788223318215864,
        0.03276844078369352,
        0.034314330423755375,
        0.04473208036071355,
        0.005553681608850853,
        -0.009119003588137331,
        -0.013735335848179007,
        -0.007816035522546574,
        -0.028131139704966293,
        -0.002951275572888948,
        0.029388851281785554,
        0.006362598235419931,
        -0.015307793481544629,
        -0.008656840403225965,
        0.0038803253705973328,
        0.03806694346541448,
        0.04561198520140422,
        -0.056133707320966494,
        0.030082128637401964,
        -0.02059522097617709,
        -0.0010136295490701247,
        0.032355252715322906,
        0.0779487495756873,
        -0.0696892637923783,
        -0.020976981467099327,
        0.026699041319652957,
        0.07127069775169848,
        -0.05590659932408701,
        -0.05621150855697361,
        0.010792371530768554,
        -0.04600464418772028,
        0.08603983225143959,
        0.014096777667268665,
        -0.10062182027457456,
        -0.04739066977618317,
        -0.022776498829716493,
        0.023885372828428057,
        -0.048636977074539706,
        0.0015740011912914326,
        0.0004694594006159694,
        0.03613710232312495,
        0.047780216394285466,
        0.014809641866572472,
        -0.061416675876979174,
        -0.01945806465530961,
        -0.09225792869785002,
        0.08167170847268299,
        0.06221447279921765,
        -0.005921470918594896,
        0.05505165678542776,
        -0.02005754356476802,
        -0.04401849183463331,
        0.08698921669723106,
        -0.05399915699515314,
        0.035101241725250545,
        0.09359331756593985,
        0.025373195121807468,
        0.05688022526275267,
        0.01400079452857117,
        -0.11989343420547582,
        -0.016613634263434242,
        0.003358049328724022,
        0.07690465861534074,
        -0.004057327349015136,
        -0.06137774785571408,
        0.061530985101680806,
        0.0730432006717559,
        -0.04908887065471051,
        0.034855561638991846,
        -0.10522038220887717,
        -0.09913872211977999,
        0.07774934399055586,
        -0.024542962134935755,
        -0.004802418430527785,
        -0.07989997252886319,
        -0.054394053593471214,
        -0.012082251413006444,
        -0.035685768050487385,
        -0.016874008871958023,
        -0.012998171992162652,
        -0.0675758175671465,
        0.011996614503203263,
        -0.09953848529575501,
        -0.05899583880575421,
        0.0059787369453953385,
        0.05486452524014,
        -0.07750765392128756,
        -0.060006231638017334,
        0.06779028622525995,
        -0.05213766115246388,
        -0.013058072058434206,
        -5.008551367254336e-05,
        0.010228575529847711,
        -0.0006247793317682888,
        -0.0459053608255509,
        0.023541637999632655,
        0.02648161324428188,
        0.05078619776865843,
        0.05084737181071181,
        0.05863677869299575,
        -0.03604295637297404,
        -0.03168033905856972,
        -0.01053789665430711,
        -0.12567461075675643,
        -0.017122188867697667,
        -0.04476634725499544,
        0.0615545528302739,
        0.04394607883709706,
        -0.020839220583152324,
        0.009125372178942687,
        0.0206505245361897,
        -0.002236463301394001,
        0.020486795252201033,
        0.000580810405277586,
        -0.04367312959386857,
        0.021887559919296147,
        0.032342290877092054,
        -0.052709389658280606,
        -0.05628422491584004,
        -0.010542054334838907,
        -0.02209674464212285,
        -0.05419388626573049,
        0.023436798519044337,
        -0.02287218843892768,
        0.009064859466446765,
        -7.308408233666023e-05,
        -0.045875377814869556,
        0.03891657262519015,
        -0.045770702614565534,
        0.029025874546599755,
        -0.05222285011788649,
        -0.05004527798008878,
        -0.03206067169970726,
        -0.09177813747127456,
        -0.08813526321233925,
        -0.04466598934133032,
        -0.0075481893945261655,
        -0.058564202483385674,
        0.09533363174450414,
        0.02621604727405721,
        -0.02240306982829042,
        -0.1391563563157341,
        0.100550312412726,
        -0.07312370797283375,
        -0.01165298837341014,
        -0.007401004425066315,
        0.007784631585755701,
        0.018484997940169896,
        -0.050760125207541196,
        -0.03067657028514668,
        -0.06008205702491483,
        -0.042750927724176206,
        -0.03972176764554382,
        -0.16603787365028055,
        -0.03032672422688184,
        -0.032792015213227416,
        -0.07675074280419504,
        -0.008135675273799547,
        0.025941762028052547,
        -0.014357866954402995,
        0.1042029889515908,
        0.050381628840378806,
        0.03164265728498681,
        -0.04601972552764666,
        0.067838673424267,
        0.001991844277274009,
        -0.007157890081013203,
        -0.0034996589770810473,
        0.03431693499485559,
        -0.033152541404796614,
        0.027680253176366364,
        -0.06562244158633473,
        -0.02197041689036635,
        -0.009063635809514298,
        -0.03074204522042869,
        -0.02721173167719867,
        0.027331478709543985,
        -0.0662438092826698,
        -0.004491127447541595,
        0.03716294233804018,
        -0.04038592783571847,
        0.041305215480914294,
        0.005245615421451008,
        0.014992271052153611,
        -0.08836954586668005,
        -0.09937926069392308,
        0.059486451254214076,
        0.06066802322756473,
        0.00459421633418744,
        -0.001724335974403031,
        -0.020511459321928282,
        -0.0635723748018322,
        0.02496950195158658,
        0.03857284662488773,
        0.006898412027816908,
        0.03562198400174912,
        0.0008910062950394301,
        0.06879366972140696,
        0.04236472266855178,
        -0.03968588198708696,
        0.024209432589348663,
        -0.001861954476114272,
        -0.043342408988244416,
        -0.10248176294230518,
        0.15134646880316033,
        -0.03137762765245932,
        0.04591867798044383,
        0.0490323043476907,
        -0.022647109748993186,
        -0.025946623843035223,
        0.08282514794421621,
        -0.050124329742460026,
        -0.0567280388954582,
        0.004652955386748491,
        -0.07076507240187033,
        -0.12448140774570876,
        0.01125172656771195,
        0.00047696135239908965,
        0.07618250736600313,
        0.03594602665373968,
        -0.013992491672507105,
        0.06538215902538774,
        -4.587537464786559e-05,
        -0.06907370921839395,
        0.055732175231414396,
        -0.024799533110097905,
        -0.04192349990748995,
        0.05008655323356928,
        0.029178916765373774,
        -0.022939653331098972,
        0.012059110023207262,
