{
  "weights_summary": [
    {
      "layer": "param_0",
      "shape": [
        7,
        192
      ],
      "mean": 0.0014784587547183037,
      "std_dev": 0.05805071443319321,
      "values": [
        -0.0004002005443908274,
        -0.012774979695677757,
        -0.061293479055166245,
        -0.008232934400439262,
        -0.06502112001180649,
        0.004165418911725283,
        -0.06419495493173599,
        0.03590494766831398,
        -0.066106416285038,
        -0.12738774716854095,
        -0.06438833475112915,
        -0.06944772601127625,
        0.005149093922227621,
        0.04056999832391739,
        -0.02053288370370865,
        0.011243329383432865,
        0.026858555153012276,
        -0.0008045736467465758,
        0.07934097200632095,
        -0.02989773266017437,
        -0.0642399936914444,
        -0.004901357926428318,
        0.0015840899432078004,
        -0.002979194512590766,
        0.003628261387348175,
        -0.04876960441470146,
        -0.02973264269530773,
        0.04137750342488289,
        -0.08634085208177567,
        -0.008795686066150665,
        0.010837980546057224,
        -0.058762166649103165,
        -0.07989075779914856,
        -0.05885830894112587,
        -0.11359212547540665,
        0.009408660233020782,
        0.08841119706630707,
        0.06858320534229279,
        0.027568269520998,
        -0.004504308104515076,
        -0.09650320559740067,
        -0.03112470917403698,
        0.02375662699341774,
        0.008104216307401657,
        0.07963680475950241,
        0.03545576333999634,
        -0.043313682079315186,
        -0.04966087266802788,
        0.01515163853764534,
        0.017342425882816315,
        -0.04583360254764557,
        -0.12113656848669052,
        0.026211991906166077,
        0.00097754318267107,
        0.04010320454835892,
        -0.026195036247372627,
        4.797853762283921e-06,
        -0.0067864577285945415,
        -0.006712798029184341,
        0.0420987643301487,
        -0.004027780145406723,
        -0.04391126334667206,
        0.0456843264400959,
        -0.010205705650150776,
        -0.03856595605611801,
        0.006259971298277378,
        -0.058341264724731445,
        0.030876051634550095,
        0.03519606962800026,
        -0.013316974975168705,
        -0.05404231697320938,
        0.04816947877407074,
        0.010875658132135868,
        0.08314760774374008,
        0.06775270402431488,
        -0.012509474530816078,
        0.0016287118196487427,
        0.08740130811929703,
        0.00024901010328903794,
        0.08713332563638687,
        -0.09728306531906128,
        -0.03522496670484543,
        -0.052300214767456055,
        0.028864001855254173,
        0.06142127141356468,
        -0.0035605805460363626,
        -0.043575603514909744,
        0.00038585314177908003,
        0.026304906234145164,
        0.012613766826689243,
        0.056427765637636185,
        0.034723613411188126,
        -0.00856020301580429,
        0.07956810295581818,
        0.007446612697094679,
        0.00047835829900577664,
        -0.02370593324303627,
        -0.0028166230767965317,
        -0.016925889998674393,
        0.0005789237329736352,
        0.0013089179992675781,
        -0.0809459462761879,
        -0.004129202105104923,
        0.010321567766368389,
        0.007957997731864452,
        -0.017585311084985733,
        0.009818200021982193,
        0.01095652487128973,
        -0.09187211841344833,
        -0.02903619594871998,
        0.09804190695285797,
        -0.06588448584079742,
        -0.002369459718465805,
        0.027467690408229828,
        0.02211623638868332,
        0.037928272038698196,
        -0.10343455523252487,
        -0.0009498453582637012,
        0.0989551916718483,
        -0.0017562953289598227,
        0.0008192401728592813,
        0.008294284343719482,
        -0.03322672098875046,
        0.07200507819652557,
        -0.002255575731396675,
        -0.03258168324828148,
        -0.0052293092012405396,
        -0.0341876745223999,
        0.07946233451366425,
        -0.09058155119419098,
        0.016417186707258224,
        -0.10804233700037003,
        0.023745056241750717,
        0.04557615891098976,
        -0.0764537900686264,
        -0.039311766624450684,
        0.046659525483846664,
        0.017235644161701202,
        -0.0556480698287487,
        -0.15318910777568817,
        0.08490406721830368,
        0.08147850632667542,
        -0.05651486665010452,
        0.004439860582351685,
        0.09111016988754272,
        0.15428426861763,
        -0.02831082046031952,
        -0.0071733128279447556,
        0.04523023962974548,
        0.01657290942966938,
        0.022048452869057655,
        0.12739726901054382,
        0.03451290726661682,
        0.07578247040510178,
        0.005152554251253605,
        -0.12500382959842682,
        0.1236329898238182,
        -0.04084504395723343,
        -0.0036025000736117363,
        0.15513500571250916,
        -0.02034664899110794,
        -0.06592980772256851,
        -0.1006861999630928,
        -0.018970588222146034,
        0.0196108166128397,
        0.014217712916433811,
        -0.11154425144195557,
        0.01028954703360796,
        -0.07875330001115799,
        0.03365273028612137,
        0.058742180466651917,
        -0.0037714028730988503,
        0.014874248765408993,
        0.08831018209457397,
        0.05839618295431137,
        -0.018738286569714546,
        -0.049057696014642715,
        0.03318428620696068,
        -0.04788094386458397,
        0.08001717925071716,
        0.05709332600235939,
        0.034931838512420654,
        -0.09514398872852325,
        -0.043001774698495865,
        -0.07953614741563797,
        0.0642402246594429,
        0.025373460724949837,
        0.06027308106422424,
        -0.12118224799633026,
        -0.08845319598913193,
        -0.06105451285839081,
        -0.040328335016965866,
        -0.11027740687131882,
        -0.06921633332967758,
        -0.00998011976480484,
        0.02182461880147457,
        0.036107730120420456,
        -0.018000466749072075,
        -0.05312975123524666,
        -0.031204959377646446,
        0.0010970007861033082,
        0.020928088575601578,
        0.0015467540360987186,
        0.10414324700832367,
        0.010646346025168896,
        0.01982687972486019,
        -0.05985475704073906,
        -0.013280571438372135,
        0.11338262259960175,
        -0.08415800333023071,
        0.0023562584538012743,
        0.01241280511021614,
        0.08015569299459457,
        0.03798412159085274,
        0.05923387035727501,
        -0.030222052708268166,
        -0.005962596274912357,
        -0.05138301104307175,
        -0.040278561413288116,
        -0.008030567318201065,
        0.015002015978097916,
        0.029545046389102936,
        0.03976632282137871,
        -0.0018267142586410046,
        0.04845336452126503,
        0.040691450238227844,
        0.02583375945687294,
        -0.023351814597845078,
        0.07070634514093399,
        0.0678459033370018,
        0.037536073476076126,
        0.11850323528051376,
        0.0090471301227808,
        0.03644893690943718,
        -0.01019294559955597,
        -0.062459830194711685,
        0.01741018332540989,
        -0.027879774570465088,
        0.01009228453040123,
        -0.02836528792977333,
        -0.020218027755618095,
        0.005060422234237194,
        -0.04154444858431816,
        -0.05989130213856697,
        -0.04344493895769119,
        0.04978034645318985,
        -0.006410042755305767,
        0.11120116710662842,
        -0.0007802498294040561,
        -0.010468539781868458,
        -0.03638211637735367,
        -0.0077742780558764935,
        -0.0030413540080189705,
        -0.009303605183959007,
        0.0410500094294548,
        0.04980543255805969,
        -0.05720588192343712,
        -0.027635475620627403,
        0.03337423875927925,
        0.011403853073716164,
        -0.04593132436275482,
        -0.06029079481959343,
        -0.10270509123802185,
        -0.005317711737006903,
        0.06489512324333191,
        -0.09680426120758057,
        0.07173815369606018,
        -0.011373884044587612,
        0.10362241417169571,
        0.001149910967797041,
        -0.00010569396545179188,
        0.07340306043624878,
        0.02462133765220642,
        -0.006593549624085426,
        0.029342565685510635,
        -0.10097786039113998,
        -0.03016716055572033,
        0.0913206934928894,
        -0.11120537668466568,
        0.0078100236132740974,
        -0.0002575287944637239,
        0.04534178972244263,
        0.003387599252164364,
        0.11651942878961563,
        0.016629382967948914,
        -0.06924229860305786,
        -0.04488437622785568,
        0.01040494441986084,
        0.046827103942632675,
        0.03790479525923729,
        -0.04103316366672516,
        -0.06728295981884003,
        0.0713869258761406,
        -0.028739789500832558,
        -0.003794488962739706,
        -0.03156057372689247,
        0.0694921463727951,
        -0.0022365080658346415,
        -0.03178682178258896,
        0.041941527277231216,
        -0.048984844237565994,
        -0.02147863432765007,
        -0.0944182500243187,
        0.030329514294862747,
        0.034737907350063324,
        -0.008302715606987476,
        -0.09339523315429688,
        0.01159172598272562,
        0.012120409868657589,
        -0.04747127741575241,
        -0.08776190131902695,
        0.0034357295371592045,
        0.013661084696650505,
        -0.03736169636249542,
        0.019404252991080284,
        0.012324593029916286,
        0.04339081421494484,
        0.056986261159181595,
        -6.98033400112763e-05,
        -0.009288279339671135,
        -0.09431471675634384,
        -0.08405124396085739,
        -0.09812973439693451,
        -0.12842608988285065,
        0.04911763593554497,
        -0.010146601125597954,
        -0.03443186357617378,
        0.09875406324863434,
        0.1592210978269577,
        -0.02523263543844223,
        -0.034839361906051636,
        -0.006560238543897867,
        -0.06804487854242325,
        -0.04811663553118706,
        -0.01876140385866165,
        0.08086203038692474,
        0.015529206953942776,
        -0.01727868616580963,
        0.05230402573943138,
        -0.07601932436227798,
        -0.02471885085105896,
        -0.06574935466051102,
        0.006366558372974396,
        0.03214046359062195,
        -0.09006837755441666,
        0.0441020168364048,
        0.051647037267684937,
        -0.07345326989889145,
        -0.1269230991601944,
        0.09948091953992844,
        -0.036956895142793655,
        0.004407044965773821,
        0.11362755298614502,
        -0.10571043193340302,
        -0.06211540475487709,
        0.06952928751707077,
        -0.03495274856686592,
        -0.0688646137714386,
        0.13764064013957977,
        0.09838882088661194,
        -0.04362495616078377,
        -0.023132743313908577,
        0.1028343141078949,
        -0.03146737441420555,
        -0.12060883641242981,
        -0.0180820245295763,
        0.006191129796206951,
        0.10272786021232605,
        -0.10751615464687347,
        -0.09360342472791672,
        -0.04109882190823555,
        0.04714721813797951,
        0.03051701933145523,
        0.007846084423363209,
        -0.002416146919131279,
        -0.008494867011904716,
        -0.07344279438257217,
        -0.09896372258663177,
        -0.10511321574449539,
        -0.053281959146261215,
        -0.022276178002357483,
        -0.008642072789371014,
        -0.04807521402835846,
        0.02888546884059906,
        -0.017583787441253662,
        -0.00022156708291731775,
        0.018229812383651733,
        0.03192034363746643,
        -0.07033825665712357,
        0.01943962089717388,
        0.012504500336945057,
        -0.0936410054564476,
        -0.025908734649419785,
        0.0390588603913784,
        0.029068339616060257,
        -0.08644311130046844,
        -0.034857377409935,
        0.06306537985801697,
        -0.0010573394829407334,
        0.056943345814943314,
        0.008043475449085236,
        -0.011861051432788372,
        -0.021295567974448204,
        0.031744055449962616,
        -0.014845375902950764,
        0.015860656276345253,
        -0.0058293952606618404,
        -0.012897486798465252,
        0.00457491260021925,
        0.0676584243774414,
        0.038709014654159546,
        0.06351787596940994,
        0.008001964539289474,
        0.012865064665675163,
        -0.007223532069474459,
        0.06117774546146393,
        -0.005366791971027851,
        0.11652130633592606,
        0.0963493138551712,
        -0.013645036146044731,
        0.037224236875772476,
        -0.005501680076122284,
        -0.06820739060640335,
        -0.03629295900464058,
        0.08394481241703033,
        -0.11169861257076263,
        0.01369517669081688,
        -0.06248911842703819,
        0.06447025388479233,
        -0.10471300780773163,
        -0.017972374334931374,
        -0.008825162425637245,
        0.043396372348070145,
        0.01976083777844906,
        0.006207681726664305,
        0.050668612122535706,
        -0.020077092573046684,
        -0.03238730877637863,
        -0.020887471735477448,
        0.00775132467970252,
        -0.004938604775816202,
        -0.03224997594952583,
        -0.0085803447291255,
        -0.027760300785303116,
        0.04418850690126419,
        -0.023970510810613632,
        -0.057072244584560394,
        0.013871450908482075,
        0.00032061609090305865,
        0.019698461517691612,
        0.081233911216259,
        -0.009713379666209221,
        0.010469390079379082,
        0.03231498971581459,
        0.026703547686338425,
        -0.037831295281648636,
        -0.004090587608516216,
        0.0006924585322849452,
        0.11419909447431564,
        0.09404851496219635,
        0.01011083647608757,
        0.05542728304862976,
        -0.031076224520802498,
        -0.02103027142584324,
        0.06472290307283401,
        0.10318789631128311,
        0.010141304694116116,
        0.10740802437067032,
        -0.00161804910749197,
        -0.012778413482010365,
        -0.00807938538491726,
        0.03430487960577011,
        -0.09212157875299454,
        0.023703040555119514,
        0.019760489463806152,
        -0.003080015769228339,
        0.01537324022501707,
        -0.015210751444101334,
        0.001739929779432714,
        0.0587155818939209,
        -0.10221279412508011,
        0.02746274508535862,
        0.030165571719408035,
        0.04019657149910927,
        -0.0005201046587899327,
        0.12175611406564713,
        0.01507115364074707,
        0.011761318892240524,
        0.04390760883688927,
        -0.007934545166790485,
        0.025515802204608917,
        -0.003897053189575672,
        0.029625622555613518,
        -0.022250549867749214,
        0.020881591364741325,
        0.04393427073955536,
        -0.08881746232509613,
        -0.004599322099238634,
        0.012494217604398727,
        0.007664363365620375,
        0.032210227102041245,
        0.007899608463048935,
        -0.005069066770374775,
        -0.03680918738245964,
        -0.010714218020439148,
        0.0035547297447919846,
        0.10493795573711395,
        0.06440503895282745,
        -0.10581248253583908,
        0.019762752577662468,
        0.040732696652412415,
        0.09750349074602127,
        0.06934008002281189,
        0.1471862941980362,
        -0.061422210186719894,
        0.08917213976383209,
        -0.11439447849988937,
        -0.07515303045511246,
        0.015891294926404953,
        -0.04824197292327881,
        -0.10201993584632874,
        0.005680815316736698,
        -0.0036001214757561684,
        0.01063538622111082,
        0.022493841126561165,
        -0.021873433142900467,
        0.010858586058020592,
        0.10017946362495422,
        -0.07454350590705872,
        -0.0249360091984272,
        -0.11635489016771317,
        -0.016012737527489662,
        0.02426518313586712,
        0.11057425290346146,
        -0.03385584056377411,
        0.02868986688554287,
        -0.006233532913029194,
        -0.06313320249319077,
        0.07079258561134338,
        0.0027691491413861513,
        -0.014845363795757294,
        -0.03127660974860191,
        0.04754183813929558,
        0.016066156327724457,
        -0.1226705014705658,
        0.08802340179681778,
        0.03559984266757965,
        0.044434886425733566,
        0.0848383828997612,
        0.10237762331962585,
        -0.05236984044313431,
        0.07218091189861298,
        -0.13720762729644775,
        0.06840474158525467,
        0.05799358710646629,
        -0.04552849382162094,
        -0.08352317661046982,
        -0.056458260864019394,
        -0.012049274519085884,
        -0.07691536843776703,
        0.01249641738831997,
        0.04135395959019661,
        -0.004979743156582117,
        -0.09074386954307556,
        0.13658256828784943,
        0.032269783318042755,
        0.03275373950600624,
        -0.05784035101532936,
        -0.08321124315261841,
        -0.022023895755410194,
        -0.014702671207487583,
        0.0036752568557858467,
        -0.06312604993581772,
        0.1513398140668869,
        0.022401098161935806,
        -0.10125882178544998,
        -0.04061497002840042,
        0.00048387792776338756,
        -0.0362253375351429,
        -0.028546448796987534,
        -0.08122449368238449,
        -0.03562280535697937,
        -0.0019587406422942877,
        0.05730196461081505,
        0.06479340046644211,
        -0.016498273238539696,
        -0.01253947988152504,
        0.036590706557035446,
        0.012950192205607891,
        -0.0024932902306318283,
        0.04875806346535683,
        0.016036583110690117,
        -0.0700664296746254,
        -0.055094972252845764,
        -0.02263535000383854,
        -0.03135623782873154,
        -0.02443719655275345,
        -0.024539630860090256,
        -0.028330929577350616,
        0.10136707872152328,
        -0.0052216011099517345,
        -0.0014513644855469465,
        0.06420688331127167,
        0.03568773344159126,
        -0.07317566126585007,
        -0.07931090891361237,
        -0.016726195812225342,
        -0.0012995030265301466,
        -0.08704909682273865,
        0.08753301203250885,
        0.015843510627746582,
        -0.038862697780132294,
        -0.015907494351267815,
        -0.06984534114599228,
        0.1160988062620163,
        0.034020863473415375,
        -0.06706688553094864,
        0.01151539571583271,
        -0.10833672434091568,
        -0.017240943387150764,
        0.046156417578458786,
        -0.00029725016793236136,
        -0.1069408655166626,
        -0.020610257983207703,
        0.0124366395175457,
        -0.0745326429605484,
        0.001073797233402729,
        -0.09770824760198593,
        0.04415284842252731,
        -0.05915423110127449,
        -0.07249651849269867,
        0.002431116998195648,
        -0.0013721566647291183,
        -0.02918427251279354,
        -0.09928768873214722,
        0.07620647549629211,
        0.016648130491375923,
        -0.015008973889052868,
        0.035238392651081085,
        -0.006835568696260452,
        -0.07930367439985275,
        0.009330743923783302,
        0.0002837127831298858,
        0.01976057142019272,
        -0.08592794835567474,
        0.007114385720342398,
        -0.0008322156500071287,
        -0.006116023752838373,
        -0.006304272450506687,
        -0.015316963195800781,
        -0.005206932779401541,
        -0.048855338245630264,
        0.0020714893471449614,
        -0.015352046117186546,
        0.002521609188988805,
        0.03316166624426842,
        0.08695746958255768,
        0.022123539820313454,
        0.012351167388260365,
        -0.007702402304857969,
        -0.0002862093970179558,
        0.01381547749042511,
        -0.005006889346987009,
        -3.9845152059569955e-05,
        -0.005444471724331379,
        -0.028339631855487823,
        -0.01747954450547695,
        -0.10860849916934967,
        0.007930690422654152,
        0.000483802636153996,
        -0.09802427142858505,
        0.02856539748609066,
        0.010050858370959759,
        -0.041407275944948196,
        -0.060451000928878784,
        0.020731167867779732,
        0.009983091615140438,
        0.04857853800058365,
        -0.06684703379869461,
        0.00046661056694574654,
        0.0698181763291359,
        0.11985699087381363,
        0.061375588178634644,
        -0.0318366102874279,
        -0.00627690926194191,
        0.05944039300084114,
        0.05674046650528908,
        -0.09345369040966034,
        0.033073779195547104,
        -0.04374241083860397,
        -0.016778118908405304,
        0.09181629121303558,
        -0.013155746273696423,
        -0.00788854993879795,
        0.006667309440672398,
        0.03049476444721222,
        0.03721777722239494,
        -0.07583516091108322,
        0.017224716022610664,
        -0.09581801295280457,
        0.0015328358858823776,
        0.06598734855651855,
        -0.0005551857175305486,
        0.057459063827991486,
        0.08317574113607407,
        -0.005968940444290638,
        0.08555477857589722,
        -0.07798880338668823,
        0.044222332537174225,
        0.00040983164217323065,
        -0.10712876915931702,
        0.03895644098520279,
        0.09263984858989716,
        0.029806409031152725,
        -0.1487359255552292,
        -0.09946484118700027,
        0.03424406424164772,
        0.0700756162405014,
        -0.004679362289607525,
        0.025881484150886536,
        -0.05053234100341797,
        -0.001316645066253841,
        -0.0861736536026001,
        -0.07796980440616608,
        -0.14252077043056488,
        -0.038466550409793854,
        0.024980969727039337,
        -0.03123590536415577,
        -0.07492677867412567,
        -0.15450932085514069,
        -0.003924703225493431,
        0.061120279133319855,
        0.12732087075710297,
        -0.021712880581617355,
        -0.01479447353631258,
        -0.0650223046541214,
        0.10586924850940704,
        0.0020401806104928255,
        -0.05885247141122818,
        -0.03650220111012459,
        -0.04611525684595108,
        -0.0864705890417099,
        -0.04275721684098244,
        -0.054677847772836685,
        0.07614003866910934,
        -0.0221080482006073,
        0.08783432096242905,
        -0.005119332578033209,
        0.04599829018115997,
        0.09832092374563217,
        -0.05369330570101738,
        0.022204305976629257,
        -0.1105751246213913,
        0.13292649388313293,
        0.09882793575525284,
        0.09614771604537964,
        -0.01765436679124832,
        0.0288265161216259,
        0.005701632704585791,
        -0.05195896700024605,
        0.056560494005680084,
        -0.08870135247707367,
        0.08972517400979996,
        -0.03606639802455902,
        -0.06762189418077469,
        0.012731174938380718,
        0.053394049406051636,
        -0.02718072570860386,
        0.002927597379311919,
        -0.05555868521332741,
        0.013239439576864243,
        0.07118672132492065,
        -0.09192166477441788,
        0.04451107233762741,
        -0.0064146979711949825,
        0.0010234751971438527,
        -0.03448183089494705,
        0.006593314465135336,
        -0.011431640945374966,
        0.01073704194277525,
        -0.00875623058527708,
        -0.0007676735986024141,
        -0.011419475078582764,
        -0.05386935546994209,
        0.044453639537096024,
        0.06665203720331192,
        0.06304561346769333,
        -0.0928536131978035,
        -0.009633072651922703,
        -0.021533925086259842,
        -0.0031827997881919146,
        -0.018188539892435074,
        -0.0024961114395409822,
        0.05980028584599495,
        0.060927554965019226,
        -0.035439252853393555,
        0.028969978913664818,
        0.011033483780920506,
        0.09696324914693832,
        0.10513412207365036,
        0.0029975210782140493,
        -0.05737581104040146,
        -0.03799467533826828,
        -0.024333531036973,
        -0.0518423467874527,
        0.009965114295482635,
        0.013135832734405994,
        -0.019116094335913658,
        -0.008728322573006153,
        -0.0022914067376405,
        -0.0030836560763418674,
        -0.0003977835294790566,
        -0.0590299554169178,
        -0.02606254816055298,
        0.0006176297320052981,
        0.08860626816749573,
        0.016356052830815315,
        0.10284102708101273,
        -0.08394046872854233,
        0.029528887942433357,
        0.049162816256284714,
        0.06521613895893097,
        -0.05442776903510094,
        0.07507120072841644,
        0.036544591188430786,
        0.05686249956488609,
        -0.003839966142550111,
        -0.00026244926266372204,
        0.0004786547797266394,
        0.07417002320289612,
        0.07887134701013565,
        -0.07463403046131134,
        -0.009108305908739567,
        0.04508886858820915,
        0.1153126135468483,
        -0.011125310324132442,
        -0.03247664496302605,
        0.06572408974170685,
        0.02424631267786026,
        -0.0670897513628006,
        -0.03491554781794548,
        -0.01973915658891201,
        0.02572626806795597,
        -0.013150687329471111,
        0.010213522240519524,
        -0.04887520149350166,
        -0.06275999546051025,
        0.018332315608859062,
        -0.020375601947307587,
        0.00815652310848236,
        0.0062200999818742275,
        0.0069681513123214245,
        0.018836500123143196,
        0.034604452550411224,
        0.06100822240114212,
        0.011307774111628532,
        -0.003293761983513832,
        -0.04065960645675659,
        0.040039435029029846,
        -0.04368415102362633,
        -0.023292232304811478,
        -0.051422830671072006,
        -0.0003410725621506572,
        0.07033237814903259,
        0.02370133064687252,
        0.10778696835041046,
        0.12489525228738785,
        0.001096529420465231,
        -0.00014090380864217877,
        0.09995810687541962,
        0.014642193913459778,
        -0.0043829046189785,
        0.09476356208324432,
        0.004732995294034481,
        -0.04027123376727104,
        0.03490125760436058,
        0.08519019931554794,
        -0.035175248980522156,
        -0.020267870277166367,
        -0.02809106558561325,
        0.0017685529310256243,
        0.01622871682047844,
        0.03478709235787392,
        -0.02376852184534073,
        0.029548216611146927,
        0.11210617423057556,
        0.003498592646792531,
        -0.03552496060729027,
        0.0006043420871719718,
        0.06937489658594131,
        0.015930037945508957,
        -0.05573684349656105,
        0.09304840117692947,
        -0.09430377930402756,
        -0.0030324982944875956,
        0.10242296755313873,
        -0.0021456219255924225,
        0.08285952359437943,
        -0.0721205547451973,
        0.06866465508937836,
        -0.04792393743991852,
        0.012214066460728645,
        -0.04136058688163757,
        0.11173471063375473,
        0.012310631573200226,
        -0.024553285911679268,
        -0.08772742003202438,
        0.0006123480852693319,
        -0.047812242060899734,
        -0.04216130077838898,
        0.03709275275468826,
        -0.12248147279024124,
        -0.057306502014398575,
        0.13579161465168,
        -0.005946118384599686,
        0.01808825321495533,
        0.002735395450145006,
        0.06864044070243835,
        -0.0476362518966198,
        -0.027815114706754684,
        -0.009610767476260662,
        0.04198820888996124,
        0.09936794638633728,
        -0.09461206942796707,
        -0.05842478200793266,
        -0.025176329538226128,
        0.009701533243060112,
        0.12749704718589783,
        0.06572694331407547,
        0.021605398505926132,
        -0.10650847107172012,
        -0.14173994958400726,
        0.017370330169796944,
        -0.02095867320895195,
        0.0034944857470691204,
        -0.010873707942664623,
        -0.07222568988800049,
        -0.052339330315589905,
        -0.11127541214227676,
        0.029958350583910942,
        0.08642660081386566,
        0.06369531899690628,
        0.029562504962086678,
        0.01099582388997078,
        0.12730036675930023,
        0.10557055473327637,
        0.14969214797019958,
        -0.1487036645412445,
        -0.05458792671561241,
        -0.07524099200963974,
        0.02826058119535446,
        -0.061931658536195755,
        0.05530274286866188,
        0.047235287725925446,
        -0.01412066351622343,
        -0.038544461131095886,
        0.08458347618579865,
        -0.128274604678154,
        -0.020231399685144424,
        -0.05011880025267601,
        -0.00013117134221829474,
        0.05902884528040886,
        -0.056578390300273895,
        0.07639965415000916,
        -0.022365255281329155,
        -0.032596033066511154,
        0.003955410793423653,
        -0.00281200697645545,
        0.07344511896371841,
        -0.0640755370259285,
        0.020630480721592903,
        0.040106166154146194,
        -0.045715682208538055,
        0.06540543586015701,
        0.017584796994924545,
        -0.02540639415383339,
        0.027930157259106636,
        -0.005698182620108128,
        -0.05056889355182648,
        0.027250085026025772,
        -0.051591016352176666,
        0.0019429430831223726,
        0.00575040141120553,
        -0.06555560976266861,
        -0.04179816693067551,
        -0.09855984151363373,
        0.08667128533124924,
        0.009407383389770985,
        -0.06648679077625275,
        0.09144182503223419,
        0.12566514313220978,
        0.04386605694890022,
        0.0013870320981368423,
        0.05560672655701637,
        0.004890826530754566,
        0.08406118303537369,
        0.08550440520048141,
        0.0006279994850046933,
        -0.021158428862690926,
        0.08870069682598114,
        -0.00039524200838059187,
        0.06735764443874359,
        -0.03801048919558525,
        -0.00500738900154829,
        -0.02544780634343624,
        -0.0005247259978204966,
        -0.01016918383538723,
        -0.07869044691324234,
        0.010619078762829304,
        -0.059716615825891495,
        -0.04020856320858002,
        0.04029282554984093,
        -0.02854204550385475,
        0.12903794646263123,
        0.006933232769370079,
        0.012138537131249905,
        0.028185280039906502,
        -0.028460215777158737,
        -0.007210369221866131,
        0.030163081362843513,
        -0.01993829756975174,
        0.01241308730095625,
        0.10791236907243729,
        0.06201672554016113,
        -0.0011373977176845074,
        -0.09181772172451019,
        0.012548383325338364,
        -0.008017928339540958,
        0.0001174609424197115,
        0.07670972496271133,
        -0.10823933780193329,
        0.010751940310001373,
        -0.021835731342434883,
        -0.0003083582560066134,
        0.01633450575172901,
        0.05826327204704285,
        0.041645970195531845,
        -0.04722551256418228,
        0.005917090456932783,
        0.0020285830833017826,
        -0.0733799934387207,
        -0.05386911705136299,
        0.1127045601606369,
        -0.07745091617107391,
        -0.09734365344047546,
        0.05183849111199379,
        -0.05600878223776817,
        0.001998535357415676,
        0.11123718321323395,
        -0.06841341406106949,
        -0.014486701227724552,
        -0.11530792713165283,
        -0.0025597068015486,
        -0.007188369054347277,
        -0.022601140663027763,
        0.0004720848228316754,
        0.07741605490446091,
        -0.004202472977340221,
        -0.03964266926050186,
        0.05285419151186943,
        -0.009812393225729465,
        -0.02366994321346283,
        -0.014398157596588135,
        0.09294027090072632,
        0.0039661903865635395,
        0.008927376940846443,
        0.022772692143917084,
        -0.016383856534957886,
        -0.017558416351675987,
        0.011910654604434967,
        0.09480103105306625,
        -0.035065729171037674,
        -0.08859274536371231,
        -0.0066265626810491085,
        0.016099754720926285,
        0.007208964787423611,
        0.07877109199762344,
        -0.029310155659914017,
        -0.01466413401067257,
        0.06172913312911987,
        -0.039393261075019836,
        -0.0672227069735527,
        -0.0025476408191025257,
        0.027544867247343063,
        0.06657011061906815,
        -0.05110276862978935,
        0.027198828756809235,
        0.013361450284719467,
        -0.0013427144149318337,
        -0.14511673152446747,
        0.022572485730051994,
        0.079438216984272,
        0.04487033188343048,
        0.100754015147686,
        -0.0471995510160923,
        -0.04673406854271889,
        0.0009134792489930987,
        -0.14295248687267303,
        0.08455974608659744,
        -0.014491848647594452,
        0.04885416105389595,
        0.006757252383977175,
        0.04672893136739731,
        0.024145271629095078,
        0.06648886203765869,
        0.00980453472584486,
        -0.009990179911255836,
        0.010105469264090061,
        0.09190123528242111,
        -0.03787416219711304,
        0.10345384478569031,
        -0.07371287047863007,
        -0.05188508331775665,
        0.12040678411722183,
        0.0468265637755394,
        0.06028567999601364,
        0.02998870052397251,
        -0.04513232037425041,
        0.1691049486398697,
        0.020082004368305206,
        -0.021875005215406418,
        0.04109311103820801,
        -0.05060272291302681,
        0.12350095063447952,
        0.04447118192911148,
        0.019265245646238327,
        -0.1032794713973999,
        -0.027401158586144447,
        0.018296029418706894,
        -0.0021682516671717167,
        0.08971899747848511,
        0.09409792721271515,
        0.0844956710934639,
        0.049183741211891174,
        -0.0943775475025177,
        0.02077566087245941,
        -0.04482309892773628,
        0.02507089637219906,
        0.02112068235874176,
        -0.11555170267820358,
        0.034457605332136154,
        0.006619637832045555,
        -0.16411802172660828,
        0.06245734542608261,
        -0.028007986024022102,
        0.10536447167396545,
        -0.048444412648677826,
        -0.09259481728076935,
        -0.015324894338846207,
        -0.031987544149160385,
        0.11052104085683823,
        -0.12087919563055038,
        0.08463805168867111,
        -0.006486538797616959,
        0.01978914812207222,
        -0.06043533235788345,
        -0.024483054876327515,
        0.04517228156328201,
        -0.1055540144443512,
        0.0016868244856595993,
        0.07535049319267273,
        -0.14140585064888,
        0.13169178366661072,
        0.08755458146333694,
        -0.009108088910579681,
        -0.05840576812624931,
        0.00827895849943161,
        0.11101175099611282,
        -0.0480465330183506,
        0.028004581108689308,
        0.10788127034902573,
        -0.037879578769207,
        0.005009832791984081,
        0.011884881183505058,
        -0.06438657641410828,
        -0.001130560995079577,
        -0.07405614107847214,
        -0.0026372733991593122,
        -0.08478975296020508,
        0.046924322843551636,
        0.00978101696819067,
        -0.11281128972768784,
        0.03767393156886101,
        0.004297072533518076,
        0.03727651387453079,
        0.06707324087619781,
        -0.014074450358748436,
        -0.0007484409143216908,
        0.10704509168863297,
        0.08001543581485748,
        -0.0471913143992424,
        -0.045867856591939926,
        -0.09081783145666122,
        -0.06741026043891907,
        0.07813674211502075,
        -0.0097805829718709,
        -0.09335313737392426,
        -0.0013366702478379011,
        -0.010044807568192482,
        -0.010858576744794846,
        -0.06661255657672882,
        -0.03941037505865097,
        -0.03595656529068947,
        0.006103096064180136,
        0.04529833793640137,
        -0.003631722880527377,
        0.06324854493141174,
        -0.0051932320930063725,
        -0.033567164093256,
        0.005950497463345528,
        0.003192381002008915,
        0.016804367303848267,
        -0.02438833750784397,
        -0.031163301318883896,
        0.10600456595420837,
        -0.02637806162238121,
        -0.07175572961568832,
        0.041375599801540375,
        -0.10624280571937561,
        0.03011377342045307,
        -0.02040957286953926,
        -0.054606445133686066,
        0.018980130553245544,
        0.0023115305230021477,
        0.12359953671693802,
        0.013575062155723572,
        0.03675181418657303,
        -0.003636850044131279,
        0.0014293448766693473,
        0.06661275029182434,
        0.03344373404979706,
        0.06371679157018661,
        -0.05916010960936546,
        0.0034266531001776457,
        0.02693754807114601,
        0.055392611771821976,
        0.05176730453968048,
        0.046385642141103745,
        -0.016693061217665672,
        0.0031586033292114735,
        0.006098352838307619,
        -0.04670192301273346,
        0.032027874141931534,
        -0.01738784834742546,
        -0.12456211447715759,
        -0.058785710483789444,
        -0.005742560140788555,
        -0.051402922719717026,
        -0.03601052984595299,
        -0.0699780210852623,
        0.04521600902080536,
        -0.00224820408038795,
        0.06830881536006927,
        -0.03537305071949959,
        0.015930207446217537,
        0.06566328555345535,
        0.008862709626555443,
        0.010601355694234371,
        0.00954439491033554,
        0.09750407934188843,
        0.01878032088279724,
        0.03130168840289116,
        0.056725092232227325,
        -0.056297868490219116,
        0.05920904502272606,
        0.004904141183942556,
        0.08060923218727112,
        -0.06044729799032211,
        -0.023322613909840584,
        0.0018202451756224036,
        0.03478579968214035,
        -0.0485561341047287,
        0.06798409670591354,
        0.0033350717276334763,
        -0.021842986345291138,
        -0.01951685920357704,
        -0.04573144391179085,
        0.08654806762933731,
        -0.008123548701405525,
        -0.015150212682783604,
        0.05253390222787857,
        0.012812012806534767,
        -0.02164396271109581,
        0.04185326769948006,
        0.10523322224617004,
        0.055365316569805145,
        0.11153315752744675,
        -0.014219428412616253,
        0.0748496875166893,
        0.15594324469566345,
        0.07879846543073654,
        -0.0725007876753807,
        0.02451554872095585,
        0.012581528164446354,
        -0.007984442636370659,
        -0.06108811870217323,
        -0.03635379672050476,
        0.01630064845085144,
        0.029834765940904617,
        0.12137976288795471,
        0.0034133417066186666,
        0.01847550831735134,
        -0.12590400874614716,
        0.06307051330804825,
        -0.1182602122426033,
        0.02418060414493084,
        0.051082298159599304,
        0.1300366222858429,
        -0.025015849620103836,
        -0.07614495605230331,
        -0.11363207548856735,
        -0.03462270647287369,
        0.11855674535036087,
        -0.0024973854888230562,
        -0.08887121826410294,
        0.10997574776411057,
        0.003985103219747543,
        0.0551241971552372,
        0.1416691541671753,
        -0.02546556107699871,
        -0.1025426909327507,
        0.030522897839546204,
        -0.0011806092225015163,
        -0.014960495755076408,
        -0.05228237807750702,
        -0.010475866496562958,
        0.07093868404626846,
        0.12529385089874268,
        0.03768819943070412,
        0.09785620868206024,
        0.11416662484407425,
        0.007507991977035999,
        0.014866046607494354,
        -0.05842989310622215,
        0.030046939849853516,
        -0.10543917119503021,
        -0.051840346306562424,
        -0.10936861485242844,
        -0.024294089525938034,
        -0.01732754148542881,
        0.11704427003860474,
        -0.05242825299501419,
        0.011065090075135231,
        0.048453111201524734
      ]
    },
    {
      "layer": "param_1",
      "shape": [
        64,
        192
      ],
      "mean": 9.255966870114207e-05,
      "std_dev": 0.05180470272898674,
      "values": [
        0.04376159608364105,
        0.001488921931013465,
        0.03335117921233177,
        0.010590127669274807,
        -0.005955602042376995,
        0.0718962699174881,
        -0.04511643573641777,
        -0.014619854278862476,
        -0.013364764861762524,
        0.07325034588575363,
        -0.07653948664665222,
        0.05321158468723297,
        -0.03393649309873581,
        -0.03330693766474724,
        -0.004938045516610146,
        0.020668774843215942,
        0.06799114495515823,
        0.0028612797614187002,
        0.09550848603248596,
        0.03645795211195946,
        -0.05137594789266586,
        -0.07175770401954651,
        -0.007467560935765505,
        0.029014408588409424,
        0.06316662579774857,
        -0.05711432173848152,
        0.10443630814552307,
        -0.0653025433421135,
        0.1097731664776802,
        -0.02091973088681698,
        0.028522254899144173,
        0.05733877792954445,
        0.01936946250498295,
        -0.06531134992837906,
        0.042383890599012375,
        0.0195225328207016,
        -0.028614215552806854,
        -0.09153077006340027,
        -0.0060556563548743725,
        0.00792068149894476,
        -0.031352296471595764,
        -0.025889599695801735,
        0.13720132410526276,
        -0.02157917618751526,
        0.04477139934897423,
        0.04002907872200012,
        -0.0827861800789833,
        0.026564011350274086,
        0.00840972550213337,
        -0.055697109550237656,
        -0.06867142021656036,
        0.027794620022177696,
        0.027891971170902252,
        0.009220574051141739,
        -0.007849452085793018,
        0.006469860672950745,
        0.020552268251776695,
        -0.024341102689504623,
        0.03827832266688347,
        0.021870901808142662,
        -0.041440024971961975,
        0.008140639401972294,
        -0.0619342215359211,
        0.004134487360715866,
        0.11406654864549637,
        -0.06675580143928528,
        -0.09837641566991806,
        -0.022012760862708092,
        -0.021068621426820755,
        0.04865054413676262,
        -0.030491217970848083,
        0.0566200390458107,
        0.05717840418219566,
        -0.04677651450037956,
        -0.08474308252334595,
        -0.021225392818450928,
        0.05123070999979973,
        0.007433274760842323,
        0.06576104462146759,
        0.011318600736558437,
        0.06984226405620575,
        -0.01574527658522129,
        -0.029410120099782944,
        -0.022667337208986282,
        0.015019646845757961,
        0.10067560523748398,
        0.08315882086753845,
        0.03760608658194542,
        0.09408152103424072,
        -0.024829063564538956,
        0.06061636656522751,
        0.07138711959123611,
        0.0339212641119957,
        -0.046580877155065536,
        0.07406160980463028,
        -0.07802622765302658,
        -0.0747198536992073,
        -0.020211555063724518,
        -0.028829006478190422,
        0.015751682221889496,
        -0.06557019054889679,
        -0.03024233505129814,
        0.0027361398097127676,
        -0.0039553469978272915,
        -0.0324573814868927,
        -0.043639544397592545,
        -0.05694155395030975,
        -0.0435003787279129,
        0.03808583691716194,
        0.12935687601566315,
        0.015428953804075718,
        -0.03013216331601143,
        -0.03599483519792557,
        0.001065232907421887,
        -0.07351728528738022,
        0.06788492947816849,
        -0.0196378231048584,
        0.05217033624649048,
        0.09875810146331787,
        -0.02103521302342415,
        0.007497372105717659,
        0.013712960295379162,
        -0.037588100880384445,
        -0.055983372032642365,
        -0.052990980446338654,
        0.010102696716785431,
        0.02895062416791916,
        -0.08670694380998611,
        0.015301774255931377,
        -0.01680583693087101,
        0.02543562836945057,
        -0.0652570053935051,
        -0.014664320275187492,
        0.03620831295847893,
        -0.07283162325620651,
        0.01276254840195179,
        -0.020864831283688545,
        0.0051640719175338745,
        -0.03018406592309475,
        0.027274100109934807,
        -0.013231524266302586,
        -0.0804053395986557,
        -0.023964622989296913,
        -0.013682698830962181,
        0.008777234703302383,
        -0.012086018919944763,
        -0.035796068608760834,
        0.02860387973487377,
        -0.01389903575181961,
        -0.07886704057455063,
        0.018958335742354393,
        0.0048693022690713406,
        0.05318290367722511,
        0.045729685574769974,
        0.04497220739722252,
        -0.002124881837517023,
        -0.01705668494105339,
        0.03577297925949097,
        -0.05432545766234398,
        -0.022745326161384583,
        -0.06765775382518768,
        -0.05411551892757416,
        0.04147797450423241,
        -0.01596352458000183,
        -0.037753090262413025,
        0.10514414310455322,
        -0.07102115452289581,
        0.03905518725514412,
        -0.01597955822944641,
        -0.05410807579755783,
        0.01857941225171089,
        0.07306987047195435,
        0.02907990664243698,
        0.015095568262040615,
        -0.06482871621847153,
        0.057419151067733765,
        0.06296999752521515,
        0.005696825683116913,
        -0.03245288506150246,
        -0.03773043677210808,
        -0.04200036823749542,
        0.016825245693325996,
        0.0028945780359208584,
        -0.023718269541859627,
        -0.005162503570318222,
        0.09013991802930832,
        -0.011091903783380985,
        0.051960185170173645,
        0.08061394095420837,
        -0.018017718568444252,
        -0.11162140220403671,
        0.054419588297605515,
        -0.02276495099067688,
        0.046726543456315994,
        0.0326186902821064,
        0.00471987621858716,
        -0.0528949573636055,
        -0.0727313905954361,
        -0.043441757559776306,
        -0.006428059656172991,
        0.04249532148241997,
        0.04335879534482956,
        -0.011091490276157856,
        -0.04864504933357239,
        -0.07208139449357986,
        -0.04085128381848335,
        0.01005607284605503,
        -0.021935878321528435,
        0.004279842600226402,
        0.01771683059632778,
        -0.04268220439553261,
        0.019243627786636353,
        0.0315987691283226,
        -0.04745975509285927,
        -0.1476784348487854,
        -0.03624439984560013,
        0.05730392411351204,
        0.0025451260153204203,
        0.05669844523072243,
        -0.10113926231861115,
        -0.02033211477100849,
        0.05988617613911629,
        -0.07050155848264694,
        0.008149347268044949,
        -0.007083579897880554,
        0.06082253158092499,
        -0.031787026673555374,
        -0.09281284362077713,
        -0.02013554237782955,
        0.01271916925907135,
        -0.0202780868858099,
        -0.048112720251083374,
        0.07766878604888916,
        -0.019710376858711243,
        0.14533483982086182,
        0.03462284803390503,
        -0.03606695681810379,
        -0.08467520028352737,
        -0.009007589891552925,
        0.013455160893499851,
        -0.042054567486047745,
        0.04896644130349159,
        0.07162473350763321,
        0.021973539143800735,
        0.024021701887249947,
        0.041115764528512955,
        0.0008985657477751374,
        0.05216168984770775,
        0.06771299988031387,
        0.04832417890429497,
        0.02246144786477089,
        0.06777791678905487,
        -0.03712436184287071,
        0.04284107685089111,
        -0.012579199858009815,
        -0.04860922321677208,
        0.08457708358764648,
        0.01644960790872574,
        -0.05909328907728195,
        0.09015624970197678,
        -0.06674376875162125,
        -0.056574318557977676,
        0.004997110925614834,
        -0.001024329918436706,
        -0.01594027318060398,
        0.01083420030772686,
        -0.06293055415153503,
        0.03637941926717758,
        -0.03843335807323456,
        -0.06711305677890778,
        -0.029773570597171783,
        -0.0788656696677208,
        0.006009039003401995,
        0.02394138276576996,
        -0.050854139029979706,
        0.04431389644742012,
        0.037818968296051025,
        -0.06060990318655968,
        0.05057521536946297,
        0.08071547001600266,
        0.014776372350752354,
        -0.015971779823303223,
        -0.03719058632850647,
        -0.021317265927791595,
        -0.010986952111124992,
        -0.02111639827489853,
        0.014461174607276917,
        0.020555805414915085,
        -0.0496622771024704,
        0.03855426236987114,
        0.06924909353256226,
        -0.04036853462457657,
        -0.0009586664382368326,
        0.06993827223777771,
        0.0432286374270916,
        0.03539443016052246,
        0.017617881298065186,
        0.004963113460689783,
        -0.03573506325483322,
        -0.011305306106805801,
        -0.01554710604250431,
        0.04346137121319771,
        -0.08746922761201859,
        0.0450078621506691,
        -0.064010389149189,
        -0.018184490501880646,
        -0.07248236238956451,
        -0.08636122196912766,
        0.03756759315729141,
        -0.03255445137619972,
        -0.06588907539844513,
        0.014034750871360302,
        0.01503841020166874,
        0.02949671261012554,
        0.055760376155376434,
        -0.021617410704493523,
        0.005239598918706179,
        -0.04145767167210579,
        -0.07789337635040283,
        0.0049562337808310986,
        0.01908346638083458,
        0.06324321776628494,
        -0.12405671179294586,
        -0.0011084541911259294,
        0.024497423321008682,
        -0.07084765285253525,
        -0.018437311053276062,
        -0.08025430142879486,
        -0.03799322247505188,
        -0.03292229771614075,
        0.023931564763188362,
        0.047805771231651306,
        0.0037423090543597937,
        -0.014368463307619095,
        0.010913043282926083,
        -0.03257986158132553,
        -0.08406809717416763,
        0.05888902395963669,
        -0.042182862758636475,
        0.004814584739506245,
        0.001991020981222391,
        -0.022375956177711487,
        -0.022620756179094315,
        -0.01839045248925686,
        -0.028861748054623604,
        -0.02917790785431862,
        0.027730371803045273,
        -0.08335399627685547,
        -0.008069340139627457,
        -0.0360286571085453,
        0.020214233547449112,
        0.054092954844236374,
        -0.02651222050189972,
        0.0034752306528389454,
        -0.013517843559384346,
        0.08115553855895996,
        -0.09285441786050797,
        0.10708177834749222,
        -0.041166651993989944,
        0.0354602187871933,
        0.019777903333306313,
        0.00945247057825327,
        0.02387870103120804,
        -0.09625861048698425,
        0.03963156417012215,
        -0.08455398678779602,
        -0.08504073321819305,
        0.0695914551615715,
        0.03444309160113335,
        0.0585087314248085,
        -0.06488695740699768,
        -0.14187760651111603,
        -0.022268526256084442,
        0.06957779824733734,
        -0.07889790087938309,
        -0.09921340644359589,
        0.0781254768371582,
        0.11942413449287415,
        0.062020838260650635,
        0.022257834672927856,
        -0.0037559866905212402,
        -0.058531418442726135,
        0.012007320299744606,
        0.02278457023203373,
        -0.026921389624476433,
        -0.10230325907468796,
        0.08088304102420807,
        0.006098701618611813,
        0.06563344597816467,
        -0.04587014019489288,
        0.026684753596782684,
        -0.12430465221405029,
        0.1351606696844101,
        -0.0973433330655098,
        0.06635970622301102,
        0.09229574352502823,
        0.0573326051235199,
        -0.05440663918852806,
        0.03340849280357361,
        -0.14671632647514343,
        -0.05052019655704498,
        0.08867363631725311,
        -0.0794670507311821,
        0.028260553255677223,
        0.06183838099241257,
        0.049314409494400024,
        0.04798300564289093,
        0.11241226643323898,
        -0.008081021718680859,
        -0.0019932903815060854,
        0.06429989635944366,
        -0.026043696328997612,
        0.03901457414031029,
        -0.010729854926466942,
        -0.038182277232408524,
        0.01171141304075718,
        -0.04856755957007408,
        -0.08588670939207077,
        -0.011645111255347729,
        -0.05306467413902283,
        -0.03534804657101631,
        -0.13665692508220673,
        0.06819550693035126,
        0.019630691036581993,
        -0.08434130996465683,
        -0.0031247762963175774,
        0.05910200625658035,
        0.05628838762640953,
        -0.03280714899301529,
        0.002136160619556904,
        0.08749338984489441,
        -0.039449699223041534,
        0.00850033387541771,
        0.08463762700557709,
        -0.04262959957122803,
        -0.0388956181704998,
        -0.025316819548606873,
        -0.02189446985721588,
        0.08929118514060974,
        0.03884424641728401,
        0.03679266571998596,
        -0.000705749960616231,
        -0.04758576676249504,
        -0.05102047696709633,
        0.054142653942108154,
        0.029580524191260338,
        -0.033360663801431656,
        0.050581980496644974,
        0.05733845382928848,
        -0.0716075748205185,
        -0.025219446048140526,
        0.017268668860197067,
        0.06049595773220062,
        0.08901289105415344,
        0.009231028147041798,
        -0.0035379596520215273,
        -0.10173466801643372,
        -0.012144148349761963,
        -0.005770018324255943,
        -0.02598497085273266,
        0.09453199058771133,
        0.025300804525613785,
        -0.002796255284920335,
        -0.01941012404859066,
        -0.02172022871673107,
        0.00796734169125557,
        0.058676112443208694,
        0.013676456175744534,
        0.07462012767791748,
        -0.06794878840446472,
        0.06557612121105194,
        0.036062587052583694,
        -0.0715884193778038,
        -0.03013736754655838,
        -0.08135916292667389,
        0.07592245936393738,
        0.12106168270111084,
        0.01519794948399067,
        -0.05315575376152992,
        -0.030740465968847275,
        0.0032711089588701725,
        0.11895506083965302,
        -0.014087713323533535,
        -0.03955546393990517,
        -0.0185209009796381,
        -0.05323851481080055,
        -0.03211796656250954,
        0.07660484313964844,
        -0.027901245281100273,
        -0.0820065438747406,
        -0.0648101344704628,
        0.06595557183027267,
        -0.05236057937145233,
        -0.03512123227119446,
        0.13164439797401428,
        -0.036430057138204575,
        0.01755210943520069,
        -0.055289462208747864,
        -0.08263565599918365,
        0.060079365968704224,
        -0.02061878703534603,
        -0.03961098566651344,
        -0.0513300858438015,
        -0.06048102304339409,
        -0.025925790891051292,
        -0.026081766933202744,
        0.023818351328372955,
        0.03500528633594513,
        -0.007511547766625881,
        0.025112854316830635,
        0.01986713334918022,
        0.07355445623397827,
        -0.048323895782232285,
        0.03174916282296181,
        -0.06510311365127563,
        -0.07043029367923737,
        0.10201944410800934,
        -8.323241490870714e-05,
        0.024405568838119507,
        0.04533647373318672,
        0.011310644447803497,
        -0.06323300302028656,
        0.08189623802900314,
        -0.027862748131155968,
        0.035076647996902466,
        -0.015865495428442955,
        0.038616642355918884,
        0.11221392452716827,
        -0.0044693779200315475,
        0.022859541699290276,
        0.015680089592933655,
        -0.00721718417480588,
        0.0647076889872551,
        -0.03807193785905838,
        -0.015116960741579533,
        0.05445963516831398,
        0.004930460825562477,
        -0.015027857385575771,
        -0.05448874458670616,
        -0.020781245082616806,
        -0.010300449095666409,
        0.004170130472630262,
        -0.012324216775596142,
        0.07339207828044891,
        0.013341535814106464,
        -0.022101137787103653,
        -0.023433713242411613,
        -0.04828156158328056,
        0.029016781598329544,
        0.04206695780158043,
        0.02395961806178093,
        0.11971916258335114,
        -0.004323241300880909,
        0.051849011331796646,
        -0.025008460506796837,
        -0.047664958983659744,
        -0.027399785816669464,
        -0.028271473944187164,
        -0.04834641516208649,
        -0.0580873042345047,
        -0.017472540959715843,
        -0.05471987649798393,
        -7.65679869800806e-05,
        0.06885427236557007,
        -0.03942861035466194,
        0.0370076559484005,
        0.07903485000133514,
        0.021707341074943542,
        0.10484028607606888,
        0.08738061040639877,
        -0.018205862492322922,
        0.05137564614415169,
        -0.030366316437721252,
        0.0003107144730165601,
        0.00947447121143341,
        -0.0027196984738111496,
        0.05502306669950485,
        -0.01453666016459465,
        -0.034030526876449585,
        -0.02156071551144123,
        0.024067895486950874,
        0.0007261551218107343,
        -0.1131429597735405,
        -0.001580621930770576,
        -0.09103525429964066,
        0.04497189074754715,
        0.07550341635942459,
        -0.01370289921760559,
        -0.015952318906784058,
        0.06276459991931915,
        0.042359694838523865,
        -0.004106015898287296,
        0.04731864482164383,
        0.1402570903301239,
        0.010583419352769852,
        0.057981256395578384,
        0.05530394986271858,
        0.05477204918861389,
        0.008829536847770214,
        -0.05769583210349083,
        0.05364256724715233,
        0.14106841385364532,
        0.04259633645415306,
        -0.010172218084335327,
        0.027487128973007202,
        -0.011900832876563072,
        0.01793980598449707,
        0.04669065773487091,
        0.06886011362075806,
        -0.08077577501535416,
        0.06307051330804825,
        0.04135686159133911,
        -0.06754997372627258,
        0.026827475056052208,
        -0.007106354460120201,
        0.04030127078294754,
        -0.024859167635440826,
        0.0794956162571907,
        -0.06397048383951187,
        -0.02947928011417389,
        -0.0023627968039363623,
        0.054737258702516556,
        -0.05442977696657181,
        0.03680006414651871,
        -0.048441968858242035,
        0.02711445465683937,
        0.030769504606723785,
        0.026238562539219856,
        -0.04856577888131142,
        0.017325671389698982,
        0.04783952236175537,
        0.04534808546304703,
        0.0034445563796907663,
        -0.03208202123641968,
        0.02915291115641594,
        0.015547909773886204,
        0.022592268884181976,
        0.04545914754271507,
        0.03364836797118187,
        0.021415160968899727,
        0.028999408707022667,
        -0.012751325033605099,
        0.031347960233688354,
        0.026573624461889267,
        -0.05247132107615471,
        -0.11915871500968933,
        0.04607527330517769,
        -0.066024050116539,
        -0.00042514625238254666,
        -0.11401574313640594,
        -0.035464026033878326,
        -0.009211196564137936,
        0.04799804836511612,
        0.052038248628377914,
        0.006872866302728653,
        -0.10749460756778717,
        0.0730862095952034,
        0.008407892659306526,
        0.041917361319065094,
        0.01131583470851183,
        0.004064049106091261,
        -0.02936137095093727,
        0.012818061746656895,
        0.037639178335666656,
        0.05788886919617653,
        0.04253704100847244,
        0.015159417875111103,
        -0.017877601087093353,
        0.027790391817688942,
        -0.014831559732556343,
        -0.03189735487103462,
        0.005012691952288151,
        0.042681850492954254,
        -0.06110367178916931,
        0.08450973778963089,
        0.06401003897190094,
        -0.014466905035078526,
        0.03815138339996338,
        -0.031611207872629166,
        0.01807822287082672,
        -0.018598906695842743,
        -0.02304537035524845,
        -0.05328189581632614,
        -0.03417745605111122,
        -0.009474631398916245,
        -0.059451524168252945,
        -0.04388582706451416,
        -0.023135844618082047,
        0.05614827945828438,
        -0.02533803880214691,
        0.03893445432186127,
        -0.04353685304522514,
        0.029790427535772324,
        -0.08388715237379074,
        -0.032296426594257355,
        -0.02019491419196129,
        0.05211900919675827,
        0.0686713457107544,
        -0.0070224725641310215,
        -0.019623512402176857,
        -0.0548962727189064,
        -0.016793282702565193,
        0.10098505765199661,
        -0.021557608619332314,
        0.10372808575630188,
        -0.05378902330994606,
        -0.05056159570813179,
        -0.030545847490429878,
        -0.10288573801517487,
        0.04384913295507431,
        0.00972905382514,
        -0.0290447436273098,
        0.057934459298849106,
        0.05510536581277847,
        0.045947615057229996,
        0.06289845705032349,
        0.07380786538124084,
        0.10340417921543121,
        0.09605512022972107,
        -0.005538063123822212,
        -0.046931859105825424,
        0.002630123170092702,
        0.02484559640288353,
        0.03296665474772453,
        0.04506868124008179,
        -0.08437486737966537,
        0.03019268997013569,
        0.07426673918962479,
        -0.005729968193918467,
        0.081915944814682,
        0.05618999898433685,
        0.02178230695426464,
        0.05149564519524574,
        0.053695835173130035,
        -0.030486933887004852,
        0.007034428883343935,
        0.008087354712188244,
        -0.03356320038437843,
        0.0049209813587367535,
        -0.0788322389125824,
        0.05374198034405708,
        -0.048225436359643936,
        0.03506867587566376,
        0.008728411048650742,
        0.10019964724779129,
        0.06526448577642441,
        0.01899540238082409,
        -0.08878582715988159,
        0.03674475848674774,
        -0.006824372801929712,
        0.0041330610401928425,
        0.07995311915874481,
        -0.06940856575965881,
        -0.009413816034793854,
        0.021531376987695694,
        0.013603489845991135,
        -0.05809241905808449,
        -0.04040181264281273,
        0.025020787492394447,
        0.05589711666107178,
        0.06576880812644958,
        -0.0889698937535286,
        0.06154312565922737,
        0.011623711325228214,
        0.03383078798651695,
        -0.030609793961048126,
        0.057698529213666916,
        -0.02479950711131096,
        -0.011373999528586864,
        0.052679967135190964,
        0.03663984313607216,
        0.04698722064495087,
        -0.09105193614959717,
        0.059794358909130096,
        -0.00853729248046875,
        0.07178137451410294,
        -0.006236538290977478,
        -0.057782191783189774,
        -0.07704741507768631,
        -0.031167732551693916,
        0.05174390226602554,
        0.013838515616953373,
        -0.06317124515771866,
        -0.0734555721282959,
        0.04279225692152977,
        -0.0028988346457481384,
        0.04720902070403099,
        -0.01250030379742384,
        0.0032508675940334797,
        0.0007582344696857035,
        0.15809808671474457,
        0.003531294409185648,
        -0.009266224689781666,
        0.03531721606850624,
        -0.052675217390060425,
        0.10091816633939743,
        0.016031095758080482,
        -0.047452401369810104,
        -0.02895914390683174,
        0.07456427067518234,
        0.00920029915869236,
        -0.10467873513698578,
        -0.06379121541976929,
        0.06397496908903122,
        0.058442771434783936,
        0.028895381838083267,
        0.031967829912900925,
        -0.05129658058285713,
        0.018050041049718857,
        0.03856853023171425,
        -0.01104523055255413,
        0.16154883801937103,
        0.02769654430449009,
        -0.03067547269165516,
        -0.06484091281890869,
        -0.03556475043296814,
        -0.049046311527490616,
        -0.022983213886618614,
        0.025480598211288452,
        -0.03857352212071419,
        -0.009433831088244915,
        0.019261237233877182,
        0.02631448768079281,
        -0.09715161472558975,
        0.009661941789090633,
        -0.03322485089302063,
        0.05416670814156532,
        -0.034153521060943604,
        -0.09431686997413635,
        -0.03940863162279129,
        0.0034772581420838833,
        -0.06815419346094131,
        0.006403264589607716,
        -0.044035229831933975,
        0.10355213284492493,
        0.06849422305822372,
        0.12029634416103363,
        0.03899507224559784,
        -0.09131187945604324,
        -0.05020053684711456,
        -0.07500516623258591,
        -0.014348049648106098,
        0.06517311185598373,
        -0.05503734573721886,
        0.05885891988873482,
        0.0563022643327713,
        -0.06861568242311478,
        0.013196325860917568,
        0.0286601223051548,
        0.13578321039676666,
        0.0028380458243191242,
        0.07722169160842896,
        -0.030033258721232414,
        -0.062134742736816406,
        -0.04033428430557251,
        -0.007273611146956682,
        0.007785359863191843,
        -0.08467615395784378,
        0.03513208404183388,
        0.018330559134483337,
        0.044142913073301315,
        -0.004951614886522293,
        -0.05430321395397186,
        0.09396354854106903,
        -0.0015523808542639017,
        -0.03472143039107323,
        -0.01372633408755064,
        -0.028087420389056206,
        0.027181433513760567,
        -0.0546780563890934,
        -0.07541158050298691,
        -0.008571919053792953,
        0.04540545120835304,
        -0.02994886413216591,
        0.004134441260248423,
        0.024055572226643562,
        0.04061645641922951,
        0.037524010986089706,
        0.03823079168796539,
        0.02470153383910656,
        0.01252780295908451,
        0.03067830763757229,
        -0.009047707542777061,
        -0.04534849524497986,
        -0.07117614150047302,
        0.0017056801589205861,
        -0.05783580243587494,
        -0.08789541572332382,
        -0.032868385314941406,
        0.01729922741651535,
        -0.0075172241777181625,
        -0.09565845876932144,
        -0.0015307083958759904,
        -0.028646260499954224,
        -0.05557410418987274,
        -0.0063034300692379475,
        0.03289785981178284,
        0.053391169756650925,
        -0.12030953913927078,
        0.05093350261449814,
        0.011137135326862335,
        -0.014047677628695965,
        -0.03342738002538681,
        -0.07150822877883911,
        0.053881824016571045,
        0.010533764958381653,
        -0.058210864663124084,
        -0.00752459280192852,
        -0.09092887490987778,
        0.04608825594186783,
        0.042689427733421326,
        -0.0032080558594316244,
        -0.03381442651152611,
        -0.021966731175780296,
        0.047288015484809875,
        -0.0394321084022522,
        0.019831938669085503,
        0.07036125659942627,
        0.05849198251962662,
        -0.045064717531204224,
        0.039959732443094254,
        0.0364081971347332,
        -0.052429042756557465,
        -0.036244187504053116,
        -0.05625208094716072,
        -0.012913216836750507,
        -0.018644273281097412,
        -0.009853677824139595,
        -0.012584653683006763,
        -0.0021381047554314137,
        -0.08484534919261932,
        -0.032893404364585876,
        0.04315768554806709,
        0.008233191445469856,
        -0.10725817084312439,
        -0.018002072349190712,
        -0.07496877759695053,
        -0.02241632156074047,
        -0.023914435878396034,
        -0.06744726002216339,
        0.03225041553378105,
        0.03252827003598213,
        0.034473296254873276,
        -0.03206430375576019,
        -0.035091008991003036,
        0.08195199072360992,
        0.0006078609731048346,
        -0.1441151648759842,
        0.03314598649740219,
        0.04004831612110138,
        0.05806069076061249,
        -0.061643797904253006,
        0.08075914531946182,
        0.0392940491437912,
        -0.0037532502319663763,
        0.011652868241071701,
        0.013822957873344421,
        -0.09005033224821091,
        -0.026427553966641426,
        0.007349725347012281,
        -0.035084474831819534,
        0.08444260060787201,
        -0.027881553396582603,
        -0.02832169458270073,
        -0.028840498998761177,
        0.03490618243813515,
        -0.05762336775660515,
        0.08216772973537445,
        0.01437393482774496,
        -0.049708977341651917,
        0.06427156180143356,
        -0.03191208466887474,
        -0.08457522839307785,
        -0.09107457846403122,
        0.030970701947808266,
        0.02669801004230976,
        0.019022462889552116,
        -0.0401536263525486,
        0.0039574941620230675,
        -0.0254301056265831,
        -0.10883453488349915,
        0.060016147792339325,
        0.022079231217503548,
        0.012460735626518726,
        -0.03330446034669876,
        -0.027672113850712776,
        -0.04640977457165718,
        0.016314895823597908,
        -0.10949927568435669,
        -0.02581065520644188,
        -0.011959666386246681,
        0.0026015322655439377,
        -0.007538113743066788,
        -0.1309555321931839,
        -0.04423966631293297,
        0.009642221964895725,
        -0.007559106219559908,
        -0.010304978117346764,
        0.09118333458900452,
        -0.06477601826190948,
        -0.1467823088169098,
        0.03917428106069565,
        0.09198325872421265,
        -0.020551512017846107,
        0.016428476199507713,
        0.10628072917461395,
        0.02328186295926571,
        -0.005706360097974539,
        -0.06354356557130814,
        -0.04412689432501793,
        0.060571085661649704,
        -0.03185243532061577,
        -0.014569268561899662,
        -0.042390480637550354,
        0.005870799999684095,
        0.0830363780260086,
        0.008104810491204262,
        0.0010474452283233404,
        0.04998993128538132,
        -0.07759033143520355,
        -0.03065447323024273,
        0.013666289858520031,
        0.017547480762004852,
        0.04539094492793083,
        0.04762350022792816,
        -0.013408558443188667,
        0.01934076100587845,
        -0.02225971408188343,
        -0.0038982247933745384,
        0.08650124073028564,
        -0.01603907346725464,
        -0.1004347875714302,
        0.015207143500447273,
        -0.04617564380168915,
        0.00758809968829155,
        0.048838622868061066,
        -0.01628642901778221,
        0.019748931750655174,
        0.026983071118593216,
        0.009666388854384422,
        -0.06640885770320892,
        0.057360418140888214,
        0.05643412470817566,
        0.06214776635169983,
        -0.032997313886880875,
        -0.06351371854543686,
        -0.051855117082595825,
        0.007756192237138748,
        0.10931145399808884,
        -0.04974670708179474,
        -0.022581303492188454,
        -0.016684871166944504,
        0.015981964766979218,
        0.06310347467660904,
        0.0006145520601421595,
        -0.03420166298747063,
        0.04787326604127884,
        0.01538314763456583,
        0.05492013320326805,
        -0.03873255103826523,
        -0.014432030729949474,
        -0.008993779309093952,
        -0.030591579154133797,
        0.0042842961847782135,
        0.04510955139994621,
        0.016355592757463455,
        -0.016348514705896378,
        -0.07224547863006592,
        0.11820728331804276,
        0.041249245405197144,
        0.05006146803498268,
        -0.02748091332614422,
        -0.011836541816592216,
        0.009149996563792229,
        -0.010971615090966225,
        0.0457693375647068,
        -0.019246844574809074,
        -0.014169652946293354,
        0.05378566309809685,
        -0.03934885933995247,
        0.027055829763412476,
        0.011734182946383953,
        0.02871408686041832,
        -0.04376054182648659,
        -0.08298362791538239,
        0.03513599932193756,
        0.00016238278476521373,
        0.03765309229493141,
        -0.07350262999534607,
        -0.05755018815398216,
        -0.05574517697095871,
        -0.06416642665863037,
        -0.08437084406614304,
        0.04690394923090935,
        0.0382792130112648,
        0.024225201457738876,
        -0.0387992337346077,
        -0.057283852249383926,
        0.030493183061480522,
        0.028070755302906036,
        -0.06455180048942566,
        0.004836664535105228,
        -0.0009409914491698146,
        0.029473362490534782,
        0.07274751365184784,
        -0.012301256880164146,
        -0.0274408720433712,
        0.033134184777736664,
        0.054721515625715256,
        -0.043006256222724915,
        -0.02116616629064083,
        -0.007543590851128101,
        0.00016472020070068538,
        0.018838126212358475,
        -0.038157954812049866,
        -0.06201911345124245,
        0.07168156653642654,
        0.017661092802882195,
        -0.04728379845619202,
        -0.04487704858183861,
        -0.11670253425836563,
        0.0027018992695957422,
        -0.05653758719563484,
        0.03675473481416702,
        0.045179035514593124,
        -0.0445813313126564,
        0.039440546184778214,
        -0.021623006090521812,
        -0.009752764366567135,
        0.09419579803943634,
        -0.12921364605426788,
        0.027782710269093513,
        0.06835629045963287,
        -0.008567262440919876,
        -0.013662385754287243,
        0.07187703996896744,
        0.05284601077437401,
        0.08625225722789764,
        -0.011298900470137596,
        0.04702112823724747,
        0.034413304179906845,
        0.024193886667490005,
        -0.02309722639620304,
        -0.03331870958209038,
        -0.03136886656284332,
        0.02048480696976185,
        0.02741886116564274,
        -0.0016923756338655949,
        0.030880620703101158,
        0.11121193319559097,
        0.07290826737880707,
        0.03907346352934837,
        0.005658579524606466,
        -0.07805132865905762,
        -0.003077792003750801,
        -0.031685490161180496,
        -0.054821550846099854,
        0.017245562747120857,
        0.04936402291059494,
        0.069820336997509,
        0.010845428332686424,
        0.05253561586141586,
        0.06334347277879715,
        -0.025545910000801086,
        -0.005877895746380091,
        -0.059595987200737,
        -0.03432770073413849,
        0.03358285501599312,
        -0.055568207055330276,
        -0.027014123275876045,
        0.05505191162228584,
        -0.022399403154850006,
        -0.08192183822393417,
        0.07651026546955109,
        -0.0019663465209305286,
        -0.11904978007078171,
        -0.02911187708377838,
        0.05653136968612671,
        -0.05115336924791336,
        -0.03445909544825554,
        -0.005731771234422922,
        0.08074785023927689,
        -0.04258259758353233,
        -0.09990589320659637,
        0.0019266110612079501,
        -0.003102527931332588,
        0.10143036395311356,
        -0.00023743073688820004,
        0.11679556965827942,
        -0.07155314087867737,
        -0.07240882515907288,
        -0.01684659533202648,
        0.06562849134206772,
        0.04443622753024101,
        -0.09790536016225815,
        0.05986008048057556,
        0.02371523529291153,
        -0.010031652636826038,
        -0.039305679500103,
        0.0489991120994091,
        -0.030725829303264618,
        0.0008629876538179815,
        -0.12634599208831787,
        -0.041254039853811264,
        -0.006301642395555973,
        0.029889237135648727,
        -0.023128891363739967,
        0.06368419528007507,
        -0.15603187680244446,
        0.021705081686377525,
        0.02703545056283474,
        0.024309387430548668,
        -0.03422509878873825,
        -0.0015564317582175136,
        -0.05881932005286217,
        0.010403027758002281,
        0.02355995588004589,
        0.06943438947200775,
        -0.03154832497239113,
        -0.0004710349894594401,
        0.0829826220870018,
        0.02094288356602192,
        0.013583255000412464,
        0.033487629145383835,
        -0.04797328636050224,
        0.0552881695330143,
        -0.03152073174715042,
        -0.058362990617752075,
        0.04574211314320564,
        -0.011790207587182522,
        0.07017715275287628,
        0.022414779290556908,
        -0.03826490417122841,
        0.06696224212646484,
        -0.05949388071894646,
        0.01446557603776455,
        0.13736043870449066,
        0.07477005571126938,
        0.0288856104016304,
        -0.03462062031030655,
        0.057509154081344604,
        0.003542509628459811,
        -0.002375529147684574,
        0.049458153545856476,
        0.014169111847877502,
        0.06970140337944031,
        -0.04342547431588173,
        -0.04872749745845795,
        -0.044656991958618164,
        0.01023135893046856,
        -0.024977728724479675,
        0.02364635095000267,
        -0.04635155573487282,
        -0.039352897554636,
        0.04809877648949623,
        -0.08207163214683533,
        -0.03610750660300255,
        -0.0012567549711093307,
        0.0007977590430527925,
        0.05761374160647392,
        -0.005257975775748491,
        -0.027225201949477196,
        -0.05481521785259247,
        -0.10347863286733627,
        0.035165008157491684,
        -0.07086553424596786,
        -0.01915588602423668,
        0.04129107668995857,
        0.033719055354595184,
        -0.03769783675670624,
        0.019147679209709167,
        0.0009650207357481122,
        0.08757331222295761,
        -0.02005825564265251,
        0.04856937378644943,
        0.07135698944330215,
        -0.021843934431672096,
        -0.04986083135008812,
        -0.005583775695413351,
        -0.07404282689094543,
        -0.1292302906513214,
        0.003699278924614191,
        -0.02271380089223385,
        0.023760568350553513,
        0.08745172619819641,
        0.08236419409513474,
        -0.08604271709918976,
        -0.03779573738574982,
        0.01791827380657196,
        0.01567924953997135,
        0.05837561935186386,
        -0.015870526432991028,
        0.009032546542584896,
        -0.03695812076330185,
        0.04028032720088959,
        -0.03647620230913162,
        -0.005256319884210825,
        0.069978266954422,
        0.009796750731766224,
        -0.13102976977825165,
        -0.015346892178058624,
        0.024799879640340805,
        0.07292178273200989,
        -0.058777254074811935,
        -0.05449407547712326,
        -0.05513497814536095,
        -0.038623079657554626,
        -0.004670603200793266,
        0.06611949950456619,
        -0.00946298148483038,
        -0.11887453496456146,
        0.05456048250198364,
        0.043287500739097595,
        0.03542056679725647,
        -0.011612807400524616,
        -0.01045969221740961,
        0.03198658674955368,
        -0.0076717110350728035,
        0.01819658651947975,
        -0.1002093181014061,
        0.01744464784860611,
        0.06368795037269592,
        0.08649197220802307,
        0.04941251501441002,
        0.005809709429740906,
        0.0045878151431679726,
        -0.03021104261279106,
        -0.026474764570593834,
        -0.05686428025364876,
        0.07939218729734421,
        0.0994766503572464,
        -0.009635564871132374,
        -0.013975352980196476,
        -0.05030813440680504,
        -0.056132830679416656,
        0.03865468502044678,
        0.03855305537581444,
        0.01647280529141426,
        0.010812786407768726,
        -0.04866502061486244,
        -0.08317602425813675,
        0.03149748221039772,
        -0.010281326249241829,
        0.00909984577447176,
        0.10028783231973648,
        0.057737648487091064,
        -0.09593360871076584,
        -0.026365146040916443,
        -0.027082722634077072,
        0.027070198208093643,
        0.046538837254047394,
        0.11229822784662247,
        -0.05467277392745018,
        0.05543302744626999,
        -0.01522047445178032,
        0.09849812090396881,
        0.062339529395103455,
        -0.004591014236211777,
        0.00288811675272882,
        0.09494118392467499,
        -0.03484685719013214,
        0.03777597099542618,
        -0.011600647121667862,
        -0.0822482705116272,
        -0.04745996743440628,
        0.006917605642229319,
        0.0477619431912899,
        0.026207085698843002,
        -0.07297411561012268,
        -0.04222072288393974,
        0.03864062950015068,
        0.01866796240210533,
        -0.0039581977762281895,
        0.028915945440530777,
        0.017883678898215294,
        -0.06798727810382843,
        -0.03659170866012573,
        -0.08338601887226105,
        0.0007774392142891884,
        0.00270831398665905,
        -0.05338931083679199,
        -0.026751892641186714,
        0.07844802737236023,
        0.008547683246433735,
        -0.036795709282159805,
        0.011247464455664158,
        0.05855032801628113,
        -0.07894715666770935,
        0.006265667267143726,
        0.003937761299312115,
        -0.03582405298948288,
        0.020098146051168442,
        0.005936213303357363,
        0.09264781326055527,
        0.03484448418021202,
        0.022548412904143333,
        -0.08988888561725616,
        0.02802472934126854,
        -0.03382940590381622,
        -0.022588061168789864,
        0.016537213698029518,
        0.07125412672758102,
        0.043562330305576324,
        0.055400483310222626,
        0.09476659446954727,
        -0.05347537249326706,
        -0.0022491109557449818,
        0.009556401520967484,
        -0.095920130610466,
        -0.02892647683620453,
        -0.001860913005657494,
        0.011158758774399757,
        0.04369951784610748,
        0.0059707192704081535,
        0.01291867159307003,
        -0.06381833553314209,
        -0.12326060980558395,
        0.013241936452686787,
        0.0719807967543602,
        -0.009048125706613064,
        0.03624594211578369,
        -0.07786289602518082,
        0.03693569451570511,
        0.08341442048549652,
        0.028897125273942947,
        0.005838505923748016,
        -0.03905831649899483,
        -0.016031762585043907,
        0.03810669854283333,
        0.1355510652065277,
        0.023136893287301064,
        0.07406654208898544,
        -0.040375158190727234,
        -0.034075118601322174,
        0.007306823506951332,
        0.008154241368174553,
        0.04609459638595581,
        -0.0035045845434069633,
        0.036545075476169586,
        -0.0665428638458252,
        0.030100420117378235,
        0.0379035510122776,
        0.03164704144001007,
        -0.03869374096393585,
        -0.002824855037033558,
        -0.016820048913359642,
        -0.054414842277765274,
        0.040321506559848785,
        -0.018764233216643333,
        -0.03194890543818474,
        -0.050962384790182114,
        0.04888748750090599,
        -0.06797339022159576,
        0.06945229321718216,
        -0.03559854254126549,
        0.020511526614427567,
        -0.00962941162288189,
        0.05706211179494858,
        -0.064191073179245,
        -0.005593901965767145,
        -0.014339081943035126,
        0.032699499279260635,
        0.017487533390522003,
        0.01749931462109089,
        -0.02017614245414734,
        0.017127713188529015,
        -0.08565346896648407,
        -0.055505555123090744,
        0.0060170358046889305,
        -0.004334710072726011,
        -0.03948385640978813,
        -0.0023066247813403606,
        -0.038903139531612396,
        0.00724808732047677,
        0.059378258883953094,
        0.04358965530991554,
        0.007968665100634098,
        0.08286525309085846,
        -0.00019442106713540852,
        -0.05062919482588768,
        0.024000929668545723,
        0.00035489292349666357,
        0.02630363404750824,
        -0.004088877234607935,
        0.0017076705116778612,
        0.07109753787517548,
        -0.02168421447277069,
        -0.09144089370965958,
        -0.007470107637345791,
        0.02699015848338604,
        -0.07833287119865417,
        -0.07738567143678665,
        0.022615201771259308,
        -0.008719591423869133,
        0.06918955594301224,
        0.00902242586016655,
        0.029147692024707794,
        0.04398803412914276,
        0.013616704382002354,
        0.007093047257512808,
        -0.020029304549098015,
        -0.11156171560287476,
        -0.05106328800320625,
        0.07100055366754532,
        0.0035089561715722084,
        -0.05867740884423256,
        -0.0080632995814085,
        -0.05349525809288025,
        0.03405331075191498,
        0.044107094407081604,
        -0.05454539135098457,
        -0.029822463169693947,
        0.042906660586595535,
        0.05052204430103302,
        -0.11345740407705307,
        0.021741684526205063,
        0.053756289184093475,
        0.09061741828918457,
        0.0903853178024292,
        -0.00255375518463552,
        0.07746124267578125,
        0.0010282793082296848,
        -0.065391406416893,
        0.03619671240448952,
        -0.0246555358171463,
        0.01813928782939911,
        0.07020437717437744,
        0.014310714788734913,
        -0.062400687485933304,
        0.004618317354470491,
        0.03784961625933647,
        -0.058827050030231476,
        -0.04093268886208534,
        0.0383312851190567,
        0.01704094372689724,
        0.0448928028345108,
        -0.012876978144049644,
        0.017474912106990814,
        0.0024111801758408546,
        0.07140066474676132,
        0.07738687843084335,
        -0.15301886200904846,
        0.03071167692542076,
        0.010486803948879242,
        -0.04209975525736809,
        0.09901119023561478,
        -0.03908273205161095,
        0.0725245475769043,
        0.06272977590560913,
        -0.020539388060569763,
        -0.031503673642873764,
        -0.017034191638231277,
        -0.09124203026294708,
        0.05869193375110626,
        -0.01130985002964735,
        -0.030597109347581863,
        0.030777031555771828,
        -0.04015010967850685,
        -0.07870013266801834,
        -0.058090291917324066,
        -0.053542423993349075,
        -0.1999262124300003,
        -0.09291096031665802,
        0.05618670582771301,
        -0.028300082311034203,
        -0.02966868318617344,
        -0.004507973790168762,
        0.0806485116481781,
        0.04467742145061493,
        0.05885424092411995,
        -0.07831872999668121,
        0.1385095715522766,
        -0.022463548928499222,
        -0.09795010089874268,
        -0.04084429517388344,
        0.00027054629754275084,
        -0.06372599303722382,
        0.11941893398761749,
        0.020565176382660866,
        0.07293931394815445,
        -0.08580059558153152,
        -4.0297629311680794e-05,
        0.07224966585636139,
        -0.021902170032262802,
        0.0642087459564209,
        -0.009481893852353096,
        -0.015950381755828857,
        -0.032009515911340714,
        0.038051821291446686,
        -0.036776021122932434,
        0.030706223100423813,
        0.03067472018301487,
        -0.010088521055877209,
        0.05551706254482269,
        -0.04794209450483322,
        -0.07812952250242233,
        -0.057014837861061096,
        0.04152096435427666,
        -0.03218443691730499,
        0.12946464121341705,
        0.006190274842083454,
        0.052899982780218124,
        0.027407897636294365,
        0.03204871714115143,
        0.02481786720454693,
        0.00012310633610468358,
        -0.07143265753984451,
        -0.10019562393426895,
        -0.002930372254922986,
        0.01646963320672512,
        0.052321795374155045,
        -0.1043175607919693,
        -0.03158450499176979,
        0.025697538629174232,
        -0.01053142361342907,
        0.05553160980343819,
        0.03742280974984169,
        0.07140102982521057,
        -0.03826184943318367,
        -0.13388536870479584,
        -0.015074093826115131,
        0.02897825837135315,
        -0.06714547425508499,
        -0.02008078247308731,
        -0.03869710862636566,
        -0.02427276410162449,
        0.015118700452148914,
        -0.06144692003726959,
        0.020361626520752907,
        -0.045521896332502365,
        -0.08111269026994705,
        0.0044613671489059925,
        -0.05028747394680977,
        -0.02787776291370392,
        -0.046005673706531525,
        -0.006860184017568827,
        0.026462532579898834,
        -0.02572103589773178,
        0.01810731552541256,
        0.03640221431851387,
        -0.042899005115032196,
        -0.08323376625776291,
        -0.017879245802760124,
        -0.06891113519668579,
        0.0028996740002185106,
        0.012096731923520565,
        -0.030042633414268494,
        -0.03447405621409416,
        0.03746947646141052,
        -0.045999675989151,
        0.005011741071939468,
        -0.004213977139443159,
        -0.013908009976148605,
        0.0012672432931140065,
        0.08253403007984161,
        0.004644318018108606,
        -0.05456697568297386,
        0.029126949608325958,
        -0.0535832904279232,
        -0.05512624233961105,
        -0.07703869044780731,
        0.10347755253314972,
        0.052871786057949066,
        0.009780468419194221,
        0.036375321447849274,
        -0.007673171814531088,
        -0.06717155128717422,
        -0.029983699321746826,
        0.03059685416519642,
        -0.03217653930187225,
        0.021312234923243523,
        0.016728829592466354,
        -0.04360819235444069,
        0.010978957638144493,
        -0.027348769828677177,
        0.0546971820294857,
        0.027423562481999397,
        0.03732919692993164,
        -0.03756219893693924,
        0.05904649198055267,
        0.05594073608517647,
        0.01573147252202034,
        0.05092574283480644,
        -0.03935856744647026,
        -0.027072889730334282,
        -0.04835452884435654,
        0.002170119434595108,
        -0.05803292244672775,
        -0.08160430192947388,
        -0.03833737224340439,
        0.030756870284676552,
        -0.023445062339305878,
        -0.04719259962439537,
        -0.039063554257154465,
        -0.015769658610224724,
        0.0031000098679214716,
        0.003694340819492936,
        0.02748078666627407,
        0.02178238518536091,
        0.022411378100514412,
        -0.0010548792779445648,
        -0.006546918768435717,
        -0.02680114284157753,
        -0.006837557069957256,
        0.023198256269097328,
        0.013619791716337204,
        -0.060904547572135925,
        -0.07911717146635056,
        -0.008181038312613964,
        0.04269027337431908,
        0.010181774385273457,
        0.03319507837295532,
        -0.03182795271277428,
        0.04275331646203995,
        -0.04897034168243408,
        0.06346727162599564,
        0.020206911489367485,
        -0.02693229168653488,
        -0.026069270446896553,
        -0.11935222148895264,
        -0.02103467285633087,
        -0.04695799574255943,
        -0.05540220066905022,
        0.022286610677838326,
        0.04131641611456871,
        0.008301512338221073,
        -0.014862839132547379,
        0.08018796890974045,
        -0.040942009538412094,
        -0.030592799186706543,
        0.03519190102815628,
        0.05850829929113388,
        0.015449990518391132,
        0.010216242633759975,
        -0.018498824909329414,
        -0.04636771231889725,
        -0.0763159990310669,
        0.011283631436526775,
        -0.02296871319413185,
        -0.0014050003373995423,
        -0.02751089446246624,
        0.010395546443760395,
        -0.01283932477235794,
        0.0269299428910017,
        0.06042078509926796,
        0.08761241286993027,
        0.0023104953579604626,
        0.06058574095368385,
        -0.03369617462158203,
        -0.06474801152944565,
        -0.013223693706095219,
        -0.08155238628387451,
        0.045277245342731476,
        0.04639698937535286,
        0.019428469240665436,
        -0.03101559728384018,
        -0.0693427175283432,
        0.004709266126155853,
        -0.039798442274332047,
        0.025949152186512947,
        -0.0021812093909829855,
        -0.01381111703813076,
        0.05728156492114067,
        -0.050800446420907974,
        0.008970341645181179,
        0.030892282724380493,
        0.024051601067185402,
        0.11519268155097961,
        -0.045258961617946625,
        -0.030831139534711838,
        0.04083570837974548,
        0.11618237942457199,
        -0.0639474168419838,
        0.06909186393022537,
        0.016012782230973244,
        8.992134826257825e-05,
        0.07528059184551239,
        0.01088547520339489,
        -0.004610224161297083,
        0.11502235382795334,
        0.05956514924764633,
        0.01902918517589569,
        -0.10287827998399734,
        0.11313695460557938,
        -0.036366160959005356,
        0.007847202010452747,
        0.08960821479558945,
        0.03985600173473358,
        0.07244765013456345,
        0.12498246878385544,
        0.05558646470308304,
        -0.05084206908941269,
        -0.05219505727291107,
        0.01334672886878252,
        0.0015679977368563414,
        -0.023663079366087914,
        0.08033674210309982,
        0.04832383990287781,
        -0.06460754573345184,
        0.1364433616399765,
        -0.11376359313726425,
        0.02486312948167324,
        0.10649840533733368,
        -0.030104050412774086,
        -0.07566910237073898,
        -0.041956689208745956,
        0.0824938639998436,
        0.011983880773186684,
        -0.05558520555496216,
        -0.06189537048339844,
        0.08747515082359314,
        -0.03499156981706619,
        -0.015374094247817993,
        -0.03292595595121384,
        -0.016618462279438972,
        -0.053242847323417664,
        0.059679217636585236,
        -0.006525988224893808,
        0.020356053486466408,
        0.011492013931274414,
        0.06016987934708595,
        0.009008161723613739,
        0.00015378312673419714,
        -0.05536928400397301,
        -0.053800541907548904,
        -0.018275287002325058,
        0.022573616355657578,
        -0.02205578237771988,
        0.10057111084461212,
        0.078194759786129,
        -0.019576584920287132,
        0.016124049201607704,
        -0.0004455047892406583,
        -0.0008902102126739919,
        -0.03750072047114372,
        0.02034982107579708,
        0.05870868265628815,
        -0.014321697875857353,
        -0.030159059911966324,
        -0.03219413384795189,
        0.17722217738628387,
        -0.09253934770822525,
        -0.023882830515503883,
        0.07939451932907104,
        -0.026934141293168068,
        -0.027761399745941162,
        0.00893835723400116,
        -0.08827704191207886,
        0.02676963061094284,
        -0.02951662614941597,
        -0.03883564472198486,
        0.031139109283685684,
        0.06782511621713638,
        -0.04942701384425163,
        0.10149890184402466,
        -0.020917769521474838,
        -0.06742788106203079,
        0.036222659051418304,
        -0.017783749848604202,
        0.02474326826632023,
        0.07040412724018097,
        0.015694700181484222,
        0.048782337456941605,
        0.031857069581747055,
        -0.11132080107927322,
        0.05997835472226143,
        -0.013307695277035236,
        -0.01038071047514677,
        -0.021137364208698273,
        -0.03076944127678871,
        -0.013467342592775822,
        0.015597986057400703,
        0.07817096263170242,
        -0.008782634511590004,
        -0.0255634393543005,
        0.017568986862897873,
        -0.01956213265657425,
        -0.013590495102107525,
        -0.0075557660311460495,
        -0.11089637875556946,
        0.04862605780363083,
        0.011715131811797619,
        0.0012008799239993095,
        -0.030075209215283394,
        -0.13331858813762665,
        0.02540302649140358,
        0.041638389229774475,
        0.02662654034793377,
        -0.004523868672549725,
        0.045544978231191635,
        -0.1023593619465828,
        0.022334575653076172,
        -0.05606992915272713,
        0.036322686821222305,
        0.011718246154487133,
        -0.08504031598567963,
        0.03951883688569069,
        -0.08616466075181961,
        -0.06868899613618851,
        0.01521284319460392,
        0.030743665993213654,
        0.045547354966402054,
        0.014566374942660332,
        0.14908172190189362,
        0.06552354246377945,
        0.03613382577896118,
        0.026738544926047325,
        0.002544642426073551,
        -0.056063178926706314,
        -0.03220658004283905,
        -0.003715218510478735,
        0.046234458684921265,
        0.043019089847803116,
        0.04710192605853081,
        0.01820306107401848,
        0.005575240124017,
        0.0010798072908073664,
        -0.02624461054801941,
        -0.04950670897960663,
        -0.0013789852382615209,
        0.00644697668030858,
        0.016020411625504494,
        -0.047186750918626785,
        -0.08475014567375183,
        0.06987053900957108,
        -0.04877223074436188,
        0.03038616292178631,
        0.09160898625850677,
        0.051577240228652954,
        0.02754816599190235,
        0.08173289149999619,
        -0.029378127306699753,
        0.0004054587334394455,
        -0.06495819985866547,
        0.034716878086328506,
        -0.017862536013126373,
        -0.04952184483408928,
        -0.0461241751909256,
        -0.06664560735225677,
        0.054721612483263016,
        0.056407488882541656,
        -0.028698038309812546,
        -0.008503688499331474,
        0.10205554217100143,
        0.012483293190598488,
        -0.05393156036734581,
        -0.01882009580731392,
        0.04017040878534317,
        0.045061226934194565,
        0.06739901006221771,
        -0.047783464193344116,
        -0.06693609058856964,
        -0.08344867825508118,
        -0.054533522576093674,
        -0.03226969391107559,
        0.018613867461681366,
        -0.0011939285323023796,
        0.03282923996448517,
        -0.049782104790210724,
        -0.07031069695949554,
        0.08116600662469864,
        -0.05982866510748863,
        -0.03256985545158386,
        -0.017353605479002,
        0.02929566614329815,
        0.09691435098648071,
        -0.14702707529067993,
        0.09666604548692703,
        -0.07625928521156311,
        0.002754166955128312,
        -0.020482834428548813,
        -0.018436249345541,
        0.009770624339580536,
        -0.015151413157582283,
        -0.03887926787137985,
        0.0004849278775509447,
        -0.004552953876554966,
        0.003605373902246356,
        0.025009848177433014,
        0.04278535023331642,
        0.03764897957444191,
        0.03392179682850838,
        -0.011408333666622639,
        -0.01751256361603737,
        -0.07002393156290054,
