{
  "weights_summary": [
    {
      "layer": "param_0",
      "mean": 0.0013310419512716494,
      "shape": [
        7,
        192
      ],
      "std_dev": 0.053474351865124156,
      "values": [
        -0.00160233347422551,
        -0.009248708820030146,
        -0.0501383358256847,
        -0.007724098188209828,
        -0.0538641448906948,
        0.0029741382951316833,
        -0.052842395858401676,
        0.025462586219959997,
        -0.05493183248834226,
        -0.11616943571827366,
        -0.052075790741232295,
        -0.058245524641205984,
        0.0032520287495385004,
        0.030007050374388798,
        -0.011666680407436306,
        0.01010743049273258,
        0.0184106522239747,
        0.0012249495937242203,
        0.06810179448497927,
        -0.02093610166091685,
        -0.05344780722718086,
        -0.0006514713951900527,
        0.003570235000346164,
        -0.0014968413315402584,
        0.00016631432708196859,
        -0.03811061977116136,
        -0.015956376755743656,
        0.026074626992406577,
        -0.07491785700255935,
        -0.0048171456053762805,
        0.0067805224655622795,
        -0.04780553020268011,
        -0.06853222884532956,
        -0.04780085450424151,
        -0.10199279580428601,
        0.003328071971275601,
        0.07711939220361624,
        0.057200811483409386,
        0.020311263749275443,
        -0.0030346411396675703,
        -0.085096990954174,
        -0.020815595037789007,
        0.016707731201965823,
        0.0023123412313164416,
        0.07038561618921352,
        0.02503346569841576,
        -0.03278454050571819,
        -0.03901121984164664,
        0.00816320124621624,
        0.01031206269690134,
        -0.03186578703657135,
        -0.10925614278102105,
        0.017394517766173328,
        0.00015363463306128228,
        0.03512748353313366,
        -0.017276016226812334,
        -0.00031679428350761107,
        -0.0019591646475549014,
        -0.0023387029432857067,
        0.03184819325886984,
        -0.0033700001393048534,
        -0.03324707937757235,
        0.03480101013975916,
        -0.005179587454624745,
        -0.027774746597686063,
        0.002498645437664847,
        -0.04732470468712025,
        0.021755990554286356,
        0.027008679928577334,
        -0.009971683594904811,
        -0.04332885946114476,
        0.037525437413967515,
        0.007505252324024444,
        0.07261829177140643,
        0.056636703760723044,
        -0.007491543041633098,
        0.0012869160100807023,
        0.0760620803698762,
        0.00027055621742576937,
        0.07576750197514193,
        -0.08583304810966129,
        -0.024661176976622155,
        -0.041017513584588244,
        0.01876448570010538,
        0.05070522445434479,
        -0.0028980591835147816,
        -0.03263865823005271,
        -0.0008782381664763162,
        0.016922504916127637,
        0.004822320197070554,
        0.04752007827411947,
        0.025898177433578036,
        -0.002998736076194902,
        0.06842291041366788,
        0.004599589562070501,
        0.0007930579806298809,
        -0.014684598485533606,
        -0.0011957433668948175,
        -0.011353558168219986,
        9.816973283962378e-05,
        0.0011201527519180297,
        -0.0694623460223232,
        -0.0035770511598656675,
        0.005411031563921262,
        0.002177051441691163,
        -0.011115458417291932,
        0.004590628222641255,
        0.005011880372152383,
        -0.08339159507878444,
        -0.022162932559407097,
        0.08671855445713586,
        -0.05796942522767223,
        -0.0007773342165368251,
        0.018840509882706646,
        0.015648170485763835,
        0.030120217892673135,
        -0.09185504979676122,
        -0.0002560568046880073,
        0.087504386428371,
        -0.0003559283644228399,
        0.0003581236451541384,
        0.005654944415758029,
        -0.025065743358632958,
        0.061186065412033475,
        -0.0014582152590851187,
        -0.025708067800586987,
        -0.0026511162421275214,
        -0.025627650535491715,
        0.07662724211810541,
        -0.08876800480392921,
        0.016923855749187942,
        -0.10788444336808337,
        0.020309038395887588,
        0.04091420340314229,
        -0.07624340221307457,
        -0.03458098788913394,
        0.04434877787373896,
        0.01634669376806793,
        -0.05680660436909399,
        -0.15168296447871515,
        0.0834910914425519,
        0.08240262532972373,
        -0.054152376161710564,
        0.005215093378550011,
        0.08918065704398802,
        0.15122788634576317,
        -0.029626155902463133,
        -0.008631198698807201,
        0.04444653154434769,
        0.016860570218563964,
        0.02407686255518144,
        0.12114241261188402,
        0.03366229084522407,
        0.07330843868360726,
        0.0020252929101844145,
        -0.11982817642461133,
        0.12408992319489653,
        -0.041270803552253835,
        0.0007418813021962997,
        0.1513272121640033,
        -0.02138718138645712,
        -0.06348069709891754,
        -0.0950729320087924,
        -0.01728484059847299,
        0.019795590238859434,
        0.01726615946760617,
        -0.11263994861101083,
        0.010080166262542309,
        -0.07514972591548916,
        0.029344135714460998,
        0.05917387656776507,
        0.0019860942768665517,
        0.013215964302432062,
        0.08989547098944149,
        0.05489763356185702,
        -0.021409931668199655,
        -0.04457785386313608,
        0.031460592328708695,
        -0.04492461361256324,
        0.07964948793927908,
        0.05199330220344222,
        0.035234481159977155,
        -0.09719670613666802,
        -0.040742928284627444,
        -0.07383974004215849,
        0.06355503765355724,
        0.024170109049294848,
        0.05911888200075333,
        -0.12201886714806558,
        -0.08609479706882668,
        -0.0548439378920586,
        -0.0407081024231701,
        -0.0988237239209052,
        -0.0588862698990225,
        -0.002629354118382913,
        0.015705536442474383,
        0.026172014933091972,
        -0.011700107057710506,
        -0.04195442166268591,
        -0.02134060083348343,
        3.88751326125409e-05,
        0.018907877434674352,
        -0.00024765246952997296,
        0.09265205399256982,
        0.00589765896323445,
        0.01103933581890457,
        -0.04874582516437698,
        -0.005054589862615241,
        0.10204899599138398,
        -0.07272938449758941,
        0.0015875368611467141,
        0.0070575376581261,
        0.06899406931491522,
        0.027571582952178854,
        0.04851758900655416,
        -0.021211915184510873,
        -0.003901550852069095,
        -0.04039793511624566,
        -0.024730058211437235,
        -0.003917392657059421,
        0.008243251331670795,
        0.019553308678152907,
        0.029817856126882012,
        -0.0012930063167033376,
        0.03761279147041388,
        0.030030587234980664,
        0.0173602231481794,
        -0.014415268036023523,
        0.059616697823139816,
        0.05646556087718278,
        0.028616658211052876,
        0.10687559242354996,
        0.008367138448755154,
        0.026027977634475792,
        -0.0024294859143693653,
        -0.05186525366314024,
        0.015442950161659873,
        -0.019393010541639385,
        0.005005187748781965,
        -0.017955037863254013,
        -0.00877762664650368,
        0.002022865356986459,
        -0.02815114769354854,
        -0.04547676885303789,
        -0.03321429508910907,
        0.03884435469618133,
        -0.0014027229336568223,
        0.09973920204618231,
        -0.0006567929422417666,
        -0.0036719727968474985,
        -0.025982543545693144,
        -0.004099670263502913,
        -0.002775875102038766,
        -0.0045585825043117185,
        0.030331620597500178,
        0.039473321631251945,
        -0.04597282975556713,
        -0.019542137255961517,
        0.023848196297955003,
        0.005956435529116344,
        -0.035961605570413724,
        -0.05193850641952209,
        -0.0912345518343363,
        -0.002835185870454578,
        0.05540805125035857,
        -0.08621113763543563,
        0.06055058535562755,
        -0.0063811727965212145,
        0.09213394671311059,
        0.0009548923135186013,
        0.00021380499400612248,
        0.06223191601649851,
        0.015025773074126506,
        -0.0008346170429753077,
        0.01991517576428941,
        -0.08979921206326338,
        -0.021628650895998188,
        0.08005109057583837,
        -0.09958147881688285,
        0.002868461283308832,
        -4.918248059849437e-05,
        0.03435365810530055,
        0.004691555853218345,
        0.10522188004274995,
        0.01071712897607974,
        -0.0579544335692872,
        -0.03418130400308504,
        0.004182061747989707,
        0.036190146664147785,
        0.02759652694979369,
        -0.03173519299634063,
        -0.05599407131099162,
        0.06031939869283097,
        -0.01861366495017932,
        -0.003407626787044569,
        -0.023254748150015575,
        0.058333562215948945,
        -0.0019785775967897912,
        -0.021932934832493957,
        0.031319405255623295,
        -0.04333305704515887,
        -0.015506925349212074,
        -0.08292193150802427,
        0.027366495613867392,
        0.024592765847442136,
        -0.004869362072314969,
        -0.08284770141422021,
        0.008541833990196038,
        0.005479181080072584,
        -0.03659238379966308,
        -0.07628689712357914,
        0.0024490874087039092,
        0.007250802332595897,
        -0.02709195714053775,
        0.013162006511545756,
        0.006401643435265947,
        0.03299426483491383,
        0.04769100975670489,
        -0.0009071532484881174,
        -0.005561401688035759,
        -0.09218598276342348,
        -0.08238863879910469,
        -0.09604116521795783,
        -0.1280697737320461,
        0.0451131259902366,
        -0.014278754379795283,
        -0.0349928107968403,
        0.09949347551046975,
        0.15590514113844015,
        -0.025843547388991663,
        -0.03616662296504449,
        -0.007650511634634073,
        -0.0653030227933282,
        -0.04302603583333685,
        -0.01727688742473856,
        0.08064835403942891,
        0.015023609633683177,
        -0.016775116041831014,
        0.05118349332553299,
        -0.0768805856789515,
        -0.026651067660631515,
        -0.06474160446543145,
        0.009370133458872304,
        0.029177444343132047,
        -0.08836271091885778,
        0.04184624884957555,
        0.04814756682486493,
        -0.0694048425674034,
        -0.12287595999330486,
        0.09692403254753307,
        -0.031978458288463685,
        0.004366338362264393,
        0.11003881052976355,
        -0.10288062188170019,
        -0.057370973801428936,
        0.06755187770807813,
        -0.034148780069577236,
        -0.06247077335725007,
        0.13365711066844455,
        0.09710655571245667,
        -0.04036296357477823,
        -0.026626199611995593,
        0.10289778724118734,
        -0.02492512497508887,
        -0.12076312191417342,
        -0.015038846863082848,
        0.0041177351716202,
        0.09919600258798256,
        -0.10227136510626218,
        -0.0939034678339746,
        -0.03821099200821707,
        0.04714633832383249,
        0.025798845110945174,
        0.009093938906210039,
        -0.0051921674480584195,
        -0.006887476515718501,
        -0.06789843961199479,
        -0.09417810245356874,
        -0.10283742949584107,
        -0.05286125481376604,
        -0.02417981678013951,
        -0.00691869213379831,
        -0.04241013097151502,
        0.027050612965393444,
        -0.008746398462308222,
        0.0019087598399238099,
        0.00918438801535729,
        0.02146064792536314,
        -0.05993024608314278,
        0.015700526359226252,
        0.011313632580718259,
        -0.08207131592573508,
        -0.017147056112485383,
        0.04065569720792252,
        0.02493047301451852,
        -0.07522912212981755,
        -0.0224371069309268,
        0.05196589556189651,
        0.00010535108896118445,
        0.046917836069002926,
        0.006067822362075814,
        -0.006882596951780725,
        -0.016823719349573274,
        0.028605789999993275,
        -0.010045206125261533,
        0.009936012977851775,
        0.0010283230542502862,
        -0.006829040018927831,
        0.00786585255803527,
        0.05435479584764691,
        0.024171935970052242,
        0.052326160044445555,
        0.001705989487765764,
        0.008951172666380545,
        -0.006981996517364154,
        0.05006666391622704,
        -0.0006083683005082888,
        0.1045133690617275,
        0.08486545425966355,
        -0.003849710999734058,
        0.021077886512994595,
        -0.0015416691702808696,
        -0.056350141112314,
        -0.02624321012522305,
        0.06868841868561108,
        -0.10016997974048732,
        0.008603231270617503,
        -0.05159244140454765,
        0.054625102749843654,
        -0.09314591257024524,
        -0.01231629682613514,
        0.0002062278671558068,
        0.03280843537193126,
        0.014553949467750297,
        0.011578363834396968,
        0.03593129828929141,
        -0.013013530373608275,
        -0.021928919350059826,
        -0.013052145383537612,
        0.01142573828571386,
        0.0003287579991279755,
        -0.02358949631016953,
        -0.0023776143561240245,
        -0.020528395393466937,
        0.03085205810089247,
        -0.011404166433465243,
        -0.04608736470359058,
        0.0069859080029226325,
        -0.0016240375731603634,
        0.011453874865407125,
        0.06986962073294972,
        -0.004851502233367208,
        0.006813969394829019,
        0.022320193260599017,
        0.018676587057369617,
        -0.027647089393268362,
        -0.0024311903203560205,
        -0.0021155464879265133,
        0.10251790371716143,
        0.08263254114955647,
        0.004481415553562022,
        0.04473076905048692,
        -0.021336461360387287,
        -0.012074898954021304,
        0.05389851486221338,
        0.09168818323625222,
        0.008123583937553141,
        0.09628652570151491,
        -0.002369533117483629,
        -0.007790388067023685,
        -0.003988730400173297,
        0.025421786659647973,
        -0.08083228316930799,
        0.015833603954679927,
        0.014560336247601217,
        -0.0008988303539384152,
        0.01303228301156081,
        -0.007255597028035212,
        0.0020836119061014282,
        0.047747768982367884,
        -0.09067064624634365,
        0.017709945696666698,
        0.021029867444578475,
        0.029976848302298166,
        -0.0012359533162885376,
        0.11009522148291608,
        0.007021852871371531,
        0.006898837321237103,
        0.0338342646705568,
        -0.004280711294662261,
        0.021466549931494536,
        -0.001726344532543312,
        0.021342243771358328,
        -0.01656647438511431,
        0.011437518999872803,
        0.03507378021349487,
        -0.07740337363456837,
        -0.004185349237087967,
        0.004939873158647575,
        0.0066819510599186345,
        0.0227536324115363,
        0.003218729674858557,
        0.0018506905639214966,
        -0.02639840157759956,
        -0.005807104898904354,
        0.0033075453732355556,
        0.09345595564733555,
        0.05324313719379971,
        -0.09437471772581754,
        0.013656697169536455,
        0.030204608371844726,
        0.08574648966232333,
        0.06436189816245239,
        0.14588365165720568,
        -0.056676048047575894,
        0.08622960276030392,
        -0.11072444534860634,
        -0.07392391789322443,
        0.023711416368085086,
        -0.04341749121817343,
        -0.09803254945864286,
        0.007267076720974781,
        -0.005266587234344552,
        0.009191100682568357,
        0.0196486909915978,
        -0.02046838306417209,
        0.004454693290234367,
        0.09920224108956133,
        -0.07497176983846676,
        -0.027298367242984286,
        -0.11626114928513034,
        -0.018848615872752297,
        0.022632678343463306,
        0.10526336513754936,
        -0.036608556020364745,
        0.029662611668892343,
        -0.004749282392829121,
        -0.06408782961153642,
        0.06590180427779717,
        0.004945506043097866,
        -0.0171066751115918,
        -0.028257834168250957,
        0.04659829352464906,
        0.015024949731389235,
        -0.11388955141595532,
        0.08722987214860758,
        0.03517363583074136,
        0.039252514843034575,
        0.08472434316452102,
        0.10014185584738311,
        -0.0523841951634028,
        0.06825814946419925,
        -0.13680894080837283,
        0.06325365934618848,
        0.05997663850600002,
        -0.04559095050861456,
        -0.08333545214832519,
        -0.04981229096877467,
        -0.013293644780831462,
        -0.07865643268528177,
        0.010289345371582095,
        0.04261224930364822,
        -0.006507608741922485,
        -0.0871643946414837,
        0.13527332861459063,
        0.032748061313105516,
        0.030058732136377657,
        -0.053366051028244245,
        -0.08282810746185618,
        -0.019671799759514177,
        -0.01449647334044558,
        0.003034512741696666,
        -0.06647225933632975,
        0.1527546496616391,
        0.023266215738374948,
        -0.0955094308993758,
        -0.030264517678693127,
        -0.0010274186279830544,
        -0.025653470466797446,
        -0.022095299373185592,
        -0.06988832279480316,
        -0.02453420990293157,
        -0.001060239924809029,
        0.04622416719082434,
        0.053568122794879915,
        -0.011487722690308188,
        -0.008761185895395148,
        0.026228765921243888,
        0.00650836646721112,
        -0.0009208222283402633,
        0.037936422610055406,
        0.013076613525931358,
        -0.05853555752812083,
        -0.04401939342684573,
        -0.01383416695142094,
        -0.022207088180657267,
        -0.01653374949605836,
        -0.013840887508085993,
        -0.018335892767655418,
        0.08991377402334567,
        -0.003798703643626234,
        -0.003019662959465913,
        0.05354294085953456,
        0.02038267023430461,
        -0.061861139566622425,
        -0.06799946085390861,
        -0.010979356209427598,
        -0.0011372257942681486,
        -0.07564403662314055,
        0.07609745919084979,
        0.00931692760655762,
        -0.02861148118576729,
        -0.008407594942756176,
        -0.05880425966747736,
        0.10469402048676936,
        0.02349666848216296,
        -0.05561545742258741,
        0.00455776167511593,
        -0.0968079751943072,
        -0.010649940308114022,
        0.039402113692121085,
        -0.0010462266606531003,
        -0.09547358693340902,
        -0.012533612941871143,
        0.006351405662416431,
        -0.06177946713115191,
        0.001746815776274239,
        -0.0853517421030687,
        0.03375370072804627,
        -0.048063987562791635,
        -0.06269852564591799,
        0.004741281851282138,
        -0.0010338758338502684,
        -0.018941476618666665,
        -0.08781398888521455,
        0.06496350165750694,
        0.011098429044709368,
        -0.008531565866806153,
        0.024804834722147555,
        -0.00307870079576842,
        -0.06783666808729144,
        0.004025738403928444,
        0.0009464406967878379,
        0.012302099458917026,
        -0.07468613111599988,
        0.007137121558581618,
        0.0014061769813851893,
        -0.0031427820846295683,
        -0.006008847347025792,
        -0.01203015519497604,
        -0.0046340651632159075,
        -0.03852224064532009,
        0.0014453240060347625,
        -0.009034542173815076,
        0.0004440342444474721,
        0.023763694806845696,
        0.07556773528645144,
        0.01348279838052594,
        0.007709726861482193,
        -0.006659828234706389,
        -0.0008852227501917047,
        0.0071456390469352305,
        -0.001491229440158491,
        -0.0010910784395737154,
        -0.0019779281739053132,
        -0.020144391177598923,
        -0.01129970455855198,
        -0.09715684357689566,
        0.006204604224742322,
        -5.856206968084525e-05,
        -0.08650457629453603,
        0.018591400449621702,
        0.004148872386246474,
        -0.031280518688469504,
        -0.05009259841491455,
        0.0119222666323259,
        0.004719286382441974,
        0.037948497181386244,
        -0.05631042758754859,
        -0.0005405633260310426,
        0.05865334827661352,
        0.10847642628847204,
        0.05059911028179036,
        -0.022786633075667244,
        -0.005773875294393455,
        0.05170710917330136,
        0.046010173111719455,
        -0.08425213901021397,
        0.02303119034541143,
        -0.033215033533980566,
        -0.015116956042691716,
        0.08118162968182017,
        -0.00722186036884165,
        -0.0029807997904396613,
        0.004933495800829964,
        0.020576312655655734,
        0.026997699430106485,
        -0.06460511285662032,
        0.011537104987099145,
        -0.08481032797186575,
        -6.105452933765428e-06,
        0.05617644583513546,
        -0.001072333974741943,
        0.04655970862531361,
        0.08036934884186929,
        -0.006051173863869242,
        0.0849918637597171,
        -0.07806665142913091,
        0.04020242694815061,
        -0.003753664779226752,
        -0.1066530587634612,
        0.04138959764381743,
        0.08984921859868411,
        0.02875926558789684,
        -0.14899347295279758,
        -0.0988613033972481,
        0.03435942212222403,
        0.07132239355628983,
        -0.003284105708829665,
        0.026326538080232234,
        -0.04967394282822974,
        -0.0010370062124572992,
        -0.08692307212539054,
        -0.07863009204051863,
        -0.1430831583403402,
        -0.037484399182308496,
        0.026899341256061436,
        -0.032056930598103536,
        -0.0736153329326815,
        -0.15504916438196734,
        -0.006753841807866839,
        0.06273810739486199,
        0.12775214585095768,
        -0.022532293958665413,
        -0.010293663896585356,
        -0.0634731377455808,
        0.10233536586736391,
        0.00376885601566624,
        -0.05431723959636531,
        -0.03386922834005729,
        -0.045310089745513746,
        -0.07960681439806151,
        -0.04459697711399069,
        -0.05403785439272869,
        0.07821261952802441,
        -0.02551252630487316,
        0.08795184928942895,
        0.0007330653031212662,
        0.04409375559895731,
        0.09958131447116737,
        -0.05407831363866725,
        0.019281860964593736,
        -0.10524024387048045,
        0.13015512934695078,
        0.09925726527896636,
        0.09548911717649705,
        -0.02161105644078029,
        0.02928193032729011,
        0.0029773795142968187,
        -0.049614770017145954,
        0.05935985438403785,
        -0.08427228362207856,
        0.08685899947340964,
        -0.03586601208823917,
        -0.06884983604774482,
        0.014125294228145395,
        0.054368949646858775,
        -0.02788205261192723,
        0.003134582523057419,
        -0.04489432058183121,
        0.004948274290643928,
        0.06378589239049559,
        -0.08050279211361627,
        0.03651895295401998,
        -0.006919766780946683,
        0.0013463218420862923,
        -0.02325959513889127,
        -0.0010073960338232572,
        -0.007897759571102463,
        0.008283576455009843,
        -0.0032087327856674362,
        -0.000852048433084468,
        -0.00470274294584756,
        -0.04687827893319227,
        0.03373461281823591,
        0.05540378975223981,
        0.05163082184173366,
        -0.08253905463700233,
        -0.0011166806079592733,
        -0.013601988729455786,
        -0.006550993845874957,
        -0.010678543461318486,
        -0.0033275245800657377,
        0.05314665204098364,
        0.05000936152748903,
        -0.02493867222615676,
        0.01893322397530271,
        0.005189915027753157,
        0.08625103054025576,
        0.09367271989824949,
        -6.731137803761062e-05,
        -0.046015943782038896,
        -0.02938178153438835,
        -0.014812195648510029,
        -0.04070411013248049,
        0.006558335121992895,
        0.00609934161910845,
        -0.011029600119761838,
        -0.010645442856898125,
        -0.0016385088817883493,
        -0.008678925090897049,
        0.0005583230925853677,
        -0.053099201927302414,
        -0.01723440723284373,
        0.0013337858668917206,
        0.07766496896968912,
        0.006240198572746591,
        0.0912918713334597,
        -0.07517991444695668,
        0.02472931195306191,
        0.03500150264304884,
        0.05405694467689037,
        -0.04826740640923552,
        0.0639384506802752,
        0.026006357747608448,
        0.04562899377534132,
        -0.0024158916628168863,
        0.0009581834480972878,
        -0.0010094893781686116,
        0.059011586875105354,
        0.06798817082896841,
        -0.06351461269916246,
        -0.002878266084660179,
        0.036145749592757,
        0.10374730390271478,
        -0.0053629332218115555,
        -0.026391902914691387,
        0.05831705191630465,
        0.01359317372828766,
        -0.05614233738624673,
        -0.030076236117542808,
        -0.012812695418861281,
        0.020966727218453732,
        -0.009431814508505096,
        0.0031381928090993905,
        -0.038641212266050225,
        -0.05157191915567011,
        0.011702872441435913,
        -0.011602882642402933,
        -0.00059172273687375,
        -0.0030146951561102167,
        0.014461655078328818,
        0.014150361104143642,
        0.026536876748680827,
        0.04982613723029954,
        0.005809055424744003,
        -0.003117130222259283,
        -0.030065831839240664,
        0.03187846959425521,
        -0.03457362946738328,
        -0.01929645734641124,
        -0.040528307275377276,
        -0.0017885295887408283,
        0.05922340700508985,
        0.015306948221304899,
        0.09648963300193168,
        0.11371302510940949,
        -0.0020194513201585804,
        0.0001491246216077155,
        0.0883324824632056,
        0.011550300455145851,
        -0.0043431671967076695,
        0.08355387853225224,
        0.00563771025513757,
        -0.030891461328522496,
        0.026150775561128034,
        0.07845319795899285,
        -0.03282233209835511,
        -0.011272981385739827,
        -0.028501254862299437,
        0.0005518210293313447,
        0.010627456806254413,
        0.033129566896942506,
        -0.021427693428157746,
        0.019150062849937068,
        0.10055157586914286,
        -0.004181063739369094,
        -0.025395690205071954,
        -0.0006151279173699021,
        0.058098368082027375,
        0.012378349499163395,
        -0.04542845130744002,
        0.08186603910754199,
        -0.08404163895028738,
        -0.000887947704147429,
        0.09168531113342493,
        0.0032586920434535204,
        0.07921697688953444,
        -0.07036797956857267,
        0.06793974120248585,
        -0.04535909396114414,
        0.011941424577228701,
        -0.04265628711125659,
        0.1052580545103933,
        0.014448819822189603,
        -0.026520640318124223,
        -0.08752842797019297,
        0.0001532492416972179,
        -0.04465462196759162,
        -0.04352164291221606,
        0.036373906195024154,
        -0.12073417054463337,
        -0.05244903280329326,
        0.13322048668832254,
        -0.007881915670418092,
        0.01669909156426111,
        -0.002163284815539177,
        0.06616571923085247,
        -0.04497001967239558,
        -0.02695595696570644,
        -0.008727646365820897,
        0.04171406628029052,
        0.10105126981743341,
        -0.09341744899087201,
        -0.053170106790966676,
        -0.021063685244689774,
        0.00646092647169574,
        0.12316370692358952,
        0.062260441599301206,
        0.016550406988335837,
        -0.10327262818319194,
        -0.13567130997917318,
        0.015675215649845285,
        -0.017906441527733123,
        0.004102885111994862,
        -0.007714100980989254,
        -0.07029857882279464,
        -0.05123013687081075,
        -0.10851439726377193,
        0.023267052342263495,
        0.08420601269258626,
        0.06002012890758912,
        0.030702119415697865,
        0.012816787444778394,
        0.12114246208870647,
        0.10134867855951812,
        0.14341275617643712,
        -0.1440034562632478,
        -0.04817273169278499,
        -0.07426496759538802,
        0.030271753116421576,
        -0.06165531879033259,
        0.04585446370181637,
        0.043995410330397215,
        -0.011363397632861212,
        -0.03485304708120089,
        0.08347134918898297,
        -0.12804836132798947,
        -0.02036449762424025,
        -0.04904289505579648,
        -0.0004737687958357785,
        0.04761845324982392,
        -0.045704652658348305,
        0.06166616382001948,
        -0.019512357437934346,
        -0.030577412651792396,
        0.0038635139442166335,
        -0.0013744513166422773,
        0.0578949222337066,
        -0.05365507632864448,
        0.015384286700185625,
        0.029111781264776686,
        -0.034220408606650474,
        0.054204466077768965,
        0.009991525908837652,
        -0.021765325983219196,
        0.01759061200274964,
        -0.005600679828674774,
        -0.038170687922696796,
        0.01793502283389959,
        -0.04302060907022601,
        -0.0014906668690959698,
        0.0026735780021372394,
        -0.05511390047791027,
        -0.031190092633566823,
        -0.09216920216764093,
        0.06866919742040332,
        0.005306988943896232,
        -0.05529450873528473,
        0.07997038165743972,
        0.11516773556050082,
        0.03310002717889127,
        0.0016247868313488858,
        0.040024343899688064,
        -0.0002190064174855351,
        0.07260555207532647,
        0.07013597042627928,
        0.004015932070007935,
        -0.016281744541180677,
        0.07753416028689393,
        -0.0034443381920554513,
        0.05591423558605815,
        -0.026465871472900616,
        -0.001986258046922201,
        -0.024875823265710528,
        -0.0005684999516092829,
        -0.005742835520047982,
        -0.06820743789971052,
        0.004163057671932038,
        -0.049936772623163386,
        -0.03599441454946565,
        0.025486303564502107,
        -0.018525610162068277,
        0.11747333409678906,
        0.004338009043783532,
        0.00867788334549727,
        0.01834290034775145,
        -0.02035508859556149,
        -0.0047947888778394135,
        0.01818869226119934,
        -0.018142454274246815,
        0.008433465605991664,
        0.09677965755296555,
        0.051656177405036835,
        -0.0012480669659788762,
        -0.08041959053514447,
        0.007953049249054957,
        -0.0016502595154951952,
        -0.003776527289680115,
        0.0675961861462044,
        -0.09714800645162591,
        0.0072080435851851555,
        -0.012139387658766355,
        0.00045898568385729856,
        0.014906478775340994,
        0.04740954940219606,
        0.030803367358993167,
        -0.036521848038756924,
        0.002691929778415827,
        0.007050334941121631,
        -0.06203459496669858,
        -0.043157907458925684,
        0.10100541130879437,
        -0.06605702544909058,
        -0.08602964572743266,
        0.0415212374518559,
        -0.04486449649698947,
        -6.353920992541862e-05,
        0.09956680648012275,
        -0.057689044920714624,
        -0.008724383413554679,
        -0.10389597871500542,
        0.000925942004554904,
        -0.0008084666372238849,
        -0.015100718493466812,
        -0.0007709031373846249,
        0.06601177654824428,
        -0.006897339768658566,
        -0.02959721338319492,
        0.0422005617580259,
        -0.00252114786160212,
        -0.015494226213103566,
        -0.008430417915929184,
        0.08152701512705486,
        0.007900372564989166,
        0.006604942841233545,
        0.020043934702498108,
        -0.009547211999658262,
        -0.005514237188331063,
        0.014215872701785873,
        0.08348604781821004,
        -0.02429340648788441,
        -0.07726785969865824,
        -0.00191604270813308,
        0.012031640897082847,
        0.0124175738850878,
        0.06727368924590588,
        -0.019350738622319424,
        -0.0062104554843995415,
        0.050341523483803066,
        -0.028045899400390744,
        -0.05603425898199678,
        -0.004608250119735452,
        0.01904532778450599,
        0.056006586716800186,
        -0.039683186212357155,
        0.017285771182655934,
        0.00537848190595713,
        -0.00331412651741642,
        -0.14014325300620228,
        0.01926974397793685,
        0.08331180384990826,
        0.04729691254230985,
        0.10060885904968697,
        -0.043378325198871,
        -0.04851439316133003,
        0.0006405174280450575,
        -0.13858986976100351,
        0.08749254201232473,
        -0.010698939609722843,
        0.04124532288223802,
        0.0061285505273437745,
        0.04892141510913674,
        0.01917245614005703,
        0.06028184168909842,
        0.009932677610597955,
        -0.005248096720931758,
        0.009944018783452389,
        0.09131186047221784,
        -0.032949227261943145,
        0.09253954523567406,
        -0.07213439719991278,
        -0.05431922867189657,
        0.12142022383016837,
        0.04640333769477813,
        0.054411115929358045,
        0.02334824852045412,
        -0.041641296251967594,
        0.15961648588941824,
        0.022712048418249593,
        -0.01628708206150386,
        0.04312820475590171,
        -0.054002337390262806,
        0.11352090407042441,
        0.04935595757164028,
        0.019173527618264213,
        -0.09613346620276092,
        -0.02890565957740393,
        0.014882307398309032,
        -0.0015660140993801776,
        0.08649527498914289,
        0.08669379118923427,
        0.08555458057458991,
        0.04573453024736454,
        -0.08677746349830695,
        0.022801806576321554,
        -0.039124580135489875,
        0.028032626237538896,
        0.02308264341704925,
        -0.11658605033382298,
        0.026162775039506286,
        0.0016068422608436802,
        -0.15908378180269367,
        0.059518396115428154,
        -0.02895809958242341,
        0.10161166713116329,
        -0.04602413097493692,
        -0.08855587279154628,
        -0.010374920832247812,
        -0.03337254346815838,
        0.10935248927444283,
        -0.11017958451865935,
        0.07323830264689168,
        -0.0015065671952805499,
        0.009799647066418338,
        -0.05011413773005795,
        -0.01617191475863823,
        0.03551457969645609,
        -0.09456738503005588,
        0.0011035369113595278,
        0.06169911432874742,
        -0.12926096177110136,
        0.1196809961342517,
        0.07627493618520981,
        -0.004929702200724719,
        -0.04726349507236341,
        0.0038028061766756764,
        0.0993081821671411,
        -0.03799381360614787,
        0.018011743283003107,
        0.0964281074612977,
        -0.027606887359957293,
        0.004053544270667482,
        0.004623666071182388,
        -0.05353835196565056,
        4.0337734590879225e-05,
        -0.06262802028514869,
        0.00047066400652563743,
        -0.07357272231447226,
        0.03711573893086034,
        0.0034952440651387848,
        -0.10138680848735515,
        0.02936064721110837,
        0.0028494609071535006,
        0.027536839246712172,
        0.05385568141098869,
        -0.007255087890424929,
        0.0025090595472001946,
        0.09385438340380894,
        0.06850580838348452,
        -0.03297247981087008,
        -0.03522112315032067,
        -0.08021318124927354,
        -0.05616536946391268,
        0.06667603408361131,
        -0.0043522483623935765,
        -0.08334811312063295,
        0.0011526500604847794,
        -0.005515143251186893,
        -0.0016613630389691967,
        -0.055474061932769984,
        -0.030075205759610032,
        -0.025771042338312383,
        0.005923750362169695,
        0.03468259562187599,
        -0.0012667161056914272,
        0.054113027612555306,
        -0.004169377515024658,
        -0.022991377964429755,
        0.001392682604471803,
        0.0011783636211008704,
        0.008953436827106934,
        -0.015466799258597968,
        -0.01649992125658495,
        0.09462978471601187,
        -0.01704391198596984,
        -0.06055849103879346,
        0.031639235269668456,
        -0.09488358502624018,
        0.01959764958333675,
        -0.014957115683035455,
        -0.047444874148256426,
        0.010340185370315058,
        0.0005142895993401317,
        0.11276025522288488,
        0.009701497724181175,
        0.02839523209741259,
        -0.000957465282262468,
        7.823879673396865e-05,
        0.055751996040692565,
        0.02285270781180789,
        0.05371289615792815,
        -0.047975887293272276,
        -0.0005609052428048757,
        0.01644728906658949,
        0.04502303733411017,
        0.041372678396024785,
        0.03592901559688001,
        -0.008730805747659278,
        0.0015180124776248915,
        0.003806891465147653,
        -0.03581601375317711,
        0.023388493267932776,
        -0.011922481848343748,
        -0.11306449291476012,
        -0.04783087698557991,
        -0.0035192457531141785,
        -0.04054641718831052,
        -0.02589597025170346,
        -0.05884843374042893,
        0.035469744899874485,
        -0.0012440839153753376,
        0.056999454277008546,
        -0.025132638753354045,
        0.009614847555793265,
        0.05518419515636623,
        0.005788862200862244,
        0.006214965799056869,
        0.005034056958858427,
        0.08629554585408966,
        0.01564369671272595,
        0.024193344704139086,
        0.045820667244488925,
        -0.05080235017078495,
        0.048076364094078124,
        0.002991244334079138,
        0.07024337939473065,
        -0.05245004844907001,
        -0.014873029749327889,
        0.0006175148500816234,
        0.02410044892153531,
        -0.03775788805374532,
        0.0570761268739013,
        -0.0004870102429155974,
        -0.014759476729794253,
        -0.012055190174786321,
        -0.03524376405214245,
        0.07611502157284106,
        -0.0019989479825892357,
        -0.0083905234447368,
        0.05136555641428177,
        0.011404366844849785,
        -0.021613111615958143,
        0.043680976787541105,
        0.10600625783254186,
        0.05652985573715412,
        0.10927602932340216,
        -0.018802100246822454,
        0.07537052462854558,
        0.15399514596522237,
        0.07922210900170643,
        -0.07089912065806905,
        0.023033899382968667,
        0.008886822925881978,
        -0.009460383626210746,
        -0.06203132101111142,
        -0.03568336080223244,
        0.016625652533327137,
        0.03041934273526344,
        0.1204966349707268,
        0.0036556546982085174,
        0.017565108010519373,
        -0.11942896465700212,
        0.06319325789760122,
        -0.11696701547691149,
        0.024964319565333723,
        0.05255022642960781,
        0.12743218134757528,
        -0.023271232516332736,
        -0.07405387401680172,
        -0.11494711555888727,
        -0.03273599851244571,
        0.11834091175196801,
        -0.0052063863542556425,
        -0.08883393103674651,
        0.10590501545428133,
        0.004325154107448286,
        0.05190251413007943,
        0.14008168169290092,
        -0.024499513188194162,
        -0.10137909937250181,
        0.0332409425359351,
        -0.0008593482764033333,
        -0.0195333516107745,
        -0.05167108540970672,
        -0.012107228521497551,
        0.06888623518652673,
        0.1263382652543117,
        0.031392799175157825,
        0.09458160586918914,
        0.11105132523088551,
        0.008084590333240715,
        0.019587388499769792,
        -0.05777658285414096,
        0.03221857509106052,
        -0.1017106228894274,
        -0.05527718395840496,
        -0.10904412367536889,
        -0.02271677575465355,
        -0.012001452961854009,
        0.11571908008066567,
        -0.05293399546933644,
        0.008116747031437877,
        0.04973906075313346
      ]
    },
    {
      "layer": "param_1",
      "mean": 0.00019100336655910322,
      "shape": [
        64,
        192
      ],
      "std_dev": 0.05213595921763383,
      "values": [
        0.039622269741514435,
        -0.003963811212106665,
        0.0392789382783067,
        0.013856303127379972,
        -0.020708220570327424,
        0.07357887605725483,
        -0.03443877863473646,
        -0.008004856375326403,
        -0.014169235538480554,
        0.08182686010528172,
        -0.07250882760311778,
        0.0482204940733935,
        -0.03885254419808583,
        -0.03251231610939476,
        -0.004580485095202907,
        0.022354599732584066,
        0.07466389565220617,
        -0.0019001627084947771,
        0.09039873614188115,
        0.04411813150404411,
        -0.0496731576218051,
        -0.0704683326000473,
        -0.004824891794051283,
        0.028945639642567994,
        0.07764177695372168,
        -0.05776300938998463,
        0.11314662718986956,
        -0.07343815836475387,
        0.11211805555624826,
        -0.011310944239495442,
        0.02351776045475894,
        0.06479762485872441,
        0.017316615904663178,
        -0.06454501205704063,
        0.048904398237073,
        0.027879051284504065,
        -0.029211308655655143,
        -0.09643314375537268,
        -0.0021554463251407877,
        0.003015839626516737,
        -0.020445018993122413,
        -0.02141546157497843,
        0.13450512208144477,
        -0.019414276225023615,
        0.04230030838067232,
        0.03920649629929687,
        -0.08583835543070945,
        0.03175330020603259,
        0.011709839949884896,
        -0.045511238760375494,
        -0.05926886844246029,
        0.026952772621639146,
        0.021121459223903738,
        0.014163996516392816,
        -0.006932269427939834,
        0.014386489426701662,
        0.024457145069051164,
        -0.022537987114437087,
        0.03999911422305531,
        0.01940218421047394,
        -0.042994810976832804,
        0.005773209561042769,
        -0.0671502601003098,
        0.0055630466445077305,
        0.10686742091370263,
        -0.07041437100796162,
        -0.09910047378845593,
        -0.019736928409442397,
        -0.022263563185921525,
        0.041799965679644474,
        -0.02324380460387243,
        0.055646883752605514,
        0.05094020207960004,
        -0.05275400948507905,
        -0.08972386253106701,
        -0.019094209877823388,
        0.05048417089059541,
        0.0064204990261027915,
        0.06628215296826928,
        0.00577103045635639,
        0.06666794248110552,
        -0.012464512876115509,
        -0.01905900215166042,
        -0.02752566522118883,
        0.0075457247909136715,
        0.10064671221005303,
        0.07852682006016999,
        0.03825708154156705,
        0.09446394426822351,
        -0.027926924134378934,
        0.059821054252161485,
        0.07125275451698089,
        0.04265094241439568,
        -0.044038675300982266,
        0.07654814195152165,
        -0.08324704990561077,
        -0.08023255884249887,
        -0.01411631392954434,
        -0.02940056977853118,
        0.017843512976424857,
        -0.0660791081465804,
        -0.02700982986909657,
        -0.005304673748286186,
        -0.00849386421193037,
        -0.0348600080468034,
        -0.04721082007485239,
        -0.05693716476082469,
        -0.03744904488511604,
        0.03259101597406033,
        0.12837393450576123,
        0.013455661387502718,
        -0.03486382022317606,
        -0.03888693554537707,
        0.0006241250372106162,
        -0.07985126687932868,
        0.06092161950694562,
        -0.024950419884115168,
        0.05336254521629557,
        0.10191125210143273,
        -0.025188714340234907,
        0.005333088455931603,
        0.015425334085625034,
        -0.03437385015722812,
        -0.059433479621980284,
        -0.05847260052615032,
        0.0036100944586078265,
        0.0260951667117732,
        -0.08224159073219536,
        0.010120275415919021,
        -0.015191825095742933,
        0.028029248790920745,
        -0.06465437234965951,
        -0.01522172671815191,
        0.03406620539544863,
        -0.06709780424392224,
        0.015440414938011338,
        -0.02262484866971354,
        0.008075228138019776,
        -0.032643602609795805,
        0.02396197131847677,
        -0.01718087098980111,
        -0.07679945416397407,
        -0.02975775403142982,
        -0.017417397966244766,
        0.003350802843978186,
        -0.01194431929769239,
        -0.0330591273462561,
        0.02341008102576968,
        -0.01527577155180792,
        -0.0801834032218132,
        0.014757371329462482,
        0.00709656914212752,
        0.05351888677809787,
        0.047448353033278996,
        0.041368402164212656,
        -0.005397146810844175,
        -0.020565849683821184,
        0.03690900784952774,
        -0.05614386642404094,
        -0.021599226066413096,
        -0.06245533219924774,
        -0.05135358212221432,
        0.04017437782420422,
        -0.020407767136793483,
        -0.032901077898650224,
        0.10675106395834744,
        -0.0721885259314039,
        0.035586205835216926,
        -0.015225860249204158,
        -0.05719987812799276,
        0.0178682855977072,
        0.07530927288527549,
        0.028065661464845272,
        0.01968000810132333,
        -0.06774015016629573,
        0.05586290057775177,
        0.0634557263565918,
        0.00848446423735049,
        -0.03346496081692331,
        -0.035475974609949494,
        -0.04344774628529313,
        0.019034946825428563,
        -0.0001262237296123618,
        -0.025868797008237,
        -0.005056013025935328,
        0.09460355801967833,
        -0.011276912797199192,
        0.04882033275900729,
        0.07626737943931006,
        -0.01875972817644081,
        -0.11041411955367594,
        0.05825519695571013,
        -0.023264483334659358,
        0.04794753621212866,
        0.025925223028812516,
        0.006516197406091092,
        -0.052894630376840786,
        -0.07039946780968365,
        -0.038737223160947284,
        0.0009971265779485773,
        0.04219940452559915,
        0.04338127596634668,
        -0.005733869262198044,
        -0.04996299332812573,
        -0.07707604684409464,
        -0.04269495582336514,
        0.01612072725276504,
        -0.027760544354691205,
        9.56343368628456e-05,
        0.014037692255081315,
        -0.041194398378243596,
        0.022847869730923603,
        0.037519226836887756,
        -0.057723816235893524,
        -0.15718634893782746,
        -0.036572772960741635,
        0.05850694755642934,
        0.00441149438539714,
        0.05715629543979531,
        -0.10398163526708976,
        -0.0262992953149949,
        0.06381043363699902,
        -0.07339359628080246,
        0.008014638131215574,
        -0.008119597588555344,
        0.0618436779780477,
        -0.03515374164052405,
        -0.08860065256197142,
        -0.018865099751116995,
        0.019690262421695803,
        -0.02127322812458552,
        -0.046821995286514595,
        0.07433576943045844,
        -0.01897691885897849,
        0.13615650246419286,
        0.03356293616158727,
        -0.040107877131568395,
        -0.08409794904976176,
        -0.009106284204313059,
        0.015126149714345467,
        -0.0479549688606809,
        0.052325695354011145,
        0.0700327319864977,
        0.020229701754689113,
        0.018407172094477394,
        0.03900217334872961,
        -0.004350981969939428,
        0.04493886997473791,
        0.07055032152873757,
        0.04928522762239604,
        0.022927043208090338,
        0.06613293279581689,
        -0.035505239703541774,
        0.039017803518743115,
        -0.012943576915384836,
        -0.04957339082099595,
        0.08690246848413477,
        0.015762059365830604,
        -0.06382616110106193,
        0.08922965874603253,
        -0.06390587044945131,
        -0.06657631485056507,
        0.009435729562635385,
        -0.007671992495663299,
        -0.02177144893625887,
        0.007382403152776695,
        -0.06982934829543178,
        0.042665724352780265,
        -0.046491874178134385,
        -0.07217494617663417,
        -0.027231070343448224,
        -0.0865424914140555,
        0.010098190600808968,
        0.014718013075628929,
        -0.05151588816203664,
        0.052986661314255605,
        0.030571078347802587,
        -0.05777004936577839,
        0.04858090428592392,
        0.07856739137486868,
        0.015252917912219478,
        -0.008222194236637328,
        -0.04396959602730172,
        -0.027940078112438912,
        -0.013558831797136843,
        -0.024881179152806736,
        0.02481594592874668,
        0.014811949042496934,
        -0.0507632020395057,
        0.04420209990549093,
        0.06225731978871918,
        -0.038789793527459274,
        0.0008933842616567047,
        0.07401088516850013,
        0.040362473194852234,
        0.033242976797015704,
        0.013721312388843408,
        0.0024371521779205565,
        -0.042963325681640276,
        -0.012378195287671865,
        -0.023241711922477766,
        0.0339725528197299,
        -0.08469320478501219,
        0.03414399175692743,
        -0.06233641480850772,
        -0.018856703877687044,
        -0.07446880954973202,
        -0.09419923930051323,
        0.03714469781590124,
        -0.03126280787555205,
        -0.07041377952957051,
        0.01189847090567564,
        0.006786527458966803,
        0.03004220283172166,
        0.05863823041452022,
        -0.023947579390536967,
        -0.005200127277491449,
        -0.04842889067867235,
        -0.07557813240679981,
        0.006678314268131695,
        0.021409612101164648,
        0.06531665732988408,
        -0.12039698079141728,
        -0.004420953984855661,
        0.02380138183343618,
        -0.07311826886802446,
        -0.017741952138369634,
        -0.08107817476717273,
        -0.03459260636518423,
        -0.03567652659934328,
        0.021194900495213692,
        0.04541395110760665,
        0.006811008804365054,
        -0.01629821823422323,
        0.006110894893271195,
        -0.030068415437150223,
        -0.08230926869880567,
        0.056582664927940014,
        -0.04469428940015271,
        -6.980634768746427e-05,
        -0.0022273175313231334,
        -0.026753885540611186,
        -0.02398635216669015,
        -0.017623267493193647,
        -0.02643352603931657,
        -0.031837825482440615,
        0.025867262455564255,
        -0.07913261292233174,
        -0.0045616152865755166,
        -0.03278054125595262,
        0.020827025100752183,
        0.05037018924744044,
        -0.028426602523071543,
        -0.0014231433536561634,
        -0.009062212902633801,
        0.08217119988610137,
        -0.09548759793449671,
        0.10790012940790344,
        -0.045769554711413106,
        0.03718765647500361,
        0.021416825702104222,
        0.008870060261228819,
        0.027476160488747674,
        -0.09940015735158403,
        0.035877572283000314,
        -0.0841856881671918,
        -0.08752610880878095,
        0.06992699509609376,
        0.02670998100203311,
        0.054142832700133085,
        -0.07402162057918334,
        -0.13687076637368956,
        -0.014576732366373378,
        0.0730107089594304,
        -0.08165632236313822,
        -0.09576314648309625,
        0.07440706027755346,
        0.11827172585598296,
        0.06390193579410736,
        0.024609313423263265,
        -0.008371299711875658,
        -0.05438943062579601,
        0.0085721869570906,
        0.021434894496775634,
        -0.02788030890877985,
        -0.10816991127473854,
        0.0873078334883687,
        -0.004000659263034669,
        0.0698988262217784,
        -0.050813617888700445,
        0.02070639184719377,
        -0.1326787778674976,
        0.13397783911660355,
        -0.09091152637325416,
        0.05863843657516697,
        0.09196294194106673,
        0.06276077003296496,
        -0.05326144507928553,
        0.028104628763276865,
        -0.14151637350018548,
        -0.04545071846713162,
        0.0936153395664033,
        -0.0810687854571405,
        0.023202832839818232,
        0.05229905825379141,
        0.058028455880819174,
        0.055681466843894745,
        0.11078145623754096,
        -0.012694406965402923,
        -0.008442988430255288,
        0.057554183063628125,
        -0.019834520004490517,
        0.043981445993724555,
        -0.018594243953522775,
        -0.034640163572356025,
        0.010184959671470479,
        -0.04838453587836996,
        -0.09506061756017806,
        -0.011268314032876717,
        -0.0539622383023174,
        -0.043597117975777686,
        -0.14166604263412866,
        0.0730839532801415,
        0.015367649535885186,
        -0.0835582765045009,
        -0.00434017136050943,
        0.0696294532192521,
        0.0550092753047845,
        -0.030624807119179864,
        0.0013294480749555765,
        0.09089286058111494,
        -0.0399841215679945,
        0.015200947248294627,
        0.07778829293163586,
        -0.042152024127957106,
        -0.04663260314577498,
        -0.017481782870697585,
        -0.021188447983511625,
        0.09762734696103434,
        0.046398277354376224,
        0.03675251020881865,
        -0.0013061335164705687,
        -0.051234230571095316,
        -0.05332492441746665,
        0.05151087134388939,
        0.030107068974427446,
        -0.036435290235457274,
        0.0531854514135036,
        0.054371739999441546,
        -0.07537593304878806,
        -0.02220749708094022,
        0.01723882809884992,
        0.05929081305214594,
        0.09552132675799727,
        0.012807785619147739,
        0.001448664423640774,
        -0.09929325925570753,
        -0.0106189837001478,
        -0.004668260139947016,
        -0.028288684009880282,
        0.1019512165408511,
        0.02804457556186693,
        -0.007545644714976898,
        -0.014187149149987872,
        -0.029727143696449757,
        0.018526286873486845,
        0.0664168177507066,
        0.001425352046005645,
        0.0777323446492873,
        -0.07288699091323317,
        0.0629630500349757,
        0.036900266920974825,
        -0.06955883456285107,
        -0.038048658597123995,
        -0.07540100299437641,
        0.08004894089308406,
        0.12416874514423365,
        0.016561818346621876,
        -0.05695102584037556,
        -0.023699357778496858,
        0.004067060368931917,
        0.11597232096609975,
        -0.009497892103342407,
        -0.041768440153507454,
        -0.022893360447279274,
        -0.05776439088558283,
        -0.029966195102228966,
        0.07823923603347971,
        -0.027059618066998317,
        -0.08385119960678894,
        -0.05894745004409988,
        0.06808722813699021,
        -0.05018526596454319,
        -0.027704361447747336,
        0.12659937842558666,
        -0.028971875967419004,
        0.017223718037569367,
        -0.05811148734285912,
        -0.08515840280083785,
        0.0653214757608159,
        -0.02194692641629085,
        -0.03822210521922058,
        -0.044734578567599916,
        -0.05882482026658471,
        -0.018390265606243524,
        -0.024145262284797773,
        0.023381301945920578,
        0.03304328169549538,
        -0.002077044957206642,
        0.03200780449578072,
        0.01258906797902376,
        0.07327548607263192,
        -0.050401342282031136,
        0.03168348637284255,
        -0.06649558800687598,
        -0.06954764968455027,
        0.09813016153327622,
        0.0004465602308415424,
        0.023485763336931323,
        0.04841056829936326,
        0.009253589744088093,
        -0.06163184233297525,
        0.0827997831465562,
        -0.026825885177547703,
        0.03383548200809408,
        -0.013551722006566212,
        0.04196578244966208,
        0.1119542740955641,
        -0.004245128322410953,
        0.024169619574933722,
        0.016345649165342264,
        -0.0037247565274296547,
        0.06859982339433815,
        -0.0354292922730242,
        -0.013048809019946822,
        0.052962867271479946,
        0.004423150190938819,
        -0.014597283752362473,
        -0.0537076068342308,
        -0.019091758612924066,
        -0.01211466348628348,
        0.0008224641619107922,
        -0.009632158893160946,
        0.07523845463885187,
        0.01250804301678696,
        -0.019258101819368982,
        -0.024350642535456556,
        -0.04867457795822706,
        0.028803113169975955,
        0.03889486551060471,
        0.02408658049059005,
        0.1183823708249782,
        -0.004506090210513752,
        0.05121541554905448,
        -0.026733923211899262,
        -0.04145232404571474,
        -0.02548582188483224,
        -0.027211253903531015,
        -0.0499154036292894,
        -0.05954652883435753,
        -0.011426265484076378,
        -0.05354286580121682,
        0.00504025379796892,
        0.06536388113045546,
        -0.04566302726308888,
        0.035292838683759514,
        0.07965326732615163,
        0.021342854792501496,
        0.11229722734946361,
        0.08865267351356694,
        -0.021282082614668008,
        0.04881019386771682,
        -0.027895106538710385,
        0.0007629707867083111,
        0.01060995129725985,
        -0.003950634059040014,
        0.05507523251441795,
        -0.009233656336395715,
        -0.04280733510891534,
        -0.011358145326187764,
        0.01445124673400348,
        0.0027567092151359798,
        -0.104567469605163,
        0.004946699954499444,
        -0.08845224123494944,
        0.041277793203454746,
        0.08011797134574843,
        -0.012651820603068402,
        -0.019215147323082892,
        0.06069960591589957,
        0.04688812633489094,
        -0.010608563710050992,
        0.047431869618550296,
        0.13211165734205915,
        0.0065359847472848745,
        0.06262982653241674,
        0.06098195196142048,
        0.05459197814094314,
        0.003758039184221223,
        -0.05255378905245813,
        0.06008571586931665,
        0.1464211488685842,
        0.049032056552745396,
        -0.01581771324251967,
        0.02181389609645389,
        -0.003465465060704609,
        0.016760945136694412,
        0.04644501082077404,
        0.07259888293236366,
        -0.0723137259520075,
        0.06434669916069638,
        0.04219982699128169,
        -0.059585620804745096,
        0.03238353691104262,
        -0.009679435544826032,
        0.04308221992978806,
        -0.0238689773817167,
        0.08489969489549687,
        -0.07154438900248927,
        -0.028655754838475246,
        -0.005965732685165759,
        0.05466064099539938,
        -0.060189727656405116,
        0.0370174640008583,
        -0.05266714075323537,
        0.032179136273689374,
        0.031099033034818577,
        0.03026385378312744,
        -0.05542686719697398,
        0.01864429769127167,
        0.041340649675203234,
        0.041302789647623524,
        0.00046484932921612987,
        -0.03569287394705657,
        0.03341750685847621,
        0.01596324715512824,
        0.026176774321179142,
        0.044489243454668245,
        0.03585271317053394,
        0.017883671686505356,
        0.03127832485067268,
        -0.009229972898876627,
        0.0326968390480913,
        0.030443687055452053,
        -0.052453538645949246,
        -0.12036403090004363,
        0.04167357500486715,
        -0.06965593366301404,
        0.0021722497956213607,
        -0.11421071637042043,
        -0.03344086733186703,
        -0.010187917351109892,
        0.04906175530637853,
        0.051292761753669036,
        0.01221480614561975,
        -0.10855472145227564,
        0.07518534675703914,
        0.003829918213114167,
        0.03627370849591749,
        0.015126847373358916,
        0.004286947139913989,
        -0.0263630573849822,
        0.017129517812530307,
        0.034776718408130305,
        0.05989893283310964,
        0.04026107778664777,
        0.011154930122952697,
        -0.01830844464989496,
        0.02837189934327708,
        -0.011951298996913315,
        -0.031833285980664046,
        0.004537594656331762,
        0.04310721906869146,
        -0.06722340710184799,
        0.0837531173523094,
        0.0674958754392787,
        -0.008661443900552367,
        0.040874784826195686,
        -0.0335484617820638,
        0.019716637205290346,
        -0.01142621007486316,
        -0.020305999602574537,
        -0.047120576218219,
        -0.039131123503448655,
        -0.007356902097449356,
        -0.06303171696561903,
        -0.039918703340617055,
        -0.02657787630532782,
        0.055593527095712636,
        -0.01989365563026166,
        0.0423350511654426,
        -0.04281142614817025,
        0.03303915133354307,
        -0.0840330286038446,
        -0.032594276642630135,
        -0.015314813727304488,
        0.04668721227193653,
        0.06701154917458756,
        -0.009481768604826185,
        -0.01607818338448841,
        -0.05240710073981997,
        -0.02078957340867817,
        0.10895173050751755,
        -0.021559057640877947,
        0.10343942072346052,
        -0.055689221224931654,
        -0.05194856097642882,
        -0.02768181594676509,
        -0.09916795939990769,
        0.04761896803777148,
        0.013003258988435979,
        -0.0327550337044597,
        0.056807130540965596,
        0.057416916144051464,
        0.047969841072408745,
        0.06486772194562078,
        0.07055577544373756,
        0.09960568624544487,
        0.09264324492887233,
        -0.008669517359662572,
        -0.04828786244536347,
        0.0022337520386041887,
        0.027151857834906812,
        0.03412617041190331,
        0.04516883195518512,
        -0.0834478658271127,
        0.025131510511388032,
        0.07582448761895831,
        -0.006580775809769409,
        0.08547873655836624,
        0.058647562866623114,
        0.01800267047634338,
        0.04878967411001759,
        0.055036867692945766,
        -0.03540974293851125,
        0.007675796510682101,
        0.011953997952672421,
        -0.03268566267531084,
        0.0010361015949094804,
        -0.08091635651877309,
        0.05701883249307177,
        -0.04958395260222198,
        0.038782384112600515,
        0.007774240737081247,
        0.09615403535140421,
        0.06759779283279005,
        0.016073823471415387,
        -0.09533448387836556,
        0.039521748246641904,
        -0.008921317275938282,
        0.007604698326004144,
        0.08335859360755729,
        -0.07208032145748966,
        -0.006842029476772905,
        0.022682675933597872,
        0.013355278988272691,
        -0.05603542118376099,
        -0.04325884998499337,
        0.027931974765075432,
        0.05345940481633582,
        0.05772968471208352,
        -0.09045354659189617,
        0.06142934836865659,
        0.01134908575138912,
        0.03730799306452487,
        -0.03381630969931857,
        0.058126744171330055,
        -0.022051392177780932,
        -0.008140362177356607,
        0.052709604453396355,
        0.042249688095098666,
        0.04084067563800513,
        -0.0866275174449744,
        0.0576479968246962,
        -0.020820459265102956,
        0.06409589139767416,
        -0.0047839616482022234,
        -0.0628384801115968,
        -0.08550939548370266,
        -0.022266519549520653,
        0.06140107508111826,
        0.014787388559298158,
        -0.06838695989349665,
        -0.06504904238086381,
        0.037801012979040635,
        0.0027164088154878543,
        0.050071909548555865,
        -0.019753732242999332,
        -0.0027235073591764594,
        0.0010498773302407838,
        0.1617296610609505,
        -7.145443245323846e-05,
        -0.0167632802712892,
        0.0345263077398209,
        -0.06228387180669497,
        0.11213935637784517,
        0.02065121553582375,
        -0.059131043346359456,
        -0.027890805530684668,
        0.07554349184948435,
        0.008292399562450939,
        -0.11293112485059575,
        -0.06240925496444138,
        0.05705492989182431,
        0.05401861901523921,
        0.03035514832553094,
        0.03096811271598243,
        -0.04916782076608387,
        0.008878836115869948,
        0.034377436652213544,
        0.00017670127669004027,
        0.1620325882622321,
        0.037013843506496016,
        -0.034962029406661196,
        -0.0628075692617693,
        -0.03872552428958376,
        -0.04576865228896465,
        -0.028160632626749987,
        0.024763001615773005,
        -0.03764304566148001,
        -0.0016804382262863259,
        0.018631186697836626,
        0.028421023123229205,
        -0.09981893715127906,
        0.005085732702295181,
        -0.030190494310240127,
        0.05143071186444155,
        -0.031751442192742556,
        -0.0964554620833333,
        -0.03425478898842209,
        0.003312978582075278,
        -0.06830900233837012,
        0.005372510133629483,
        -0.04309440267455232,
        0.10157442206347964,
        0.0650349900849021,
        0.11921089200841026,
        0.041847100264529744,
        -0.09572817871278659,
        -0.04636119753898079,
        -0.07429527452539378,
        -0.011143701541258572,
        0.06624217232662861,
        -0.05779744386325168,
        0.056756650510990894,
        0.05901203368984756,
        -0.07158107023361732,
        0.013346626192617752,
        0.03327095430324755,
        0.13727882434229854,
        0.0008571465547557375,
        0.08088351261091031,
        -0.02517392701466159,
        -0.06739115026493947,
        -0.035532338752927994,
        -0.0034284325894487905,
        0.0007737728956483739,
        -0.08095030788391924,
        0.04084148393834865,
        0.015601039548986185,
        0.041533173609507784,
        -0.012987201035263535,
        -0.059880508006798845,
        0.0961174930797497,
        -0.0018182942098684124,
        -0.02983978399715667,
        -0.016097196564247105,
        -0.031130796140342927,
        0.025022878069021835,
        -0.06001321586797986,
        -0.07253529846055251,
        -0.01185577906380051,
        0.04034021454565953,
        -0.029986118460432323,
        -0.001566504998252418,
        0.02737347837833677,
        0.043570739731665045,
        0.04178492498866263,
        0.03852811833856393,
        0.03016314083882378,
        0.011406403541058464,
        0.027775891960117073,
        -0.0078861177901491,
        -0.04502325987729209,
        -0.07721323850560004,
        0.0007543306776499857,
        -0.06345784400347539,
        -0.09588242057396425,
        -0.025961359324404448,
        0.01758647530249058,
        -0.005409100463760022,
        -0.09575465439660444,
        0.002559437111155587,
        -0.025413103465215116,
        -0.059715834597892425,
        -0.006206562569378654,
        0.032238470836375224,
        0.053765412704524465,
        -0.12217865301170885,
        0.05170558610562545,
        0.013680971311450357,
        -0.013607900252026666,
        -0.03746936195419249,
        -0.07134784500934253,
        0.0523277389584872,
        0.009797850916786414,
        -0.05679361323897423,
        -0.007275823439643912,
        -0.0901626835567764,
        0.04974833206447062,
        0.04820585560885202,
        -0.004227338954729631,
        -0.032687951590195434,
        -0.01843388688514572,
        0.049502075804184004,
        -0.03808347653067854,
        0.020643853837083365,
        0.07290692730031118,
        0.061770181585617576,
        -0.04594703917679928,
        0.03957736718417337,
        0.03720467420182894,
        -0.05254499475412803,
        -0.036089556322102846,
        -0.05666834226628407,
        -0.011477811612147129,
        -0.017046459829951042,
        -0.009124439366377392,
        -0.013676220819116139,
        -0.0019361559934821086,
        -0.08442589705170098,
        -0.029693678893128506,
        0.04288116265001666,
        0.009596799017636333,
        -0.10813026438739846,
        -0.018818576931772357,
        -0.07224269813156595,
        -0.020242618793175238,
        -0.02428541423194064,
        -0.06346553858476929,
        0.03146451302481283,
        0.031122930840383013,
        0.035336929778994705,
        -0.03352553172474747,
        -0.030891042750197054,
        0.07987936474234097,
        0.004501757182983521,
        -0.1452506752246714,
        0.028434338219244824,
        0.039001884972842044,
        0.05883814462603314,
        -0.06125630916077722,
        0.0851073385194011,
        0.037895579762647576,
        -0.0040049960926058364,
        0.012658538319707396,
        0.014681435294670132,
        -0.0909913395540817,
        -0.026473050980222117,
        0.007618433148882428,
        -0.032645593286082644,
        0.09160609633219016,
        -0.031677312801831545,
        -0.01926981237308674,
        -0.028072690466483023,
        0.037042479487910604,
        -0.06310111782654461,
        0.08040316450506321,
        0.020318580581535184,
        -0.06147255105015865,
        0.06628263474970933,
        -0.026925279664803393,
        -0.0833544557266355,
        -0.0886905562099991,
        0.02869842005902409,
        0.031988734274596996,
        0.01448567044316846,
        -0.03861167725135811,
        0.006590633671864632,
        -0.021878239785879234,
        -0.10150317571067555,
        0.06123668983337856,
        0.019403942855369293,
        0.013806961331270087,
        -0.03337889705612896,
        -0.018314203388697638,
        -0.04478625613396316,
        0.013847380995926003,
        -0.11191447967708482,
        -0.02655959858025979,
        -0.012090703196040914,
        0.003396617163681821,
        -0.0036943466646111815,
        -0.11696085164504849,
        -0.037041600465570375,
        0.004173362020670313,
        0.0037221268527399213,
        -0.008996859535951203,
        0.08268166637070357,
        -0.05566284925427633,
        -0.15025404124774255,
        0.03834752658295272,
        0.08960875316228245,
        -0.01973838272283258,
        0.022991239182600397,
        0.10673055145153887,
        0.018133566955058446,
        -0.007516147070176147,
        -0.06282012401482319,
        -0.04436385040295223,
        0.06198712511246903,
        -0.019850800062148906,
        -0.013666519525118699,
        -0.04037570509204087,
        -0.005344104538152858,
        0.07721213548567671,
        0.0015306280731932807,
        0.0015810805107274312,
        0.057458587845786696,
        -0.0691356710973961,
        -0.02603163862644693,
        0.018609134605682715,
        0.022638847054372017,
        0.042585169107946706,
        0.05365103656640746,
        -0.007838200444041928,
        0.018883812226536702,
        -0.020951210953943887,
        -0.0060495693996869115,
        0.08998446972437806,
        -0.027270293191002017,
        -0.10127942199908893,
        0.021026204113073762,
        -0.042628102056545436,
        0.012067356668666693,
        0.043407772349557096,
        -0.01692210234566726,
        0.02021080109750542,
        0.027272332817534405,
        0.008342614156178561,
        -0.057642905534804355,
        0.04984365285184733,
        0.04506068680291663,
        0.07492477313993672,
        -0.0277517539021753,
        -0.062308003362963015,
        -0.04702761350881362,
        0.0058583799383655,
        0.10703381457182737,
        -0.05216016401023486,
        -0.022855770672680707,
        -0.01744625212950701,
        0.010869749312686632,
        0.06348594573842142,
        -0.0036547222252502967,
        -0.03443705965711957,
        0.0505240560604075,
        0.0122514110792964,
        0.05420543387460322,
        -0.03884927007744223,
        -0.009430271356320415,
        -0.008649181137354061,
        -0.02858796274528329,
        0.0032166049542359243,
        0.04870726925775965,
        0.020938824013296616,
        -0.012982415892934628,
        -0.07668277518657093,
        0.12456427486827981,
        0.03983866498254219,
        0.05695944886422481,
        -0.025037236546429167,
        -0.013107227108575762,
        0.012285669366593959,
        -0.0043461302955375355,
        0.04881779454114786,
        -0.018477647947784392,
        -0.016280531117018104,
        0.04629942127352029,
        -0.038196866551635955,
        0.0270263340686953,
        0.009366160126384991,
        0.02638483594960713,
        -0.03767351982698775,
        -0.07470161245874843,
        0.03592329838502774,
        0.01005780912330778,
        0.03501295874723562,
        -0.07264033093982185,
        -0.062455047434996046,
        -0.06036541691330488,
        -0.05986501002301043,
        -0.0815093896715048,
        0.0521122257325316,
        0.03918805541091595,
        0.0194624210194064,
        -0.04118210924382841,
        -0.05490257652486629,
        0.03677374885229562,
        0.033349574989732365,
        -0.0693367021047108,
        0.0015917542107266834,
        0.0031913642222635326,
        0.02516756155405704,
        0.07154387400394381,
        -0.010649130848895419,
        -0.022816757668147853,
        0.038798594373547685,
        0.05848488200061274,
        -0.0377906359086297,
        -0.024595949254542383,
        -0.006242707525257629,
        -0.003071576640926936,
        0.024867707944083134,
        -0.03324419596828893,
        -0.06537030937279198,
        0.06999491758126307,
        0.018132331295472946,
        -0.05311105194514722,
        -0.042537340098918186,
        -0.11423773480880521,
        0.0053174759745078445,
        -0.060359746933796365,
        0.03745188000044347,
        0.04719180470404044,
        -0.043293035793104395,
        0.04593490689127311,
        -0.02306773761920617,
        -0.012952057815063672,
        0.095326856245084,
        -0.1343950484605227,
        0.023929882376976103,
        0.07414854959453006,
        -0.014064414262889513,
        -0.005458817873241831,
        0.07609870301921236,
        0.05457235873743294,
        0.08732528178603532,
        -0.0069397160239235735,
        0.04412612284920808,
        0.03482172500666997,
        0.01774154040088935,
        -0.018386374790854493,
        -0.036786238745756594,
        -0.0401163161668347,
        0.016811820806165084,
        0.02902648835106479,
        -0.0006622441184507832,
        0.03828749501689703,
        0.10612718902367305,
        0.07544222620855384,
        0.04187409258446652,
        0.0046248334000946745,
        -0.0743567343311334,
        -0.012319830460154125,
        -0.029120786729206167,
        -0.06024244179436837,
        0.019173800500477317,
        0.053901434813696615,
        0.07447730563762478,
        0.008187564192015512,
        0.050275683537850474,
        0.06645341521934715,
        -0.024071607411035912,
        -0.008773279957895896,
        -0.06247036354813604,
        -0.029343062499562637,
        0.02924338129992654,
        -0.06175305799171693,
        -0.029663334156306242,
        0.055620877829953855,
        -0.018565913270189506,
        -0.08132904815481536,
        0.06422295843250586,
        -0.009738790465528877,
        -0.11677768646591583,
        -0.028851142297173,
        0.058908461229182245,
        -0.05242128449329393,
        -0.035168044840844306,
        -0.014279039287437817,
        0.08226085545727968,
        -0.043492848298214065,
        -0.10201258063607035,
        0.005623066719802556,
        -0.0040722571358010416,
        0.09921010748764643,
        0.001533459227397664,
        0.11841641565323348,
        -0.0628773946284172,
        -0.07267446216707835,
        -0.014049312600736344,
        0.05948158285224689,
        0.04951708212508226,
        -0.10182072158794464,
        0.05856906486377161,
        0.021365488959268777,
        -0.014363908082061387,
        -0.04018131812392524,
        0.050570600497892304,
        -0.03578342986857734,
        0.004044896836377721,
        -0.1270745508135879,
        -0.045195090436142796,
        -0.006876559645414428,
        0.02856271328617525,
        -0.027923981329109695,
        0.05512549722152497,
        -0.15654520014132395,
        0.0212700997887281,
        0.027654431972788752,
        0.02309554938927958,
        -0.03108548097108871,
        -0.002553879297818973,
        -0.05986624737133324,
        0.008653721278393395,
        0.024948789456090872,
        0.07046606524860402,
        -0.03374779436126142,
        0.0015535605807707048,
        0.08651306196118523,
        0.014605684917199522,
        0.014053908259967007,
        0.027972053013826582,
        -0.04961368294841605,
        0.053668923595594095,
        -0.03448598995198956,
        -0.05597190079827452,
        0.04390502478509531,
        -0.01448409338334552,
        0.0760284968818875,
        0.01922883924466838,
        -0.03488299927527087,
        0.061060278534127696,
        -0.05923655634405846,
        0.021842557810514904,
        0.1342082531535152,
        0.0736412032280291,
        0.03366136204486941,
        -0.035609606489188914,
        0.057770430305847185,
        0.009243757262461405,
        -0.006322761533666368,
        0.04508933035533469,
        0.014705142769045706,
        0.06631401166077136,
        -0.037679685662425265,
        -0.04957342406115113,
        -0.04505126236730379,
        0.01113238038132068,
        -0.029842407039386454,
        0.025279114219787565,
        -0.041515971098165516,
        -0.038608190662617226,
        0.04738132355172336,
        -0.08153555830811297,
        -0.034743486217732766,
        -0.0015878057722915478,
        -0.0018975422835023157,
        0.05365033707257575,
        -0.008520285382281043,
        -0.03376309740125207,
        -0.053131527238563216,
        -0.110606313406288,
        0.03655457823646898,
        -0.0700718806567088,
        -0.019273754252681984,
        0.03843673852452015,
        0.03611046966413076,
        -0.03518378923884445,
        0.013437532171048393,
        0.003024442847895728,
        0.08249518881461002,
        -0.020762096178481043,
        0.04910850800046611,
        0.0721666087595213,
        -0.026876946428473145,
        -0.05440287062404113,
        -0.0012582819608542087,
        -0.07331820502180073,
        -0.12907438716888064,
        0.005387793730322998,
        -0.022060561110756237,
        0.02314676066844063,
        0.0909198513686622,
        0.0855329964574667,
        -0.08675169767613565,
        -0.041342043076781534,
        0.021258060907444372,
        0.014157411054548541,
        0.059281382673274874,
        -0.016135304287740734,
        0.00950107232452315,
        -0.03975482909591061,
        0.037982709422322396,
        -0.037238372442971526,
        -0.003924446439930826,
        0.0697364326335542,
        0.010946511538239573,
        -0.13266378822299896,
        -0.015031412026698674,
        0.02271822935204668,
        0.06947292527289249,
        -0.05718940238158812,
        -0.0533179294441739,
        -0.05454344228678614,
        -0.03675668346906196,
        -0.006651648503151676,
        0.06427949857304927,
        -0.008520133394142,
        -0.12031763786150468,
        0.05453685538519894,
        0.045592836001757314,
        0.02934082281031538,
        -0.010587233311624325,
        -0.010473071632640742,
        0.03071236338147168,
        -0.012505610970683244,
        0.018431907377700993,
        -0.09976651999702586,
        0.015429702608225567,
        0.06706861294472372,
        0.08582006697117714,
        0.043635381863499766,
        0.005407599635841821,
        0.001655956152299444,
        -0.029835362956546582,
        -0.024734085218749917,
        -0.061302019679031136,
        0.07754867524355472,
        0.09602302465164728,
        -0.009124571931524855,
        -0.00832655990045388,
        -0.050413557659212925,
        -0.054920118971256544,
        0.03800608848356235,
        0.03558830754910518,
        0.0131902405877257,
        0.011417084964583836,
        -0.0467625726123581,
        -0.08527677481285807,
        0.03256157121389414,
        -0.015228982253788145,
        0.00891309664629614,
        0.10661430381085267,
        0.06019243598358935,
        -0.08850174594109142,
        -0.0330515742329235,
        -0.012502205914693785,
        0.027049704228888395,
        0.03506897799250376,
        0.10848236965261399,
        -0.0535064247277743,
        0.046134386418637374,
        -0.02170330485497793,
        0.10303169089072986,
        0.0684692541006365,
        -0.0001601573398068313,
        -0.0013908368158266071,
        0.1047480150735143,
        -0.04389194782549535,
        0.04616807996072459,
        -0.0019591379541937966,
        -0.09043000884713015,
        -0.044035107976450306,
        -0.0022017027564866414,
        0.04695487824142328,
        0.017420650560099168,
        -0.0834560822010279,
        -0.04135689759659105,
        0.03125803816650275,
        0.02466761196763622,
        0.003432643015580423,
        0.01891054934222474,
        0.021597646388518535,
        -0.06645128486414298,
        -0.04093760683727923,
        -0.0870093564095191,
        -0.0012449103219055076,
        -0.003571188703831392,
        -0.05611917194324649,
        -0.028968310109978804,
        0.07510114449535951,
        0.015306716612976105,
        -0.04462442201326786,
        -0.0006624832808942139,
        0.0634141501572305,
        -0.0761881782813765,
        0.016728366534726317,
        0.004650659705887367,
        -0.02873874411281212,
        0.015730322719447867,
        0.004626134552581691,
        0.08700588835077244,
        0.03069430248482738,
        0.03293828627606403,
        -0.08420364378526722,
        0.024437278246728582,
        -0.0321444626291087,
        -0.029363748873628928,
        0.013730889181760585,
        0.07731931040047985,
        0.04233067400843164,
        0.06448733944264456,
        0.09239378992798852,
        -0.049190990323268846,
        0.005721006480623597,
        0.013481196900123456,
        -0.09228131951388584,
        -0.027480214250693892,
        -0.011724497188735378,
        0.006187474870837052,
        0.04637483298431391,
        -0.0031422988801224636,
        0.01127460677627435,
        -0.06638508258763628,
        -0.13396681391279522,
        0.01577433345912095,
        0.06799425430325194,
        -0.006362104734199479,
        0.026334992176302592,
        -0.07763151982582031,
        0.032548184274796325,
        0.07020212885194274,
        0.0347075881616394,
        -0.00590441755238923,
        -0.05049944850146798,
        -0.009322867475578402,
        0.03905660256942045,
        0.1367339117617094,
        0.023969347439626504,
        0.0763996846719869,
        -0.043714755006829475,
        -0.02727019697380715,
        0.008148870189964803,
        -0.0002981435767002785,
        0.03860454769398717,
        -0.009513523167318481,
        0.04270162556967645,
        -0.07292664295413266,
        0.030018432914410496,
        0.05098128271200949,
        0.022536954018842547,
        -0.04418903065343212,
        -0.007367835833768069,
        -0.01982948164142392,
        -0.051015153456930085,
        0.032347097204049914,
        -0.03212230552156998,
        -0.029667827191321845,
        -0.06058018666465946,
        0.051207416334736564,
        -0.07423156350665483,
        0.06388747225236142,
        -0.030810225717242685,
        0.011902017463544185,
        -0.010693079385569335,
        0.04860450475369715,
        -0.06297665604997683,
        -0.019503789402434992,
        -0.02251114980875788,
        0.02853958284779647,
        0.010192283996333755,
        0.011191859793410835,
        -0.015838437313875083,
        0.020199124743243257,
        -0.0778934006429594,
        -0.061384784697283694,
        -0.005934049062046549,
        -0.004713750080999904,
        -0.041193277486317334,
        -0.00265559986430957,
        -0.03425890473277911,
        0.007954727061095972,
        0.06301448627369946,
        0.03927019744760238,
        0.005215110947450002,
        0.07844405558318417,
        -0.0067828828867596835,
        -0.049852191674099884,
        0.02578052543156866,
        -0.00564106977031706,
        0.022713964792507726,
        -0.00666685121542382,
        0.008141428954829255,
        0.07488242100414334,
        -0.019050927543867946,
        -0.08681175717343939,
        -0.0017127732488477973,
        0.02520708870827852,
        -0.08201820250360876,
        -0.0815933314405751,
        0.01914705885863846,
        -0.010615274782867057,
        0.07794002374739462,
        0.007264043562589887,
        0.030368300971930412,
        0.039641186127301074,
        0.010779295555024972,
        0.013398867417653823,
        -0.014890049044547105,
        -0.10791627528431509,
        -0.04576352126614816,
        0.06785364022692478,
        -0.006053170647465175,
        -0.06389411991726895,
        -0.0018594450729291908,
        -0.04711666943556647,
        0.02896493100939347,
        0.05092319382149568,
        -0.05983045584035109,
        -0.025987371533742358,
        0.04879644045868377,
        0.05145151745999158,
        -0.1093259076496569,
        0.02616865849480878,
        0.04804483116399186,
        0.09104104073499286,
        0.09064423324926875,
        -0.006211742742141781,
        0.07491347790234715,
        -0.005262900307159249,
        -0.07123803135814633,
        0.039822849838134125,
        -0.021216449702748018,
        0.022978208169593638,
        0.06656622468644487,
        0.018647788605085244,
        -0.06396627467827787,
        0.006572358241494884,
        0.03841872050590142,
        -0.05640559035161119,
        -0.04628736046518354,
        0.04335507814356751,
        0.01660774532330266,
        0.042324582244710265,
        -0.01030455157970286,
        0.014623786018457268,
        0.012524010264493127,
        0.06746172002008365,
        0.08614638253658993,
        -0.15385500971395458,
        0.021129880753475633,
        0.004235055867807317,
        -0.043331444753188536,
        0.09815465472611584,
        -0.04462461628220703,
        0.07490236568261442,
        0.06799535369723064,
        -0.01714902235683342,
        -0.03733769020922312,
        -0.008492760869212907,
        -0.09240419133155744,
        0.06526384774973745,
        -0.005224033074613602,
        -0.03480943766177566,
        0.02777097011985303,
        -0.03828577342797464,
        -0.07266466292036232,
        -0.06388872641238846,
        -0.05907819299561126,
        -0.20226245851241947,
        -0.09695020941263849,
        0.06056157545635288,
        -0.02156355451409546,
        -0.03831639687841127,
        -0.002330345666834731,
        0.08284618579319139,
        0.04258767382678747,
        0.05393846641791045,
        -0.0767514669243168,
        0.13463045445851135,
        -0.026711276795036827,
        -0.10448029930300866,
        -0.04112869535771556,
        0.0026443628138554283,
        -0.06494876574274308,
        0.11038671514031352,
        0.02883678779108534,
        0.0744754900098614,
        -0.07963211770155706,
        -9.934532977352471e-05,
        0.07504176772284324,
        -0.023123391297177942,
        0.06790600112037076,
        -0.012557452099708932,
        -0.015221868700665084,
        -0.028363269153735673,
        0.04453938196228268,
        -0.036513472014611345,
        0.03534368666741505,
        0.03272790586839927,
        -0.011798481666102572,
        0.05958176372048582,
        -0.05007945365783052,
        -0.0743524465888109,
        -0.05917262318262935,
        0.045957158720000925,
        -0.030808263260071612,
        0.13281069725802408,
        0.005313119806221973,
        0.051379934724864226,
        0.024889537571689907,
        0.027200468734307044,
        0.02450820253526188,
        0.0020059531678299457,
        -0.07271704211142432,
        -0.09601805462895259,
        -0.004733167762878599,
        0.018533225942234704,
        0.05199501546690194,
        -0.10525122102261969,
        -0.03715707655371831,
        0.027362033924755884,
        -0.015321494112301243,
        0.05441928385085938,
        0.03903668614929696,
        0.07181523465014447,
        -0.03941660655181474,
        -0.13265248877932323,
        -0.013165097852656987,
        0.02564840187058174,
        -0.06893456888974274,
        -0.016853927331749043,
        -0.04247990265242424,
        -0.021209101746664745,
        0.018945250741998054,
        -0.06199256811029687,
        0.01760939000587181,
        -0.05127893733861323,
        -0.08389062209530637,
        0.003571960985026129,
        -0.05127348681001839,
        -0.021142577584335815,
        -0.04654166923251203,
        -0.008564157329738496,
        0.022134421872180756,
        -0.028497501077913753,
        0.020221837106650847,
        0.03288489260903732,
        -0.05118817675566288,
        -0.08389259595134707,
        -0.02442923423021033,
        -0.0640065719452457,
        0.003121429688190916,
        0.015076879545147283,
        -0.03117440808970484,
        -0.03022264205217202,
        0.03632006432599971,
        -0.05069340283559991,
        0.004324977153595318,
        -0.005975853604735373,
        -0.018983331110612296,
        -0.0007403349378278662,
        0.07725497253607087,
        -0.0025237398733410424,
        -0.04874669711586389,
        0.03010912509855537,
        -0.05129998989922012,
        -0.05745630692400538,
        -0.0764766967517109,
        0.10687567296352314,
        0.0482014308195525,
        0.009735531189825713,
        0.036648370849400244,
        -0.007643158869711,
        -0.06744299706598207,
        -0.030550120362687762,
        0.029017020915490986,
        -0.035334105494807054,
        0.01783603654588874,
        0.0193486109447374,
        -0.04489628718380388,
        0.009236979476357718,
        -0.027783176547821607,
        0.05395921829422686,
        0.029117398782626758,
        0.04124674759318868,
        -0.03373712809641447,
        0.059494267426042385,
        0.05728371387761881,
        0.017361296094788994,
        0.05010944950243118,
        -0.03956812117183522,
        -0.02686234691567115,
        -0.046903033741998335,
        0.006600225483875826,
        -0.0598089718470601,
        -0.08216691474064373,
        -0.039340889625305374,
        0.02909970024315909,
        -0.02017955388172662,
        -0.045493805710293045,
        -0.03925916029835266,
        -0.011958608901710088,
        0.0030078725882302787,
        0.0006143765464937806,
        0.027800439787119102,
        0.024269985945139037,
        0.02572620194846857,
        -0.0036557735896904364,
        -0.0027628995396078403,
        -0.028939855370711788,
        -0.006609911605519703,
        0.026468901348035687,
        0.01333891208466695,
        -0.059104339536943426,
        -0.07317302607709911,
        -0.010471765959341777,
        0.0436107114456665,
        0.009053797716818052,
        0.030824075432132246,
        -0.02821787581375015,
        0.03995989354986503,
        -0.04736191437714022,
        0.06347241411993101,
        0.016507864118203305,
        -0.026055807616761725,
        -0.027593106871739572,
        -0.118162331629518,
        -0.01636146243519991,
        -0.04460787622502774,
        -0.056121136865940384,
        0.02259587194724858,
        0.039827972428424875,
        0.008828910902759661,
        -0.012983094702679089,
        0.07915328333336005,
        -0.041927807404184475,
        -0.02744105709902256,
        0.031196602778356453,
        0.0605988165704988,
        0.019424454096993712,
        0.014394143144381383,
        -0.01919972560269116,
        -0.04078119642225253,
        -0.0782120240385791,
        0.009704968234495813,
        -0.01927148787695629,
        0.0014630158041673592,
        -0.02967501336591581,
        0.009886966877234369,
        -0.00803955084578749,
        0.030431968499155665,
        0.049826898753762755,
        0.0904730772843704,
        0.012993321281250806,
        0.062092125290808306,
        -0.031631150547715925,
        -0.0753221747206267,
        -0.023129222235048617,
        -0.08348691791840136,
        0.04311580515905731,
        0.048994823926085854,
        0.016784605089210668,
        -0.03094330538003153,
        -0.07215433341815401,
        0.0059907317307490784,
        -0.04175002483272426,
        0.02554607016720753,
        -0.0019112109444762628,
        -0.018824495943280242,
        0.053794856103901126,
        -0.05022460438513869,
        0.01114193805468832,
        0.03673351134843987,
        0.025275183763530763,
        0.11908232966490724,
        -0.052470026554498464,
        -0.030533316851266312,
        0.03926632410060098,
        0.11466690085350062,
        -0.060107619570541886,
        0.06386353006213522,
        0.017955535252041317,
        0.004952430269390223,
        0.06984610270316384,
        0.014978087982786936,
        -0.004111072895471266,
        0.11140988766528445,
        0.06173643307209427,
        0.016534032089358795,
        -0.10873548549030213,
        0.10211639421575287,
        -0.034171458467796414,
        0.012562379623558915,
        0.08917075774800748,
        0.04060494689665531,
        0.07785033841428843,
        0.1245606216556171,
        0.05529825913312498,
        -0.05147195768620354,
        -0.04974933067997016,
        0.0118426789630575,
        -0.008004368385651134,
        -0.028743686168365045,
        0.08736706259982505,
        0.03632483096737902,
        -0.0594251322520077,
        0.13112126819611564,
        -0.12195307382635572,
        0.021227870705772436,
        0.09614526521080154,
        -0.022531581085724416,
        -0.08283782441410983,
        -0.04657901697976201,
        0.08611746601182367,
        0.0031086293291267067,
        -0.04755816106443615,
        -0.07104942989933018,
        0.088047938765204,
        -0.020572823272172615,
        -0.021119260956740275,
        -0.034305785175394954,
        -0.014366810115645768,
        -0.05057992256005683,
        0.055542399885463216,
        0.009305558467021649,
        0.01492146808607272,
        0.0029211291732801612,
        0.05551489303190045,
        -0.002145033912833738,
        0.011481868685852024,
        -0.0603902877885279,
        -0.05641065928493076,
        -0.00927811569131997,
        0.01471500201520836,
        -0.02109398124725985,
        0.10137054366976858,
        0.07727812243524687,
        -0.019165087647369135,
        0.012452111742882712,
        -0.008322459818934626,
        -0.0038623407059992293,
        -0.04939146997413692,
        0.02005766174058996,
        0.04949965330356158,
        -0.025896827064837216,
        -0.02848806798776898,
        -0.04390861080014047,
        0.1803347898148447,
        -0.09795221898787862,
        -0.02739951743084719,
        0.07048199357631277,
        -0.029072398063531887,
        -0.02304386793656649,
        0.0003259337857371043,
        -0.09271345578245105,
        0.021028657392248053,
        -0.028779689996979368,
        -0.033969496289072025,
        0.026481027084358535,
        0.056650742287971054,
        -0.05636403217175942,
        0.10057386876699329,
        -0.01896602367255624,
        -0.06444209504848117,
        0.04213235571408228,
        -0.01384770273959697,
        0.019259457435761306,
        0.06624147393230198,
        0.015706958502581702,
        0.044204542838363274,
        0.03196846977484851,
        -0.1076999144510114,
        0.05624676061989738,
        -0.017804252617787324,
        -0.013989084426288776,
        -0.01587775225094068,
        -0.029537993606860217,
        -0.013602301780322155,
        0.01996825224788615,
        0.08133124444385816,
        -0.008087061508395225,
        -0.028683319948382642,
        0.010257943408082315,
        -0.024453134552501976,
        -0.017034778377956486,
        -0.004502049755372893,
        -0.1082303989786711,
        0.05184705066185961,
        0.007259990343506332,
        0.0010814921093419043,
        -0.02805378895352385,
        -0.1290735000489138,
        0.027169436954451273,
        0.045048400401071866,
        0.02090762314346916,
        -0.008742796853194778,
        0.03693837803525884,
        -0.096954638502765,
        0.027617619153873858,
        -0.0616294207433908,
        0.036102462697729445,
        0.006155620980793589,
        -0.08226918947849934,
        0.04602198090099687,
        -0.08438999491584064,
        -0.06503050729159345,
        0.015235345701092251,
        0.0265792974346697,
        0.04273976518685943,
        0.008797758537720045,
        0.14718650927711516,
        0.05801831990385696,
        0.029471560166699044,
        0.018116177490747214,
        0.0063594737182016345,
        -0.04606316712967114,
        -0.027067137246480043,
        -0.007354567869402216,
        0.04875459418852693,
        0.043509748659225383,
        0.04519248654095105,
        0.01923310524008569,
        0.008866203851498456,
        -0.004965229240917912,
        -0.024503504609210445,
        -0.056487169184054796,
        -0.006685970007084147,
        0.004258166002360071,
        0.020014552142214603,
        -0.057261207626427696,
        -0.07728107929232042,
        0.057759872812259826,
        -0.048084487129404725,
        0.03920006875500548,
        0.09515090541537968,
        0.05260612541594245,
        0.027149200014356018,
        0.0832704550427937,
        -0.028402006608958804,
        -0.0022605849592887903,
        -0.06797218477730158,
        0.03868842629739729,
        -0.024074351387591904,
        -0.047295736704815815,
        -0.053743472358787424,
        -0.07260245041349798,
        0.05935406686393892,
        0.056565137935708915,
        -0.027388363673282016,
        -0.012546696773749332,
        0.10637031588022582,
        0.019155691072087963,
        -0.050527541168349586,
        -0.016400144897548857,
        0.037727456032763715,
        0.038593793140545514,
        0.07457372346489276,
        -0.0483869593580546,
        -0.06935160869784696,
        -0.07829099499902518,
        -0.049693023502190785,
        -0.030326669741621067,
        0.018901431071552524,
        0.0049133052689755985,
        0.04023392875519951,
        -0.051031664829081794,
        -0.07140760715094842,
        0.07896675928223847,
        -0.053212850121385685,
        -0.03568981472365462,
        -0.017824296771738194,
        0.025728882789444983,
        0.09364658515142243,
        -0.15365773074704844,
        0.09717052807849028,
        -0.076846101222513,
        0.0066928565932603875,
        -0.01881839820085899,
        -0.02026786393543695,
        0.006829041687022787,
        -0.013126004269584194,
        -0.04360986463286934,
        -0.0026310489434379454,
        -0.007689687138009875,
        -0.00021860012506242157,
        0.027771717874523007,
