{
  "weights_summary": [
    {
      "layer": "kernel",
      "mean": -0.002169718697479491,
      "shape": [
        7,
        96
      ],
      "std_dev": 0.06531652019167114,
      "values": [
        -0.07769562685367348,
        0.006629177918364784,
        0.01630058772839101,
        -0.043483289449963367,
        0.017420695492414547,
        0.013622786762626724,
        0.03757044284898048,
        -0.013056377604381355,
        -0.037709121442427246,
        0.012587415486419722,
        0.010031144910885692,
        0.032664897642242244,
        0.0608536588908576,
        0.002274571960746015,
        0.048528781769018314,
        0.005786312316775695,
        0.0027631186405292496,
        0.011216345155787013,
        0.007038965475608314,
        -0.09615596718983897,
        0.0013758252744998823,
        -0.1281383619570442,
        0.022939540038552374,
        0.06291817758792878,
        -6.197691877606423e-05,
        0.02255506581438408,
        0.0020470328002452315,
        0.02317735329004411,
        0.03550615313255921,
        -0.004478389502922008,
        0.0858448448271731,
        -0.00769696181417813,
        -0.00861447851060856,
        0.06614998764389918,
        -0.008195685862760886,
        0.018571048120017593,
        0.046588308794685104,
        0.021017014533136584,
        -0.02829412673030305,
        -0.01168175532523182,
        0.0001316635933194531,
        0.06302166732408596,
        0.15086581541197636,
        -0.03659625762456692,
        0.026455543836093855,
        -0.01858932642793903,
        0.005579438871883836,
        0.05993256598615947,
        0.04635576493709102,
        0.038596661010813244,
        0.026840949833712408,
        -0.01045428040867196,
        -0.06903793497155512,
        0.13949795779793067,
        0.0416466717350735,
        -0.002035352192780203,
        -0.11430045028619501,
        -0.03863529414704433,
        -0.002491735678071175,
        0.03753069979563661,
        -0.022263648797048684,
        -0.017034880079740973,
        0.0077755144298289145,
        -0.006127464765898347,
        -0.054434970138400776,
        0.017617117418137682,
        -0.04079963535628546,
        0.03445889247791538,
        -0.07325489084662336,
        0.1274424403172404,
        0.07544026695791022,
        0.04215016073456605,
        0.09835264214472966,
        0.044222327591225144,
        -0.019913948715256653,
        -0.005190785387975961,
        0.03026505622692755,
        0.03837725505261996,
        0.10586957923251084,
        0.13343885661441535,
        -0.012963236511864169,
        0.019463897349944498,
        -0.11746350443835707,
        -0.061004330910201604,
        0.16238559213217385,
        -0.06135540488629125,
        -0.12908444505506123,
        0.0313756046172634,
        0.03764816923345096,
        0.034117651965337184,
        0.0990574280783873,
        -0.1388211464795073,
        -0.12328733729592442,
        -0.03704890420672407,
        -0.0047992711750903016,
        0.01272947248055564,
        -0.008545296175419985,
        -0.009560537063893471,
        -0.06232298399678309,
        0.04700521008198864,
        0.024575293822484506,
        -0.0005871792663495004,
        -0.0019033342898114435,
        -0.022973704522387308,
        0.0007527782555802328,
        0.09966319700156095,
        -0.0719653115772442,
        -0.01194285336153944,
        0.03810402406712436,
        0.03151022581651923,
        0.025487525742944998,
        0.02551274531577595,
        0.07151193033167194,
        -0.03569566121800026,
        -0.045256060349073396,
        -0.016371630827505756,
        -0.04619597126649137,
        0.0678078865632148,
        0.016108292920862192,
        0.027443458464656068,
        -0.01539413608581854,
        -0.07686011993105482,
        -0.020005886296835078,
        0.10142619866242344,
        0.03170975065207063,
        -0.04768704288653919,
        0.00709215928426206,
        0.047680030500844545,
        -0.00211783111598064,
        -0.005810396857812221,
        0.02938246020139869,
        0.04074159199834519,
        -0.011486161147204962,
        -0.05208737438439815,
        0.03830383376882568,
        -0.00024968147120341095,
        0.04149923203384917,
        0.0468503503030091,
        -0.0298958735839933,
        0.0007573781435505118,
        0.01555081843622774,
        -0.005369265548985009,
        0.08303854986679321,
        0.023158850528464104,
        0.00763169165688573,
        -0.03972454529937275,
        0.022845607318459048,
        -0.0029385068348621694,
        0.0006975283086224054,
        -0.09399901540817597,
        0.022834754707014557,
        -0.007513842241920483,
        -0.044797125390212036,
        -0.045757044620413787,
        0.01111968864193496,
        0.03281322485928558,
        0.0019875703471058446,
        0.004108356484709174,
        0.007675487587696635,
        -0.00214493199065296,
        -0.17201726826093117,
        0.04656298282138812,
        0.06532699009012835,
        0.13942919233090922,
        -0.04899426778833947,
        0.1732536202062232,
        0.020051124479137407,
        -0.11056514064071982,
        0.10664077346302156,
        -0.08491013644133433,
        0.12802833401270938,
        -0.02699183858998426,
        -0.15537372847777725,
        -0.04066621862858471,
        0.07817232387162808,
        -0.08978088320402632,
        -0.09202004069114972,
        0.07931989109861978,
        -0.0038298416949949323,
        -0.10738163011660116,
        0.04839269634618942,
        -0.043791159194792637,
        -0.0801149613222222,
        -0.1515988015044297,
        -0.018562602258144628,
        -0.003662258446824148,
        -0.08090708215445744,
        0.05195195647329681,
        0.007961139438834216,
        0.03698592535768275,
        0.018451206915218895,
        -0.059281005516733355,
        -0.014413069493177697,
        0.024981721450830538,
        0.034266911604794774,
        0.047996268031116174,
        -0.011121029213228273,
        0.00836402322355275,
        0.06404842448057783,
        0.014968755194693822,
        -0.000991827157284388,
        0.04569046656669716,
        0.0848007300861051,
        0.0542453145231829,
        -0.15814116906421766,
        0.004456412772967244,
        0.02636570882992801,
        0.018745577817039415,
        -0.0282129248558272,
        -0.0926552028374743,
        -0.058166310742031796,
        0.06862306217569697,
        0.015600925893141535,
        0.13323927945228492,
        -0.028894440192992848,
        0.010056679790400602,
        0.056288085024978216,
        0.017738262550703113,
        0.0012075894157273508,
        -0.08528588893498032,
        -0.1467417916482538,
        -0.011386153557574268,
        0.009383146159674888,
        -0.06240071775030024,
        0.03216594966213761,
        -0.028797253580284586,
        -0.04738802744456245,
        0.03811759612727046,
        -0.014740271701430264,
        -0.08980830634740132,
        0.0019627900161270423,
        0.041645017263982224,
        0.008757430696841853,
        -0.0018732647312651178,
        0.03655633666821527,
        -0.07366951550166498,
        -0.02457802949231727,
        -0.007970531794593722,
        -0.021183196580525327,
        -0.009879036472790108,
        -0.09446682256269605,
        -0.00849711483081744,
        0.012773247928433842,
        -0.022272746119197696,
        -0.005085725469262245,
        0.03793918366200369,
        -0.013537368049892036,
        -0.0024120629629427355,
        -0.06241993722731196,
        0.012522924502009498,
        0.0026417983653541453,
        0.02430599394979993,
        -0.008644899015657775,
        -0.02505408259504317,
        -0.002228023879793404,
        -0.001109047959169551,
        -0.0077076259105181445,
        0.017031906238985567,
        0.11659126765651369,
        -0.1091639622208985,
        -0.10959955648266159,
        0.13990703795793008,
        -0.14093739239551287,
        -0.05454591132298103,
        -0.06533484365295825,
        -0.031140970692576576,
        0.14951943040702353,
        -0.0021950006076027996,
        -0.02149528124074354,
        0.11585146586187897,
        -0.03175333811591118,
        0.0679834792243925,
        0.15830109511659934,
        -0.06115369385564474,
        -0.028922045017609994,
        0.01738107770752311,
        -0.042843014091924564,
        -0.13727052144193994,
        -0.01979828864243984,
        -0.010837253167060799,
        -0.0063013324633149695,
        -0.08915588709803418,
        0.11306546836611645,
        0.08598628123773833,
        -0.11456864584959754,
        -0.09935248580387558,
        -0.09031465712472764,
        -0.1780493807836278,
        -0.02111205688780237,
        0.004129734107300524,
        -0.023967372032035805,
        -0.03032322191320498,
        0.0190387528781646,
        -0.05107287470410609,
        0.06081890518124859,
        -0.03019327582571319,
        0.001183484695191539,
        0.008636710138889246,
        -0.07019697819697705,
        0.003592558468268994,
        0.029492061324548777,
        0.01131634778558289,
        -0.024696850640081938,
        -0.0025484038756056057,
        0.042633684335425616,
        0.009120557321310882,
        -0.044342623875525386,
        -0.007017206244461847,
        0.04417645192259351,
        -0.01503093886951919,
        0.03571929059621452,
        0.0098041375304515,
        0.03355328065141515,
        -0.007672868243392693,
        -0.06175601218132045,
        0.0004461968175968235,
        0.008606841031752596,
        -0.06016232079575898,
        0.02686703797586918,
        0.05048060051645091,
        -0.0035519199727233677,
        0.017230181979352492,
        0.04354397722597768,
        -0.031151438839546103,
        0.04445984668425857,
        -0.05332374761198755,
        0.09145156113347391,
        0.13285150215841157,
        -0.02233161599318966,
        0.026473325642951455,
        0.13869340776401734,
        -0.030896879175187738,
        0.03548362316981368,
        0.015511311839594704,
        0.00431917594216074,
        -0.028764126356296226,
        0.03608944380809948,
        0.042961508006907234,
        0.04896648364175439,
        -0.022601993814235225,
        0.006488442401940325,
        0.029322420792513897,
        0.013651739557403248,
        -0.007518197306095973,
        0.04997039387383783,
        0.016917619327539914,
        -0.0014830016664708328,
        0.029766425723667656,
        0.004774886173549068,
        0.05823744924634481,
        0.007106621313054026,
        -0.030434725659504218,
        -0.04671818611131901,
        0.027708987908808456,
        0.002157384284161754,
        0.14418434888919238,
        0.18384601034013998,
        -0.08804146771958656,
        0.10414775844977936,
        0.04802701402080281,
        0.008971988069514752,
        0.060260771369116325,
        -0.017256703950703126,
        -0.0615671311778542,
        0.00904892758334854,
        -0.07984402354259246,
        0.009908180684861942,
        -0.17782596330438727,
        -0.10156003954000606,
        0.19150317179479054,
        0.005389891127079719,
        -0.20877789720963982,
        -0.039853549406401026,
        -0.13780428593980254,
        -0.06218790752653508,
        -0.004486700840276487,
        -0.013655573324456511,
        0.04336992769642456,
        -0.13981593569319378,
        0.008746163539919732,
        -0.07077062709728404,
        -0.05801066782912905,
        0.03415014939944985,
        0.053765219748843955,
        0.05315565608228457,
        0.013866190576030786,
        -0.08184139068331367,
        0.014511807039053528,
        -0.010255964968962973,
        -0.03642608805414016,
        -0.008538758776287314,
        -0.028103563553836152,
        0.01949850890289535,
        -0.017034655791195272,
        -0.05547093061556728,
        -0.06148450575714384,
        0.050625476803986894,
        0.0005753534767210765,
        -0.010861855464787159,
        0.005148233333208608,
        0.02472707193309865,
        -0.03053648546353176,
        0.020539488488828115,
        -0.042260732910503425,
        -0.007862556791528131,
        0.022026596646403968,
        0.026783752888875273,
        0.01398872879953214,
        0.029334628058922937,
        -0.013602626928750465,
        -0.029388200882578926,
        -0.022248462283104804,
        -0.011025471979035573,
        0.0008918123382411613,
        -0.05306556820760861,
        -0.031027850742072167,
        0.01776722700596582,
        -0.08215454471477972,
        -0.01519512549789797,
        0.046404823623441234,
        -0.000840348031924654,
        0.05949533530312752,
        -0.0026382454600234794,
        0.043965727579774,
        0.011420703507503502,
        -0.0172850908226373,
        -0.07330527988000587,
        -0.014193038314583283,
        0.019962058513721806,
        -0.0031879650258720225,
        -0.0033896985914239636,
        -0.0165730658231552,
        0.06209169246527793,
        0.06751581906876913,
        0.03928601926765374,
        0.010516559639488311,
        0.01005398469836426,
        -0.15858648743169998,
        0.030487169258174913,
        -0.004179777012980239,
        0.03392033205146873,
        -0.06854514521568797,
        0.06386672763592437,
        0.022321115986884073,
        0.09437271658450491,
        0.11568582308257555,
        0.010659109222907541,
        0.031478622614752,
        0.11533033439091257,
        -0.06493472372205124,
        -0.17352541793664533,
        -0.02153735114828287,
        -0.04961784763957472,
        0.12727729309802926,
        -0.05625855975050627,
        0.016033785627262136,
        -0.08478580358250737,
        -0.011611055133926105,
        0.06905539597979543,
        -0.016583411847638792,
        0.12859084780080154,
        -0.023246208480120614,
        -0.055631038257306226,
        -0.055115244395921,
        -0.13194515769574583,
        0.13729950648404893,
        0.1299871499961424,
        0.19091669989744942,
        0.03351954385551812,
        -0.04408500104294748,
        0.049069016525957285,
        -0.18168367505631827,
        0.004293694934120799,
        -0.07892489911686762,
        -0.13118160308647495,
        -0.15473169714841103,
        0.055256996639412144,
        -0.10277195323758487,
        0.023547894102873862,
        0.0781963594489863,
        0.007521060841820813,
        0.015176819656617376,
        -0.04986660016889645,
        0.05182030745134984,
        -0.04261878974217788,
        -0.03360079094040892,
        0.08626220199813482,
        0.0606868422999459,
        -0.003290679442827839,
        0.07529483229098588,
        -0.03502844824766786,
        -0.10066759503174397,
        -0.058430006037989965,
        -0.024383895878008946,
        -0.06100624367421756,
        -0.02726028474307697,
        -0.038816657628471266,
        -0.0368058278870507,
        -0.07343660699020774,
        0.017308766102514157,
        -0.025737070982838735,
        -0.05310003130118505,
        -0.06706532968900096,
        -0.014852820078539327,
        0.049468175267600216,
        0.02261968218604834,
        -0.019504355890895414,
        -0.04800623703469081,
        0.05781099406813059,
        -0.010523232503409871,
        -0.0158612762224195,
        0.005851413289991059,
        -0.011338052452105004,
        0.005750508908730896,
        -0.0674716770887008,
        0.022475585063986447,
        -0.051643034488132525,
        0.043827751823138264,
        0.027256999912837275,
        -0.0018227418756347929,
        -0.008685830507323786,
        -0.03252865571170509,
        -0.05747463061809585,
        -0.054731455827474296,
        -0.018128923325283042,
        0.010239569934284168,
        0.019162929857031483,
        0.03282373964102932,
        0.03774586278346004,
        0.02348581063075516,
        -0.030111210546401836,
        -0.05013873871567618,
        0.01468923033850721,
        0.07296477784708158,
        0.0375037897116374,
        0.0061180198367274735,
        0.026088901051514412,
        -0.022807453920367128,
        0.001853471922564317,
        0.018796045436951715,
        0.040849960486919204,
        0.05677311511482419,
        0.0013497312023414512,
        -0.0033996965601650877,
        0.02537371144304811,
        -0.03579126122115542,
        0.04495596477326244,
        -0.15196752613593323,
        -0.08829735973198286,
        -0.04844912094821425,
        -0.02632536809282785,
        0.011489090669970423,
        0.009854589239223208,
        0.029802915274596734,
        0.03915330119803756,
        -0.003295883715007255,
        -0.10411139079496652,
        -0.017074935934952542,
        -0.038103291417942595,
        0.0633957344976859,
        0.13685446975610394,
        -0.2765639962198989,
        -0.048787266170512725,
        0.059437574720374475,
        0.03705054367079072,
        -0.14254024300480952,
        -0.07898046980483502,
        0.07506194978637118,
        0.1006341371455547,
        -0.0031992206614409463,
        -0.06150560831830992,
        0.14165872686240294,
        -0.04059891563934627,
        -0.08820487980016035,
        -0.11184164216433756,
        0.05734682418825017,
        0.01349359081471189,
        -0.10577126239112372,
        0.051109225363547756,
        -0.010773949149101382,
        -0.04980140281820158,
        -0.07762942346910878,
        -0.012404178544152978,
        -0.05328562202547785,
        0.00218448140317387,
        -0.07214143644081045,
        0.051969300770465646,
        -0.031430949317573086,
        0.008404030474159763,
        0.01743034318576519,
        0.019451327219637986,
        -0.04001730379787423,
        0.07943613327274734,
        0.027241349297941093,
        -0.03407335288635538,
        0.039513134999820974,
        0.028013627634084475,
        -0.0009953556672583205,
        -0.04647501550192376,
        -0.013166886984065408,
        0.018787657050143472,
        0.0017742849628087213,
        0.015314790326302848,
        -0.05754565949777577,
        0.015030314919475108,
        0.06567919574314254,
        -0.018086034844765616,
        -0.025455316919775026,
        0.013118656635496703,
        0.06888763067077219,
        0.072975674507709,
        -0.04244395262082093,
        0.03776116904857577,
        0.07863389133784293,
        0.005110579267430464,
        0.018918777900023692,
        0.008789714338071406,
        0.02086950705502084,
        0.026639976505504342,
        -0.03901530842362047,
        0.015937299884996106,
        0.007354332979560383,
        0.012914409923281094,
        0.026448668005879236,
        0.012020136501032851,
        -0.0712423076826343,
        0.03257843587904005,
        -0.006480157389643214,
        0.007117439275882579,
        -0.06506815036364882,
        -0.04145521513668583,
        0.0023928346719753746,
        -0.0777977791607753,
        0.033056348527471746,
        0.06282661950359045,
        -0.0193297430242697,
        0.01771957150605083,
        0.024597739514085074,
        0.004600031694796704,
        -0.012368287142325001,
        -0.04798180170046667,
        -0.11861802941646954,
        -0.09865156159711003,
        -0.002874972741323885,
        0.07101374379976913,
        0.08395603087655702,
        0.17999105780477875,
        -0.17316357850406525,
        0.01525824006996242,
        0.07095233842964654,
        0.03614167325237529,
        -0.10329446094994173,
        -0.10701925674671658,
        -0.09014527388896712,
        -0.16162985488729315,
        -0.11425937044443213,
        -0.05626507988675206,
        0.0595150288119854,
        -0.12027181260929945,
        0.07178940446683797,
        -0.20312009137489034,
        -0.22956151150038953,
        0.05737420161544768,
        0.04737924279406465,
        0.060303502725985045,
        -0.07108550651475211,
        0.07058388711379979,
        0.10447739522276454,
        0.1456092871887037,
        -0.0015509067411120714,
        0.0037392600740349564,
        -0.022422490884653763
      ]
    },
    {
      "layer": "recurrent_kernel",
      "mean": 0.003223309179755226,
      "shape": [
        32,
        96
      ],
      "std_dev": 0.08193667138918481,
      "values": [
        0.020397738659906385,
        0.06334702468354969,
        0.079450644474057,
        -0.006131061741212235,
        -0.11323037873237793,
        -0.004941740990799004,
        -0.012327662178893525,
        -0.00322928782382639,
        0.14489766517353056,
        0.06188104353905092,
        0.04004761703859147,
        0.03563529024724536,
        -0.1172300640593737,
        0.06330853542395326,
        0.02626244803084133,
        -0.09274286444113314,
        0.014456385914533042,
        -0.03314021745680003,
        -0.0859876096470128,
        0.08884374175321794,
        -0.04113126359264285,
        -0.036642282521124364,
        0.06073116844329042,
        -0.04386516377251236,
        0.00010323644543882336,
        -0.01755988457721351,
        -0.058716632296380286,
        0.048155178249323465,
        0.04536686265641005,
        -0.08983157572716123,
        0.1137616338159275,
        -0.03223772532585706,
        0.06576479686854156,
        -0.061236072711567,
        0.054237952989158573,
        -0.10744314589231771,
        -0.04582556194022762,
        -0.052303806325085515,
        0.10932796940839692,
        0.0029055033747994643,
        -0.08566861925002106,
        0.06020532703933082,
        -0.0868148750655256,
        -0.054337265464972646,
        0.08679071285725051,
        0.019835432592553777,
        0.07753797774913204,
        0.056291814933379716,
        -0.09931401236822619,
        -0.03983806892216229,
        -0.005419604325769576,
        0.15547724074146574,
        -0.007426821910424434,
        -0.08582544191446967,
        -0.06116744828394943,
        -0.11689391061644012,
        -0.03504398816900613,
        0.09495161859404788,
        0.03527852749335976,
        0.029746244207670504,
        -0.04456728956806978,
        -0.013274648868701784,
        0.04950161778351728,
        0.012490910669427275,
        -0.06593705071735365,
        -0.027999406557611378,
        0.046060999323773416,
        -0.04288047538381968,
        0.10522534990274045,
        -0.06549008223789501,
        -0.06513096178657737,
        0.023656716252288303,
        0.028814923514363176,
        -0.069366592656847,
        0.027685527937067092,
        -0.06139513966058326,
        0.10326609238945245,
        0.0929433694410485,
        0.056718759392906624,
        -0.0734538294924379,
        0.13442751977593564,
        0.08922741128538753,
        -0.026197682387045527,
        0.06890376897871756,
        -0.01662710665457074,
        0.023182411631369273,
        0.10648860270039998,
        -0.003610803381038871,
        -0.07732498002642485,
        -0.038548022489555675,
        0.1206460615395763,
        0.06353506000314273,
        -0.14139631975597367,
        -0.13656269983288016,
        -0.031246551753650688,
        0.022977054725183466,
        -0.04324189969482413,
        0.10648654761198395,
        0.018069849018303077,
        -0.025543919206953553,
        0.014356296594745008,
        -0.03217827842011972,
        -0.012267881406175428,
        0.093246375137591,
        -0.03605256948533499,
        0.032445247875671865,
        -0.05279359440510724,
        0.177903875720345,
        0.04524347300495842,
        0.06883058605987194,
        0.04047819402021717,
        0.0857414048109288,
        -0.06301149781358205,
        0.0029430360668670705,
        -0.050432290678489075,
        -0.02414466489000705,
        0.024767007773396917,
        -0.03257006067656728,
        0.05587766184763747,
        0.09871272614357901,
        -0.007515771899149796,
        0.09845420370315697,
        -0.003392360826953988,
        0.14779786076700124,
        0.03520794611066189,
        -0.059881432302592054,
        -0.08414394605967265,
        -0.02543342611570605,
        0.12147899310966828,
        -0.09288086299787437,
        0.03443270326792286,
        -0.007596418212466325,
        -0.024146943564710782,
        -0.07000686782107884,
        -0.03193516526786569,
        0.08510988144232763,
        -0.029969001671311207,
        0.013612366945905261,
        0.017851058570143553,
        0.14257086023958015,
        0.049539189637044345,
        0.02966399851781802,
        -0.04447353942247957,
        0.11291564724117377,
        0.0020042768211692968,
        0.03563362675255767,
        0.09058911310341769,
        0.043283678319788466,
        -0.21415840852472628,
        0.03010762974687339,
        0.018485359613290078,
        -0.03001066144682417,
        -0.09561962062922225,
        0.019517367745877534,
        0.12413935746215803,
        -0.008143780004040924,
        -0.09428313817979134,
        0.020310797428115444,
        -0.024634865463399627,
        0.016996948057656742,
        -0.012060750798836554,
        0.1369005803230901,
        0.14224650003633166,
        9.946596078199923e-05,
        -0.03595957925891742,
        -0.00380378653940966,
        0.021942420013686577,
        0.07652345185920145,
        -0.1445387667503095,
        0.12433047569487107,
        -0.04924712257470626,
        -0.025922287064958128,
        -0.07623888133931367,
        0.11038202203642995,
        0.01401730584101496,
        0.1582124607303785,
        0.026896142688678147,
        0.08747493759155887,
        -0.07633918317150712,
        0.03586493998611388,
        0.10805096768550011,
        0.015337577667974028,
        0.09231746993607304,
        -0.008060108281883093,
        0.028013507163639758,
        -0.035129421513504726,
        -0.03485015305230753,
        0.1748934913064994,
        0.014701906972562497,
        0.06488990210505542,
        0.06411022474404576,
        -0.0632321505409508,
        0.10408432433202361,
        0.013888492548207405,
        0.15857483315731527,
        0.15631065407515937,
        -0.044667120816739486,
        -0.11781731915001643,
        0.12006829799225519,
        0.1697383403030674,
        -0.10958989876104705,
        0.11698509832479584,
        -0.06706651858796708,
        0.07552831603669227,
        -0.13013251428000944,
        0.02271852145750452,
        -0.019399013226265263,
        0.004539823455470421,
        0.1134989349032276,
        0.08961331050414817,
        -0.003414682945069695,
        -0.005878161443205725,
        -0.0648180866844892,
        0.16524786885598458,
        -0.12271107100849862,
        0.03833633610043968,
        -0.03896096773668594,
        0.004333877480827406,
        -0.022416079247622005,
        -0.0429497854402322,
        -0.06850283523681176,
        0.09087965024147074,
        0.15728088843028704,
        -0.10574751263022397,
        0.04659196205374934,
        0.040638055885660614,
        0.022771190998401455,
        0.11302394982643796,
        -0.07549607487520073,
        -0.10537829762368611,
        0.008049336833206628,
        0.047597949497929434,
        0.090437773978337,
        -0.18495498574509717,
        0.011311385229977948,
        0.08760111413241062,
        0.0007262901427352081,
        0.020063568772746534,
        0.0015824366749593254,
        0.0008042369434500354,
        0.05479578931118843,
        0.07481121600043321,
        0.08172195697226227,
        0.015945560711722123,
        0.07572274786621817,
        0.02545427627235073,
        -0.0982511438451501,
        -0.010945568334058835,
        -0.058185219717683166,
        -0.06282193143261425,
        -0.030571749525387902,
        -0.016750631426225633,
        0.00495916570957205,
        0.07995746837156711,
        0.06895299270836328,
        -0.013635015409544215,
        -0.11095832504604518,
        0.031963615150020955,
        0.027495791454408988,
        0.05801850469736998,
        0.07107875098282648,
        0.02274344002347205,
        -0.0018829322763459048,
        0.14948036926316915,
        -0.018994720099170293,
        -0.12446167539734813,
        0.011418234079059349,
        -0.08152015762717757,
        -0.001016858181073061,
        0.07038154044539868,
        -0.06287048142688163,
        -0.022651045414855027,
        0.031220595878313464,
        -0.057950017630196415,
        -0.06717660186479206,
        0.10770092727244998,
        0.10258528125084188,
        0.11568044665801991,
        -0.14805852683354265,
        -0.038819189952693525,
        0.21417351216963026,
        -0.046198422180864854,
        -0.023503988590988397,
        0.02299832860116176,
        0.04849721464933322,
        -0.06480855557310192,
        -0.0699000824787475,
        0.028884302246320263,
        -0.1227022535691755,
        -0.06744385361541305,
        -0.0341977575906216,
        0.08876699228980532,
        -0.05230370266187718,
        -0.0623709201149935,
        0.0494414057828982,
        -0.01923913957597935,
        0.019751936094956235,
        0.011918581493429658,
        0.01196891718862547,
        -0.023878716784550193,
        0.06300661589710367,
        0.008449665929221004,
        -0.006361490913861102,
        -0.02188634215194163,
        -0.07786920874233312,
        0.14998131649720092,
        -0.0246630040052933,
        0.07672348380059546,
        -0.018549576839141747,
        0.12323179654010677,
        -0.04922196185925927,
        -0.05492042771326475,
        -0.0012518424704084092,
        0.05806573716167722,
        0.1526864189027923,
        0.06318434322346715,
        0.05954151132545332,
        0.06690875061057462,
        -0.045401892470804034,
        -0.050359169812929976,
        0.014326461795514205,
        -0.059082656273049684,
        -0.09162647640518912,
        0.06497716305943611,
        0.009571102023920912,
        -0.18972767990513875,
        -0.03533202949298116,
        0.008415844611640286,
        -0.0331846809508194,
        0.006492581385280201,
        0.07949045345168489,
        0.06324367927572166,
        -0.04498397848736162,
        -0.0881684998672336,
        0.005653463245079005,
        -0.05302469319965922,
        0.24770443708665552,
        0.0986999868446857,
        0.13425287441337735,
        -0.07392078558218687,
        -0.0021414989028704064,
        0.04380371145310338,
        -0.07952518817946241,
        0.0976097921588045,
        0.11262378295125894,
        0.014555117777608945,
        -0.12563628173757807,
        0.06191344573366397,
        -0.03709127384385344,
        -0.044256568041379875,
        -0.08942526126243298,
        0.05287213165784081,
        -0.027615062428997868,
        -0.0645890018382611,
        -0.009778923351507384,
        -0.013159481428339968,
        -0.01508448685737292,
        -0.1433180050179285,
        -0.13857760043096812,
        0.005934057721894244,
        -0.008554537700803937,
        0.0011099625586020222,
        0.014919407185512486,
        0.037851225068438146,
        0.053434853019893626,
        0.10984601299178974,
        -0.02716237574682058,
        0.06715977452405472,
        -0.0316754868640234,
        0.10895900087715223,
        -0.010979661185975802,
        0.14475566247075738,
        -0.045120975606397176,
        -0.08671504251047213,
        0.07256894397099226,
        0.07176323029819004,
        0.07744638523358871,
        0.051430244668801375,
        0.08694827112425066,
        0.00111096146488902,
        -0.09944298707032531,
        -0.0060193015596465595,
        0.09623863271481577,
        0.020812570829850698,
        0.102021518932012,
        -0.001058655515256567,
        -0.10842835868283413,
        -0.053950493694142024,
        -0.11750076637598714,
        0.019455463130134243,
        0.030778366353184566,
        0.11657481676111663,
        0.09102644314959463,
        0.05017242324699517,
        -0.08799401090409871,
        -0.10780976735839382,
        0.12322880723530268,
        -0.0016794608023456593,
        0.046854474300517646,
        0.0933090564219623,
        -0.12629482565192038,
        0.010851136176563159,
        -0.05075567839484171,
        -0.08042588392393121,
        0.008386304910784553,
        0.10129390588957106,
        0.10046054227295897,
        -0.07067852064056913,
        0.05389994381452879,
        0.06211719558136988,
        0.06569487511331258,
        -0.05674153036442155,
        0.10486012086744584,
        0.07467145372362763,
        0.0758065623846525,
        -0.10210106042111015,
        0.02725782813809725,
        0.04932090520436713,
        0.06470203347701561,
        0.03859332719530923,
        -0.0013856940701460398,
        -0.00914242124953999,
        -0.06003218681152134,
        0.01877304053559637,
        -0.009875343796043157,
        0.08177036211034532,
        -0.006125279788480542,
        0.04676770517851351,
        0.1717856401634109,
        -0.10076229966161922,
        0.033445090119343254,
        -0.01718362980972684,
        0.01601604431936758,
        -0.016975553191851584,
        -0.0698757268394205,
        -0.04522035752174435,
        0.0033034604779806163,
        0.0518412975070405,
        -0.11545039298093832,
        0.004757929337970845,
        0.0019193336874763728,
        -0.11802903858708852,
        -0.12520449935301647,
        0.04223141931467296,
        -0.13668264890569853,
        -0.0188359197912239,
        -0.017715443967154215,
        -0.06311670309964221,
        0.12557316210865235,
        -0.03203503628368173,
        -0.09446157476277453,
        0.031745222533677814,
        0.012215377142926805,
        0.000827647008448798,
        0.05640699348266601,
        -0.055552073485479095,
        -0.11536258983488112,
        -0.06350201781925167,
        0.14783164798817772,
        0.06069222980683572,
        0.023351609647051574,
        0.015856068369479736,
        -0.16120902328276687,
        -0.11236033634437212,
        -0.07600900210533981,
        0.08794818732229553,
        0.06304081757183552,
        0.12316997914797712,
        -0.11901062791548994,
        0.0759132439121783,
        0.1661856497846047,
        -0.029795467889305344,
        0.10914238449381188,
        -0.061926899770670576,
        0.07724172316830868,
        0.08728303090679397,
        0.023463538130882165,
        -0.00388247751751911,
        0.02975281926976537,
        0.05807917712712753,
        0.0873465379280111,
        0.009891920538968521,
        0.062362883740546854,
        -0.018300591536029108,
        0.0331468710421958,
        -0.0827468483853949,
        0.046163088305796365,
        0.07066826936198864,
        0.04816753109643194,
        -0.017852948960667005,
        0.025887942470498446,
        0.11239019639906193,
        -0.13570526348294876,
        0.030757292856084993,
        -0.008693315376938973,
        0.10217861421439398,
        0.05625653954720041,
        0.006779294067632889,
        -0.0610654177300768,
        0.007931863086591506,
        -0.0469030768429805,
        -0.029191864961649605,
        0.10803735989992366,
        -0.08274861303601136,
        0.025664815571410225,
        -0.1232659718064839,
        -0.02757790322752451,
        0.0047892371027065785,
        0.008935878028918012,
        -0.08642625730432153,
        0.1295218543300388,
        0.09065952588964295,
        0.08039711130701763,
        0.005838125820643483,
        -0.03139002836734252,
        -0.07442861948901511,
        0.021071640403744943,
        0.058433789228873254,
        0.07855337152897018,
        -0.010767650797204445,
        -0.03792758157848759,
        0.04267966631675207,
        0.008957733020717727,
        0.11507249531242675,
        -0.1020846125553703,
        -0.06774891555912813,
        -0.10085783439759854,
        0.025089811243887518,
        0.03920212672848029,
        -0.03086213260263316,
        0.011992406156055692,
        -0.10930352526759149,
        -0.12701183468504804,
        -0.026583703329696756,
        0.19429303858599012,
        0.001303408150084492,
        0.015297835470882518,
        0.06796329281209892,
        0.03180658310867297,
        0.019683533872329614,
        0.15868342956630765,
        0.14148686133669913,
        -0.008697562933386888,
        0.0009927877177472433,
        0.05790541043686727,
        0.05709455540639971,
        -0.07330914617527087,
        -0.053158360987291084,
        -0.051872084109937114,
        0.20301425231322587,
        0.009034380818305765,
        -0.06852983683357147,
        0.11152009285251628,
        -0.09233068131712363,
        -0.03663379758083204,
        0.018891058526923764,
        -0.030440685610446785,
        -0.03438454509438035,
        0.08345159132308214,
        0.1014101430783105,
        -0.02490762395693195,
        -0.058493617465891996,
        -0.03202345403222933,
        0.1198041240153232,
        0.15353067671869342,
        -0.10682202002492638,
        -0.1795954313933364,
        -0.08901362833632628,
        -0.06581770883769043,
        -0.0382765398077551,
        -0.03175775976243035,
        -0.04918370065395951,
        0.014643036525491995,
        0.03944617044625856,
        0.07363043274311035,
        0.011597536602448555,
        0.1965684117919248,
        0.09769103484156447,
        0.05290909786362338,
        0.0033448876850564815,
        -0.10308812795372663,
        -0.06125376514865312,
        0.03563289710611764,
        0.02273693582403556,
        -0.055917535517574675,
        0.050136288385342204,
        0.10532067023433514,
        -0.00014842727215476663,
        0.03537499999860033,
        -0.08866835410204851,
        0.04462802433787698,
        -0.03488896817181758,
        0.03296068597380735,
        -0.02853451967018527,
        0.03854449691063486,
        -0.048525895027259264,
        0.02633199734721626,
        0.06986551140122585,
        0.040884293008112714,
        0.18070531535153522,
        0.15757896165961804,
        0.007677538144261481,
        -0.11356337622758703,
        -0.017391006655273614,
        0.1074695126132621,
        0.009991502610988762,
        -0.057936873200251995,
        -0.07646163937390167,
        0.18659815175377226,
        -0.004760656218577358,
        0.007276243070953744,
        0.009393197017386338,
        -0.00888076941016187,
        0.03622562054744986,
        -0.04474808390529765,
        -0.0009930307536902138,
        0.06222407814737688,
        0.00590282614632316,
        0.18076833947498563,
        -0.04317207339949572,
        0.021890749616611294,
        -0.11348295968992599,
        -0.04657784646223452,
        0.04898083757859234,
        -0.004087773924721726,
        0.0650635908178954,
        0.029319047857793372,
        0.010452424168858679,
        0.03448563675327047,
        -0.14656412209162067,
        0.08351135443756996,
        0.09294010838356323,
        0.15808750634470625,
        0.0031939451168848986,
        0.055286012532570206,
        0.038212138391870855,
        0.09722745748300375,
        0.024893604753682436,
        0.021807202098731993,
        0.09160601279402739,
        0.07105992733207384,
        -0.006850190318091563,
        -0.028165725450166434,
        0.06494084411561707,
        0.05308562273790668,
        0.006546336436526015,
        0.06933447337754636,
        0.030431558614200268,
        0.027651938263696944,
        0.029866187188916163,
        -0.030801138229090638,
        0.055651892537705416,
        0.1506824805714378,
        0.05498711330162088,
        -0.05765880252777471,
        -0.009301648752519286,
        -0.007969298284993962,
        0.01290168941293354,
        0.13454634062841794,
        -0.034106605559807004,
        -0.03183246636796156,
        -0.006070352083596677,
        0.05457792307020226,
        0.12375415051574191,
        -0.03441198610237847,
        0.07828295576193539,
        -0.08075529717800367,
        -0.17236002476278917,
        0.0062360728705542386,
        -0.0005926592123634411,
        0.07452601183704512,
        0.029613832612605404,
        0.029693992863071488,
        -0.0724657515008717,
        0.04385611150407703,
        -0.04015941070986333,
        -0.051085856744914206,
        -0.08155622272833307,
        0.06603302461595133,
        0.12143061151513865,
        0.0045404453076736215,
        0.06796433370531144,
        -0.11966692999666897,
        0.049024388163778757,
        -0.03849302098795059,
        0.051665010336782585,
        -0.14254356541912327,
        0.008831589607650285,
        -0.030722834141719283,
        -0.2249089397187867,
        0.08900590728154684,
        -0.03312184020081468,
        -0.09799603832673374,
        0.04642433182353684,
        -0.08550636419842131,
        0.12730879057769673,
        -0.015665807824461198,
        0.0776063404996293,
        0.004783350230906162,
        0.015173122214752621,
        0.10008552706654612,
        -0.04972086212196699,
        -0.022932490958169034,
        0.07434627639198271,
        -0.09233034658817531,
        -0.0008470156025345919,
        -0.010455146085068482,
        0.0012791779966104815,
        -0.10405013999019434,
        0.057385833338904756,
        0.0538436728805169,
        0.04254774214598543,
        -0.04625402762087033,
        -0.008128738838235259,
        -0.03956738370569616,
        -0.026103529694203452,
        -0.06726294193772947,
        -0.15268489772546862,
        0.05713187485610072,
        -0.013203029374843122,
        -0.11228395877788927,
        -0.07589758128018723,
        -0.0953053562752821,
        0.09878660623260331,
        0.1132026466794476,
        -0.031696549816286175,
        -0.14393615567916515,
        -0.015120318787627521,
        -0.072358695540047,
        0.07792735534793842,
        0.010290091152361203,
        0.08868331530172094,
        -0.09651606089308502,
        -0.09804914091155828,
        -0.1436290487289606,
        -0.0484388675858852,
        0.05827206477534014,
        -0.018072760079360123,
        -0.022507875795955555,
        -0.10107599029972358,
        -0.13687857209648457,
        0.10488091230593305,
        0.014363155281247587,
        0.11562011877849,
        -0.03557980741973086,
        0.14136321926972556,
        -0.10022754668910425,
        0.12153329410814477,
        0.021545450678992092,
        -0.033038366055598456,
        -0.0072433369385799485,
        0.07558102189255729,
        0.11385091626087088,
        -0.04725973464068385,
        -0.1649193736627217,
        0.04612947354670621,
        -0.09487161766279908,
        0.17187239066946536,
        -0.046526835269197174,
        -0.018181198539035583,
        0.04219380593057661,
        -0.03533641714689803,
        -0.017318867392145686,
        0.030325994995824508,
        -0.008591619727092294,
        0.09442724361563651,
        0.0029673193478721733,
        0.14783231947692246,
        -0.041965049341405325,
        -0.13938746342151243,
        -0.04238147687843195,
        0.04385546182749839,
        0.0019301764145897992,
        0.0225709959483873,
        0.1263158684056815,
        -0.030667187189153518,
        -0.19711731114503195,
        0.10124165399339906,
        -0.04566879625349029,
        -0.030770881334561188,
        0.10699726410500751,
        -0.018219700292381104,
        -0.048507107156511624,
        -0.037001546361673035,
        -0.008557580826262446,
        0.08044874020621079,
        0.11915235983029464,
        0.1092890255107822,
        -0.052044580895455377,
        -0.08195885346115972,
        0.07059318391296034,
        0.09332700415216866,
        0.08708113294078983,
        0.019715897909766293,
        0.12069123213386576,
        0.08889116439866557,
        0.041720075376294935,
        -0.025403256466523198,
        -0.07356795978322508,
        -0.01713398862428473,
        0.0237309324593057,
        -0.08833829990027228,
        0.01082609034296467,
        -0.09358719901067948,
        0.13694912926916356,
        0.11256755610620556,
        0.11505670948351701,
        0.09027352018820062,
        0.0763434194147928,
        0.013523490507870373,
        0.12251101667047365,
        0.07168585933375744,
        -0.055774481836725516,
        0.032848662274275686,
        -0.00418462644125096,
        0.0024898639931910556,
        -0.057404144439970696,
        -0.04059352076101294,
        0.041734457144826695,
        -0.005971227238866229,
        -0.24779760762841033,
        -0.04427689924799399,
        -0.08574645876784784,
        0.027483476564470567,
        0.05661905725672629,
        -0.008070428217613362,
        0.1361358552118607,
        -0.02763465384145892,
        -0.01770957680822363,
        -0.07891151717586603,
        -0.07165592056013442,
        0.033422781907891504,
        0.020802293073914235,
        0.015040129490197132,
        0.08533129219276722,
        0.03463511931114247,
        0.06586313774266736,
        -0.01739084090406881,
        0.1493673754202226,
        0.16923643698339597,
        -0.023849700385623236,
        -0.012338227632091012,
        -0.07751301402115499,
        0.1302305925219552,
        -0.14419270721027355,
        -0.06243209567919267,
        0.009269571335167306,
        0.007699493271475096,
        0.03593638056328584,
        0.0852966254052444,
        -0.04610287593400564,
        -0.017993008884058276,
        -0.12527364747814218,
        0.08779972538213257,
        -0.04586972362401974,
        -0.10507986952162399,
        0.060938316614535415,
        0.08833116233189947,
        -0.19738939887758988,
        0.08144532159055509,
        -0.015317036090992992,
        -0.003577928051747105,
        0.036123445786302305,
        0.03638005953837891,
        0.07606403291826755,
        -0.05677461546902768,
        0.015067371092105769,
        0.0041964244463006785,
        -0.08164078853765885,
        0.08439711103482206,
        -0.08849739917162482,
        -0.1006413941447388,
        -0.06651434486468746,
        0.03459722988438588,
        0.031605554123485105,
        -0.08687841355332018,
        -0.09402914558963434,
        0.057376066015136964,
        -0.05773182455076864,
        0.0034565593486895734,
        -0.029193783298328387,
        -0.09506643570477556,
        0.07590251463930725,
        -0.06035365678124944,
        -0.01730932517340611,
        0.049064310893229726,
        0.08495316374140705,
        0.0634059368211777,
        0.07839811547062356,
        -0.06559930470311601,
        0.05287861775060774,
        -0.06661348964761069,
        0.16816474460871966,
        -0.07561509877347589,
        -0.15533075201653557,
        0.06068156846148244,
        0.07787562473981063,
        -0.0665364807795441,
        0.0029450931435628033,
        0.09411479027354532,
        -0.060787267858995145,
        -0.04497323776474098,
        -0.030078390916807862,
        -0.04926953452112721,
        -0.05674392356096869,
        -0.12113717388399774,
        0.05455774813037469,
        0.09318212860593084,
        0.047973028810612994,
        -0.003815579893174366,
        0.14975552998304004,
        0.10583995749150521,
        0.0032619545661370774,
        -0.07797711777002328,
        0.043523740421513094,
        -0.21268807985736815,
        0.09722363107370965,
        -0.11348316830004103,
        0.025311182083233106,
        0.058550199947179596,
        -0.04206136942069981,
        -0.1137901514176057,
        -0.06440945785730409,
        -0.09888267295855524,
        0.07088828560211188,
        -0.005143111090220313,
        0.0028862878703262767,
        0.05203040231381717,
        -0.03431274053870802,
        0.08417162347499182,
        0.15259735021335596,
        0.025959592475670243,
        0.13587388866389008,
        0.003589920184080727,
        -0.07583005013510244,
        -0.06362302596769083,
        0.008660546439628438,
        -0.08680141376973184,
        0.07554663854167817,
        0.07695379774256891,
        -0.046245879854629704,
        -0.038412262214972646,
        0.08078269131901411,
        -0.12685385961798235,
        -0.014066843463806007,
        -0.016280216610492587,
        -0.06152673433425899,
        0.07190024972700428,
        -0.002588621574116454,
        -0.10960505099661377,
        -0.019415820231394765,
        0.033723453354975855,
        0.039752693749163084,
        -0.05082371757305536,
        0.09153588709716388,
        -0.044995122678726636,
        0.07479908683863223,
        -0.010466823033835395,
        -0.04958098745810228,
        0.07513338813240272,
        0.1407912875083236,
        -0.06936623949459847,
        -0.06071363062161168,
        -0.09068445857527271,
        -0.04135245231035629,
        0.027320446068205856,
        -0.05559902668972317,
        0.08741262556289109,
        -0.006473206914611004,
        -0.046825756925489584,
        0.015061891529787113,
        0.17630616761541928,
        0.02579949431185065,
        0.05751074729541701,
        -0.11510805329912502,
        -0.07195826388618229,
        -0.03339143746624108,
        0.03522408276258256,
        0.06720614783146786,
        0.07696244646478627,
        -0.0556030357988193,
        0.0462240299383002,
        -0.06758420088530126,
        -0.034808043096207233,
        -0.04446984680741226,
        -0.0858050899833567,
        0.07351295032545611,
        0.0848650946493145,
        -0.18195406745044843,
        -0.04910974875568457,
        0.03552838682142835,
        -0.029000890296376335,
        -0.03792659416813431,
        0.057786285162895995,
        -0.001083534410159614,
        -0.018288548463574222,
        0.020165686317900854,
        0.0054706448105725745,
        -0.11800348640945965,
        -0.03920108243608707,
        -0.015192141179975038,
        0.06934836218054469,
        -0.008145046849036953,
        -0.014770827264003111,
        0.07146625036011985,
        -0.05323084232705402,
        0.12187223483613346,
        -0.05466502144107388,
        -0.022748857134093012,
        -0.0017002085348899955,
        0.025290183803433314,
        -0.007407452946771977,
        -0.026952813194982154,
        -0.003835838586617618,
        0.0661558850707024,
        0.030194007367897832,
        0.1159777886996077,
        -0.06730996354941601,
        0.2625952431690274,
        0.08605663478242198,
        0.18079029335019686,
        -0.12813096761597823,
        0.14023604139673382,
        0.11731470539696587,
        -0.24853197851370504,
        0.014163527257766751,
        0.08725512832725685,
        -0.0044182692827341484,
        0.11713500796824125,
        0.07997746306705325,
        -0.11883430470219143,
        -0.024755316337816503,
        -0.04874396725562875,
        -0.05808330875520766,
        0.008046551449907327,
        0.11567391763518203,
        -0.004626343570368446,
        0.008954100042322376,
        0.10053083149424713,
        0.07103970234169041,
        -0.028729968534863728,
        -0.1450763341372773,
        0.11449841801077815,
        -0.04039588184696214,
        0.11375700949197923,
        0.037879801677898534,
        -0.09744866726447961,
        -0.045588886252544564,
        0.14709143415366124,
        0.18345969346870752,
        0.13777529795126411,
        0.02892441575323646,
        0.029759904394237868,
        -0.0744144413165716,
        0.044192892693727934,
        -0.05290333219992131,
        -0.09231029223466408,
        -0.011392611610345223,
        0.013526210523274131,
        0.011686257824357511,
        0.032645158258308375,
        0.11367976919313247,
        0.020588879368630488,
        -0.03493073888482191,
        0.011323582936909453,
        0.0597288519967453,
        0.10843575936273445,
        0.0072328801153025354,
        0.024602738718654225,
        -0.033133447205743044,
        -0.056442082625610346,
        -0.03709687351075266,
        0.06480998462105264,
        0.09065505106962593,
        0.024963577404440836,
        -0.07650034317769273,
        0.11180462794121308,
        0.03081092094423802,
        -0.033328511293879357,
        0.00659326336197608,
        -0.12411863153275857,
        0.0051559910016210336,
        -0.09683924530614028,
        -0.002341256626849044,
        -0.043882889398097286,
        0.09285918441239961,
        -0.05011713423814438,
        0.09418314457829982,
        -0.1864920047620463,
        -0.015942757620832616,
        0.02408521351083555,
        -0.02117462752305406,
        0.05232631054201251,
        -0.006456230369619282,
        -0.037201119602178125,
        -0.0899559293734481,
        -0.081286401514861,
        0.089249495093166,
        -0.04891871436456777,
        -0.11465822776885667,
        -0.011144611832643932,
        -0.10903724702653134,
        -0.09025287475495689,
        0.035559400897999874,
        -0.010472564845552111,
        -0.08742279974472426,
        -0.06789987905339223,
        0.014818204358172863,
        -0.12687479020913695,
        0.04612437951770408,
        -0.0158651697110472,
        -0.0006103226805200124,
        -0.03650780360417326,
        -0.08659913161341824,
        0.07835027858979618,
        -0.04166029496491239,
        -0.02453987238077396,
        -0.04954919705177556,
        0.019211855219477783,
        0.04283837240613809,
        -0.09065545228501973,
        -0.07312269639348651,
        -0.10140855269357245,
        0.008871270662200722,
        0.01682420009210936,
        -0.11710385424390841,
        -0.03361328627158948,
        0.07640828599239224,
        0.02165292016677808,
        0.015429716768251727,
        0.03180274986067998,
        -0.12876794754962012,
        0.011752020426984491,
        0.08352504430352777,
        0.006126696181678504,
        0.026340001858716964,
        -0.0732966936196495,
        -0.03117389301612302,
        0.16585019579059668,
        -0.05914201617118263,
        -0.22495966379902987,
        -0.11613324095708555,
        0.0515446663724992,
        0.12788427403749408,
        0.01645406532640282,
        -0.07645314647235196,
        -0.04150803009746786,
        -0.1834961009785981,
        0.1249615670526371,
        -0.044497887081393586,
        -0.02727030252570134,
        -0.08445990115582565,
        -0.07348408592691082,
        0.03263856615861338,
        0.18617103097361726,
        0.08494402583222484,
        -0.0996942759895553,
        0.0863550864879967,
        -0.050500117430202496,
        0.09517475732347974,
        0.29932250134128446,
        -0.011630708848357249,
        -0.07741288524397721,
        0.0034420740775188245,
        -0.17810325816022265,
        0.07432413917116969,
        -0.08197452324816298,
        0.0626673024846282,
        -0.09018568013808337,
        -0.04255340520723388,
        0.005543578579075501,
        0.08198793319188943,
        0.051286108071930264,
        0.054353723637222906,
        -0.011033067915117644,
        -0.04133263921675927,
        -0.007218499126071391,
        -0.03978263709448941,
        0.05965685418776415,
        -0.09510157253951368,
        0.08287823031732713,
        0.20464515446878703,
        -0.0665904351861982,
        0.0841609285992567,
        0.08218564503417278,
        -0.05040390968781082,
        0.02346466120946783,
        -0.014967190865430136,
        -0.03780652827668257,
        -0.028862169578888916,
        0.0005369038896616545,
        -0.015335759732101394,
        -0.010844631018817184,
        -0.01948278131887947,
        -0.16453232923331806,
        0.10929890095028105,
        -0.02868761514316653,
        0.062004257409777205,
        0.060879367669433644,
        -0.02651234761254785,
        0.15474100589221923,
        -0.07137981738638172,
        0.01921646090125219,
        0.11847147578230484,
        -0.05479670642630176,
        -0.04801368931502471,
        -0.007362849861489054,
        -0.0325932607829654,
        0.039972297192437806,
        0.001132499939445987,
        -0.0056298310644005995,
        0.0413886721527504,
        -0.025222305645136927,
        0.005321716062869863,
        0.03507926224523707,
        0.13164448176174426,
        -0.11094327992853491,
        -0.1345162956656926,
        -0.11441502857405213,
        0.03662095847889821,
        0.16258934149560472,
        -0.046987193494790705,
        0.06776408961069676,
        0.011014505783870358,
        -0.01097566676231116,
        -0.10363387989382147,
        0.02444915966765278,
        -0.04341164829798681,
        0.01488679489393338,
        -0.005109807632265001,
        -0.10891468297668203,
        -0.07513349243300395,
        -0.00509357857349298,
        -0.08497705227278435,
        0.19280964455740934,
        0.0888030706195489,
        -0.12665855506807283,
        -0.15457266044878265,
        0.2558657291928039,
        -0.02138682188670317,
        -0.03975519901956121,
        -0.07003665681368046,
        0.031055643678394133,
        -0.14089018712823903,
        -0.03381127762194054,
        -0.06878486315965257,
        -0.04982915184025716,
        0.10732253110789824,
        -0.14453839802343732,
        -0.0011125854806896384,
        0.12570385597874617,
        0.04035702731991142,
        0.004786700495101409,
        -0.03536380533661693,
        -0.05820900402902279,
        0.018164180570974763,
        0.09631699763889526,
        -0.01444020404735873,
        -0.05100107349774417,
        0.03286792518603587,
        0.141782790262035,
        -0.018411665089933492,
        0.006373289573865103,
        0.22193897670695717,
        0.04951330303392447,
        0.18091571284928204,
        0.032391954733283,
        -0.04140098456845096,
        -0.018265656900620885,
        -0.04217520464038726,
        -0.010325490068895854,
        0.04481828493582067,
        0.05098060047739479,
        0.011566405754621392,
        -0.057031412466138354,
        0.006058685789647484,
        0.027995610728631784,
        -0.06554462335956059,
        -0.12968995940980876,
        0.06912388886643175,
        -0.04378401816666313,
        0.05051946009414589,
        0.005459460656466264,
        -0.002366120273839951,
        0.05805018300526761,
        -0.02892783822209025,
        0.016971833037429065,
        0.009251466728997132,
        0.1335238539321591,
        -0.07698739421324388,
        -0.02914160303055944,
        0.019442261160948788,
        -0.026037104843720557,
        -0.21573894215891967,
        -0.10486265397805822,
        0.025316539771759097,
        -0.13078289742439916,
        0.09538854889431542,
        0.0446101155404659,
        -0.043733385636352054,
        0.01158202433453991,
        0.040675352395041414,
        -0.13686735438248523,
        -0.010328729950621784,
        -0.009384719017288285,
        0.03237338126155026,
        0.10009588226031772,
        -0.02397242422140003,
        -0.07985628765564089,
        0.028845266455068047,
        -0.15445870546908838,
        -0.11264500154620216,
        -0.20456826721990073,
        -0.09751896645184904,
        -0.031241519402000942,
        0.09887004515131825,
        0.03755774262188713,
        -0.012752214452326938,
        0.0148493038085184,
        0.03855837079177442,
        0.0012456699765582935,
        -0.002000910251869095,
        -0.009947985247411525,
        0.13047273425653674,
        -0.008636618619017565,
        0.14116550237912276,
        -0.0608672965328481,
        0.01670814307091603,
        0.0466207816236442,
        0.07632803860801712,
        -0.06852314733425668,
        -0.2098701916767812,
        0.16386655313161075,
        0.016303635840751854,
        -0.020860538257091304,
        -0.11588352623564341,
        0.06974109560662275,
        -0.05737469887950006,
        -0.017046672975571216,
        0.10511247323904568,
        -0.13871502936623614,
        0.14838647852543957,
        0.03816237799473042,
        -0.013230947890142253,
        0.028272912866724467,
        -0.036896421037817005,
        -0.16295488115806778,
        -0.012738472759464232,
        0.09444766693105164,
        0.14566723481677415,
        -0.002375831564046217,
        0.1135802742986528,
        -0.041384355306810644,
        0.11327556140538067,
        0.059031922310031945,
        0.08160774114947113,
        0.13739725098501038,
        0.11268124594983564,
        0.025471014699689456,
        0.16107785020282234,
        -0.057225182415502424,
        0.11034095755673469,
        -0.08309232890018026,
        -0.03225015123061033,
        0.011809778261485958,
        0.0919691858253911,
        0.0202195610530403,
        0.1752024008914626,
        0.04626731681887644,
        -0.06737933064788632,
        -0.04303222227445652,
        0.007967435961435305,
        0.1319321214874515,
        0.06620962521333516,
        0.06442543283483557,
        -0.05987823330458291,
        -0.11832968524951945,
        0.06317258520971136,
        -0.060216795515502373,
        0.013665209339161613,
        0.16697386288623065,
        -0.06587985838742572,
        -0.10594271520984608,
        -0.05868637128799521,
        0.05938034426160649,
        -0.1487442845809222,
        0.006639591494926502,
        -0.017159517821677177,
        -0.1732759106994026,
        0.0838876634449928,
        -0.031518231656855585,
        -0.019646719628744175,
        -0.04537137124067467,
        -0.1064962424571352,
        -0.06989594835490848,
        -0.101602237248514,
        -0.036023432471407504,
        -0.12854661275350027,
        -0.09110838285369553,
        0.04433162883179235,
        0.005676610387620552,
        0.0832993378108463,
        -0.04559937614413467,
        0.10822439972278688,
        -0.0024157493768783922,
        0.006946673803812843,
        -0.04193959544022445,
        0.017624031150822443,
        0.03087397140440431,
        0.15521581502557252,
        0.08270337079016843,
        0.1603668194449155,
        -0.03944448679018595,
        -0.005683292146145498,
        0.08217206373020144,
        0.2881736169805944,
        -0.021340946592756385,
        -0.09957211601646801,
        -0.0841605664162961,
        0.030141995242442758,
        -0.007261450833146687,
        0.06613113439767893,
        0.04901575247868778,
        0.020201032593405027,
        0.09930148323602292,
        0.05398473324245191,
        -0.05075574121878851,
        -0.047479228729871994,
        0.010379740722796542,
        0.0721808241656402,
        -0.05103350280319069,
        0.081114508014937,
        -0.008961091513944617,
        -0.0801128528552151,
        -0.008667536391935973,
        0.00835247492084537,
        0.05711089280913549,
        -0.05815804206522053,
        0.09128357731622294,
        -0.08019516783804397,
        0.01651802721304968,
        -0.04076292712840463,
        0.037095339049283395,
        0.009738256458816067,
        0.09548575653297721,
        -0.019361381156825293,
        0.03154794408610975,
        0.00551361182408566,
        -0.11048894224208503,
        -0.10118477838826495,
        0.021415767418337672,
        0.0895089756346179,
        0.06619579584223198,
        -0.012486978399373997,
        -0.16722187541836034,
        0.01892422541022276,
        0.13694137175015708,
        0.001196755610948826,
        -0.07190685230583457,
        -0.12918855366072773,
        0.03716801726186708,
        0.06274217289351589,
        -0.11450551497981984,
        0.037106085573498676,
        0.052132197777843226,
        -0.11928809021258924,
        -0.07591775328772538,
        0.025282121215912817,
        0.03167912121145544,
        -0.0075582271137788135,
        -0.09368325193122157,
        0.0007093266840254956,
        -0.02967450472216403,
        -0.06146598072709549,
        -0.060328370489136,
        -0.07318678763985514,
        0.025887114589225345,
        0.007594737143444778,
        -0.05597590956768447,
        -0.09059166579418095,
        0.021991961430103256,
        -0.057561259208220986,
        -0.027804998346854688,
        0.08436978531822736,
        0.0216417325489029,
        0.01013429138483568,
        0.06287763440184979,
        0.07338322362247883,
        -0.08303988199819642,
        -0.1751247139537465,
        -0.0861114371031309,
        -0.01997748389166653,
        0.02742105681126321,
        -0.005914406387258193,
        0.10191933954330257,
        0.004272923506023044,
        0.03664862894967944,
        0.00453695155674888,
        0.029798953630505255,
        -0.052151166413598245,
        0.14651187011882885,
        -0.15353500058694972,
        -0.009572861947442932,
        0.037070957601971516,
        0.0012508428105430817,
        -0.018391654547116262,
        -0.1232288780729224,
        0.037731870403522216,
        -0.11112573780797874,
        0.18498103817020956,
        0.0019589644058138427,
        0.14939974071661416,
        0.03460692436517257,
        0.11855409606001305,
        -0.12814499048594147,
        -0.043805403785528316,
        -0.12996171823234398,
        0.008768781822232346,
        -0.027184752139583192,
        0.012206387344669535,
        0.15166443634974558,
        -0.010652992210492956,
        0.019011395209525984,
        0.10047968710867121,
        0.19891468265723156,
        0.09248680122470433,
        0.03792393378087463,
        -0.06423513897298021,
        -0.11461220144847845,
        0.015823999295871152,
        -0.07048127463912676,
        0.1014944076586534,
        -0.03711902453874253,
        0.10178097434214273,
        -0.011678441207702034,
        0.10232516393816754,
        -0.046427271244243465,
        -0.03165284610808754,
        0.024937366855444856,
        0.05811596904632796,
        0.04747242176947405,
        0.044023853258441194,
        0.02324867049092702,
        -0.07595300721856417,
        -0.05041320223123773,
        -0.15462276297742394,
        -0.06769711020309419,
        0.08003095501940832,
        -0.11896787424614819,
        -0.09958118261476301,
        0.0031864410058315548,
        0.15313374066325952,
        0.029565614225960796,
        -0.027185404300707396,
        0.060908996519539155,
        0.04554192909588005,
        -0.014107030258971559,
        -0.05057537282844225,
        -0.14187241237199177,
        -0.02295857472092555,
        0.026884074715273466,
        -0.008100524413128883,
        -0.06598841832303459,
        -0.020347699627906064,
        -0.06731443970784194,
        -0.09831334316686777,
        0.13848174308861264,
        0.10602505866068776,
        -0.06419291268817706,
        -0.04826196913437598,
        -0.0342540660667138,
        -0.08263848235162814,
        -0.018332048239222604,
        0.01028376870538454,
        -0.004570599732682522,
        0.03438764920167316,
        0.043429158762553266,
        0.0047684608226163236,
        0.10677729669783956,
        -0.1279463016719638,
        -0.1266730743825037,
        -0.04526750183175385,
        -0.052147741200523005,
        0.03171699214309465,
        0.03765162062226945,
        -0.030045958810760578,
        -0.03605124924044794,
        -0.10519036612510542,
        0.0319230805299518,
        0.007374166344850235,
        -0.1444574524756123,
        0.03337530813021454,
        -0.017828079878835064,
        -0.02848288285108555,
        0.10362507527941875,
        -0.0638946126582372,
        -0.04355350268543083,
        0.08328689196689137,
        0.08447476106269117,
        0.05039417909274412,
        0.05525766238207243,
        0.045256363333689126,
        -0.01942883548559733,
        0.1316585983504481,
        0.059598967894083726,
        0.1088583244015578,
        -0.050038872066824905,
        0.08043390529283456,
        0.03210378522193344,
        -0.04973086329264377,
        -0.08294737384858922,
        -0.13017579558869763,
        -0.10367456469951963,
        -0.05277453398741145,
        0.004270762688551264,
        0.14940937519388137,
        0.13441406749245088,
        0.07927750337526807,
        0.06007301560885139,
        0.19542715247340192,
        0.06787287384310034,
        -0.0434201374799598,
        -0.0838380026521735,
        -0.010504582148439095,
        0.010568933657234594,
        0.027068082150567472,
        0.009359542814745212,
        0.08926912655481653,
        0.1388016977449684,
        0.07267243541041274,
        -0.06617987346352408,
        -0.0271835962839075,
        0.01020864188228395,
        0.07500850022584113,
        -0.012761636668845115,
        0.047500891757725414,
        -0.04494253846885234,
        -0.036199204757498396,
        -0.06733797105799505,
        0.054060709548989144,
        0.054599981579351545,
        -0.05732670021312031,
        0.019444037516811827,
        0.12926601131131318,
        0.03411699551372422,
        0.06682966019084151,
        -0.017685149250354516,
        0.03593136396291233,
        -0.14929885131077464,
        0.04494520723593159,
        -0.07147023730295099,
        -0.05778735031690702,
        0.1004244317405942,
        0.12682002937134185,
        0.026450301470876604,
        -0.05386231599751442,
        0.028652431175217163,
        0.02868967160162237,
        -0.016480221608225928,
        -0.052362459810856424,
        0.04614118977219675,
        -0.11258124303043505,
        0.08693373005727244,
        0.021662267521308752,
        -0.10239897270397001,
        -0.10168169455599935,
        0.058362035886450524,
        0.009311393712147079,
        -0.052651985146038555,
        0.05794749886376407,
        -0.10004589734505671,
        -0.10518421002664664,
        0.15676340196987065,
        -0.023635126613045374,
        0.12871622622380735,
        0.02979067845682464,
        -0.01640896819974899,
        0.0453656530163991,
        0.05044700925320895,
        -0.015694305996861523,
        -0.08864713515840171,
        -0.08235815393858936,
        0.1276868692454733,
        -0.028972987840827975,
        -0.1106077077481209,
        -0.0385309178070852,
        0.11066651240621649,
        0.02374973257592098,
        -0.050299994802090936,
        0.10002188077932667,
        -0.022373383550110287,
        -0.024216037168642,
        -0.18128373437484158,
        -0.07276974213797877,
        0.0910905680499075,
        0.05169603174003316,
        -0.03562543197428538,
        -0.0029067991782869337,
        -0.06545096412846661,
        0.04319090798453164,
        -0.07485482963835022,
        -0.11636994212701215,
        -0.06255195337604359,
        -0.129773124438169,
        0.048744574101731324,
        -0.06369899381293737,
        0.015568202737061883,
        0.014645987914987845,
        0.14794061995683788,
        -0.07010181371236206,
        -0.03268294860565199,
        -0.038003831856181274,
        -0.01162060994234793,
        0.040339617481315496,
        0.11925116730196114,
        0.05508123049835818,
        -0.06766074386650205,
        -0.08433255809097753,
        0.09076682510066336,
        -0.050316648186567774,
        0.15635429207057044,
        0.0977707704129438,
        0.0203237558987416,
        -0.04983034587216453,
        -0.12335653677880554,
        -0.07568454283436156,
        -0.10512310499541748,
        0.08193379776211795,
        -0.06253171775171738,
        0.012472992594856652,
        0.13792102715581292,
        -0.10386878339626529,
        0.03990175007710861,
        -0.08722636144343732,
        -0.1190815774564988,
        0.061818919811950535,
        0.07055185673016331,
        -0.026573222119722892,
        0.15441345359969533,
        0.02079441955790299,
        0.1482557452148131,
        0.07561580914390564,
        -0.00042079021076633515,
        -0.03920662125366073,
        0.05978863978973265,
        -0.0101823346484139,
        0.0556628066234045,
        -0.056945159967569464,
        -0.025912850941853652,
        -0.052777034233418424,
        -0.06583036830889476,
        -0.1353502340349059,
        0.12723747989480746,
        -0.10230448981567782,
        0.10795837527179764,
        -0.025494239333536985,
        0.11295658056828103,
        -0.004739688845651889,
        0.0018344437144373832,
        -0.053332662115482064,
        0.047155363413997065,
        -0.0427999246412236,
        -0.02974736859893645,
        -0.06053093218072575,
        0.07819256043399836,
        -0.1482281867853914,
        -0.010531598777128708,
        -0.0031138540238529674,
        -0.09219383767668471,
        0.11829606051075262,
        0.015300321843250173,
        -0.001780179953614471,
        -0.020090833441216933,
        0.09647826865843279,
        0.1177672398615223,
        -0.10632525064333692,
        0.1096712682358484,
        0.011837544398904831,
        0.021963919783330815,
        -0.053023725196121446,
        -0.0553808233005408,
        0.20701661075318673,
        0.03782154514243559,
        -0.04584863202258089,
        0.011428071827178516,
        -0.04624916953374144,
        0.0035058552513484277,
        -0.05485344963683191,
        -0.13579844035900202,
        0.03707334045077974,
        -0.033569882951052954,
        0.11587497029522398,
        0.04404982798930199,
        0.020172300284764737,
        -0.046667697837212,
        0.057041652485389976,
        0.02331427256212257,
        -0.1317486557483063,
        -0.03749012050295437,
        -0.07673537496188354,
        0.06831276678115164,
        -0.22603467401006425,
        0.10747159900686123,
        -0.09624841658321909,
        -0.006860489913232435,
        0.0074389939314316,
        -0.07204574133763988,
        -0.24648678794202508,
        -0.05529977758841081,
        0.016660110805063324,
        0.056231272831648915,
        0.03421364288142659,
        0.015354935193723294,
        -0.04373418087023133,
        0.08988425466025189,
        -0.08638489643253716,
        -0.007948893359727194,
        -0.15092317330570076,
        0.04861059317254926,
        -0.07125828879253043,
        -0.11072117757631114,
        -0.06787718367870921,
        0.11625867360185246,
        0.1517152394298859,
        -0.17856602022943246,
        0.12860234473340104,
        -0.07121722805458443,
        -0.11697181547707511,
        0.13610591654615975,
        -0.10710189797267149,
        -0.05315148436614371,
        0.07684699320109739,
        -0.03923617000714116,
        -0.07429398242740634,
        -0.006754489527928682,
        0.13786931918246337,
        -0.025068491466219863,
        0.03437450657121628,
        0.06028272433704045,
        0.1263928564148196,
        -0.02324150863127163,
        -0.08040583691980199,
        0.00672862062726143,
        0.2100233291136498,
        0.07337505259805166,
        0.027223364976101262,
        -0.08809017337684322,
        -0.09492171000235365,
        -0.10794264752851351,
        -0.003791591550057116,
        0.0935189998684384,
        -0.030008057429548773,
        0.03842757003120642,
        -0.02031531430991082,
        0.01521903702403965,
        -0.06705968043867935,
        0.024309976338210564,
        0.13292387772763203,
        -0.15891916823840607,
        -0.10103204220075492,
        0.08716921508708433,
        0.11417970863133081,
        -0.013871117308035308,
        -0.016357198757111932,
        -0.12035876673624196,
        -0.0486932441502565,
        -0.007617796227167031,
        -0.023819978868783565,
        0.08120756881852983,
        -0.04413554699760999,
        0.0764561164720447,
        0.11698415701103954,
        -0.08743493644565095,
        -0.06288701450073661,
        0.18228385441901138,
        0.002251864681882952,
        0.10720274523042053,
        -0.015809337370546933,
        0.061037878112793084,
        0.03302791761902775,
        -0.021900242427519683,
        -0.014015089974881113,
        0.006663922251047353,
        0.03808615850157514,
        0.11814173464405539,
        -0.007612484530580598,
        0.11746120886807074,
        0.028323843557258768,
        0.018767991954651272,
        0.08490465609558312,
        -0.0972395786412477,
        0.03159770456224956,
        0.04639391021905767,
        0.06696936382998678,
        -0.1173736692296244,
        0.07629226449083495,
        0.18688819751613012,
        -0.007036858555683581,
        0.09735208045589236,
        0.04142753083214823,
        0.051717362499943575,
        -0.01968460675966553,
        0.004914190550662547,
        0.1450007034252765,
        -0.03472947651154909,
        -0.06442581828516397,
        -0.09236102916526584,
        -0.10599653515261734,
        0.011283583638423113,
        -0.0318041803227941,
        -0.09669575431322822,
        -0.04520859360884798,
        -0.046222069875158284,
        -0.11647460991286933,
        -0.08369461779749,
        -0.03490262450024058,
        -0.006589544357002606,
        0.03775473468645279,
        -0.04505273043603179,
        0.05533289538470615,
        0.02554281770923518,
        -0.03767429646356913,
        -0.0030812214335774876,
        -0.19319532060617056,
        0.2038004772581989,
        0.02157524612793329,
        0.1719984781697251,
        -0.12445578120992551,
        0.037327639804957576,
        -0.10157412753320513,
        -0.1932785883802397,
        0.08139531119993951,
        0.06928655968208722,
        0.0720960736963684,
        -0.16316924967935992,
        -0.014128905531161792,
        0.055030598466930494,
        -0.0015663862612096777,
        -0.040951300628895786,
        0.05287505689347871,
        0.10340175892218907,
        -0.17543286053072796,
        0.05011361911855099,
        -0.0628527195582995,
        -0.00910656767448533,
        -0.13648173726187854,
        0.004043174366394233,
        0.020612083029051584,
        0.06289313398576687,
        -0.05209020099767582,
        0.0849617143234318,
        0.08208858662949722,
        -0.09421187135249745,
        -0.08004407882452627,
        -0.06069601766099743,
        0.06466396008401165,
        0.0012212474694186402,
        -0.015795570904988024,
        0.09109370437196071,
        -0.028137080680978824,
        -0.03536650524636267,
        0.03360284558936242,
        0.09908509798419768,
        0.1152522517690688,
        -0.08271266158401225,
        -0.02344673638146067,
        -0.02833671046084904,
        0.011571042059297959,
        -0.14479937352630148,
        0.0241858184557769,
        0.040980926122638414,
        -0.045580785277586536,
        -0.012317862862502957,
        -0.11483764964627621,
        -0.04761498825595684,
        0.04656406218368547,
        0.0456612148377786,
        0.01425395133767154,
        0.07124226877723785,
        -0.007396524933275528,
        -0.06882271788594434,
        0.07488737768742781,
        0.043828147320184155,
        0.0374771389297171,
        -0.04548616322749883,
        -0.02625367230966285,
        0.04947125590727149,
        0.1277879983367648,
        -0.06451587164146963,
        -0.03525740368633523,
        -0.03825030163523048,
        -0.06353872010911749,
        0.006055584665068425,
        0.14317726163370853,
        -0.01981694347884628,
        0.04959084087974776,
        -0.06146482156407535,
        0.1168033779350919,
        -0.040358700291622265,
        -0.03653806739756825,
        0.058952031568241886,
        -0.12797484368883277,
        -0.0637100521394659,
        -0.1118524598383466,
        -0.06453089487324806,
        0.21091173522864487,
        -0.03897909907729423,
        -0.038685185355601774,
        -0.020644606120068854,
        -0.01765454606074314,
        0.009980132562848418,
        0.10118461288938525,
        0.09271017848234664,
        0.026369964372064254,
        -0.006757462123134241,
        0.09096419536311545,
        0.0544036716770763,
        -0.04355152294731211,
        -0.15724687277780014,
        0.11594413053795204,
        -0.025501676568751873,
        0.059970672568312997,
        0.07110125822014486,
        0.10586668904594178,
        0.12984515973514443,
        0.07799775999795519,
        0.2363218579118165,
        -0.04218908954438796,
        0.03702247534083386,
        0.05653776990768024,
        -0.02309228497712925,
        -0.05249200665954494,
        0.031242193026131723,
        -0.04979880332442431,
        0.14101974879736762,
        -0.025530614928463417,
        -0.010586527132349172,
        0.03379949437726025,
        0.07210962559872522,
        0.0021393517198649735,
        -0.04823374702183433,
        0.02256760548711964,
        0.04619350703729293,
        -0.014774764302550971,
        0.03843191906095795,
        0.1026778272405753,
        0.06452185638864803,
        0.05552148658477262,
        -0.01288616209452765,
        -0.040756173775085225,
        0.11244818134448159,
        0.025058422838498046,
        0.02638309645529563,
        -0.06798883845829909,
        0.08253023704079734,
        -0.12837067503940366,
        0.091438974475894,
        -0.001290692792006516,
        -0.07539463116682701,
        -0.092854263547924,
        -0.06997748947005726,
        -0.08119138923747099,
        -0.14552479017041453,
        -0.0437531594712004,
        -0.16432504792938762,
        0.0019617970908277697,
        0.1338701893435173,
        -0.04337691830019771,
        -0.0772712108404272,
        0.014943694836373629,
        0.04516923311573562,
        -0.030075225417399355,
        -0.033371275813338847,
        -0.18588670157768183,
        -0.014239604167549456,
        -0.046296427529874576,
        -0.22897403014353948,
        -0.09040027343671603,
        0.027411494575271582,
        0.006397460817031391,
        0.11480000034489554,
        -0.0033637367941907158,
        0.011874868636806387,
        -0.06481321750287494,
        0.006630745978948082,
        -0.1511353604835478,
        -0.018138287532520368,
        0.07232884499477604,
        -0.060804607358577234,
        0.01877570161151387,
        -0.026644094316089453,
        -0.02477944374749417,
        0.024897441521811114,
        -0.07932886693864155,
        0.09066211643471678,
        -0.00167660318577864,
        0.12946032818247413,
        0.07477373466749736,
        -0.10759918001471633,
        -0.17106643910250563,
        -0.019576576937749567,
        -0.07496082294146679,
        0.03190060930848239,
        0.0008775136160587566,
        0.05702593393649115,
        -0.013269924440921685,
        0.0814645716586079,
        -0.024896141977316752,
        -0.1615701341251316,
        -0.01174012283198696,
        0.12789181064600547,
        0.07149808577427953,
        0.175965063061906,
        -0.02544345155400593,
        0.0938820238143292,
        0.021066835725210134,
        -0.10430681523767858,
        0.11626537921380506,
        -0.04328944551756433,
        -0.05199072691195253,
        0.0577435018878171,
        -0.0471010079944255,
        0.07306304221974359,
        0.1350901418996504,
        -0.1244164983192291,
        0.007450311317241356,
        0.2055860466182848,
        -0.10112862137098534,
        -0.020330099388875488,
        -0.050895182752784374,
        -0.14708149342316257,
        0.04691334946197209,
        0.0989223015345036,
        0.26331616945480885,
        -0.006937750846002191,
        -0.03245685368841642,
        0.11155037536845278,
        0.053197801612389364,
        -0.018461613370171333,
        0.03654346291865586,
        -0.19139441787171158,
        0.08281961656660963,
        -0.022731861836404563,
        0.04573016054508344,
        -0.06892788595437824,
        0.03150009031958953,
        -0.1668529241465661,
        -0.13048941974854736,
        -0.07497162343623746,
        -0.001239365373946796,
        -0.06830608893282786,
        0.0006861405372121422,
        -0.01599428626978497,
        0.04019085337924157,
        0.029966104662724296,
        0.040467374780035814,
        0.04124822234570881,
        0.015033622108767832,
        0.04357038598497874,
        -0.02145279450234882,
        0.04686243932768183,
        0.02168773302408753,
        0.07049487175220737,
        0.07317728390748246,
        -0.07065130036203732,
        0.06625765576169124,
        -0.12692016428052963,
        -0.025922586059600034,
        0.13783291580812934,
        -0.07643399809402372,
        -0.09243136787731474,
        -0.06709135422411569,
        -0.009929792578104436,
        -0.042487996552649995,
        -0.07146015307658854,
        -0.03158369378910185,
        0.04570604521172732,
        -0.209084177636772,
        0.07578361574024181,
        -0.023594286347804798,
        0.019514343659865478,
        0.002242152073377413,
        -0.05262119557700864,
        0.0019778950078602163,
        0.11770506408739383,
        -0.024757268115367912,
        0.16234732214712963,
        -0.01794127261700708,
        -0.07042396274307011,
        -0.027517954702787024,
        -0.06749856536396195,
        -0.09091550461660731,
        0.06113582866768279,
        0.05756554994119137,
        0.12479560572934584,
        0.05840474713994114,
        -0.10399769604591079,
        -0.019853059999462054,
        -0.02252166145106501,
        -0.14660147718347094,
        -0.13106568874377106,
        -0.09241047229835744,
        0.15502117472212673,
        -0.025993420676846672,
        -0.08238511339880134,
        -0.14203444220610212,
        0.0713871594617135,
        0.11319275697609406,
        -0.07316888650957874,
        0.034115680438617714,
        -0.04500037318113949,
        0.02316659825947017,
        -0.039501722299106715,
        0.03793627058370811,
        0.09943884986735058,
        -0.029000532352680818,
        0.14252786575294418,
        0.04328504318409328,
        0.0818321411189735,
        0.13399456686301126,
        0.021236339613413938,
        0.050468509251083975,
        0.07587758442005291,
        0.03004850251906186,
        0.0055553750523542845,
        0.03837063569102843,
        -0.14152537993149572,
        -0.036939527355404025,
        0.04627313677751546,
        0.016037300846819702,
        0.04555566186395201,
        -0.004909496209795174,
        -0.029473971570926252,
        -0.12284352971273133,
        -0.027517867288626333,
        0.060115603869627936,
        -0.06754054272301434,
        0.01949257250420458,
        -0.12314946654922038,
        -0.021118224563112097,
        0.05092360138520268,
        0.030047410350957468,
        0.11648923787589667,
        0.039964207307133966,
        -0.04061612970038392,
        -0.07136733188062527,
        0.1402557655253649,
        -0.011916440685726616,
        -0.1787653341800323,
        -0.04428691498311658,
        0.1850723821195916,
        -0.0584354047564097,
        -0.11000536429801161,
        0.13533193685318654,
        0.03924201290395109,
        -0.09240690147418376,
        -0.08651754462294314,
        0.07739935196065784,
        0.07824346289954293,
        -0.18595896753329103,
        0.02834401086545149,
        0.002321352025841006,
        -0.07376661931790501,
        0.0014121513425574246,
        0.03247760768777074,
        -0.007680363856835939,
        -0.11460153140064175,
        0.12683314492707265,
        -0.044085676282440575,
        0.005865079201076485,
        0.025057218861749525,
        -0.050463276362947916,
        -0.015481565809741317,
        -0.1099842928294872,
        -0.02267358097021556,
        0.03131502070690692,
        -0.09589947466348273,
        0.07161166529020063,
        0.04917156496679412,
        0.05120694814415303,
        -0.0709945331246041,
        -0.03388418480960376,
        -0.0820590810865213,
        0.010724434016803442,
        0.04604263168142706,
        -0.047321189885506425,
        0.033908259754167516,
        0.10136467231304785,
        0.05398914032166579,
        0.07107863227790247,
        0.04116311650887751,
        0.0247464364378448,
        -0.05748267389349905,
        0.05182523003700834,
        -0.021759852957592918,
        0.19904555070163754,
        0.0730119151537277,
        0.034574496089300716,
        0.032337702238853815,
        0.07925172568569332,
        0.10619037650640775,
        0.08808774534637873,
        0.008187756831059614,
        0.027505165160727457,
        -0.0710930242690387,
        -0.05014606863146975,
        0.0039311912867475134,
        -0.12015882211933046,
        -0.08588453740101877,
        0.06966640592231949,
        0.003058560474838056,
        -0.08903231404921685,
        0.0846840388394384,
        0.02275811041801045,
        -0.03967539996573025,
        0.008492181952844891,
        -0.05042923715881964,
        -0.1330796350077167,
        -0.12185627002603835,
        -0.05617578909451193,
        -0.02736436457274656,
        0.03678345173967649,
        -0.004007855019603776,
        -0.17317048421232029,
        -0.18810559972135907,
        -0.07672814048239011,
        -0.040680236906705414,
        0.00534657884839203,
        0.028228647894139546,
        0.031214360896591048,
        0.02843894950928782,
        -0.05948055853395355,
        -0.09282493100450036,
        -0.0716469058485976,
        -0.08760614965596142,
        -0.05270058297070869,
        -0.03655640636164276,
        0.18925578412276384,
        -0.08433889404817341,
        -0.04160217219519799,
        0.1382152354789576,
        0.034876382783150695,
        -0.07438724404451005,
        0.13522730070496808,
        -0.01343783157978388,
        0.14875462831599498,
        0.016061552380065437,
        0.0020354158907378034,
        0.06526447439300744,
        0.0219400076751975,
        0.1523218878987555,
        0.08014021934992553,
        -0.20069479687939631,
        0.10697375183252433,
        0.13627786778477782,
        -0.06005198128260299,
        0.0007929525819736084,
        0.11860459319261649,
        0.06322346946872477,
        0.17350904146817503,
        0.00438323660423988,
        -0.005870407134875259,
        0.15040232046425545,
        -0.044725041828988656,
        0.0843435153408732,
        0.113472213257788,
        0.03964353072251886,
        0.14396559291823052,
        0.11890011002120265,
        0.032797929210945514,
        -0.057220152011870015,
        0.05154222252038731,
        -0.10258415653880829,
        0.02730470610210199,
        0.10182846501467838,
        -0.03039704746487748,
        0.1265101252263504,
        -0.1317724461624443,
        -0.024884723227316514,
        0.06721838876612654,
        -0.10362695503507618,
        0.014833128288608513,
        0.03011989839630048,
        0.057948647850813245,
        0.07497102217803439,
        0.07517243437831342,
        -0.012985089729363887,
        0.030465286868905803,
        -0.023156251402630383,
        -0.04409349039821539,
        -0.062268455441954626,
        0.14245121632209584,
        -0.0020353102221115755,
        0.07809276032235317,
        -0.09125759856360122,
        -0.0003501488067987749,
        0.1476105061314161,
        0.05033911423291934,
        -0.08684283403973705,
        0.04448388304533404,
        0.07853253678295405,
        0.10891190582556891,
        -0.09874813130544807,
        0.14422729660987002,
        -0.09032042660646436,
        0.033397760657015926,
        0.04978353832389919,
        -0.04620493106634546,
        0.037080544985785245,
        0.04228107092910986,
        -0.004918598646499994,
        -0.00900400541320261,
        0.045754873095887466,
        0.04231952679208659,
        -0.1421950511692584,
        0.008266150820354508,
        0.013916788062954061,
        0.04911723659544667,
        -0.003801786722969008,
        0.11425183474140174,
        0.027188425381941467,
        -0.006612600159297549,
        0.01891941829214259,
        0.05992401461895726,
        -0.011610255804653673,
        0.01598946488396525,
        0.031387033768711034,
        0.09297166081472844,
        0.07145652860049506,
        -0.04064629400486797,
        0.025810658020578112,
        0.023857230603796027,
        -0.028636362415395727,
        -0.03313859026356103,
        -0.08054878220539241,
        0.08110331204833347,
        0.026490576115326347,
        -0.01642347012506368,
        -0.06234128687849323,
        -0.017931412555497912,
        -0.0037234972741802476,
        0.02229827567506053,
        -0.048518345444385234,
        0.07865371107313295,
        -0.03279650524868498,
        0.007969169886663633,
        -0.047296468198906705,
        -0.01765492046863568,
        -0.0760255317946624,
        0.05297038344238957,
        -0.0020625709765423918,
        0.07762251533491846,
        -0.06638979607105772,
        0.12667153711409285,
        0.025173249562309492,
        0.013666619135674879,
        -0.004966450783929665,
        -0.053393178419173265,
        0.03199166131852363,
        0.03174968965101726,
        0.052807577063861376,
        0.09543965920279267,
        -0.0718517756852949,
        -0.1093159256671074,
        0.09970165980660156,
        0.04050144532653419,
        -0.024854807933721468,
        0.01867252038371813,
        0.003917166407262982,
        -0.0707234355471614,
        0.06820686426556771,
        0.08810415266168513,
        0.03830589554073452,
        0.08929663970232382,
        -0.00958488328486156,
        0.04032988855524121,
        -0.05740786341730482,
        0.005788313819974718,
        -0.004889222016486802,
        0.06401066585949838,
        -0.04855084336397286,
        0.06344580385205373,
        0.025801991816379474,
        -0.017569662646132217,
        -0.04593754900165914,
        0.09292531038489668,
        -0.22042562138001398,
        -0.07152261833885606,
        0.021479180227179335,
        -0.11310436990427261,
        0.005806331139383228,
        0.1389182073300372,
        0.10442190236237528,
        -0.05168372245999589,
        -0.07594873091030854,
        -0.06795234321569549,
        0.054114018141371595,
        0.0010920013984670562,
        -0.007509788521498787,
        0.013651182215191732,
        -0.044507470212586484,
        -0.21048296313706125,
        0.05736624239727874,
        0.01994685011461432,
        0.1146209717818504,
        -0.05082150106194097,
        0.02298869886872309,
        -0.12324130555225318,
        -0.01049318306826906,
        0.11061145809965822,
        -0.08097775390095753,
        -0.0871579451870298,
        -0.05375942599458976,
        -0.02314892381967953,
        -0.045483048641834334,
        0.1680188194681425,
        0.0525954193371012,
        0.12075828219871602,
        -0.038310661103667404,
        -0.04272490821651126,
        -0.044387715588833074,
        0.12983452593207773,
        -0.0007442285712522037,
        0.007802263251763433,
        -0.08037750962070397,
        0.04956014445167922,
        -0.012675977528518033,
        -0.04877029475268569,
        0.032984902733578764,
        -0.027800536912016824,
        -0.12114983664395779,
        -0.03282694296893253,
        0.09693116074698313,
        -0.04479457330609275,
        0.03504923231294041,
        -0.08037587119457298,
        -0.07694911868449078,
        -0.09948624940462644,
        0.03508110954627089,
        0.1357149112389377,
        0.10216051783015273,
        -0.06496983076896612,
        0.004489096753070033,
        -0.06664071234562202,
        -0.08035546548181219,
        -0.035221403656375175,
        0.05406092965731238,
        -0.08160417236399935,
        0.02742166526214606,
        -0.07439819451438824,
        -0.2894321949984492,
        -0.25856698646208603,
        -0.05315962481694517,
        0.053912727252109355,
        0.0539508224698768,
        0.01067087843510229,
        0.08820329772268312,
        0.1041059939149474,
        -0.0921249291674143,
        -0.023075052217258567,
        0.013375097530602342,
        0.10297987287275043,
        -0.06023769997535469,
        -0.032158633154360364,
        0.016974482300551173,
        -0.025435150507465535,
        0.10484515163231906,
        0.03735691130515348,
        -0.02834238161697406,
        -0.0871574809753553,
        -0.11125176870934704,
        0.028004870654362368,
        -0.032719995602478,
        0.024912156249844566,
        0.048866291987447207,
        0.18539394336627965,
        -0.04296248457516222,
        0.14833693267392944,
        -0.07982259187624124,
        0.07860121112467638,
        0.01636122071132277,
        -0.022274813938932648,
        0.030582014529443327,
        0.061857614719420015,
        0.024021759629735913,
        0.06285340053919995,
        -0.066409899939089,
        -0.03979277908250964,
        -0.005606139813803528,
        -0.026198041068167907,
        0.04343991690551243,
        0.032208311727040306,
        -0.04553814209598321,
        0.10985331118441746,
        0.16676193177552773,
        0.04641942507632604,
        -0.11428488722108891,
        0.04784339687144086,
        -0.027189871859908524,
        -0.009332328457048115,
        0.007344621735783992,
        -0.03177334115582539,
        0.07203701714802502,
        -0.05352000261370078,
        0.06652030617127722,
        -0.12371101144622702,
        -0.1318761486907212,
        -0.04929186546884408,
        0.07504571082790133,
        -0.04545088427093861,
        -0.10768545843848021,
        0.09189848972139675,
        0.02184910523495994,
        -0.07637181722179179,
        0.005277166089706744,
        -0.052415219813797334,
        0.0335296812409502,
        8.150592492994367e-05,
        -0.021740560718450853,
        0.07339716626227547,
        -0.16056199896495266,
        -0.10574066380851133,
        0.06840611697528283,
        -0.12572774734987444,
        -0.01369419933673191,
        0.1056416015736448,
        -0.04336828368225641,
        -0.09485971467652463,
        -0.07773607796991885,
        -0.09155755115804745,
        0.06308431502628917,
        -0.08568225402115497,
        -0.040121802315160604,
        -0.10099321347575266,
        0.0425066793381398,
        0.001099173208638313,
        0.022266456382111922,
        -0.04290640970091832,
        -0.09621229401904327,
        -0.04442605486981118,
        -0.03770701378889556,
        -0.028586609627808294,
        -0.05476794774960175,
        -0.08760596911974193,
        0.13245926632533528,
        -0.07794739229886288,
        0.0006522929630987987,
        0.011820941705733331,
        -0.11753723016756534,
        0.00418125508981857,
        0.027007990377709346,
        -0.07106413406016904,
        0.23354729071287553,
        0.05481932532763212,
        0.07428091879214915,
        -0.04738901893768646,
        0.01795255469808269,
        0.06422174780319442,
        -0.0073301668739920505,
        0.1149218795719018,
        -0.05101779455217741,
        -0.008164983847044303,
        -0.0765179972970222,
        0.13534187454006769,
        0.025928719349434845,
        0.018259266515819418,
        0.09994884193502454,
        0.03690110940357737,
        -0.04526051894536186,
        0.03557016364178184,
        0.171366956655546,
        0.046239707595452734,
        0.08353068656469749,
        -0.01808709991499469,
        -0.04781176547263169,
