{
  "weights_summary": [
    {
      "layer": "param_0",
      "mean": -0.0006119329196430188,
      "shape": [
        7,
        192
      ],
      "std_dev": 0.04889433293584203,
      "values": [
        0.007469237017072707,
        -0.07139076234433363,
        -0.0036275785365786116,
        -0.022975553642628335,
        0.004801635973477856,
        0.016930834772724838,
        0.06129171373814443,
        -0.10658104943826946,
        -0.0021561961899549745,
        0.014344358563896258,
        -0.027353770016251742,
        0.03617174896619103,
        0.0023016881822391054,
        -0.018630646304292307,
        -0.03376210307390694,
        -0.021869142297096918,
        0.06392836584902026,
        0.05253840048828751,
        -0.0039632938724460335,
        0.01982738309726299,
        -0.038060960703730384,
        -0.007201372314366269,
        -0.000148924523676477,
        0.005929841201739167,
        -0.1006691373410897,
        0.004735347682799446,
        -0.00950169551669137,
        -0.10362406662530851,
        0.013110680896516371,
        -0.0013974900277218029,
        -0.004198763036952333,
        0.002664144375978068,
        -0.07574615178767581,
        -0.040635399355980845,
        0.02206991117787327,
        -0.00013363820739835448,
        -0.053149757524029444,
        -0.006539238305991137,
        0.01964789328395255,
        -0.005186583490266912,
        -0.0008031732292236803,
        0.0015362961720412258,
        -0.00796465826527899,
        -0.020098683663623357,
        -0.048578749899973586,
        -0.008508106406520744,
        0.005493050285360701,
        0.031139327799539485,
        -0.006031924025403392,
        0.09611548710796577,
        -0.002483903626129064,
        0.07200024583195119,
        -0.02393083955626766,
        -0.009872914092117237,
        -0.05273563654340119,
        0.005049348511828366,
        -0.011401535134365696,
        -0.02566255860441398,
        -0.004171032789987971,
        -0.06128182977622027,
        -0.00197392088202155,
        -0.020129062700020683,
        -0.03637089581798037,
        -0.00454608476703558,
        0.03285472275330538,
        0.0027445422805142967,
        0.004555591689006277,
        -0.009088061427794813,
        0.01450503877127474,
        -0.004292231872146534,
        -0.014400437378126161,
        0.016167600064368744,
        0.04261317630991254,
        0.0699050445181051,
        -0.011480122450933293,
        0.003601672937739786,
        -0.02090515857804537,
        -0.006968005980131084,
        0.06732880559059798,
        -0.0012817207025439402,
        0.01779334975774003,
        -0.04173224840403794,
        0.011934544043534884,
        -0.09617894643730102,
        0.00042681668535677367,
        6.512511141940105e-05,
        -0.005142200818491079,
        0.07595430990956606,
        0.01909703265377166,
        0.037088738221461665,
        -0.04982071298471919,
        -0.007920979558553469,
        -0.004665151368278856,
        -0.0024113559744467408,
        -0.012648469364421756,
        -0.03033533369878174,
        0.025127123064816556,
        0.03559417362196913,
        0.039430975803340526,
        -0.01040528733709502,
        -0.06411332984486148,
        0.002012888166394738,
        -0.003956206516259015,
        -0.020901893038912954,
        0.0026930533200928176,
        0.04700104315893537,
        -0.0064053449371882145,
        0.0119650047327794,
        0.0036146991052056336,
        -0.03809341807240141,
        0.01853541488075849,
        0.06008007766542395,
        0.024311446520910187,
        0.009863285961491294,
        -0.06676955522293476,
        0.011009434020978598,
        -0.03356085866566948,
        0.004340868742506043,
        0.003305242447179328,
        -0.0007039302303914948,
        0.04402580512055679,
        -0.09996702334741209,
        0.006689114211230307,
        -2.8881359095723748e-05,
        0.0013911721015323593,
        0.010217100193674306,
        0.044617052742779884,
        -0.0038623579674744194,
        0.005946343833092547,
        0.09406127905890344,
        -0.05697338786216341,
        -0.05573441174349038,
        -0.014031559301255297,
        -0.05214349662645019,
        0.044324668460862186,
        -0.041624908734663575,
        -0.005355807442924024,
        0.0012155286427862995,
        0.034606079060298264,
        0.030297392132938476,
        -0.08546339063502616,
        -0.11117044806090298,
        -0.02458443760678048,
        0.004721023615164963,
        -0.07888459461708777,
        0.0586744750922068,
        -0.08626386481266565,
        0.0037164001713591967,
        -0.03251408057079355,
        -0.05452762233731172,
        -0.01753721859979821,
        0.13539152045742087,
        -0.07799545785874881,
        -0.014408141802548641,
        0.03409653714129147,
        0.055846578064277105,
        -0.017296562038070576,
        0.12286884142112336,
        -0.051867724423433,
        0.05419378092989144,
        -0.008461532944003234,
        -0.11147439466644982,
        0.015904496236936023,
        0.0993157643730001,
        0.11056616079515168,
        -0.13138656783293615,
        0.016326515732248217,
        -0.018149250768754937,
        -0.06815103573273132,
        0.11147413918433213,
        0.05345204295692052,
        -0.019229359732639673,
        0.04547179557360975,
        0.015068214570462125,
        -0.05280122604037055,
        0.11364537111304564,
        0.02704620421006263,
        -0.12501610399025886,
        -0.05145029227720552,
        0.12284939907900329,
        0.013847399068651046,
        -0.056301095298621776,
        -0.02777643017050465,
        0.010790712286932246,
        0.03762017334699551,
        -0.02279833375135607,
        0.021208086058574497,
        0.09523281809950705,
        -0.020144238256055325,
        -0.00035506175087881555,
        -0.002513683550318381,
        -0.0054976627467943785,
        0.06971359212936554,
        0.005417917619072024,
        -0.044732783542331005,
        -0.04051529092822737,
        0.061612595250279706,
        0.009323924856537253,
        -0.05589881852073885,
        -0.015457966959032243,
        0.02481282759374708,
        0.02936380287497406,
        0.004454950823320963,
        -0.0018740850688274474,
        -0.015698454057883286,
        0.038940193792765976,
        0.007883036606352346,
        0.014935708122291346,
        -0.005154851169914504,
        -0.03017547191229088,
        0.0006282204498086523,
        0.04525660127199038,
        0.02326624792605507,
        0.015577324600660539,
        0.0025537756924464555,
        0.00462352737407448,
        -0.021747182221232918,
        -0.052411782742345044,
        0.0014222078160257222,
        -0.009898489647272246,
        -0.029077804182883617,
        -0.011832735549989294,
        0.06586006683112577,
        0.009400560248557063,
        0.002892576273280422,
        0.04974500693872208,
        -0.02735802081254096,
        -0.053765871407086475,
        0.0006674769508278661,
        -0.006469363758965153,
        -0.08309908815111701,
        -0.04048721199299467,
        0.030077977299173955,
        0.0019312982699583232,
        0.052463821577884345,
        0.005756273324545903,
        -0.004666262797400867,
        -0.04827281301872534,
        0.017598627390294136,
        -0.03803901467483005,
        0.0026731469623320786,
        0.05353171429484621,
        -0.002447130238637007,
        0.017671228014505738,
        0.026024099882185833,
        -0.011029819483413097,
        4.765697200926374e-05,
        -0.010736995251161886,
        0.09262783369449702,
        -0.07102047793773217,
        -0.004062318927653564,
        -0.033396418882181554,
        0.026986383268657946,
        0.003868020292646232,
        -0.004801704061235267,
        3.5952682378410434e-05,
        -0.018402630737422442,
        0.0010731306963866912,
        0.06586035951302086,
        0.004694009801806376,
        -0.06403461583494766,
        -0.10010506295501514,
        0.02044790773577458,
        0.10397099033531856,
        -0.011755123124706826,
        -0.0012178751558745452,
        0.0006699712617418608,
        -0.02734909503432724,
        -0.05520792937266941,
        -0.03955954528653393,
        0.04625584272457296,
        -0.003101722152074659,
        -0.027584376660458335,
        0.011653065377744878,
        -0.0737061978641792,
        -0.002443166794774263,
        0.00036473417964120184,
        0.00012858397686343404,
        0.04725385245611593,
        0.039874027054061505,
        -0.0011380711445996418,
        -0.032399989421880555,
        -0.05231389667383034,
        -0.00786239469278539,
        0.00886547039307278,
        -0.07212684284272028,
        -0.04730887976377211,
        0.005125356805627769,
        0.0034077395241492686,
        -0.00259529654824848,
        0.07656109439995737,
        -0.06653080275887636,
        -0.04191506990427709,
        -0.046958951572868377,
        0.06788656836887996,
        -0.013252490906525492,
        -0.0075398240607493176,
        -0.00132041699950606,
        -0.0002186495236938171,
        0.015598783418266211,
        5.074116766831313e-05,
        -0.004483481472175833,
        0.04531010233205342,
        -0.02598138428915028,
        0.10156566321359595,
        -0.019558392564946694,
        0.001180755898464889,
        0.019572675004759378,
        -0.002532144626794285,
        -0.003084601133804955,
        0.010831392111999898,
        -0.026556142629460565,
        0.004341746944194603,
        -0.05875588273944908,
        -0.03142599242456427,
        0.04028285700214236,
        0.001395497562051747,
        -0.0367421993557535,
        -0.0012898042559567654,
        -0.007860848829906822,
        0.07014743389332766,
        -0.07124383756435748,
        -0.07173936922419966,
        -0.049770714038271664,
        -0.07620612896451615,
        0.08168073240798822,
        -0.04264017283120426,
        -0.15701118885646484,
        -0.030776758710040535,
        0.10810134211389061,
        0.01707754816246248,
        -0.0005345897081570706,
        0.07923211092153093,
        0.029696581830098906,
        -0.04684664225333418,
        0.0382616436212575,
        -0.005288882399174504,
        0.07367142141270455,
        0.10066051903954268,
        0.04004771371381485,
        -0.06216587786759887,
        -0.08041736210253042,
        -0.022505696589154744,
        0.011421601845572737,
        -0.01216471109473886,
        0.006545468595401558,
        0.04490748469189888,
        -0.06862337232974794,
        0.01861288337943418,
        0.061139490764665114,
        0.12779482744572798,
        -0.05087789288696706,
        -0.012587206092449333,
        0.032545695401915764,
        -0.047823439601489826,
        0.14650726583985083,
        -0.07279593438938098,
        -0.14785307037203177,
        -0.10668949353675311,
        -0.02661892643734458,
        -0.05064147655556919,
        0.09031552817204785,
        -0.04080980281529043,
        0.051424491805665176,
        0.04576224574945459,
        -0.00038764501164439665,
        -0.12060370978393706,
        -0.12043775062424864,
        -0.04536945789395682,
        -0.12480054418531412,
        0.007039677541319539,
        -0.004774167545124351,
        0.036352591636828274,
        -0.017169834498300812,
        0.058505719424174464,
        -0.016295842301436547,
        -0.014812566932400462,
        0.025374596173674456,
        0.12270892303744026,
        -0.0667034214488066,
        -0.0478801597402488,
        0.03705532547530703,
        -0.06717260917763973,
        -0.08947496464825944,
        -0.025787641920833722,
        -0.10206646565459303,
        0.004376627464723575,
        0.08359461929321407,
        0.04228381526612355,
        -0.04176723677217718,
        0.03071141442603994,
        0.0024922397002777015,
        0.0030979457884399565,
        -0.024027634372493653,
        -0.016424918465827092,
        0.031354371585752716,
        0.010032499002994343,
        0.017572808805956915,
        0.030444233259595676,
        0.003934902278282757,
        -0.016540558061870415,
        0.004936645195230135,
        -0.0047072338798550654,
        0.010795005893516917,
        0.07514313235790657,
        0.0004706090241974018,
        0.00839622063742397,
        0.07051301058597834,
        -0.006071465657212992,
        -0.016461234299602077,
        0.04572566372065998,
        0.020456304649225023,
        0.021131265716098614,
        0.018250192788047265,
        0.0041545979066780385,
        0.0008979676617411163,
        -0.018525731735623753,
        -0.01729472609174502,
        0.020513736458833996,
        0.0003023828325519236,
        -0.003279055900350938,
        0.06974495673496349,
        0.05446983078658736,
        -0.005191693745439054,
        0.0019431790249341734,
        0.02118977781971805,
        -0.08386123664839457,
        0.0019066237512218598,
        -0.002738281731942066,
        -0.010106538878213726,
        -0.020232113578125956,
        0.062107210327256926,
        0.006727560734726357,
        -0.02227907526152564,
        0.03639896593079457,
        -0.005755896067316875,
        -0.031100763495222082,
        0.012290003345003912,
        0.031196982863850392,
        0.0022582979649980153,
        -0.024028427997900344,
        -0.03030770880691897,
        0.006566174760010448,
        -0.09233039757804246,
        0.0015120955552860972,
        0.005823710877770056,
        -0.007117193103820519,
        -0.005921424923040829,
        -0.015008639885934216,
        0.07665851358113006,
        -0.023117394468819448,
        0.002311290668891022,
        -0.0202963753192213,
        -0.002038086852595294,
        -0.005122937681668888,
        -0.07414271524877528,
        -0.005489790837628243,
        0.013381147250423595,
        -0.04563098666867964,
        -0.012880140659295342,
        -0.00875319859915772,
        -0.0009213181000278839,
        0.053348972668699673,
        0.0014906941187281544,
        0.04296821739080514,
        -0.04062879389394815,
        -0.04360531989007786,
        -0.06272253170138495,
        -0.006234375703887428,
        0.01943136840422497,
        -0.008716366163718736,
        -0.08662945023545747,
        -0.0015412586000695455,
        0.005391471656892685,
        -0.008852776880113343,
        0.023270284335855852,
        -0.06128594791953926,
        -0.004791648296770207,
        -0.02454973070742051,
        -0.032117803160926675,
        0.030453227272549302,
        -0.0010452122702694253,
        -0.07506771867575693,
        0.0014756634017805703,
        -0.02625749889432412,
        -0.01897501773467173,
        -0.0029106961232087387,
        -0.009319357722078859,
        0.007705094445274806,
        -0.0021380318516760876,
        -0.0026411053938591466,
        -0.02770160451300012,
        -0.023601527374301504,
        0.030718732697154208,
        -0.011098748175608544,
        0.03272001335516429,
        -0.03375136131720376,
        -0.010396106632288977,
        0.001317770649115159,
        0.007209340151315214,
        -0.03568853820781593,
        -0.007979893999445209,
        0.005894748489590985,
        -0.0016972525817585326,
        0.01950919571631715,
        0.002807957852424539,
        -0.007218873761918338,
        -0.007639391451697591,
        -5.54232912527766e-05,
        -0.0018993890783076067,
        -0.005355034633629883,
        -0.001036532891531262,
        -0.03877228799976201,
        0.11111430298551618,
        0.014197188525746331,
        -0.01984314583645852,
        -0.00011239500474703712,
        -0.05540454883547567,
        0.0959174149417043,
        0.03457200899379375,
        -0.015022336319325886,
        0.08590970670554698,
        0.08995225435821153,
        -0.12145250386713961,
        -0.013792362825658388,
        0.030523821349545597,
        0.06860888609728477,
        0.0731905939418056,
        -0.01727575182080731,
        -0.01871110346962348,
        -0.04849250233597706,
        -0.07783823218752789,
        0.09782679033967843,
        0.05175806885835546,
        0.08336348912476862,
        0.07547319666518304,
        -0.14562418285486156,
        0.007844772762788211,
        0.019409973376135932,
        -0.059630223747288325,
        -0.10121970229950587,
        -0.027065852229668813,
        -0.031732407513354904,
        -0.06421798008734134,
        -0.037504140641465025,
        -0.03516317617882235,
        -0.024580106217759575,
        -0.01979212825094135,
        0.0043016482681067485,
        0.02095722791963917,
        -0.04890010996077333,
        0.14163442305786544,
        0.041605074416758,
        -0.07595361123136815,
        0.022336480448036235,
        -0.023975460794393336,
        0.07536533251103703,
        -0.09669464797995803,
        -0.08414598447682367,
        -0.014057771228005035,
        0.04852933922785643,
        -0.11216252281544031,
        -0.037285637352648573,
        0.055256186861877166,
        -0.04471393215766046,
        -0.07243182261695226,
        0.1258042465021408,
        -0.031152594673418785,
        -0.04684967999997506,
        0.14610456467565178,
        -0.03992847858344861,
        -0.09698452071006992,
        0.03602673151286974,
        0.07249144089891599,
        -0.01021392944663565,
        -0.07296534386884031,
        0.023217137811137607,
        0.08136346433314358,
        0.04180452535738451,
        0.021084600853917827,
        -0.005447909700775532,
        -0.042389858789687374,
        -0.003323662505965236,
        -0.08941081803038607,
        -0.07494133613363996,
        -0.025166883662517806,
        0.004310192448185294,
        -0.002006855099150261,
        -0.027540428584415935,
        -0.05077298181429439,
        -0.0013857963036745047,
        0.019455516089956208,
        -0.012861242229854419,
        -0.011912532918610066,
        0.0007716620078714252,
        -0.03763080429843732,
        0.018906908750207084,
        -0.0023788424215923903,
        0.0010318479050191631,
        0.0007532072938467901,
        -0.03157628271907477,
        0.06900965964423833,
        -0.02795685903410608,
        -0.0026777252605903103,
        -0.003515423152185798,
        -0.02978161395646759,
        -0.0086286199622179,
        0.007758704207710649,
        -0.00731910329814696,
        -0.0051633629472423,
        -0.011245779551989797,
        -0.00018270841934631254,
        0.0009224694619331587,
        0.0917109582756478,
        -0.012553118967345329,
        0.05718819296342824,
        -0.020052422666684444,
        0.0006581212012737627,
        0.03741481155507955,
        0.0013288431206116022,
        -0.015906413493703975,
        0.005953791264446661,
        0.039044684245711586,
        0.04141188357288934,
        -0.08585228917186258,
        -0.0051329127472648966,
        0.015670959929792228,
        0.002314048422685049,
        0.014570455407416047,
        0.027067476048356017,
        -0.060985036068881095,
        0.01667841754230068,
        0.017501033297241335,
        -0.05372389869888071,
        -0.0017201403361363217,
        -0.0016978317660114295,
        -0.0037984844941471385,
        -0.008385140337504817,
        0.08282284413983138,
        0.0026483655190370397,
        -0.024010834689821663,
        0.02977295820059766,
        -0.02469249579164618,
        -0.005534702014879271,
        -0.03804888887022442,
        0.0022815407745746964,
        0.015989986201095423,
        0.0034638564851873902,
        -0.07140992412199273,
        -0.0014343939029274957,
        0.000407244158599903,
        0.03928781860947631,
        -0.0686379655285711,
        0.0022099300738365425,
        -0.0031839587501248405,
        0.09711906312345864,
        -0.006810505987657983,
        0.005711340840346238,
        0.0011189629010292684,
        2.5516221694658986e-05,
        0.012111539079828234,
        -0.07088125696000805,
        0.00181097579508201,
        -0.0009508034317679359,
        -0.001275458772239635,
        0.0014115501779031318,
        0.009181507737540517,
        -3.071015460761245e-05,
        -0.05518724004728452,
        0.05039060203918755,
        0.00482293099096584,
        0.004468264094963657,
        0.003755410792874847,
        0.08207047596346882,
        -0.014646344675327019,
        0.005166941665617357,
        -0.0013437288387260948,
        -0.06939775719691707,
        0.0007623660502582864,
        -0.07174853974810659,
        0.002054233037268112,
        -0.02842163081409066,
        -0.012056551121583787,
        0.023190553934197104,
        -0.022809333525328157,
        0.0333296797931632,
        0.013595564628523698,
        0.006720661474616314,
        0.002225652353263074,
        -0.01504186362309258,
        -0.0004551828500342107,
        0.006028113859063347,
        -0.0009620061464763695,
        -0.05041230402208476,
        -0.009844148697060729,
        0.0007223851749455569,
        -0.007215359492377614,
        0.020547878925410698,
        -0.0035434381097325784,
        0.009093954620374864,
        0.0006148160872547371,
        -0.039487600725480645,
        0.027514951460560017,
        -0.004539782365220476,
        -0.05381983661220388,
        -0.01269054980573411,
        -0.14191185643068338,
        -0.028530423103464653,
        -0.09118628683882975,
        0.12907254661087936,
        0.027007917279592973,
        0.016447343300249384,
        0.03582332239092348,
        0.023011349535703555,
        0.031622179497699465,
        -0.00795991974162278,
        -0.12125283523793061,
        -0.06475011156110165,
        -0.07295302863843955,
        -0.036220494826295024,
        0.0486809874086646,
        -0.07681746076371568,
        -0.009580604507321537,
        0.04233823298943006,
        -0.0056250436110163865,
        -0.03349834202633385,
        0.01652967136135691,
        0.10138885570283812,
        0.0455951931983333,
        0.08256001935545276,
        0.0773922606180603,
        -0.0035157605306557955,
        -0.04326428611148615,
        0.03307546066882236,
        0.06300457791767129,
        0.07153621731891842,
        -0.00781861644254046,
        -0.05247825589466892,
        0.002758059518490354,
        0.05351000944424414,
        0.005077332531676763,
        0.025337739934594837,
        -0.0606596323746874,
        0.003359233553526051,
        0.013549357368966158,
        -0.03558444930588392,
        -0.04566847026555354,
        0.04797759880410413,
        0.1053122227334515,
        -0.10501430450586324,
        0.0033430210522201265,
        0.022458177221085014,
        0.026624892438521446,
        0.09126798637332373,
        -0.008091090684342285,
        -0.026633129434615252,
        -0.03370267949805773,
        -0.06398526500825444,
        0.044303004395543986,
        0.0445736172120388,
        -0.1346409410402711,
        0.13534926639429523,
        0.11169966757345173,
        0.1209923660116557,
        -0.006601361357450474,
        -0.13058404766934867,
        -0.0002011272767587859,
        0.042467949010593205,
        -0.008915685371053247,
        0.08058255156723657,
        0.005310238457799489,
        0.07073151178081563,
        0.014966711460063746,
        -0.029082277242646358,
        0.07161322576099496,
        -0.028743400606942318,
        0.0013780515781865901,
        0.027746527028783153,
        0.0028501101017118957,
        0.01799515744799112,
        -0.010737157257168705,
        0.048114867926060685,
        -0.014628155990214858,
        0.08728475883588319,
        -0.002985405608510905,
        0.008954111860467448,
        0.002413127986595045,
        -0.0809308069875822,
        0.00020865431072814998,
        -0.056680887790314875,
        0.0003812929921215586,
        -0.0031473236630961696,
        -0.05586724481957441,
        0.042326174256277826,
        0.04736880624188708,
        -0.008969127200203979,
        -0.002765347741549725,
        -0.016983611956279218,
        -0.001355780191292622,
        0.005482837645830881,
        5.514643123108558e-05,
        -0.028976966946782274,
        -0.07462602634425888,
        -0.0004781947395476676,
        -0.005550918585002548,
        -0.0302253449965638,
        0.03979051312621493,
        0.06405492813833757,
        -0.04948246781375812,
        -0.08396945534469816,
        -0.002238104847820434,
        -0.033289290764154086,
        -0.02569436969380867,
        -0.0178253845099601,
        -0.0006889270755910772,
        -0.07512413227749828,
        0.0360583407352052,
        0.022626155654306816,
        0.0009497500037296769,
        0.011994058884136172,
        -0.006709925223576848,
        -0.0037415501435187366,
        0.016072798833564547,
        0.023202746470534157,
        0.04350605199079258,
        -0.014664921517893916,
        0.0606808976414316,
        -0.038712076865550865,
        0.007712644707513945,
        -0.010937090454822404,
        0.0033516221246612243,
        0.0020505118074794614,
        0.010700709551952427,
        0.006651198831769563,
        -0.04893324917165871,
        -0.09363369035020044,
        0.06628693365881867,
        0.09107732145492539,
        0.09266034318890519,
        -0.05203775902745422,
        -0.07824570700881768,
        0.020354935408511354,
        -0.0023861114233629183,
        -0.0360448541319862,
        0.07494753549454594,
        -0.0273679985111792,
        -0.009529352403493997,
        0.036439005543507784,
        0.006444518057411395,
        -0.005486049201781448,
        0.002966154699441892,
        0.04493178304625753,
        0.016635969735212405,
        0.04362027912736022,
        8.277366222694464e-05,
        0.004057135490878105,
        0.05897934967106097,
        -0.08101809303625343,
        -0.0033321267057814406,
        0.0028772789903587226,
        -0.02209572255764654,
        0.006112174093473441,
        -0.04298202257951073,
        -0.00020460813272842453,
        0.011898101526744666,
        0.002945749070275853,
        0.0019648443321253982,
        -0.00014426018482904135,
        -0.03607196885397159,
        0.0019050603734222693,
        0.03622925585302575,
        -0.008606184005165687,
        -0.002682886963520449,
        -0.030030675620395603,
        0.0014563955544115033,
        0.029127511413757884,
        -0.0075897716817789704,
        0.03282807149972568,
        0.0017651779568162015,
        0.03292243564225815,
        0.006774943941679002,
        0.011187131814499936,
        0.029504348969137624,
        -0.008748814551813752,
        0.031622438203093906,
        -0.0010640796924460375,
        -0.009140409135885062,
        0.040166209946575396,
        0.012865609589647633,
        0.07737013728847303,
        -0.04536027748473764,
        0.018276254067671655,
        -0.03404423183300156,
        -0.022232840348389942,
        0.034481104629777604,
        0.007569432673524709,
        0.026720176111939532,
        -0.021521589493765397,
        -0.01977953210642707,
        0.030392724662506795,
        0.025944055169786845,
        -0.10161730626659221,
        0.0870505717315102,
        -0.0028536767319492385,
        -0.08916235812215886,
        -0.12378442346446092,
        0.019680070612861495,
        0.02205279393354176,
        -0.03792279622658572,
        0.09799378363773002,
        0.01735890038982032,
        0.0016202202292856295,
        -0.09727925995237496,
        0.12160042260559635,
        -0.009291980405053028,
        0.019229042027556143,
        -0.007391542285828624,
        -0.11986071491751923,
        0.056269452436482,
        0.056329050886913895,
        -0.08256917338742006,
        -0.09722033829606463,
        -0.11359938586283724,
        -0.04010639376490294,
        0.01726276287649376,
        -0.07846693530038432,
        -0.044686683555173315,
        0.1050008372784644,
        0.014458297695979942,
        0.11802884039490577,
        -0.14243610269289222,
        0.0034203194743206407,
        0.0688454167600624,
        0.0038957405251718097,
        0.06023320136477585,
        0.07661671225277672,
        0.13021606812963382,
        0.016394710008871355,
        -0.10864429228505426,
        0.0025014647213784753,
        0.1346455266292449,
        0.06349285960602227,
        -0.09570600256056085,
        -0.02932215273890877,
        -0.11452535226970635,
        0.07391173971143908,
        -0.038336596635566475,
        -0.003518355337932646,
        -0.09003511508976156,
        -0.10261782623672866,
        0.07386617909084658,
        0.07012152288149767,
        0.03911445667996789,
        0.03134122657660502,
        -0.12460857220471966,
        0.03615004929977289,
        -0.008738787454941787,
        -0.049619897685839,
        0.10104217834715432,
        0.06180348982711398,
        -0.03702304575906997,
        -0.01531518129039414,
        -0.01862955516273153,
        -0.08248303179047221,
        -0.038058002426356326,
        0.046379403059161474,
        -0.043103585980007755,
        -0.0334230423141149,
        -0.022926615361213976,
        0.012337312616758588,
        -0.0997918738210037,
        -0.003402146416597675,
        0.026542427517664148,
        -0.02309485429875876,
        -0.001182647508606032,
        -0.020380974835852172,
        -0.07098633531060342,
        -0.04171448425008867,
        0.0035887951130964,
        0.01493864877805989,
        -0.006447359051331748,
        0.007342075503437868,
        -0.004927355214320074,
        0.05522130768548994,
        0.0037975495580119547,
        0.006248984483130819,
        0.013917701994115829,
        0.0035819619308111524,
        -0.013836559243577573,
        0.08408421328458995,
        0.013169751252109455,
        -0.01738543406340828,
        -0.04030063286090882,
        -0.004300124601555648,
        0.06567862910321265,
        -0.02827985391231783,
        -0.0003475732161486868,
        0.01867348872556171,
        0.04752774001148643,
        0.02477880290513609,
        0.006619424286052573,
        0.0033330323638448177,
        -0.020906908753389315,
        0.0032662084094824758,
        0.006091705628507201,
        -0.014219138520083824,
        -0.014150929512331142,
        0.11488145246675979,
        -0.010795265691114261,
        -0.03307864096128153,
        0.0035511017837713053,
        -0.0015350419433346244,
        0.03310413839149308,
        0.00036105431351871975,
        0.0691559734763329,
        0.0020273444343232106,
        0.05392723638031645,
        -0.023401712052643898,
        0.03366393726482636,
        0.019640982115653075,
        0.025484648947099137,
        -0.0012051763547315986,
        -0.00867388183030545,
        0.002320824946505059,
        0.013644320042969517,
        0.04934610406439968,
        -0.01616444977844357,
        0.08153177889425162,
        -0.039130343582885134,
        0.010666772333892911,
        0.0002710337215225024,
        0.0176854342876629,
        -0.009262729022286777,
        -0.013673343543862862,
        0.003700899603988861,
        0.04713416837590488,
        0.05540885111594163,
        -0.015578017856319636,
        0.06262352108886407,
        0.00017569742055738798,
        -0.005325503566005087,
        0.0021218557368405944,
        0.005487050576906181,
        0.05174925573591484,
        -0.0024923165847367096,
        -0.0024260401397035725,
        0.0013167155253368985,
        -0.0008381554616788543,
        0.00046086235418130563,
        0.0070898737086923826,
        -0.01337781607335671,
        -0.010575145474968002,
        0.0038664480719767785,
        -0.07740704978445989,
        -0.001878901269439722,
        0.0581909589324307,
        0.019944896936463084,
        -0.001385602266762193,
        0.02768470099093823,
        -0.07999313359182461,
        -0.0012152222712882744,
        0.025439228841964194,
        -0.004999458782662991,
        0.005203735974453328,
        0.011853297123958655,
        0.014785427556397793,
        0.04247925796402074,
        0.03342267935809268,
        -0.009661809195387052,
        0.008759931749340644,
        0.016931261405854353,
        -0.01652500118260985,
        0.009441837663284602,
        0.0035810726313483636,
        0.03776219439720531,
        0.020298290994906307,
        -0.00031168505517683334,
        0.09611130601470158,
        0.025617351621654745,
        0.049998857722494294,
        -0.030781952357673857,
        0.004564991413379746,
        0.040487042515727184,
        0.004282925839573376,
        -0.01243518462738637,
        0.005711155247295944,
        0.002546146382150125,
        -0.05894708728930028,
        -0.07504388619538921,
        0.08160455258284546,
        0.020799246888972965,
        -0.04162654044455724,
        -0.08419540930174385,
        -0.12946598715889035,
        -0.00739402416756186,
        0.06230948942601232,
        0.009959099677372935,
        0.02869693814735324,
        0.06675166385998912,
        -0.02289163645656534,
        0.04954034805634534,
        0.04357008500510257,
        -0.05626782774788446,
        -0.033548693865326315,
        -0.011036776411767353,
        0.04205469840903801,
        0.05044649835953091,
        0.015044366299821643,
        0.05342264320755365,
        -0.07233965517736507,
        0.05623820135758281,
        -0.06635613984865452,
        0.08972387938998519,
        0.05784077246267812,
        0.004075152165993983,
        -0.028005202715565322,
        0.04886908542242658,
        -0.05669238294153025,
        -0.0618826901606034,
        0.005906905469683733,
        0.07546765508959297,
        0.10666428607663374,
        -0.014340344541053682,
        0.039972571028990794,
        -0.021385915408527717,
        0.06164231494998997,
        0.07240960302122862,
        -0.042418486747023657,
        -0.06281546853951313,
        -0.09140096987324636,
        -0.11808903445268404,
        0.07490861051057193,
        -0.07706294745327348,
        -0.046868841136330754,
        -0.033564563064027754,
        0.0361634194041864,
        -0.05562233073488141,
        0.0220091577670502,
        0.03392848785729342,
        0.06722145563470275,
        0.11825998277763455,
        0.04522416258622018,
        0.10449421044202792,
        0.04525953548923639,
        -0.13425478082145204,
        -0.09922069790727922,
        0.013771442611742273,
        0.00329439905979688,
        0.07379078614092344,
        -0.0017066654555422554,
        -0.06833747928265921,
        0.041669826069591034,
        -0.020239908752318715,
        -0.008046256671083184,
        0.00391924005745215,
        -0.04283008531318053,
        -0.11097770632258314,
        0.05655204469993129,
        -0.004317243626888357,
        -0.013368894759005975,
        0.0037653752631883657,
        -0.010799018690942434,
        -0.006422501512258648,
        -0.015164345762686672,
        0.004703310881309363,
        -0.0149445187505097,
        0.006568353587031036,
        0.032141685107073534,
        0.014276342773523854,
        -0.044602323520868216,
        0.06099587531871748,
        0.00877197402209245,
        0.006585585722422432,
        -0.010279231712982312,
        0.001024765039670734,
        -0.004618496747121853,
        -0.006328059993966401,
        -0.01656021264031319,
        0.0025695725311156476,
        0.05692024500947481,
        -0.0005391709117900531,
        -0.04835891548352414,
        0.06641186212192604,
        0.019195760277177405,
        0.0007144263564760715,
        0.02674972837840905,
        -0.023343973942548522,
        -0.04708719079066967,
        -0.08289223252258449,
        0.028316028840743784,
        0.00758531675521716,
        0.03107782672373606,
        -0.07805796590966255,
        0.032140218419266606,
        -0.00046151809380450947,
        0.005078055805021329,
        -0.02014394343787609,
        0.039709837132576614,
        0.03407860172248521,
        -0.06463637412735815,
        -0.03131572060167172,
        -0.02487140217017602,
        0.00433380488082892,
        -0.009240280128848938,
        -0.0155111591734755,
        -0.017855036177736885,
        -0.06241872493243567,
        0.0007439543614208422,
        0.07827349002955564,
        -0.039278892544918814,
        0.05658212772506168,
        -0.016314007720506542,
        0.012205847388907873,
        0.02539292086717023,
        -0.006630482873510657,
        -0.008900422812100694,
        0.02219611925602239,
        -0.09080770264600724,
        -0.003818383868675575,
        -0.09846731950732993,
        0.003818883640793619,
        -0.026046471488776445,
        0.0022219475091200228,
        -0.04024041205565449,
        -0.006716880169320689,
        0.027061486778504167,
        0.0015759275070871938,
        0.01236810203598039,
        -0.08630354177710628,
        0.0004999594105896512,
        0.01587129895385515,
        0.0010048081593460737,
        -0.00322296781467143,
        -0.0010454122071987002,
        -0.008448689556949798,
        0.0273114805541253,
        -0.002156683143538685,
        -0.0988537639313131,
        -0.0068480955337821454,
        -0.06926352244179196,
        -0.020900777023381584,
        0.07627620083888254,
        -0.008699339590316437,
        0.09206430059429604,
        0.007853388881784353,
        0.017892020240031156,
        -0.02072289154054481,
        0.04081453606221763,
        -0.004351965356214093,
        0.053480808197921004,
        0.002380743270886949,
        0.0165210669994468,
        -0.011271106065176532,
        0.03872032562816548,
        0.004359552924209836,
        -0.06078739392041765,
        -0.00300822108337261,
        0.0442447473478573,
        0.0018278253420443563,
        -0.0417942521977092,
        -0.017442749651653044,
        0.007765376377812076,
        0.0755307136997681,
        -0.08365811230195988,
        0.031097799068519227,
        0.05457315257005828,
        0.05317894899893271,
        -0.0190666954240308,
        0.05587030674808159,
        -0.024223573662602693,
        -0.0007409640825652738,
        -0.00017198559345510888,
        -0.0853591128500374,
        -0.012104811763313166,
        -0.013665312831807457,
        -0.004584012916884192,
        0.0007765991739901823,
        0.05353765689209443,
        0.002842819422522424,
        0.0017377116746977376,
        0.04105204593228564,
        -0.020545827060912666,
        -0.004619701073760071,
        0.12668892071889123,
        -0.10715079540241687,
        0.08558317361420877,
        -0.128908039448569,
        0.060615617048283076,
        -0.024404042922244067,
        0.03332686760089286,
        0.05466439008299383,
        -0.0986617353835482,
        0.02968133235359901,
        0.025248981365002733,
        0.0052367455480064945,
        0.03809305377207248,
        -0.10659646183754946,
        0.024739544071572354,
        0.027496981593687596,
        -0.02385044778324233,
        -0.11942234461589485,
        -0.01204580233361666,
        -0.04407262789986732,
        0.0546704297751752,
        -0.04797220372031433,
        -0.02829038034101794,
        -0.1367870671920462,
        -0.11801186873495478,
        0.0833230547521619,
        -0.11556861158185223,
        -0.013679262904979955,
        0.1303351123515258,
        0.10627422615300294,
        -0.03097171936886077,
        -0.07710347347992294,
        0.03274853474959097,
        -0.025202552738250623,
        0.014026835800340774,
        0.1467425228512832,
        -0.09484008729812118,
        0.017267712238378752,
        0.005140374140369116,
        -0.008704223777688768,
        -0.07868451088567875,
        -0.006640973363898777,
        0.024068202075260354,
        0.0909870377965541,
        0.17727745748721344,
        -0.021325681041285238,
        -0.07294001460686723,
        -0.006821807033783465,
        0.039637606942222646,
        0.12031407170570657,
        0.06480605635942269,
        -0.11773325089012783,
        -0.037178818303547995,
        0.04719355782924252,
        0.1448210038694882,
        -0.06117567685177122,
        -0.008083774161640663,
        0.028611324062690548,
        0.06392395520530247,
        0.01207332426165332,
        -0.04765964019567928
      ]
    },
    {
      "layer": "param_1",
      "mean": -0.0001387108763815714,
      "shape": [
        64,
        192
      ],
      "std_dev": 0.052318151117230684,
      "values": [
        0.00847816193399703,
        0.08718919699510472,
        0.10873347471159625,
        -0.06220659511248008,
        0.050957925886502456,
        -0.039004896463727366,
        -0.0022558839035081834,
        0.10655477879840744,
        0.1091657285681214,
        0.03478805527573275,
        -0.005503107222616377,
        0.020684501425005247,
        0.02892959345451488,
        -0.06882406552233475,
        0.024812699148433683,
        -0.06279239255335334,
        -0.021219491784938278,
        -0.030988085980226815,
        -0.005189484384352726,
        0.008226577897058416,
        0.017298229904105285,
        -0.004839602385456191,
        0.013447336405944504,
        -0.05618582647781829,
        -0.015611593690747279,
        0.06664655717818112,
        -0.04543112845922061,
        0.0064995448724527866,
        -0.0163377559252409,
        -0.04744653540789215,
        0.04587617741809937,
        0.029761743232177024,
        0.043946498169795754,
        0.032500596762894296,
        -0.0021678239719797737,
        -0.07738966045467628,
        -0.025820587249418048,
        -0.07880095266953738,
        0.03800647661697222,
        -0.057995630077422686,
        -0.016405810797791767,
        0.004610105275068804,
        0.009318698194995218,
        -0.032381991793532836,
        -0.008990017056163521,
        0.03357237075746593,
        -0.07498642098940506,
        -0.06002258386260669,
        0.023065159314310517,
        0.021979179076946437,
        -0.02045979965862857,
        -0.10075592586726334,
        0.07754586931731755,
        0.08404417637426262,
        0.003416928278153722,
        -0.003433257031430277,
        0.09590669465443163,
        -0.0035639128602192004,
        0.10311445228999935,
        0.030114833534858575,
        0.015432045198502957,
        0.001328479074975946,
        0.06126747280462396,
        0.1210625206964554,
        -0.041431955604847824,
        0.01950350775271677,
        0.006390403471908064,
        -0.049960083115347234,
        -0.04657817061484777,
        0.028533923044954463,
        0.016841162813567786,
        -0.03883155931888488,
        -0.002592163327642571,
        -0.019064714762498523,
        0.031264419668819765,
        -0.0775291992098,
        0.03779714072039635,
        -0.000799903499397573,
        -0.03775326667302735,
        -0.05853125919268892,
        -0.0018134358007217142,
        -0.009205813277124227,
        -0.03999320192087491,
        0.04690613288267206,
        0.09347750936307714,
        0.017547407790858262,
        -0.042476718274827276,
        0.00423499209527221,
        0.015595070072884826,
        0.02946245167278607,
        -0.020697348310311215,
        0.008186289489757767,
        0.08891767508469597,
        -0.04958425041182061,
        0.030134322412154822,
        -0.06980018389742287,
        -0.014665229938023472,
        0.04664452926427089,
        -0.050278342016223124,
        0.07274537269261261,
        0.07760408228267363,
        -0.042981390695110436,
        0.00792589497282833,
        0.028981991869003715,
        0.014000758352091466,
        -0.09601272068103708,
        0.07183586669568687,
        0.06858848350605835,
        0.059179898731406395,
        0.04553858920618058,
        -0.06275770881329108,
        0.03391994111956602,
        0.002565961640781333,
        -0.017801901037735254,
        0.10657712997233128,
        0.022946280310043102,
        -0.0021750566697996757,
        0.06262846268749317,
        -0.061341098902127855,
        -0.00706853593678404,
        -0.018655914657148186,
        0.03684867568771484,
        -0.030833967962813673,
        0.04286846881676438,
        0.03088362503552178,
        0.008627487909743159,
        0.094080007676258,
        -0.03515057052050061,
        0.057961536840882504,
        0.024270087638724867,
        -0.026384538522194006,
        -0.04331729468420846,
        0.0503035743692595,
        -0.08350377879975938,
        0.056181795925042695,
        0.0057595495796347665,
        0.06324291537697585,
        -0.027135455205065363,
        -0.0031533716167083375,
        -0.03551876273588989,
        -0.02204447413014876,
        -0.02407853637888863,
        0.07608971266639633,
        -0.04641050051237952,
        0.03848286381939059,
        0.022035738392216446,
        -0.0525441445328508,
        -0.033460806422617756,
        -0.013132562215754368,
        0.02442643628628831,
        -0.01553161226056022,
        -0.004642942317471557,
        -0.04743798932532992,
        -0.02129426407617782,
        -0.011945157276325467,
        0.012036152213026173,
        -0.009453261443643154,
        -0.003957980848970838,
        -0.0511984223106368,
        0.11239715442758288,
        0.04644376138116929,
        -0.06329708700486647,
        0.00965967360758,
        -0.06424572726136463,
        -0.021651292354364776,
        -0.011794239744817074,
        -0.03195944267038127,
        -0.016289294764648708,
        0.023238575162160713,
        -0.010062886459547001,
        -0.013479361533004212,
        0.03705885175896658,
        0.08532478711424779,
        0.06108512584019136,
        0.038226588478723914,
        0.031187013073954703,
        -0.0257766711835906,
        0.04011795794895337,
        -0.015914941243721017,
        0.03890865044197386,
        0.0929365371572468,
        0.09101101534916564,
        -0.0041378215392554735,
        -0.064663715141002,
        0.005121928265348167,
        0.005823384147937979,
        -0.08221951059211066,
        -0.04013326319645064,
        -0.018675000126387023,
        -0.00942487715657742,
        -0.029844210357425856,
        -0.027705167744524604,
        -0.00893385761360208,
        -0.093689145216451,
        -0.0009584008067029279,
        -0.03140790367163786,
        0.005865634785320598,
        -0.0601974334876136,
        0.0349718883399492,
        0.005493521998688425,
        -0.018347637938778846,
        0.0876217127380409,
        -0.024931507720915656,
        0.01825812010196428,
        -0.03600899316202632,
        0.0056008119998880515,
        0.050421787155984187,
        0.003347154062260039,
        0.04720449376749062,
        -0.058405470734233716,
        0.0016862312317125691,
        -0.07424030383247263,
        0.09693461687658203,
        -0.02908544627626251,
        0.014115638878851082,
        -0.02193936811083825,
        0.018881479931909244,
        -0.008351706575113353,
        0.02117957704154902,
        0.07758006825252578,
        0.10217378695893324,
        -0.028455321523547385,
        -0.008840749369022398,
        -0.0710871392432542,
        0.04628934765756312,
        0.010560595308978734,
        0.03658481129112895,
        0.005413316083244798,
        0.037980823992637414,
        -0.015064955530774641,
        0.032904119205765234,
        0.042411186918155944,
        -0.046624864329027196,
        0.0037826793819844898,
        -0.0037768249074673224,
        0.01030604373102549,
        -0.10831930536389393,
        -0.046182508732405064,
        -0.056432372839999315,
        -0.007871613155336814,
        0.062412543102351795,
        0.09966052940667339,
        0.05838942897072158,
        0.0032379135017664394,
        -0.018789937647146815,
        0.058275738448598624,
        0.12358913560360278,
        -0.06261697194281149,
        0.0037152034822960887,
        0.01769291484200536,
        0.03685957447875585,
        0.0156279366635871,
        -0.009723148971235367,
        -0.06286841051278073,
        0.05704563050766334,
        -0.008917261547125003,
        0.09504130185509349,
        0.024156123142705287,
        0.02202345951447443,
        0.030869884915791387,
        0.013758629422055633,
        -0.03343648220110927,
        -0.024156592062377774,
        0.0016984317138789215,
        0.035643488172961285,
        0.013718873480547542,
        -0.012528560276143165,
        0.1358773088919587,
        0.11181741845635038,
        -0.012884924501720477,
        -0.02999607722024979,
        0.052895044116776084,
        -0.04664896212697443,
        0.0221028790420811,
        0.004839914478362427,
        0.015681374358858552,
        0.03417415882689227,
        -0.03169445155954376,
        0.04262748748690666,
        0.053049916342951385,
        -0.012015155783126709,
        -0.09179852852166756,
        -0.13217440005610115,
        -0.11532840521327442,
        -0.018494562728071182,
        -0.027919258509276047,
        0.04963011651278475,
        0.04406462562522497,
        -0.0059352035121881825,
        -0.08480477416369404,
        0.02676685193139681,
        0.0008323773706403019,
        0.02395290747235135,
        0.07910587719513572,
        -0.025688672435094068,
        -0.10656812074635708,
        0.0682661555640218,
        -0.0534676348545898,
        -0.10468191681087143,
        -0.013776377315802914,
        -0.02540740361834013,
        -0.006057526260444736,
        -0.04127000753830268,
        0.022535540575488372,
        -0.08002040065361174,
        -0.16265329554004157,
        0.029925521121257407,
        -0.019537474347031077,
        -0.00020207839101444094,
        0.012939318709339075,
        0.1203946390218939,
        -0.005657728678773885,
        0.11560499677574798,
        0.07301358306277635,
        -0.07780352946810962,
        0.030341390499528203,
        0.039247663128221186,
        -0.050295334438557944,
        0.03653200008816423,
        -0.0373943516564742,
        -0.0299599745121176,
        0.048121069129852166,
        0.0645340533937008,
        0.06123703962344823,
        -0.0718078185432918,
        0.005579791970916251,
        0.06372710183538438,
        -0.05912760920604202,
        -0.025721287705859533,
        -0.005410401802111154,
        0.03851850222809033,
        -0.09200314428691023,
        0.00224083134948028,
        0.0010091698532375681,
        -0.00379351174266712,
        -0.06279170923885846,
        0.08336997978038975,
        0.008284021648671612,
        0.03832356255401312,
        -0.09629901743572546,
        0.12389651431471335,
        -0.014863563708156991,
        -0.029432312878435528,
        0.07559615229896391,
        -0.028619568284589045,
        0.051330922580803774,
        -0.015984741943030848,
        -0.02407591212779807,
        0.09899915505830598,
        0.04774255169225301,
        0.04398675817941406,
        -0.07095591864310377,
        0.047861566268413605,
        0.07372088079510487,
        0.08123517045135772,
        0.0671719022760197,
        -0.007813168400766658,
        0.010270732058350352,
        -0.010916396922685147,
        0.05311894600702664,
        0.05838754589271229,
        -0.02378591158496051,
        0.06402578268179264,
        0.04732190472473464,
        0.010262213172835422,
        -0.04327070835565038,
        0.02294253969079074,
        -0.018966642565221584,
        0.06947191525894003,
        -0.02620658398236965,
        -0.05685728418898304,
        0.06590334645762339,
        -0.01735553462040117,
        0.052087532728327876,
        0.011531029941930403,
        -0.05854860487270335,
        -0.0697506865169758,
        0.04621461880742871,
        0.0446311124244924,
        0.11656622183151241,
        0.044317629795600305,
        0.07095190769338566,
        0.003957847944069626,
        -0.025076089634243324,
        -0.004511911926168539,
        -0.04067237874517543,
        0.03481415775316085,
        0.06174269194857589,
        -0.022450354825173782,
        0.014681789190526144,
        -0.02198716208477807,
        0.12499867149101121,
        -0.00820262353620655,
        -0.04389168730401846,
        -0.033872332949871034,
        0.05930609432613115,
        0.07547933762974096,
        0.015021277858317687,
        0.08727914987575011,
        0.03346781948666975,
        -0.06616598831970529,
        -0.022460653327450293,
        0.040881541261848536,
        0.08448551259558085,
        0.032243667574962706,
        -0.006172431122756786,
        0.06856505993374744,
        0.014133411133158871,
        -0.03913800296071662,
        -0.019078692490816725,
        -0.07225486109014977,
        0.02640074426280014,
        -0.009390560902418708,
        -0.0010449199521147257,
        0.007412019007367307,
        -0.02644261421530207,
        0.07619511022642922,
        0.004435639147505405,
        -0.031450913598266614,
        0.06893144929122495,
        0.05024448364533825,
        0.011473270526079198,
        -0.011681137193552734,
        0.028271033085038637,
        -0.006721166043450624,
        0.03090358227634442,
        -0.029671452623448467,
        -0.0057370187074206845,
        0.09122758061371028,
        0.02447764559840579,
        -0.038975327829099696,
        0.04229386958564054,
        -0.05002899674332703,
        0.017275053279296862,
        0.0170687364743186,
        -0.13679157574231857,
        -0.01621129171161997,
        0.008226551509459267,
        0.07354370295598864,
        -0.023216216045422382,
        0.003492684313099865,
        -0.1009338487702861,
        -0.04396608621238191,
        0.0378543273510864,
        0.029027591427462737,
        0.05112753567728094,
        -0.012978333221222844,
        -0.046489494323261465,
        -0.00826555161403489,
        0.028700556617532232,
        -0.043752381116334796,
        -0.03265603557583528,
        -0.0032922805354336435,
        -0.007069114675645288,
        0.019856137858916326,
        -0.012925994795444415,
        -0.08160505267250565,
        -0.027064413856780038,
        0.0741342239435885,
        -0.08943176132060214,
        -0.03857267223859992,
        -0.027753415211012624,
        -0.0686292995199026,
        -0.0026082385747215686,
        -0.05567932134919299,
        -0.02052225430879017,
        -0.03655873291873117,
        -0.05404842449145436,
        0.02665542064209026,
        -0.049615642396655335,
        -0.05392198433932563,
        -0.08206995959448421,
        0.03550298537537014,
        -0.029286200610659844,
        -0.02389469744269232,
        0.03914219585769807,
        -0.0896906974093322,
        -0.035407010679783024,
        0.03252453045982817,
        -0.02538997746487756,
        -0.019833343235329873,
        0.048844992596368056,
        -0.035499793118911,
        -0.03083070523754408,
        -0.043888749719166405,
        0.08496175343522078,
        0.11083624858125452,
        -0.00585093357754648,
        0.007849785887766504,
        0.11539824491423992,
        0.0017411219742541513,
        -0.11522915811192125,
        -0.03727407876117052,
        0.037414264182056796,
        -0.047755234414965285,
        -0.00197341608065274,
        -0.04071389409861537,
        0.0011189139625328928,
        0.04427894808274386,
        -0.004170798175053203,
        0.07856821625121004,
        -0.03550844246348547,
        0.016914475733518973,
        0.0376234114210276,
        -0.05058730933232241,
        -0.021709692110532294,
        -0.03596707311566267,
        0.08502591366310831,
        -0.03601242356826899,
        0.03933650957057556,
        -0.01271733194063035,
        0.04835403797589849,
        0.014079367106786658,
        -0.022895249613743035,
        0.027476950061853703,
        0.0223723056307498,
        -0.04088346348500502,
        -0.029236501689894757,
        -0.05389277477332546,
        0.04952680474696658,
        0.023335083394718827,
        0.0756733037468167,
        -0.04451813367066297,
        0.012437443834806928,
        -0.043395421424942,
        -0.012377209988092178,
        -0.038774558542441565,
        -0.009411726159804276,
        -0.10700088068709676,
        0.053095975624468626,
        -0.0027464129634818223,
        -0.05705650764365249,
        0.01468051026370543,
        0.011410677118847173,
        -0.06475322234277804,
        0.02164881920131397,
        -0.040065986992843444,
        -0.054610963428172385,
        0.025339363757575145,
        -0.037417016534713674,
        0.017395794651995235,
        -0.0515339715837045,
        -0.05725185085979421,
        -0.08454441789763761,
        0.004852694308865106,
        -0.014057043772665152,
        -0.05955660592794021,
        -0.0660347688771869,
        0.11331798663030161,
        0.06984617852295259,
        0.053742763975902136,
        0.10365658349295376,
        0.044631516771523765,
        -0.10838845474452583,
        -0.012030036497953894,
        0.06191922044157299,
        -0.09006475306105924,
        -0.07399277684209746,
        0.04777206982324113,
        0.023907403325704086,
        0.08931217950826256,
        -0.019268789309408285,
        0.0015673500651718422,
        -0.08327774286522266,
        0.04479081976922103,
        0.0010464804813710392,
        0.04429368339986402,
        -0.1412012728318382,
        -0.06823810679051592,
        -0.09960561865239576,
        -0.011997236350550708,
        0.058532182004989976,
        -0.04357329084396488,
        -0.011801908924215865,
        0.03458779207375695,
        -0.004113569949953003,
        0.05213229069808364,
        -0.021235837655618647,
        -0.016192177844988696,
        0.00034596263876714227,
        -0.08517047478968713,
        0.1141528204116181,
        -0.03099897205535031,
        0.11737406352958535,
        0.05334499021753354,
        -0.022770621819495334,
        -0.027015273828106066,
        -0.002851361464032011,
        -0.08424267914923317,
        0.051587082941425916,
        0.023872794046904483,
        0.06782258499967236,
        -0.004207148193781708,
        -0.03979611985737967,
        -0.040460174258062184,
        -0.009270130347493296,
        0.01352068043734632,
        0.056051336025820825,
        0.05484915773928435,
        0.00658080437774005,
        0.04908607231033336,
        -0.06315241057784972,
        -0.018741769401863846,
        -0.036883833462939726,
        -0.013628632704373936,
        -0.002190000388016847,
        -0.018189796252994904,
        0.05362964875527065,
        0.04854176393648903,
        0.12609947345330352,
        0.01167709935863678,
        0.09435030451715366,
        0.028259652451746872,
        -0.05783592145207099,
        -0.008401796221044573,
        0.031681966139518236,
        0.041140174475096394,
        0.06092165400575768,
        0.02380543240483087,
        0.016104568102318917,
        -0.04051803220491172,
        -0.05663648615839349,
        0.053426640757439844,
        -0.070362954802979,
        0.011057112350916942,
        0.03559716198285614,
        0.10104211641488459,
        -0.03090113513803785,
        0.0471049272937455,
        -0.05629571577554031,
        -0.04395998711681752,
        -0.060700949996035314,
        0.055519230051666674,
        0.10514873152774934,
        0.01138959244474454,
        -0.003751438164163271,
        0.006083481289373699,
        -0.1042796884932991,
        0.01961177703468698,
        0.09914030890627784,
        0.020884037939930614,
        -0.008702747878347208,
        0.01017526401620535,
        -0.03988513170823214,
        0.06345914260041483,
        -0.01948025531308721,
        0.023421389809804752,
        -0.05702207092296864,
        -0.027449387504834152,
        0.1037511689984254,
        -0.030601505796667396,
        -0.020508362926311217,
        0.07947454435019416,
        -0.08212151192904707,
        0.09276864928707926,
        -0.027840845506741433,
        -0.07682350984141709,
        0.08528936764309761,
        0.02806882498044264,
        -0.11717923913520115,
        0.07324758191368244,
        0.03275561074785351,
        -0.08480409540618966,
        0.026348100932794567,
        0.019277886521887163,
        -0.07085080403009361,
        -0.013061331355006263,
        0.039954977328750405,
        -0.015595787360275233,
        0.09504847132961082,
        -0.003594794737676585,
        -0.023702885560270552,
        -0.08003273136363023,
        0.03627511881123344,
        -0.04113004630146195,
        0.006126544420970898,
        0.12122701441008912,
        0.08394809762152029,
        0.025320355316815753,
        -0.021326260848730447,
        0.0012868876495399453,
        -0.002563486753868858,
        -0.000907052788253147,
        0.021631901886694505,
        0.07936019299448788,
        0.011008378368341514,
        0.07391559754703596,
        -0.009951224267594226,
        -0.06220611442799998,
        -0.033998312259464994,
        0.05298520363012396,
        -0.03571873763743716,
        -0.02605544376379752,
        0.054708079018423554,
        -0.023758198581519088,
        0.017559804352022812,
        0.0354052057426271,
        -0.04030623647033211,
        -0.0018287472153733011,
        -0.03284417004019873,
        -0.008997462369606447,
        0.029220901201141014,
        0.0034746290843442433,
        0.014339452345196048,
        0.01765025860754008,
        0.01817821264221018,
        0.00931512331754909,
        0.002448153562883873,
        0.034918827104931084,
        0.024617287851768397,
        -0.025158318114297376,
        -0.047604843715306155,
        -0.08621869575285725,
        0.060921806673286484,
        0.10598169953609962,
        0.006018633229925151,
        0.028554699236593716,
        0.09461814348013471,
        0.06722290914522679,
        -0.013465993550430114,
        -0.014070026671480808,
        0.017498459100783962,
        -0.08323407476768797,
        0.09591052330581534,
        -0.08199509546643535,
        0.08602825683867542,
        -0.00810296899689874,
        -0.011161048681471226,
        0.06149317322425547,
        -0.01984854740963134,
        -0.017470985984812618,
        -0.03657218508425095,
        -0.002003695208755738,
        0.03704092938655637,
        -0.03023181203178385,
        -0.07352701724271891,
        0.006519270984501061,
        -0.018360601195610022,
        -0.030895433252978395,
        0.1252782837796104,
        -0.011235417821338252,
        0.0017821850340787454,
        -0.061331602586964434,
        0.00822938334078791,
        -0.06703464458704135,
        0.013226324311145593,
        0.025247500576450806,
        -0.0019048182310096307,
        -0.09941279862857426,
        -0.05761629933816512,
        0.02002993736134178,
        -0.009473589096719307,
        -0.028246049175073965,
        0.09081991928124107,
        -0.05930691343642962,
        -0.02107135753984623,
        0.004177821024111739,
        0.03317468232628859,
        0.02009963347433993,
        -0.050391298375648014,
        -0.0466808842031242,
        -0.06245332388306509,
        0.05370721107399148,
        -0.07176634917454233,
        -0.10425041155676881,
        -0.022224903057376427,
        -0.03630018639972991,
        -0.0832651413203114,
        0.004128315896345318,
        -0.026181289343457117,
        -0.0162521155608396,
        -0.02387870071701799,
        0.10271531691849126,
        0.12561163067445258,
        -0.08305439941335402,
        -0.011332743962790841,
        -0.03821689114640354,
        0.03440179416576194,
        -0.019008787783708424,
        -0.01847988519503293,
        0.1559684933407864,
        -0.003555501063066793,
        0.01924635597404817,
        0.03264245559076577,
        -0.09186814129056167,
        -0.029649452542243833,
        -0.03846518856997167,
        -0.02654480148266317,
        -0.07091261764761173,
        -0.003089796160015196,
        0.0488311880844464,
        -0.009606893941327396,
        0.0654574441715837,
        0.052911887209802895,
        -0.07518837362170451,
        0.008658332580637237,
        0.05263475345009627,
        -0.003181967418862324,
        0.05548307317597448,
        -0.05466610130346557,
        0.08245319733865777,
        -0.015529829516174785,
        0.11618311605434012,
        -0.12198077684915307,
        -0.02771089495543682,
        0.0335275802097552,
        -0.08316871998409776,
        -0.07200616631954104,
        -0.05203449807129202,
        -0.05172019390127963,
        -0.02810518482855675,
        -0.02764907858431241,
        -0.07069239813474593,
        -0.04064463341654821,
        0.017994052203480656,
        0.02467145151075022,
        0.07392478106271215,
        -0.08998822450575847,
        -0.015464045653555882,
        -0.027502425263632127,
        0.017097460843989838,
        0.022208363148268392,
        -0.048217304976548976,
        0.03447699797011271,
        -0.039989608451999614,
        0.006957587018619163,
        0.07552863330825116,
        0.07349465447958403,
        -0.019581500423316602,
        -0.030369970558634232,
        -0.06275744005672694,
        -0.0787904781309174,
        -0.015964677010420703,
        -0.005852206625891372,
        0.06297351270318331,
        0.04072850784069982,
        0.0768154858597791,
        0.02420438905189514,
        0.013070804085168239,
        -0.004956082432320444,
        -0.005165890665314522,
        0.05581348925690789,
        0.008250796135693524,
        -0.0004968151220082762,
        0.012485534386209377,
        -0.013146067537686192,
        -0.046572453175375325,
        0.05429377945865614,
        0.017242533585307893,
        0.012934434994190568,
        -0.08832743692780148,
        0.12530490665874788,
        0.05043234021428816,
        0.09935691559818734,
        -0.06674443651942374,
        -0.019795677456590763,
        0.011937832328328356,
        -0.0011035910840904248,
        -0.08601630941059543,
        -0.020660284784078546,
        -0.02965494350856267,
        -0.009552435405902174,
        0.015019863561329224,
        -0.06848797282596188,
        -0.1259261813691659,
        -0.00700287459197591,
        -0.07051863274704157,
        -0.028211784558839686,
        0.03821589459921109,
        -0.04448108321833332,
        0.010341114708240156,
        -0.04708044590187759,
        0.04836783991007915,
        0.06081492945008538,
        0.059011311121438634,
        0.07364459604699912,
        0.030293303517973522,
        -0.01777355622171068,
        -0.039629191860579185,
        0.028323239930420845,
        -0.13640019924085836,
        -0.013385818188005074,
        -0.029834421732093823,
        -0.02563205036890105,
        -0.05105628531995477,
        -0.08777159666829176,
        -0.03360009731360945,
        0.0659841011830258,
        0.008012554507163774,
        0.03618044315899566,
        -0.035912143359123815,
        0.016837231092758607,
        -0.007084576095096419,
        0.0265789051185979,
        -0.018242115132403706,
        -0.03678295123012173,
        -0.022723013852088737,
        -0.013061946652332693,
        -0.015474539659815838,
        -0.0642304006661289,
        0.024460605443616872,
        0.09342388412836333,
        0.1316273872948353,
        -0.1052227012674749,
        -0.018383624317111026,
        0.018494592240030965,
        -0.023573172905846464,
        -0.024632206620558646,
        -0.03000811059677694,
        -0.01381125452802106,
        -0.04348093699912647,
        -0.049991644419048784,
        -0.034071361288426354,
        -0.003512293782661574,
        -0.084281234838561,
        -0.032836283005702196,
        0.09136766389535023,
        -0.021585630501031385,
        -0.05653684732592504,
        -0.027741261214363714,
        0.0886045701160863,
        0.01441555603784677,
        0.02235745206036291,
        0.06413842188059243,
        -0.08545205822889029,
        0.037636587340530187,
        0.10273043718743602,
        0.1308198279394329,
        0.016851882896585887,
        0.011807781904469471,
        -0.009945145095120194,
        -0.027926551414839035,
        -0.04328189729233384,
        0.011759948353492602,
        -0.00022658417189806712,
        0.021062067385313805,
        0.004084691440897098,
        0.03365012398245597,
        0.06642916897142429,
        0.062435397924392746,
        -0.011261946991386149,
        -0.00318066551935052,
        -0.0761495557908247,
        -0.0035478030559708204,
        -0.02123966840707013,
        0.011600114222725463,
        0.08185566780179768,
        -0.013662180144084327,
        0.029435528524025374,
        -0.045245522333449154,
        -0.0602475514742067,
        0.05997845467683841,
        -0.0036205835630177714,
        -0.02854275881841091,
        0.0027814654722433593,
        0.04282182327996521,
        -0.025725111159556363,
        0.002121994806065647,
        -0.012493385650995253,
        -0.04547993961910727,
        0.02528501416974643,
        0.021245599013194057,
        -0.04216897944560862,
        0.033654665702938166,
        -0.00585054813396816,
        0.09970339856309893,
        -0.00900778753993186,
        0.026747720577449553,
        -0.02823859959039643,
        -0.04469493097149921,
        -0.10534182754944105,
        0.056845786935358,
        0.09732966147793506,
        0.05031638701549887,
        0.03753745448588238,
        0.01291967336730046,
        -0.003401151985622672,
        -0.004783638443525175,
        0.016360732823076953,
        0.035906281901575174,
        0.008963213614702807,
        -0.023933905794937198,
        0.03315601052104455,
        0.0732330684365735,
        -0.027814410291560364,
        0.06869052017674238,
        -0.04907318125026371,
        0.06623193255215301,
        0.010671961513513083,
        0.06807303143850926,
        -0.07493896142821103,
        0.13670300841526647,
        0.07647562295054951,
        -0.03947728367489382,
        0.002383635015909715,
        0.06656937917672277,
        0.02326261811178305,
        0.05382477105868977,
        -0.0001354413780143048,
        -0.05397316532854765,
        -0.02727856929854758,
        -0.003949898164449458,
        -0.04457820680356837,
        0.02543620940846688,
        -0.08122417751642816,
        -0.016582399005035622,
        0.062606704540098,
        -0.1174773847603028,
        -0.037186252943711966,
        -0.04667685376741302,
        -0.05899976761739319,
        0.05873145098039879,
        0.053937700603087044,
        -0.04269141121202924,
        -0.03113920016353327,
        0.035816001757762325,
        0.018939288638528715,
        -0.0466204251703858,
        0.03912731775094122,
        0.01267647284654806,
        0.02225646434160984,
        -0.05662774908058908,
        0.07643392062303835,
        -0.020310524870203097,
        0.1314507204049733,
        -0.03325698736082387,
        -0.01572662218382541,
        0.013343720078015356,
        -0.0009023480163559729,
        0.03152258741991837,
        -0.08856605366586612,
        -0.024710441309943647,
        -0.018591477562274528,
        0.04944477741531966,
        0.02439429240421778,
        0.014551889781943515,
        -0.09781961257994835,
        -0.009255379230748918,
        -0.09924970697520898,
        -0.019018871141768715,
        0.0495935413864783,
        -0.005701870777403547,
        0.055277325414453085,
        -0.04014318018673292,
        0.028791399128354152,
        0.06666514357950358,
        0.020141839201836473,
        -0.013997233214805678,
        0.08015672232802047,
        0.01706093060182136,
        0.04659239294576324,
        -0.030347278458243,
        -0.0014390169926632394,
        -0.04054211201936865,
        -0.03342426225297678,
        0.004127717929408284,
        -0.05952788567053456,
        -0.051279429060763854,
        -0.04770700984373154,
        0.06065420168825165,
        0.0684356251264187,
        -0.009920651242444945,
        0.022696079066195467,
        -0.01398431782242589,
        -0.10010116143657374,
        -0.010989482586757752,
        0.05560576001869701,
        -0.06877235224131387,
        0.030015157500448017,
        0.0655030564234389,
        0.034092876697487895,
        0.09625706554418431,
        0.004922460310244934,
        0.04385326111834274,
        0.02682932938474826,
        0.09363320470938682,
        0.008136628653386435,
        -0.0185513022769595,
        0.03781075627639342,
        -0.10321682911424773,
        -0.028760373562790403,
        0.02557351916094775,
        -0.018982464084960057,
        0.04036432556407618,
        -0.005627303260948964,
        0.04110642294654114,
        -0.019550826859971115,
        -0.10809987755707696,
        -0.01312608474189721,
        0.01570661838601526,
        0.05446829664802923,
        -0.026089828951818796,
        0.07386054179283148,
        0.032910152153391214,
        -0.008944752847583351,
        0.05289194201383822,
        -0.03743696450975975,
        0.015438215238255865,
        0.021137339793549818,
        -0.06942864876589948,
        -0.03948281444415397,
        -0.045885254113824714,
        0.0051222908971338445,
        0.03874219474994218,
        0.06145942878863708,
        0.017015302832308857,
        -0.006740869094349504,
        -0.02605146758777993,
        0.09522989325439465,
        -0.01097308551416806,
        -0.015436287969322568,
        -0.02528864135025183,
        -0.03291521669850164,
        -0.11701972458302173,
        -0.012742107395997952,
        -0.020813509574628148,
        0.04802126277553987,
        0.04908401803380076,
        -0.001322287177602464,
        -0.022827424148364573,
        0.054910240999479616,
        0.0518222719432237,
        -0.027272879118622896,
        0.00680848518475655,
        -0.006566281217631828,
        -0.01759739176601915,
        0.0006565537944902607,
        0.06323210180530878,
        0.00753439399515002,
        0.04626823338765662,
        0.033946606364394706,
        -0.08675831601005639,
        -0.016159010589246847,
        -0.06325386219352715,
        0.08036680951737316,
        0.05809723453917889,
        -0.09617317303301506,
        -0.0010209310820154908,
        -0.03484764051017657,
        -0.13741687401058944,
        -0.03412100545156451,
        -0.006526158777613176,
        -0.058822034531121406,
        0.0018102305630409224,
        0.007558948669869153,
        -0.061083922470258796,
        -0.05926643768382594,
        0.11024974780338852,
        0.04786972111014963,
        0.021630143407513642,
        -0.006133890801973761,
        0.015611661598895286,
        0.08676006295282282,
        -0.02979439182115275,
        -0.010432147869562803,
        0.0041674486102412055,
        0.05415075353108067,
        0.05068805869998431,
        0.027257010995539892,
        -0.0019264662322967946,
        -0.0007247113356270152,
        0.0694541277144093,
        0.0336135266271927,
        -0.12115153947461431,
        0.06241735942773195,
        -0.019693787331494884,
        0.004392602945170182,
        0.011585617295253998,
        0.0058153481157607705,
        -0.06683949575353118,
        0.02404097000940686,
        0.09510457218840793,
        -0.05671580078156361,
        -0.008479931263168806,
        -0.05100835301031924,
        -0.04215508839430017,
        0.011300923425163978,
        -0.02057635457281026,
        0.04214811986655613,
        -0.038293405183982554,
        0.04699109087366596,
        0.06624631293849062,
        -0.061788895597815405,
        -0.02910156131386744,
        0.06797695144210761,
        0.016188222155934413,
        -0.02933342521532257,
        -0.15650934171082698,
        -0.06719127568887326,
        -0.013431751607885104,
        -0.07561804897456698,
        -0.012478419110735127,
        0.0027130896468641474,
        -0.06826030686036877,
        -0.07582279738072574,
        -0.07515542704013144,
        0.06784246034390878,
        0.05743654424685593,
        0.023281450428941128,
        -0.13923507380469594,
        -0.01717380778806175,
        0.06471659207329605,
        -0.0225221237387018,
        -0.0696614593974796,
        -0.08102565242645801,
        -0.012567150551122449,
        0.11664278860171753,
        0.030606339119309996,
        -0.011795418861104552,
        0.04280667710689116,
        -0.00936101115477659,
        -0.06312837963310962,
        0.025416992584307057,
        -0.040737045293984774,
        -0.0549270406708041,
        0.0005395853211792086,
        0.022534417265046028,
        -0.0877382055648893,
        -0.03870767901197147,
        0.010769091264766757,
        0.04309726225663278,
        -0.05229180029902136,
        -0.006413128873291093,
        -0.04326537979960329,
        0.04770615148041013,
        0.00219337999723904,
        -0.003827633021337369,
        -0.031052359544238777,
        -0.055767404344515534,
        -0.08642691455958781,
        0.015821859684405998,
        -0.04178073797576071,
        -0.04610061520491749,
        0.023829259702972925,
        -0.05008978213676443,
        0.0225498594710086,
        0.050181394392605015,
        -0.003174929675488672,
        0.012246290158239272,
        -0.04318136815492256,
        -0.03713657963803278,
        -0.07002970271047584,
        0.05384805462592121,
        0.06732419762291986,
        0.1261943757170782,
        0.02350867648383245,
        0.08055195671556126,
        0.0014658058947123829,
        0.024423869641050026,
        0.026666117755189886,
        0.02259751486046419,
        0.03320421183604409,
        0.09104199996677825,
        0.04704404685709017,
        0.04626804072298482,
        0.04099228101906137,
        0.09374735731081499,
        -0.007837294353436802,
        0.05920364496255355,
        -0.001635096908503185,
        -0.09050390355558319,
        -0.031117495577828155,
        -0.042487853814696816,
        0.09705290725211105,
        -0.046896629056706544,
        -0.044089780650453665,
        0.08786528078259169,
        0.06767433271903618,
        0.028423219404563535,
        -0.07635152908009715,
        -0.06839773610569659,
        0.1160372200988486,
        0.03790770285565997,
        -0.04997156113638178,
        0.0363849747019438,
        -0.009682610648509135,
        0.08968743651682448,
        0.014264347741211533,
        0.049321654057913125,
        0.03962516202542776,
        0.03929791612934912,
        0.11045124516630704,
        -0.05560405778057009,
        0.04501513397853378,
        -0.02944162594609396,
        0.08678167758241662,
        -0.02339351335689603,
        0.017501858653441033,
        -0.03382552835087653,
        -0.05673720513445245,
        -0.06416254309060085,
        -0.014103804802381235,
        0.022845433686242932,
        -0.018830485124753202,
        0.021974766127389467,
        0.0008485463603857633,
        0.025696567763844595,
        0.031191679388192537,
        0.05237687409376767,
        0.0008861715647782917,
        0.08878393414782991,
        0.01789688789645892,
        -0.01907678839449363,
        0.056771408782604824,
        -0.028696149685276402,
        0.019226491171202686,
        -0.14035674393836928,
        -0.07373272044100196,
        0.1348673675411844,
        0.03854294400517255,
        0.06033055067520739,
        -0.029804218897563624,
        -0.049912354800148655,
        0.0191223867504055,
        0.037307197719853025,
        -0.026736473818497593,
        -0.08965593134902444,
        -0.035310488461731404,
        -0.029497387240302774,
        -0.05551317614157761,
        0.13385291058028376,
        -0.07935015131625484,
        -0.030570077456327026,
        -0.021586250058693197,
        0.08402483447617033,
        -0.07305082144439888,
        -0.024321154378696835,
        0.04415573845426285,
        0.010154880491133906,
        -0.04199688383468535,
        -0.028692495694470542,
        -0.05029176599859293,
        -0.01995551912712839,
        0.01154500063779216,
        -0.1521149774042901,
        -0.02803673126315165,
        -0.013076122741590174,
        -0.012354785600466253,
        0.019109896869915783,
        -0.03560161640858561,
        -0.058785631500111166,
        -0.00645448895505242,
        0.006222614606693879,
        0.04449864955226624,
        0.03772631016642677,
        0.020473302120781082,
        0.11454269545381322,
        0.09292140287848788,
        -0.006565119525389716,
        0.11501751307814498,
        0.045673323385150996,
        0.05336676962609677,
        0.08459178108569396,
        0.02774926554827909,
        0.028724932746481302,
        0.029373770048112854,
        0.16287232139829838,
        0.033642268919658894,
        0.03464258441402398,
        0.11523320769239942,
        0.06862489462329781,
        0.06030385232780863,
        -0.039655048556903154,
        -0.056049191205623065,
        -0.030650173676931215,
        -0.0017717128587568937,
        0.053585998444356304,
        -0.08195495498236273,
        -0.05426140395341422,
        -0.0010440638309284697,
        0.0391669885954392,
        0.06158744064294904,
        0.08122801892877282,
        0.08057232983729992,
        0.0749555595696003,
        0.038402250148603406,
        -0.03110100659354545,
        -0.05812055128993177,
        -0.0063510795759928115,
        -0.12489916464948092,
        -0.09538150156348228,
        0.07297140750967776,
        -0.0034182190328326508,
        0.03638566305517715,
        -0.005819408417587466,
        -0.016914325016979176,
        -0.08601578205062851,
        -0.014714380759824492,
        0.07751453944416281,
        -0.04137169825464071,
        0.0020681568674485278,
        0.10779552241096028,
        0.062427934540340735,
        -0.006704997837704625,
        0.026326640020965447,
        0.023398357934605242,
        0.017905491308340155,
        0.019402862977702547,
        0.08737740506997942,
        -0.04603107496177977,
        -0.04666907171425498,
        0.012130604590965266,
        0.04202230601972902,
        0.039310784493228126,
        0.09549213906111159,
        0.020264805049841808,
        0.01938746369844562,
        -0.013662546266435448,
        0.045467835239649715,
        -0.045917108839703874,
        -0.03714698861743346,
        -0.005811332945332301,
        -0.021029084318910318,
        0.052542127980841444,
        -0.05883212867697076,
        -0.020956313821544798,
        0.06641411762678524,
        -0.022752571315394602,
        -0.07654753285197384,
        0.03046609925520144,
        0.06602282492100232,
        0.0183745675771063,
        0.01662793379368895,
        -0.019097471803746234,
        0.02155843324607764,
        0.06034157550969668,
        0.05923423124263829,
        -0.026512579742088524,
        0.04026878716065392,
        -0.09978819547317788,
        -0.1159932383868621,
        -0.027640115397586186,
        0.07535234198771175,
        -0.014212751191070377,
        0.023847531049869627,
        -0.03450252942639123,
        0.0029748391227966096,
        0.02679438382852135,
        -0.03595771106159993,
        0.05381025293509454,
        0.034544752292202004,
        0.041801157359520405,
        0.007165555431961911,
        -0.04543405735445568,
        0.007276893546333041,
        -0.0021138103037906045,
        0.020998649516751115,
        -0.0007300652445367678,
        0.02753146312764831,
        -0.005360459982768795,
        0.028199761323686456,
        -0.005453209211544019,
        0.04459516493287789,
        0.08512458589316005,
        -0.0754900346270319,
        -0.038343093127569755,
        -0.05231347425796205,
        -0.05845859701357663,
        0.02093387997289053,
        -0.04219459044359774,
        0.007671578106813116,
        0.010019109143845066,
        0.024923418843004093,
        -0.0020602915261488663,
        0.06016498209685022,
        -0.03311855275998303,
        -0.006769505248055013,
        -0.06736389563329931,
        -0.06978563095592721,
        0.024946814318101054,
        -0.029990287883407327,
        0.03171193163232953,
        -0.0033503949405419495,
        -0.02648550236292782,
        -0.032197125773162694,
        -0.05867822538929822,
        0.025982430774176037,
        -0.03576613144578325,
        0.09170105088850966,
        0.03348411424223859,
        0.046598639340843295,
        0.022721533332541906,
        0.10522585819481628,
        -0.013448360683585486,
        0.004953840155321975,
        0.061274909969328675,
        0.006835110287025697,
        -0.0718306000513642,
        -0.07734223354923175,
        -0.0022843398469139173,
        -0.12559623867155711,
        -0.046170544404019895,
        -0.04989827830940852,
        0.007981706015696664,
        -0.02286014904705702,
        0.030225417549634568,
        0.047906850245869985,
        0.04610072063607123,
        0.06899510477469598,
        -0.1036027043113931,
        -0.014520493287527345,
        -0.07827904455524926,
        0.046662014783880795,
        -0.08203481894301515,
        0.028916682490615436,
        -0.016249285141519357,
        0.023600162722958316,
        -0.00018512510109625416,
        -0.0389667819880819,
        0.04986750416966563,
        0.09906771869841256,
        0.044376334814078155,
        -0.01121670478749202,
        -0.05315760349253984,
        -0.07876826614129515,
        0.05951779548828997,
        -0.052453696647700235,
        0.059054252783739304,
        0.0447911515677369,
        -0.004924611153843144,
        -0.014217472479314718,
        0.045988654655756564,
        -0.01050469941232524,
        0.0068864414713886764,
        0.01243165497775124,
        0.007683138633472069,
        -0.02202563664885751,
        -0.019465400102446365,
        0.05943296027108602,
        0.036169037893735975,
        -0.02265312752011555,
        0.05558825842731879,
        -0.030251871134844042,
        0.06728476129359383,
        0.043368805949888255,
        0.012395827248640492,
        0.060997273411948466,
        -0.09428299148261493,
        0.041080723989562834,
        -0.008615711931377779,
        -0.07018223159178484,
        -0.026109986427865543,
        -0.002150621023094044,
        -0.04269093989642765,
        0.02111072111558867,
        0.022040894197413275,
        0.03532969636675651,
        -0.05681951331351294,
        -0.08425300228139442,
        -0.06289028744853137,
        0.022319945511334024,
        -0.014696384069535216,
        0.029231640541237877,
        -0.09203927473565057,
        -0.008705578807701161,
        0.01918048600852389,
        -0.14350018502880713,
        -0.013445155034405874,
        -0.005004546475323307,
        0.07026569180088589,
        -0.11917085439802147,
        -0.02126928403065849,
        0.0047834028745650636,
        -0.04539357377345646,
        -0.057477152422224204,
        -0.015642980533919198,
        -0.023024141738900293,
        0.01973006922069602,
        0.044653148821227125,
        0.002805332022028137,
        -0.06922712786571622,
        0.038434540145051405,
        -0.00587688093815426,
        -0.05119699658924016,
        -0.08273568204351572,
        -0.07339226100704194,
        -0.03077964201454636,
        -0.07809205603505512,
        -0.009566108360553412,
        0.01513801740412414,
        0.029167894401392586,
        -0.005253949708491908,
        -0.05603940567770337,
        0.009476276616841146,
        -0.024170712875804374,
        0.018051632927233364,
        -0.022775132369162822,
        0.0034978891006901738,
        -0.02886491898474926,
        0.0871201107128563,
        -0.009455237568441743,
        0.04662852583065615,
        -0.02546389025820393,
        0.011155762220160858,
        0.021232070801327014,
        -0.010037422861999663,
        -0.027902955053528675,
        -0.05886562735268483,
        0.01551324360578165,
        -0.12559909630268876,
        -0.08303577848224601,
        -0.00884218557623332,
        0.0944006916900875,
        -0.06527069812361164,
        -0.023237088675664763,
        -0.010761630396075802,
        -0.07117692191802624,
        -0.10665052557832819,
        -0.01529280315212678,
        0.057535919940316135,
        -0.02549948554638419,
        -0.056888320513484913,
        -0.04995306530302522,
        0.03935368564623694,
        0.07576748134375681,
        0.009429109280282262,
        -0.00738780539167112,
        -0.0486715763205971,
        0.09241936886668395,
        0.031624637347381225,
        -0.021130510759078194,
        -0.07322639795282551,
        0.10176546008001626,
        -0.0312411411688408,
        0.03960596437641277,
        0.017048797353542117,
        -0.07456451663073778,
        -0.022584744652718813,
        -0.05996630569172445,
        -0.02032437987439563,
        -0.0319830979660745,
        0.05834833586310205,
        -0.012568205871084544,
        -0.08888685229106782,
        0.07682157821344612,
        0.0035287407252231704,
        -0.02827014280366966,
        0.043951324398242245,
        -0.02361675360482262,
        0.04788297623394588,
        -0.04823187569637588,
        -0.008715677294097425,
        -0.058746583856221404,
        0.006988493914550108,
        0.04371322414737829,
        0.011148610287361561,
        -0.05073877237827229,
        -0.037203774130970826,
        -0.0657565185391021,
        -0.09170068739409246,
        -0.014375655589726324,
        -0.01236818438826472,
        -0.06989080603171194,
        -0.0503855790997194,
        -0.0032928525998522987,
        -0.0303380035392931,
        0.0320320383290638,
        0.08276700367519549,
        -0.03789009080882671,
        0.05680938791425683,
        -0.0074753234482175645,
        -0.02630050207839709,
        -0.0817826504216269,
        -0.006694643595772959,
        0.060737780972824576,
        0.009634444950059084,
        -0.0142651627941978,
        0.023045194771623485,
        -0.0029444811362705093,
        -0.06165751612621478,
        -0.06841169616828532,
        -0.015534359483780165,
        -0.01605732698224924,
        -0.07171000438175897,
        0.032993236148893434,
        -0.06175132345749901,
        -0.05180259297577942,
        0.07030929708004789,
        -0.014624253369062062,
        -0.08538463736915645,
        -0.057497547219016884,
        0.04912300160917843,
        0.002761782383080674,
        -0.03338676451911009,
        -0.15826888413996723,
        -0.01150282277568114,
        0.055721469653424185,
        0.012758078030953132,
        0.0009750246410085723,
        -0.017178688115628622,
        -0.006525388911787437,
        -0.09356768371313813,
        -0.038019194066287565,
        0.0038859811532425148,
        -0.06745963343760078,
        0.04061647966859597,
        -0.02173211498885281,
        -0.03517660610020154,
        -0.009417940448939857,
        0.052786294973652385,
        -0.028169072543072687,
        0.10193033916405,
        -0.09913005606233072,
        -0.02833463885024764,
        -0.04463554135580698,
        0.006093712214049148,
        -0.07420797395554356,
        -0.05230145354849787,
        -0.06411867530735244,
        0.11507152302749704,
        0.04831218299892885,
        0.0355185324598609,
        0.0617927244563314,
        0.03882897638901238,
        -0.10973552719281757,
        -0.1303717859264924,
        -0.05011604310059601,
        -0.04754179172149975,
        0.026528356540548144,
        -0.0009361650438331516,
        -0.07959909693263785,
        -0.007868692291337277,
        -0.027846466628522505,
        0.03409725599095708,
        -0.018386454712576324,
        -0.011468553584189602,
        -0.030710674251699845,
        0.01348847579271097,
        0.02964449655219906,
        -0.057334579884088965,
        -0.07962841402746043,
        0.03173313104649392,
        -0.0789376808710371,
        -0.012472868646281245,
        0.04253538960728048,
        0.009564330871260747,
        -0.08011101315021116,
        -0.0628752017448828,
        -0.10310959559362638,
        -0.022071265826354075,
        0.02496029091589888,
        -0.05491790858321305,
        0.050788220069686266,
        0.032768439360308585,
        0.03431433028826627,
        0.044732080312673006,
        0.0055536818936334255,
        -0.009119002512151395,
        -0.013735337298875567,
        -0.00781603783640536,
        -0.02813113874747574,
        -0.0029512769677816353,
        0.029388848757837604,
        0.006362596818934967,
        -0.015307791444001852,
        -0.008656837874999122,
        0.0038803223005040455,
        0.03806694041989346,
        0.04561198177874902,
        -0.05613370737098783,
        0.030082127477576145,
        -0.020595219121315386,
        -0.0010136315458956074,
        0.03235525503382878,
        0.07794874906926416,
        -0.06968926337028031,
        -0.020976985531577758,
        0.02669904176267264,
        0.07127069653689123,
        -0.055906598167911395,
        -0.0562115088837671,
        0.010792372140075236,
        -0.046004646141600256,
        0.08603983276680222,
        0.014096778123115942,
        -0.10062181864365535,
        -0.047390667791358074,
        -0.02277650071011593,
        0.023885373502738713,
        -0.04863698021890589,
        0.001574001983980708,
        0.0004694601160822945,
        0.036137103397017145,
        0.04778021790933439,
        0.0148096409456044,
        -0.06141667402816106,
        -0.01945806712742741,
        -0.09225793281315098,
        0.08167171182870579,
        0.062214476594390174,
        -0.005921471274859452,
        0.055051661697563994,
        -0.020057543891031496,
        -0.044018493862615284,
        0.08698922011383309,
        -0.05399915688685905,
        0.03510124225309512,
        0.09359331913721365,
        0.025373190564973173,
        0.05688022671127061,
        0.014000791844820393,
        -0.1198934379125858,
        -0.016613638756209116,
        0.003358049726003412,
        0.0769046593074908,
        -0.004057325040970082,
        -0.06137774622781301,
        0.06153098970269283,
        0.0730432021778927,
        -0.049088867434042324,
        0.03485556390873715,
        -0.10522037763188821,
        -0.0991387229368338,
        0.07774934614900184,
        -0.02454295881290323,
        -0.004802420760789898,
        -0.07989997328506766,
        -0.05439404984750744,
        -0.012082252231666375,
        -0.03568576902739512,
        -0.016874005685175983,
        -0.012998173818024882,
        -0.06757580914347891,
        0.011996616818156246,
        -0.0995384880388698,
        -0.05899584053762268,
        0.005978736882033026,
        0.054864519344828847,
        -0.07750765280008193,
        -0.06000623278971208,
        0.06779028689586461,
        -0.0521376600757809,
        -0.013058073937295776,
        -5.008642766305251e-05,
        0.010228578195443178,
        -0.0006247783569569114,
        -0.04590535963962733,
        0.023541638777383918,
        0.026481608903035424,
        0.05078620008364125,
        0.050847372946368305,
        0.05863677673423352,
        -0.036042956651187785,
        -0.0316803358320018,
        -0.01053789756972749,
        -0.1256746067575516,
        -0.017122188817623823,
        -0.044766348670149496,
        0.06155455096035301,
        0.0439460850494372,
        -0.020839219627826467,
        0.009125375722560686,
        0.020650518853346178,
        -0.0022364618389952504,
        0.02048679600133948,
        0.0005808105998880153,
        -0.043673129908179086,
        0.02188755649009033,
        0.03234228906391468,
        -0.05270939079581408,
        -0.05628422516528751,
        -0.010542056724845993,
        -0.022096748040719715,
        -0.054193885669097525,
        0.023436797742972665,
        -0.02287219193276304,
        0.009064858043684513,
        -7.308320451708799e-05,
        -0.04587538097713046,
        0.038916575646052644,
        -0.045770703848118474,
        0.029025870627872704,
        -0.05222285175555373,
        -0.0500452782198976,
        -0.03206067337388338,
        -0.09177813828731442,
        -0.08813526069405882,
        -0.04466598856678058,
        -0.0075481937637997785,
        -0.05856420236852823,
        0.09533363249031433,
        0.02621604737472008,
        -0.02240306998668603,
        -0.13915635727054276,
        0.10055031477438808,
        -0.07312370741175585,
        -0.011652991178299155,
        -0.007401005503560886,
        0.007784633136842977,
        0.018484999090384147,
        -0.050760124030184095,
        -0.03067657249337819,
        -0.060082055898595256,
        -0.04275092567318541,
        -0.03972176579673502,
        -0.16603787274852516,
        -0.030326725659354934,
        -0.032792011693859056,
        -0.07675074090063135,
        -0.008135673921197434,
        0.02594176261042452,
        -0.014357869677037751,
        0.10420299022884469,
        0.05038162899454705,
        0.03164265994950591,
        -0.04601972161504951,
        0.06783867345412176,
        0.0019918441661517794,
        -0.0071578902625876115,
        -0.003499658527987542,
        0.03431693575795088,
        -0.03315253943730506,
        0.027680252378334946,
        -0.06562243944847153,
        -0.021970414240830148,
        -0.009063633077409435,
        -0.030742045989820648,
        -0.027211728739336853,
        0.027331479480041318,
        -0.0662438125193525,
        -0.004491130965362005,
        0.037162940761016075,
        -0.040385926731346736,
        0.04130521341475031,
        0.005245622548605874,
        0.014992274081952365,
        -0.088369545020205,
        -0.09937926606510594,
        0.05948644956597593,
        0.06066802106226501,
        0.004594221645016633,
        -0.0017243329514070316,
        -0.020511462765548036,
        -0.06357237175404917,
        0.024969502793424345,
        0.03857284749235107,
        0.0068984171892754464,
        0.03562198460974429,
        0.0008910031219871682,
        0.06879366779534277,
        0.04236472510989243,
        -0.039685886296782984,
        0.02420943655421051,
        -0.0018619525053373068,
        -0.043342408494707434,
        -0.10248176461298221,
        0.15134646650295006,
        -0.03137762846487915,
        0.04591867648048681,
        0.049032301485065564,
        -0.02264710794004345,
        -0.025946622548370997,
        0.08282515142108168,
        -0.05012433198773922,
        -0.05672804172352569,
        0.004652957812430459,
        -0.07076507175219139,
        -0.12448140541908617,
        0.011251726834140881,
        0.0004769557966988365,
        0.07618250872368038,
        0.035946028947930864,
        -0.013992487736566412,
        0.06538215690396289,
        -4.587794406214676e-05,
        -0.06907371091943212,
        0.05573217781209477,
        -0.02479953307224143,
        -0.04192349640467998,
        0.05008655010144981,
        0.02917891352253614,
        -0.022939650010012996,
        0.012059106886288425,
        0.008052813235292194,
