{
  "weights_summary": [
    {
      "layer": "param_0",
      "shape": [
        7,
        192
      ],
      "mean": -0.0010306446347385645,
      "std_dev": 0.05243620276451111,
      "values": [
        -0.0046800049021840096,
        0.0007027366664260626,
        0.012593991123139858,
        0.005172465927898884,
        -0.022144513204693794,
        -0.004034819081425667,
        -0.020635291934013367,
        0.0021622972562909126,
        -0.05740591138601303,
        -0.02078152820467949,
        0.0148578230291605,
        0.062149111181497574,
        -0.07150590419769287,
        -0.0703003779053688,
        -0.0022888262756168842,
        0.0004993638140149415,
        -0.008743510581552982,
        -0.040107227861881256,
        -0.01873793639242649,
        -0.06852312386035919,
        0.056768838316202164,
        -0.014151024632155895,
        -0.06312671303749084,
        0.006075427867472172,
        0.08808743208646774,
        0.00031037762528285384,
        -0.03474964573979378,
        0.020421480759978294,
        -0.007614447269588709,
        0.008579299785196781,
        -0.0005607695202343166,
        0.01619802974164486,
        0.012835619039833546,
        0.002458660863339901,
        0.026950770989060402,
        0.0010630956385284662,
        0.10654079914093018,
        0.0032044919207692146,
        -0.08455687761306763,
        -0.07909326255321503,
        -0.012424799613654613,
        -0.0010699238628149033,
        0.0008637862047180533,
        0.017056670039892197,
        0.005211617331951857,
        -0.052886396646499634,
        0.010785792022943497,
        -0.037910040467977524,
        -0.043323565274477005,
        -0.010720829479396343,
        0.005892680957913399,
        -0.00936522614210844,
        0.001870544976554811,
        0.002638536039739847,
        0.0032954267226159573,
        0.0377047024667263,
        0.05156397819519043,
        0.0005144525784999132,
        0.016942206770181656,
        0.004102114588022232,
        -0.010227257385849953,
        0.012869755737483501,
        -0.03848332166671753,
        0.03564754128456116,
        -0.00271416618488729,
        0.08831481635570526,
        -0.08127797394990921,
        -0.0021099988371133804,
        -0.001986971590667963,
        0.05369652062654495,
        -0.0764981284737587,
        0.02400207705795765,
        -0.015122868120670319,
        0.019400551915168762,
        0.030304698273539543,
        -0.1207246482372284,
        0.026883147656917572,
        0.10013888776302338,
        -0.04526970162987709,
        0.003129725344479084,
        0.05348999425768852,
        0.06702091544866562,
        -0.008225633762776852,
        -0.0748291090130806,
        -0.008936828002333641,
        -0.00528516573831439,
        -0.05354231223464012,
        0.04441799223423004,
        -0.0003548927779775113,
        0.000337249570293352,
        -0.03986780345439911,
        -0.010645432397723198,
        -0.03850489482283592,
        -0.0008258966263383627,
        -0.0006593667203560472,
        -0.02926323004066944,
        0.008488577790558338,
        0.004047168884426355,
        -0.037366751581430435,
        -0.027522273361682892,
        0.0006591010023839772,
        0.0039291963912546635,
        0.0016286129830405116,
        0.00325033999979496,
        -0.04925364628434181,
        -0.0009613058646209538,
        -0.018979504704475403,
        0.013905929401516914,
        0.06914713978767395,
        0.01352742686867714,
        -0.0014990747440606356,
        0.0693608894944191,
        0.00714095588773489,
        -0.0006301924004219472,
        0.029286501929163933,
        -0.00880278367549181,
        -0.04159216955304146,
        -0.006436825264245272,
        -0.06880614161491394,
        0.010136248543858528,
        0.008759044110774994,
        -0.08034440875053406,
        0.0041045150719583035,
        0.0022518483456224203,
        -0.028970446437597275,
        -0.011050103232264519,
        -0.03447291627526283,
        -0.03380579873919487,
        0.07271073758602142,
        -0.016463501378893852,
        -0.1449686586856842,
        -0.017594076693058014,
        0.029699504375457764,
        0.10875602811574936,
        -0.05632808804512024,
        -0.05207107961177826,
        0.0656169205904007,
        -0.047979068011045456,
        0.10578672587871552,
        -0.04345840588212013,
        0.09307847917079926,
        0.0660720244050026,
        -0.10222029685974121,
        -0.06523874402046204,
        -0.07501622289419174,
        0.013158931396901608,
        -0.1515776664018631,
        -0.01299568172544241,
        -0.09513921290636063,
        -0.045565079897642136,
        -0.07970767468214035,
        -0.037122420966625214,
        0.09675665199756622,
        -0.054188549518585205,
        -0.09558016806840897,
        0.016573064029216766,
        0.07206612825393677,
        -0.09052695333957672,
        0.12651312351226807,
        -0.03699472174048424,
        -0.022927913814783096,
        0.01796118915081024,
        -0.05425815284252167,
        -0.05937497690320015,
        0.048709433525800705,
        0.043701231479644775,
        0.014351301826536655,
        -0.04118691384792328,
        -0.11157918721437454,
        -0.004607399459928274,
        0.04859364405274391,
        -0.07973674684762955,
        -0.11426619440317154,
        -0.04661819338798523,
        0.06328435242176056,
        -0.16764554381370544,
        -0.09789108484983444,
        0.003748937277123332,
        0.10824791342020035,
        0.004779299255460501,
        0.013152818195521832,
        0.03316281735897064,
        0.07045275717973709,
        -0.030804695561528206,
        0.03232869505882263,
        0.040040019899606705,
        -0.03078920766711235,
        -0.06238987669348717,
        -0.03747028484940529,
        -0.00896583404392004,
        0.08744119107723236,
        0.054327234625816345,
        -0.04382498189806938,
        0.04288024455308914,
        -0.01817351207137108,
        0.012476025149226189,
        -0.06810075789690018,
        0.010860288515686989,
        -0.008587673306465149,
        -0.009857402183115482,
        -0.07268870621919632,
        0.00278361770324409,
        -0.10287690162658691,
        -0.01274699904024601,
        0.08263111859560013,
        0.0005032824701629579,
        0.008861049078404903,
        -0.0597233809530735,
        0.006224945653229952,
        -0.018419628962874413,
        -0.01204027608036995,
        -0.00027073247474618256,
        -0.09333011507987976,
        0.08544042706489563,
        -0.024582890793681145,
        0.06633997708559036,
        -0.038575079292058945,
        -0.009404385462403297,
        0.07307776808738708,
        0.06349647045135498,
        -0.005446538794785738,
        -0.00036529143108054996,
        -0.0006829178892076015,
        0.011266898363828659,
        -0.008773046545684338,
        0.009380877949297428,
        -0.07666235417127609,
        -0.029303111135959625,
        -0.06366119533777237,
        -0.003360623959451914,
        0.06280764192342758,
        0.006252756342291832,
        -0.023334339261054993,
        -0.0010621711844578385,
        -0.0475640594959259,
        0.018792275339365005,
        -0.011131171137094498,
        0.010510018095374107,
        0.064169742166996,
        0.017562400549650192,
        -0.003933006897568703,
        -0.02226824127137661,
        -0.0245977733284235,
        -0.010289174504578114,
        -0.029347559437155724,
        0.0030030638445168734,
        -0.0029657245613634586,
        0.02852865308523178,
        -0.018977463245391846,
        0.011089214123785496,
        -0.007337471935898066,
        0.061962321400642395,
        -0.006499862298369408,
        -0.022786103188991547,
        -0.019417472183704376,
        -0.004002879373729229,
        0.054930463433265686,
        -0.0018520615994930267,
        -0.011922121047973633,
        -0.008820612914860249,
        0.030091259628534317,
        -0.02868775464594364,
        0.0011684081982821226,
        -0.09018032997846603,
        0.0714745745062828,
        -0.07995610684156418,
        0.006768145598471165,
        0.09819287806749344,
        -0.000854184094350785,
        -0.017816908657550812,
        -0.0009228945709764957,
        0.01885637827217579,
        -0.0034258118830621243,
        0.003856214927509427,
        -0.009361024014651775,
        -0.036898352205753326,
        -0.0018980603199452162,
        -0.0006331088952720165,
        0.01120057050138712,
        0.02398904785513878,
        -0.0004906230606138706,
        -0.08694557845592499,
        -0.02719954028725624,
        -0.06193949282169342,
        0.06846849620342255,
        0.0015698737697675824,
        -0.01889490708708763,
        0.0013054332230240107,
        0.0040701646357774734,
        -0.0012102790642529726,
        -0.024958109483122826,
        -0.0016953968442976475,
        0.039969634264707565,
        0.03641854599118233,
        0.001840310636907816,
        0.002308127237483859,
        0.008107461966574192,
        -0.0005116774700582027,
        0.05016331747174263,
        0.01965397223830223,
        0.03724106773734093,
        -0.00411037914454937,
        -0.08483434468507767,
        0.0018325201235711575,
        -0.013179833069443703,
        -0.003200315171852708,
        -7.844250649213791e-05,
        -0.03189932554960251,
        0.0045455750077962875,
        -0.037729136645793915,
        -0.018193399533629417,
        0.056301381438970566,
        -0.10960237681865692,
        0.042815305292606354,
        -7.5092248152941465e-06,
        0.002778185298666358,
        -0.00030785275157541037,
        0.04107635095715523,
        0.003596109338104725,
        -0.022092249244451523,
        -0.02031279355287552,
        -0.014568297192454338,
        -0.049499377608299255,
        -0.007893282920122147,
        0.035071901977062225,
        -0.009306245483458042,
        0.002415667288005352,
        0.11193006485700607,
        0.0692191869020462,
        -0.033431120216846466,
        -0.12963435053825378,
        -0.02418164350092411,
        0.0799999088048935,
        0.15174855291843414,
        -0.047463446855545044,
        -0.07933226972818375,
        0.025715123862028122,
        -0.10474133491516113,
        0.0510791651904583,
        -0.028406908735632896,
        0.07401712983846664,
        0.15209266543388367,
        -0.09787414222955704,
        0.04372994601726532,
        -0.011505555361509323,
        -0.07483497262001038,
        0.03764970228075981,
        0.0945555716753006,
        -0.04376326501369476,
        0.06327992677688599,
        0.05879753455519676,
        -0.018321311101317406,
        -0.013833494856953621,
        0.07329202443361282,
        -0.0037755963858217,
        -0.020278073847293854,
        -0.03953645005822182,
        0.07331858575344086,
        0.0961916372179985,
        -0.007699540350586176,
        -0.049851398915052414,
        -0.09436497837305069,
        0.016982607543468475,
        -0.08477381616830826,
        -0.1043032705783844,
        0.1312084197998047,
        -0.03494028002023697,
        0.015849711373448372,
        -0.07900498062372208,
        0.041322771459817886,
        -0.10778309404850006,
        -0.029528776183724403,
        0.07329399138689041,
        0.04384616017341614,
        -0.10340052098035812,
        0.04381871968507767,
        0.03549468517303467,
        0.0979251116514206,
        0.017878085374832153,
        0.06296480447053909,
        -0.0024237113539129496,
        0.06250403821468353,
        0.09532191604375839,
        -0.010349305346608162,
        -0.012206639163196087,
        0.001098807668313384,
        0.05273698270320892,
        0.014062775298953056,
        0.022574851289391518,
        0.023487016558647156,
        0.07505112886428833,
        0.08286405354738235,
        0.011294227093458176,
        -0.004307775758206844,
        0.040198441594839096,
        -0.01861988939344883,
        -0.01013192255049944,
        0.06940239667892456,
        -0.013033159077167511,
        0.09229486435651779,
        -0.023328891023993492,
        0.055077917873859406,
        -0.019225139170885086,
        -0.022442150861024857,
        0.0948345735669136,
        -0.0003189353446941823,
        0.03825731948018074,
        0.0026620482094585896,
        -0.011584285646677017,
        -0.045681606978178024,
        0.00997327920049429,
        -0.02641536109149456,
        0.05909382551908493,
        -0.0031609428115189075,
        -0.05256111919879913,
        0.06496868282556534,
        0.09275855123996735,
        -0.03362534940242767,
        0.035976432263851166,
        -0.041575171053409576,
        0.015509752556681633,
        -0.070412278175354,
        0.017904935404658318,
        0.012380878441035748,
        0.002332639880478382,
        0.00031820335425436497,
        -0.057581089437007904,
        -0.06316182762384415,
        0.019859613850712776,
        0.010648244991898537,
        -0.04794349893927574,
        0.016279205679893494,
        0.008777550421655178,
        -0.005540893878787756,
        -0.0007665721932426095,
        0.009789178147912025,
        0.040619492530822754,
        0.016859926283359528,
        -0.05395826697349548,
        -0.0201629176735878,
        0.014882544055581093,
        0.05354943871498108,
        -0.08584347367286682,
        -0.008637933991849422,
        -0.0014717960730195045,
        -0.03664640337228775,
        0.04002844914793968,
        -0.03709489479660988,
        0.06924565881490707,
        -0.054046377539634705,
        -0.0010670974152162671,
        -0.01845581643283367,
        0.01105252094566822,
        0.09950798004865646,
        0.06557948887348175,
        0.0005800134968012571,
        -0.09983102977275848,
        0.0841178447008133,
        0.04630844667553902,
        -0.07721415162086487,
        0.0074043902568519115,
        0.08038941025733948,
        0.004842900205403566,
        -0.06960254162549973,
        0.027656981721520424,
        0.04444373399019241,
        -0.008530732244253159,
        0.002904416061937809,
        0.0025545700918883085,
        -0.05108043923974037,
        -0.0020383030641824007,
        -0.008160432800650597,
        -0.09893383830785751,
        0.031562093645334244,
        -0.05541698634624481,
        0.02138814888894558,
        0.003392842598259449,
        0.0717046931385994,
        0.021453898400068283,
        -0.011120215989649296,
        0.009312598034739494,
        -0.020655013620853424,
        -0.011979608796536922,
        0.003859584452584386,
        -0.0011669928207993507,
        0.0030939073767513037,
        -0.0530676431953907,
        0.00149051402695477,
        -0.11063467711210251,
        -0.051814332604408264,
        0.007506027352064848,
        0.003377960529178381,
        0.040502313524484634,
        -0.09414570778608322,
        -0.0008139212150126696,
        -0.07481864094734192,
        0.00477540772408247,
        -0.038202088326215744,
        0.0013858064776286483,
        0.09001981467008591,
        -0.03682868927717209,
        -0.001989454496651888,
        0.002723697107285261,
        0.006254606414586306,
        0.05933583155274391,
        -0.012161611579358578,
        0.048076942563056946,
        -0.05075814202427864,
        -0.059498898684978485,
        0.006194660905748606,
        -0.02132357656955719,
        -0.0008660246385261416,
        0.0858762338757515,
        0.0071237157098948956,
        0.154942587018013,
        0.01717733033001423,
        0.10637548565864563,
        -0.12886425852775574,
        -0.05821125954389572,
        -0.06580594182014465,
        0.049202870577573776,
        -0.15112560987472534,
        -0.05307785049080849,
        0.04217715188860893,
        0.0814509242773056,
        -0.05903097987174988,
        0.01757674291729927,
        -0.14319506287574768,
        -0.13629034161567688,
        0.024247894063591957,
        -0.01209424901753664,
        0.02149679698050022,
        -0.0947643518447876,
        0.022931281477212906,
        0.06626246869564056,
        0.01341414824128151,
        0.04908648133277893,
        0.05288087949156761,
        -0.02390483021736145,
        -0.11780881881713867,
        -0.08397036045789719,
        -0.019176773726940155,
        -0.05895424634218216,
        -0.030968712642788887,
        -0.016433177515864372,
        -0.030136073008179665,
        -0.05338412895798683,
        0.04268782213330269,
        0.038561295717954636,
        0.04455166310071945,
        -0.1177166998386383,
        0.0003782968851737678,
        -0.03706763684749603,
        0.026863738894462585,
        0.11407087743282318,
        0.05715524032711983,
        0.06453241407871246,
        0.0026328100357204676,
        0.0024052343796938658,
        -0.09083851426839828,
        -0.02770797722041607,
        0.09078904986381531,
        0.07275717705488205,
        -0.059694722294807434,
        0.040002111345529556,
        -0.0308094322681427,
        -0.0764559954404831,
        0.0300182793289423,
        0.06749438494443893,
        0.024756107479333878,
        -0.11967937648296356,
        -0.004449759144335985,
        -0.01419723778963089,
        -0.14352791011333466,
        -0.07120168954133987,
        -0.0010603797854855657,
        0.02940109372138977,
        0.001086578005924821,
        -0.09433145076036453,
        -0.06571321934461594,
        -0.004496283829212189,
        -0.04397836700081825,
        -0.007605241611599922,
        0.039529312402009964,
        -0.010985658504068851,
        0.0003417238767724484,
        0.007080101873725653,
        0.054775483906269073,
        -0.03317117691040039,
        0.0013243852881714702,
        0.06396306306123734,
        0.0330619141459465,
        0.011197770945727825,
        0.0007273766677826643,
        -0.038463857024908066,
        -0.007756085135042667,
        0.04538192227482796,
        -0.002944558160379529,
        -0.007058079820126295,
        -0.0005506870220415294,
        0.013293979689478874,
        -0.00945031177252531,
        0.04762260615825653,
        0.013825361616909504,
        0.06274150311946869,
        0.018587293103337288,
        -0.011228663846850395,
        0.01423417218029499,
        -0.015304421074688435,
        0.0025897594168782234,
        -0.042020052671432495,
        -0.002915407298132777,
        0.006843716371804476,
        -0.023408645763993263,
        0.04178130626678467,
        -0.01006249524652958,
        -0.011332673951983452,
        -0.06138661503791809,
        -0.061492159962654114,
        0.051806505769491196,
        0.012244251556694508,
        0.08095812797546387,
        0.011797244660556316,
        -0.06410953402519226,
        -0.004210612736642361,
        0.0018801734549924731,
        0.015592994168400764,
        -0.0034148446284234524,
        -0.001476186327636242,
        0.002798749366775155,
        0.030053671449422836,
        -0.001744031673297286,
        -0.07635477185249329,
        0.05192246288061142,
        0.025954363867640495,
        0.0079440176486969,
        -0.08425755053758621,
        0.04926411807537079,
        0.04133257642388344,
        0.02005641907453537,
        -0.053796157240867615,
        -0.0257965587079525,
        0.012783197686076164,
        -0.019119292497634888,
        -0.04501638561487198,
        -0.05321147292852402,
        -0.001955257495865226,
        0.0029846280813217163,
        0.04682977497577667,
        0.045334670692682266,
        -0.0035930778831243515,
        0.00963582657277584,
        0.0035881916992366314,
        0.005128693301230669,
        -0.06995326280593872,
        0.014622235670685768,
        0.011470489203929901,
        0.0398968867957592,
        0.02871805988252163,
        0.017744259908795357,
        0.016975220292806625,
        0.042486775666475296,
        -0.004927657078951597,
        -0.00514058256521821,
        -0.03296868875622749,
        0.011333353817462921,
        0.00039685494266450405,
        0.024060489609837532,
        0.027926214039325714,
        0.0016162345418706536,
        0.015080959536135197,
        0.0015027420595288277,
        -0.0398687869310379,
        0.05591437220573425,
        0.0015985304489731789,
        -0.00025781599106267095,
        0.020897002890706062,
        -0.08519542217254639,
        -0.0261232927441597,
        -0.047859519720077515,
        -0.0603012815117836,
        -0.03604379668831825,
        -0.007349753752350807,
        0.02594834193587303,
        0.0187901109457016,
        0.004237874876707792,
        0.0762096643447876,
        -0.0956818237900734,
        -0.0003220040234737098,
        -0.061290591955184937,
        0.001246649888344109,
        -0.001409922493621707,
        -0.0009405422024428844,
        -0.03672746196389198,
        -0.05430767312645912,
        0.013255784288048744,
        -0.052825991064310074,
        -0.029203834012150764,
        -0.09607382863759995,
        0.010151667520403862,
        -0.007682324852794409,
        -0.024344537407159805,
        0.09663187712430954,
        0.07686498016119003,
        -0.08254528045654297,
        -0.013794283382594585,
        -0.061536915600299835,
        0.014157000929117203,
        -0.0390489436686039,
        0.0558001734316349,
        -0.08746702969074249,
        -0.05879472941160202,
        0.07786306738853455,
        -0.13184235990047455,
        -0.12630967795848846,
        -0.10129135847091675,
        -0.08793820440769196,
        0.156311497092247,
        0.040489841252565384,
        -0.029735295102000237,
        -0.028591923415660858,
        -0.0483422577381134,
        -0.01386854238808155,
        0.08653789013624191,
        0.03626668453216553,
        0.015640856698155403,
        -0.028079306706786156,
        -0.0409577339887619,
        0.07034636288881302,
        0.020836476236581802,
        -0.07619255781173706,
        -0.06796081364154816,
        -0.04776408150792122,
        0.0104457326233387,
        -0.058170780539512634,
        0.10164151340723038,
        -0.04674098640680313,
        -0.04127071052789688,
        -0.08774112910032272,
        -0.07247389853000641,
        -0.07672277092933655,
        -0.07527340203523636,
        0.06300690025091171,
        0.11701207607984543,
        -0.07229726761579514,
        -0.0571846105158329,
        0.024185316637158394,
        0.05677878484129906,
        0.00596555694937706,
        -0.006278259679675102,
        -0.1391436904668808,
        0.08580315113067627,
        0.01589895412325859,
        0.059280600398778915,
        -0.08124382048845291,
        0.06208233907818794,
        0.0065294066444039345,
        0.02514398843050003,
        0.09511814266443253,
        0.02400902658700943,
        0.07315873354673386,
        -0.07360167801380157,
        0.09997394680976868,
        0.039387255907058716,
        -0.08149449527263641,
        -0.09258674830198288,
        0.05585601553320885,
        0.05221371725201607,
        0.00670003704726696,
        0.08319701254367828,
        -0.01048314943909645,
        -0.03015984408557415,
        -0.019772034138441086,
        -0.0713367611169815,
        -0.0011884740088135004,
        0.08367745578289032,
        -0.004387207794934511,
        -0.0032918713986873627,
        -0.004230521619319916,
        -0.013646630570292473,
        -0.018042441457509995,
        -0.0009009048226289451,
        0.03879621997475624,
        0.06204640865325928,
        0.016287358477711678,
        0.04153108596801758,
        0.0021238340996205807,
        -0.000988860847428441,
        0.0681668221950531,
        0.00982244685292244,
        0.09629690647125244,
        0.02976335771381855,
        0.08121415227651596,
        -0.016284802928566933,
        0.09966430813074112,
        -0.049184322357177734,
        0.029316533356904984,
        0.06119021028280258,
        -0.00864856131374836,
        0.016339296475052834,
        -0.055004239082336426,
        -0.0004317021812312305,
        0.006605374626815319,
        0.00476034265011549,
        -0.0005812902236357331,
        0.016087263822555542,
        0.010757707059383392,
        0.04778723791241646,
        -0.03149336576461792,
        -0.07562164962291718,
        -0.05487627908587456,
        -0.010722889564931393,
        -0.0761355459690094,
        0.07860685139894485,
        0.012999658472836018,
        0.08597906678915024,
        0.0073952097445726395,
        -0.08120379596948624,
        0.032099418342113495,
        0.03702451288700104,
        -0.021928297355771065,
        -0.01121917087584734,
        -0.00022294122027233243,
        -0.05925006791949272,
        0.029839541763067245,
        -0.00421328516677022,
        -0.1080380529165268,
        -0.056662313640117645,
        0.022605614736676216,
        0.019103525206446648,
        0.06596092879772186,
        -0.08028599619865417,
        0.0033936367835849524,
        -0.0757371038198471,
        -0.03208426386117935,
        0.005723811686038971,
        0.0036174196284264326,
        0.011518826708197594,
        0.005839109420776367,
        -9.451113874092698e-05,
        0.027165338397026062,
        0.058041974902153015,
        0.0009282411192543805,
        0.037762600928545,
        -0.06483637541532516,
        0.07956848293542862,
        0.018687721341848373,
        0.02193991281092167,
        0.015019288286566734,
        -0.012548394501209259,
        0.03652471676468849,
        -0.005421196110546589,
        -0.08635220676660538,
        0.011895177885890007,
        -0.04092343896627426,
        0.000898640719242394,
        0.08134421706199646,
        0.04210243374109268,
        0.030261892825365067,
        0.008660005405545235,
        -0.0013768610078841448,
        0.00015900407743174583,
        -0.03728310391306877,
        -0.026793569326400757,
        -0.02271752431988716,
        -0.07672686129808426,
        -0.02719646692276001,
        -0.0002250065008411184,
        0.10188229382038116,
        -0.020374000072479248,
        -0.054235879331827164,
        -0.004854291211813688,
        -0.008232231251895428,
        0.03891826421022415,
        0.02579317055642605,
        0.0785437822341919,
        -0.04410251975059509,
        -0.08568473160266876,
        0.026543378829956055,
        0.035827916115522385,
        -0.013365866616368294,
        -0.023652508854866028,
        0.030617084354162216,
        0.0008867353317327797,
        -0.05418882146477699,
        0.020234668627381325,
        0.011412489227950573,
        -0.0015289215371012688,
        -0.04175584390759468,
        -0.04705319553613663,
        0.09842649102210999,
        0.004889470059424639,
        0.004377239849418402,
        -0.009653891436755657,
        0.07552453130483627,
        0.0042847683653235435,
        -0.01887376420199871,
        0.07831571251153946,
        -0.09971455484628677,
        0.017476627603173256,
        0.04253693297505379,
        -0.02864588238298893,
        -0.04945778101682663,
        -0.029717829078435898,
        0.13859815895557404,
        0.035364340990781784,
        0.1240839809179306,
        -0.09311481565237045,
        -0.08531466126441956,
        0.020760035142302513,
        0.06079907715320587,
        -0.018445555120706558,
        -0.014052044600248337,
        -0.14724723994731903,
        -0.010155832394957542,
        -0.08326953649520874,
        0.02499157004058361,
        0.09106914699077606,
        0.045547965914011,
        -0.031255174428224564,
        0.028004413470625877,
        -0.014085138216614723,
        -0.0023528272286057472,
        0.005435477942228317,
        0.060483742505311966,
        -0.016935009509325027,
        -0.05492772161960602,
        -0.013474554754793644,
        -0.06280882656574249,
        -0.00496062682941556,
        0.1293991357088089,
        -0.021183395758271217,
        -0.025078825652599335,
        0.05683249980211258,
        -0.09606198221445084,
        -0.08988458663225174,
        0.013284625485539436,
        -0.05595092102885246,
        0.11066260933876038,
        0.06138699874281883,
        -0.01746262237429619,
        0.049612414091825485,
        -0.07728735357522964,
        0.12109389901161194,
        0.0470888614654541,
        -0.06275900453329086,
        -0.11396228522062302,
        0.03762519359588623,
        0.07734180986881256,
        0.03401549905538559,
        -0.020002761855721474,
        0.02798791229724884,
        -0.08344097435474396,
        0.13168689608573914,
        -0.050428714603185654,
        0.035367220640182495,
        0.011159539222717285,
        0.014588393270969391,
        -0.06644731014966965,
        0.11748117208480835,
        -0.011127502657473087,
        0.10731998831033707,
        -0.0367174856364727,
        -0.07449884712696075,
        0.00017734416178427637,
        -0.07580915838479996,
        -0.0013065111124888062,
        -0.094511978328228,
        -0.007553186267614365,
        0.03832986205816269,
        0.0018662014044821262,
        -0.017712432891130447,
        0.08670708537101746,
        0.011147473007440567,
        0.03626745566725731,
        0.04284294322133064,
        0.06323361396789551,
        -0.003015412949025631,
        0.07640361040830612,
        0.0041164010763168335,
        0.02143704704940319,
        0.010813524946570396,
        -0.019347382709383965,
        0.011497455649077892,
        -0.002237883396446705,
        -0.006079947110265493,
        0.005493148695677519,
        0.02956894412636757,
        -5.219631566433236e-05,
        0.001552595873363316,
        -0.004779147915542126,
        -0.03503686934709549,
        -0.039942532777786255,
        0.002939370693638921,
        0.04686524718999863,
        0.06462626159191132,
        0.0061246962286531925,
        -0.03694337606430054,
        -0.00035569176543504,
        0.0235589686781168,
        0.034097954630851746,
        -0.04543691128492355,
        0.0006823666044510901,
        -0.06673987954854965,
        -0.031772322952747345,
        -0.04082776978611946,
        0.07398059964179993,
        -0.07919509708881378,
        0.00776705052703619,
        -0.01250502374023199,
        -0.0026594516821205616,
        0.0002175249974243343,
        -0.061943717300891876,
        -0.014416125603020191,
        0.04901650547981262,
        -0.04535209760069847,
        -0.028413595631718636,
        -0.0033503391314297915,
        -0.004508830141276121,
        0.010404877364635468,
        -0.0050922418013215065,
        0.025413278490304947,
        0.06017225235700607,
        -0.061469268053770065,
        -0.0015839006518945098,
        0.10050660371780396,
        0.011310892179608345,
        -0.006067706272006035,
        0.002415942493826151,
        0.04602403566241264,
        -0.0019830733072012663,
        -0.003823921550065279,
        -0.008144713006913662,
        -0.03735918179154396,
        0.040074966847896576,
        -0.0262546818703413,
        -0.04226405546069145,
        -0.07903070747852325,
        -0.03656718507409096,
        0.011849314905703068,
        -0.032809142023324966,
        -0.03311770409345627,
        -0.007672795094549656,
        -0.0018731842283159494,
        0.0019232576014474034,
        -0.006550327409058809,
        0.051010120660066605,
        -0.04501570761203766,
        0.014005073346197605,
        -0.06321589648723602,
        0.002897460013628006,
        0.04189117252826691,
        0.03014012798666954,
        0.0005704689538106322,
        0.0017964192666113377,
        0.041340116411447525,
        0.013456373475492,
        0.017948050051927567,
        0.03269870951771736,
        0.041531775146722794,
        -0.041826196014881134,
        -0.0150973005220294,
        0.024891776964068413,
        0.03455493971705437,
        -0.02530796453356743,
        0.003493909491226077,
        0.03167181834578514,
        0.03750212490558624,
        0.09880267828702927,
        0.07593169063329697,
        -0.002508377656340599,
        0.009692881256341934,
        -0.015952590852975845,
        0.022685939446091652,
        -0.10204445570707321,
        0.029454858973622322,
        0.002934811171144247,
        -0.016932399943470955,
        -0.0028174484614282846,
        0.039738573133945465,
        0.004028643947094679,
        0.05394136533141136,
        0.0005048412713222206,
        0.004452905617654324,
        0.09267878532409668,
        -0.064903624355793,
        0.04232360050082207,
        -0.02095319703221321,
        0.10218388587236404,
        -0.06716489046812057,
        0.0864822268486023,
        -0.06587006151676178,
        0.0715327188372612,
        -0.09155552834272385,
        -0.0006006149924360216,
        -0.03413662314414978,
        0.09438800066709518,
        0.004192470572888851,
        -0.0775657668709755,
        -0.03274926170706749,
        -0.06011045351624489,
        0.047694072127342224,
        0.03171301260590553,
        0.09493066370487213,
        0.12640820443630219,
        -0.026542536914348602,
        -0.08022503554821014,
        0.01004721224308014,
        0.023919295519590378,
        -0.03466504067182541,
        -0.09718929976224899,
        0.004202903248369694,
        0.10118839889764786,
        -0.1272328495979309,
        0.02111036330461502,
        0.06442248821258545,
        0.08603563159704208,
        -0.006396609358489513,
        -0.05687813088297844,
        0.0792418122291565,
        -0.08568573743104935,
        -0.0006408324115909636,
        0.0016202230472117662,
        0.09776449203491211,
        -0.01552453264594078,
        0.03194905444979668,
        -0.0334380678832531,
        0.02869778499007225,
        0.12758159637451172,
        0.005224092863500118,
        0.0012387449387460947,
        -0.09636878222227097,
        0.030597951263189316,
        0.03669711574912071,
        0.09099503606557846,
        0.057676367461681366,
        0.022403577342629433,
        -0.09300822764635086,
        -0.06740167737007141,
        0.006231246050447226,
        -0.001293863169848919,
        0.03937993943691254,
        0.10185638815164566,
        0.10555683076381683,
        -0.09541885554790497,
        -0.039266545325517654,
        0.11678215116262436,
        -0.07336163520812988,
        -0.1048610657453537,
        0.1321447342634201,
        0.05500628799200058,
        -0.09673119336366653,
        0.004004918038845062,
        0.013516800478100777,
        -0.009968562051653862,
        -0.111964650452137,
        -0.016319964081048965,
        -0.03994804993271828,
        -0.03370342776179314,
        -0.07662759721279144,
        -0.04387413337826729,
        -0.022540327161550522,
        -0.04497392103075981,
        -0.041278935968875885,
        0.0015280103543773293,
        0.0018912006635218859,
        0.00932250265032053,
        -0.003925148397684097,
        -0.04982604831457138,
        0.00779634527862072,
        0.07267262041568756,
        -0.07929468899965286,
        0.05166207626461983,
        0.0022667248267680407,
        -0.01927911303937435,
        0.03946588933467865,
        -0.09909503906965256,
        0.0038908880669623613,
        0.016964036971330643,
        -0.05808800086379051,
        0.013942820951342583,
        -0.056004393845796585,
        -0.0025061629712581635,
        -0.01484557893127203,
        -0.04107838496565819,
        0.031048357486724854,
        0.03371451050043106,
        0.00020480835519265383,
        9.223225060850382e-05,
        -0.03910437226295471,
        0.0011413563042879105,
        -0.00582830561324954,
        0.02927529066801071,
        0.005033572670072317,
        0.0036364267580211163,
        -0.024890804663300514,
        0.08041156828403473,
        0.030878404155373573,
        0.014574273489415646,
        -0.08723878860473633,
        -0.07621333003044128,
        0.009004286490380764,
        -0.006781639531254768,
        -0.08536238968372345,
        0.008598494343459606,
        -8.758687181398273e-05,
        0.00019206111028324813,
        0.029691793024539948,
        -0.015629513189196587,
        0.08721379190683365,
        0.01651657186448574,
        0.004467072896659374,
        0.022919530048966408,
        0.04730846732854843,
        0.0794447809457779,
        -0.04151581972837448,
        0.002009566407650709,
        0.027512019500136375,
        0.0006139851175248623,
        0.026832692325115204,
        0.04483608528971672,
        -0.09536250680685043,
        0.010395164601504803,
        0.002184862969443202,
        0.10990681499242783,
        0.07501621544361115,
        0.02939678728580475,
        0.0042163110338151455,
        -0.04295056313276291,
        -0.003178788349032402,
        -0.04841984808444977,
        -0.09588804095983505,
        0.0013076306786388159,
        -0.06216754764318466,
        0.05370049923658371,
        -0.012713231146335602,
        -0.028609778732061386,
        -0.03891100734472275,
        0.028441226109862328,
        0.013804038055241108,
        -0.010472474619746208,
        -0.0025300143752247095,
        0.0007217492675408721,
        0.03387957811355591,
        -0.0655190497636795,
        0.03903600946068764,
        0.025100506842136383,
        0.02468748204410076,
        -0.004340809304267168,
        0.0714903250336647,
        0.046178188174963,
        0.07064760476350784,
        -0.002052503637969494,
        0.008117426186800003,
        0.06672360748052597,
        -0.025358686223626137,
        -0.015748949721455574,
        -0.00029890902806073427,
        -0.011724235489964485,
        0.011254366487264633,
        -0.00520354975014925,
        0.08870948106050491,
        0.011839387007057667,
        -0.005477277096360922,
        0.006182124372571707,
        -0.056483570486307144,
        0.09246434271335602,
        -0.0027073451783508062,
        0.000996503047645092,
        0.01611620932817459,
        0.007947775535285473,
        -0.027612337842583656,
        0.002269905526190996,
        0.013710886240005493,
        -0.03815760836005211,
        -0.06529032438993454,
        0.0012000447604805231,
        -0.05158546566963196,
        -0.0013797704596072435,
        -0.04431251436471939,
        0.026822349056601524,
        0.07087481766939163,
        0.04150791093707085,
        0.09301970154047012,
        0.004856911022216082,
        0.02312481589615345,
        -0.0555439256131649,
        -0.003345468547195196,
        0.14994880557060242,
        0.014245997183024883,
        -0.005982281174510717,
        0.07978540658950806,
        0.04380938410758972,
        0.010459770448505878,
        0.028335684910416603,
        -0.08182300627231598,
        -0.043930478394031525,
        -0.030754849314689636,
        -0.137393519282341,
        -0.062823586165905,
        -0.04201434180140495,
        -0.06634557247161865,
        -0.06475424766540527,
        0.12634813785552979,
        -0.04077304154634476,
        -0.08141951262950897,
        -0.1542651355266571,
        -0.09800311923027039,
        -0.033482443541288376,
        0.02131802961230278,
        0.05930127948522568,
        -0.040135517716407776,
        0.018099134787917137,
        0.004380072932690382,
        -0.010683471336960793,
        0.0034240507520735264,
        -0.009285207837820053,
        0.15893007814884186,
        0.05068766698241234,
        -0.06089797988533974,
        0.01503690704703331,
        0.05261779576539993,
        0.036733463406562805,
        0.011456290259957314,
        -0.10825049877166748,
        -0.04682343825697899,
        -0.06814756989479065,
        0.13091424107551575,
        -0.04675856977701187,
        0.050832293927669525,
        0.049269307404756546,
        0.1006595641374588,
        0.1300177276134491,
        -0.09692198783159256,
        0.061942894011735916,
        -0.08267641812562943,
        0.0418962724506855,
        0.014543951489031315,
        -0.026774361729621887,
        -0.02923555299639702,
        -0.07308594882488251,
        -0.09600605070590973,
        -0.1244119256734848,
        0.011374305933713913
      ]
    },
    {
      "layer": "param_1",
      "shape": [
        64,
        192
      ],
      "mean": 0.0003827998589258641,
      "std_dev": 0.05222627520561218,
      "values": [
        0.055993515998125076,
        0.014332152903079987,
        0.021482499316334724,
        0.034611403942108154,
        -0.08344355970621109,
        -0.023103076964616776,
        -0.016686731949448586,
        0.023039549589157104,
        0.10291070491075516,
        0.07883834093809128,
        -0.05038760229945183,
        0.12105903774499893,
        -0.01636640913784504,
        0.024580352008342743,
        -0.009839729405939579,
        0.04133034497499466,
        -0.03704264387488365,
        -0.05520069599151611,
        0.007216255646198988,
        0.08542074263095856,
        0.004910490475594997,
        -0.008069872856140137,
        -0.017667848616838455,
        0.09184181690216064,
        -0.0002833154867403209,
        0.05509078875184059,
        0.08908809721469879,
        0.043349720537662506,
        0.027880314737558365,
        0.10116048902273178,
        0.009037869051098824,
        -0.0016002245247364044,
        -0.017892880365252495,
        -0.07013244926929474,
        -0.05245686322450638,
        0.009840657003223896,
        -0.060557737946510315,
        0.0045988233759999275,
        -0.004955221898853779,
        -0.009829940274357796,
        0.04070914536714554,
        0.03273477405309677,
        0.08566921204328537,
        -0.05024994537234306,
        0.005527004599571228,
        -0.01807521842420101,
        0.054856076836586,
        0.0958983451128006,
        -0.048124391585588455,
        -0.015000879764556885,
        -0.11350525915622711,
        -0.06773901730775833,
        0.07435449212789536,
        0.03434864804148674,
        0.09905146807432175,
        -0.04362479969859123,
        -0.04308659955859184,
        -0.034531377255916595,
        0.015520461834967136,
        0.03568015247583389,
        0.009821321815252304,
        -0.02884112298488617,
        -0.019026361405849457,
        0.033410586416721344,
        -0.02434644289314747,
        0.018482999876141548,
        0.036165256053209305,
        0.01576007530093193,
        0.021638881415128708,
        -0.023942913860082626,
        0.12578116357326508,
        -0.11600067466497421,
        -0.0802675187587738,
        0.04731879383325577,
        0.05947217345237732,
        0.1110212653875351,
        0.08901721984148026,
        0.0006431433721445501,
        0.027757801115512848,
        -0.07386720925569534,
        0.007208230905234814,
        0.00955980271100998,
        0.03425176069140434,
        -0.03946110978722572,
        -0.012112246826291084,
        0.00856190174818039,
        0.010958799161016941,
        0.013897686265408993,
        0.08090488612651825,
        -0.02036142535507679,
        -0.019955290481448174,
        -0.07468827068805695,
        -0.07253001630306244,
        -0.05423733964562416,
        0.06618104875087738,
        0.03638019040226936,
        -0.03862660378217697,
        0.12857869267463684,
        -0.03930679336190224,
        0.0006723742699250579,
        0.05563754588365555,
        0.005008140578866005,
        0.08809098601341248,
        -0.04861404001712799,
        0.05954628810286522,
        0.017694566398859024,
        0.006595143117010593,
        0.054894283413887024,
        0.05448181927204132,
        0.08383170515298843,
        -0.014658063650131226,
        0.02166758105158806,
        -0.013253781944513321,
        -0.04003538191318512,
        -0.011525038629770279,
        0.032998066395521164,
        -0.01690506562590599,
        0.02528330497443676,
        -0.023706719279289246,
        0.05271373689174652,
        -0.04033197462558746,
        -0.05499084293842316,
        -0.026789026334881783,
        -0.043973159044981,
        0.07450564950704575,
        -0.01235299650579691,
        -0.03805328533053398,
        0.10963847488164902,
        -0.0494726188480854,
        0.023314058780670166,
        0.08159171044826508,
        0.009330421686172485,
        0.02697063237428665,
        -0.06792813539505005,
        0.07357565313577652,
        -0.09553483873605728,
        0.06471677124500275,
        0.023588877171278,
        -0.004604927264153957,
        -0.012542336247861385,
        0.032168492674827576,
        0.10727023333311081,
        -0.059105247259140015,
        -0.01597263105213642,
        -0.08572641015052795,
        0.03512738645076752,
        0.05282843858003616,
        0.016779916360974312,
        0.019782215356826782,
        -0.1056758463382721,
        -0.05450156331062317,
        0.053164951503276825,
        0.09455690532922745,
        -0.023825040087103844,
        0.051719244569540024,
        0.09083627164363861,
        -0.0034109267871826887,
        0.021443188190460205,
        -0.034341827034950256,
        0.03277382254600525,
        -0.01639709249138832,
        0.028189977630972862,
        0.08760294318199158,
        0.09234918653964996,
        0.01423551794141531,
        0.01559754740446806,
        0.07708398997783661,
        -0.03278538957238197,
        0.025497643277049065,
        0.044523268938064575,
        -0.052171871066093445,
        0.044438742101192474,
        -0.015001754276454449,
        -0.13354329764842987,
        0.06431785225868225,
        -0.010954824276268482,
        0.02406461536884308,
        -0.006542291957885027,
        0.0633869543671608,
        -0.030735403299331665,
        -0.004435111302882433,
        -0.021442370489239693,
        -0.0009403922595083714,
        0.03088763915002346,
        0.010870130732655525,
        0.0888051763176918,
        -0.046276383101940155,
        -0.012747395783662796,
        0.06730871647596359,
        0.04772669076919556,
        0.03817708417773247,
        -0.013054060749709606,
        -0.004264507908374071,
        -0.05014743283390999,
        0.03787720575928688,
        0.053765226155519485,
        -0.08219286054372787,
        0.0034112660214304924,
        0.01462374348193407,
        -0.00732507323846221,
        0.02218124270439148,
        0.08781325817108154,
        -0.11053304374217987,
        0.06499092280864716,
        -0.01059065479785204,
        0.003768949070945382,
        -0.01233450323343277,
        0.06357388198375702,
        0.04645828902721405,
        -0.021459657698869705,
        0.03272585570812225,
        0.10603703558444977,
        -0.07237757742404938,
        -0.00879155844449997,
        -0.04143327474594116,
        -0.09123322367668152,
        0.04300226643681526,
        0.04474925622344017,
        0.06927940994501114,
        -0.03687360882759094,
        0.07587190717458725,
        0.028755346313118935,
        -0.1099960207939148,
        -0.054831363260746,
        0.03196713328361511,
        0.02021641470491886,
        0.04175552353262901,
        -0.062345631420612335,
        -0.006459916941821575,
        -0.04526655375957489,
        -0.10800827294588089,
        -0.005466409493237734,
        0.12962087988853455,
        0.033249787986278534,
        -0.020976386964321136,
        -0.08106224238872528,
        0.004555898252874613,
        0.05039028450846672,
        -0.019210772588849068,
        -0.029241884127259254,
        -0.03253031149506569,
        0.005493751261383295,
        0.04323108121752739,
        0.0688328817486763,
        0.011331507936120033,
        -0.0024048674385994673,
        0.05758177116513252,
        0.012046726420521736,
        0.038005318492650986,
        0.015072568319737911,
        -0.005060078576207161,
        -0.09706772118806839,
        0.04057842120528221,
        8.193460234906524e-05,
        0.054657649248838425,
        -0.051145363599061966,
        0.07388801872730255,
        -0.001788244117051363,
        0.01880284585058689,
        -0.048780277371406555,
        -0.01734410598874092,
        -0.003591833868995309,
        0.018391219899058342,
        0.0027779683005064726,
        0.0027990846429020166,
        -0.057495202869176865,
        0.027287812903523445,
        -0.012624752707779408,
        0.07060912251472473,
        -0.06544770300388336,
        0.13088491559028625,
        0.02059943974018097,
        -0.022697769105434418,
        -0.005381204653531313,
        0.06292279064655304,
        -0.01466963067650795,
        -0.010078595019876957,
        -0.003631147090345621,
        0.03542193025350571,
        0.03581780940294266,
        0.021472111344337463,
        -0.11292986571788788,
        -0.028036467730998993,
        0.15314778685569763,
        0.05339467152953148,
        0.10643094778060913,
        0.028116097673773766,
        0.03871478885412216,
        -0.048903938382864,
        -0.03060314618051052,
        0.10624859482049942,
        -0.0834813043475151,
        0.14670731127262115,
        -0.026386989280581474,
        -0.0393730066716671,
        -0.14747731387615204,
        -0.036706410348415375,
        -0.006207335274666548,
        -0.054519325494766235,
        -0.07093216478824615,
        0.0661555826663971,
        0.10137651860713959,
        -0.09583274275064468,
        -0.08994113653898239,
        0.04236440733075142,
        -0.016671860590577126,
        0.039061564952135086,
        0.040908049792051315,
        -0.016970951110124588,
        0.0595681332051754,
        0.004904633853584528,
        -0.05350038409233093,
        -0.0020186069887131453,
        -0.0823676586151123,
        -0.003253909992054105,
        -0.06010235846042633,
        -0.007357637397944927,
        0.02801084890961647,
        0.013373198918998241,
        -0.06653688102960587,
        0.040268369019031525,
        -0.06024833023548126,
        -0.08197033405303955,
        0.02558746747672558,
        0.0019908687099814415,
        -0.035616278648376465,
        0.01623539999127388,
        0.08260520547628403,
        -0.03747832402586937,
        0.035727109760046005,
        0.0014131390489637852,
        0.08755765855312347,
        -0.08673443645238876,
        0.011834759265184402,
        0.004358618054538965,
        0.004918902646750212,
        0.08611168712377548,
        -0.020113514736294746,
        -0.02990066446363926,
        0.06742158532142639,
        -0.01951828971505165,
        -0.03591691330075264,
        0.011890372261404991,
        -0.05091220512986183,
        0.04690591245889664,
        -0.025333354249596596,
        0.021082576364278793,
        -0.02311381697654724,
        0.03385961800813675,
        -0.03386331722140312,
        0.014249584637582302,
        0.013704554177820683,
        -0.06488294899463654,
        0.016140885651111603,
        -0.019894791767001152,
        0.04179541394114494,
        -0.03490419313311577,
        -0.023457521572709084,
        0.07177771627902985,
        0.013862191699445248,
        0.06170295551419258,
        0.02105540595948696,
        0.028963051736354828,
        -0.05704262852668762,
        0.01609143428504467,
        -0.043715812265872955,
        0.12348861247301102,
        0.08649484813213348,
        0.12757426500320435,
        -0.03678540512919426,
        -0.02865642122924328,
        -0.036005131900310516,
        0.07022056728601456,
        0.09196209907531738,
        0.0017012848984450102,
        0.001358221285045147,
        0.08328822255134583,
        -0.0005157158593647182,
        -0.02663266658782959,
        0.05065116658806801,
        -0.07927015423774719,
        0.026218358427286148,
        -0.02787664532661438,
        -0.07155570387840271,
        0.00758021418005228,
        0.031059058383107185,
        -0.012843277305364609,
        0.019812608137726784,
        -0.01119623240083456,
        0.03585448116064072,
        -0.011418508365750313,
        -0.06290100514888763,
        0.1024155244231224,
        0.008589150384068489,
        0.012978051789104939,
        -0.035807572305202484,
        0.055497925728559494,
        -0.06565916538238525,
        0.009256823919713497,
        0.04525361955165863,
        0.05174912139773369,
        0.049765363335609436,
        0.003515137592330575,
        0.04481249675154686,
        0.003186563029885292,
        0.11746814846992493,
        0.015380548313260078,
        -0.011815820820629597,
        -0.06375997513532639,
        -0.027373475953936577,
        0.030812392011284828,
        0.03153958544135094,
        -0.017012905329465866,
        -0.13614030182361603,
        -0.05523023009300232,
        -0.07430800050497055,
        0.06078578531742096,
        0.030478384345769882,
        0.02050732634961605,
        -0.04369160905480385,
        0.0006297550862655044,
        0.07160575687885284,
        -0.024462569504976273,
        0.1050749123096466,
        -0.05973445624113083,
        0.05330599471926689,
        0.023407427594065666,
        -0.08246897161006927,
        0.055692486464977264,
        0.012631738558411598,
        -0.028544316068291664,
        0.09106404334306717,
        -0.013056743890047073,
        0.04406438395380974,
        -0.11188255995512009,
        0.01412853505462408,
        0.017629317939281464,
        -0.04683908075094223,
        0.009442818351089954,
        -0.007988948374986649,
        0.04914183169603348,
        -0.09967921674251556,
        0.006279014516621828,
        0.04246252030134201,
        0.06119801476597786,
        -0.017880916595458984,
        -0.033688366413116455,
        -0.09177590161561966,
        -0.055949077010154724,
        0.023673638701438904,
        -0.08159428089857101,
        0.012046214193105698,
        0.040840402245521545,
        -0.07182706892490387,
        -0.050526104867458344,
        -0.03939032927155495,
        0.02579825557768345,
        0.0783335492014885,
        0.06788808107376099,
        -0.0187996793538332,
        0.0659327358007431,
        -0.10858339071273804,
        0.013835047371685505,
        0.03178681805729866,
        0.04234655573964119,
        0.03226688876748085,
        0.01442551240324974,
        0.06528015434741974,
        0.06393630057573318,
        -0.01288282684981823,
        -0.05895603075623512,
        0.023333638906478882,
        -0.061707910150289536,
        -0.03767385333776474,
        0.0235311146825552,
        -0.020124375820159912,
        -0.13018426299095154,
        -0.008625438436865807,
        0.03286800906062126,
        -0.03735700249671936,
        -0.00320390029810369,
        -0.046295955777168274,
        0.08030562847852707,
        -0.020837480202317238,
        -0.03421233594417572,
        0.053991660475730896,
        -0.0037382536102086306,
        -0.02583187073469162,
        0.05826546624302864,
        0.060557976365089417,
        0.038143765181303024,
        -0.014978313818573952,
        0.07587306201457977,
        0.07829083502292633,
        -0.0662330836057663,
        0.0131911626085639,
        -0.04849370941519737,
        -0.005100018810480833,
        0.05970218405127525,
        0.006550823803991079,
        -0.001272748108021915,
        -0.007407349534332752,
        -0.10193831473588943,
        0.01987716183066368,
        -0.0697949156165123,
        0.023993143811821938,
        0.003378276014700532,
        -0.02936263382434845,
        -0.01470272894948721,
        -0.04243205115199089,
        -0.057181891053915024,
        0.0609111562371254,
        0.012959221377968788,
        0.029022784903645515,
        -0.020061537623405457,
        -0.041299719363451004,
        -0.009529354982078075,
        0.027443045750260353,
        -0.04049663990736008,
        -0.050242237746715546,
        0.03396770358085632,
        -0.07456479221582413,
        -0.09426774084568024,
        -0.005558918230235577,
        0.05895579233765602,
        0.012813919223845005,
        0.0193097535520792,
        0.08852671831846237,
        -0.04193544015288353,
        0.04527944326400757,
        -0.039058782160282135,
        -0.02279609814286232,
        0.00795094482600689,
        -0.015306703746318817,
        -0.006060466635972261,
        0.011763065122067928,
        0.08860963582992554,
        0.06523582339286804,
        0.06844446808099747,
        0.05571817234158516,
        -0.04342963173985481,
        -0.011594722047448158,
        0.1287117898464203,
        -0.033160772174596786,
        0.05945761129260063,
        -0.0489889457821846,
        0.006386030465364456,
        -0.04536284878849983,
        -0.09635622799396515,
        -0.04517756775021553,
        0.024134540930390358,
        0.059140175580978394,
        0.026542607694864273,
        0.023424800485372543,
        0.03443589061498642,
        -0.02143707312643528,
        0.003237154334783554,
        -0.006614143960177898,
        0.0013185234274715185,
        0.0035840938799083233,
        -0.006331689655780792,
        0.017938870936632156,
        0.033429428935050964,
        0.08544862270355225,
        -0.09911571443080902,
        -0.015019575133919716,
        0.04647880420088768,
        0.010302374139428139,
        0.13473181426525116,
        0.06306131929159164,
        -0.018905427306890488,
        -0.10936440527439117,
        0.023942304775118828,
        -0.017619850113987923,
        0.0725468322634697,
        -0.015328343957662582,
        0.012962850742042065,
        0.07897818833589554,
        -0.022661084309220314,
        0.06406646966934204,
        -0.02268395945429802,
        0.03731374442577362,
        0.039823636412620544,
        -0.017645487561821938,
        -0.008106422610580921,
        0.010378511622548103,
        0.032873496413230896,
        0.025743205100297928,
        -0.0685005709528923,
        0.007875249721109867,
        -0.015315519645810127,
        0.03947062790393829,
        0.006284677889198065,
        -0.08843232691287994,
        0.06451521068811417,
        -0.06205150857567787,
        0.04148999974131584,
        -0.09968408942222595,
        0.16969728469848633,
        0.0261521115899086,
        -0.03580782189965248,
        0.059930916875600815,
        -0.023579198867082596,
        -0.09000525623559952,
        0.06717800348997116,
        -0.006056733429431915,
        0.021150264889001846,
        0.029143406078219414,
        0.028484877198934555,
        -0.19752365350723267,
        0.09748438745737076,
        -0.07405047118663788,
        0.005329531617462635,
        -0.02604302018880844,
        0.07827667146921158,
        0.0053253015503287315,
        0.011904316022992134,
        0.008352160453796387,
        -0.03052341938018799,
        -0.04930204153060913,
        -0.013825559988617897,
        0.024933235719799995,
        -0.11539535224437714,
        0.014406267553567886,
        0.08094753324985504,
        0.045690733939409256,
        -0.04186830297112465,
        0.03599398210644722,
        0.08907685428857803,
        0.08354763686656952,
        0.006651160307228565,
        0.03208663687109947,
        0.09486443549394608,
        0.0036812364123761654,
        -0.04848318547010422,
        -0.009428787976503372,
        0.03848615661263466,
        -0.009507158771157265,
        -0.041673511266708374,
        0.0594232976436615,
        -0.011126689612865448,
        -0.12037938088178635,
        0.04328765720129013,
        0.04441656917333603,
        0.10092869400978088,
        -0.0711979866027832,
        0.017402196303009987,
        0.015660647302865982,
        0.015005645342171192,
        -0.05032147467136383,
        -0.1219802126288414,
        -0.04295601695775986,
        -0.025773238390684128,
        -0.008632983081042767,
        0.042373642325401306,
        0.015596063807606697,
        -0.04575062170624733,
        -0.049339134246110916,
        0.021653367206454277,
        0.09576134383678436,
        -0.058482687920331955,
        0.05026901140809059,
        0.005405415780842304,
        -0.04160810261964798,
        -0.018217576667666435,
        -0.015360118821263313,
        -0.0413014180958271,
        0.0746922716498375,
        0.024951864033937454,
        0.014022910967469215,
        -0.02464711107313633,
        0.027518464252352715,
        0.041079141199588776,
        -0.07709044218063354,
        -0.011588829569518566,
        -0.0567677766084671,
        -0.03140069171786308,
        -0.07640717178583145,
        -0.07194037735462189,
        -0.01176476664841175,
        0.08754078298807144,
        0.07476488500833511,
        -0.07595808058977127,
        -0.03870738297700882,
        0.025806253775954247,
        0.029051220044493675,
        0.020854132249951363,
        0.0017629388021305203,
        0.047915779054164886,
        -0.04834972321987152,
        -0.014984085224568844,
        0.0006973802228458226,
        0.029917016625404358,
        -0.10102181881666183,
        0.010387295857071877,
        0.01345691829919815,
        0.017794830724596977,
        -0.010814373381435871,
        -0.08060242235660553,
        -0.10445158928632736,
        0.011026497930288315,
        -0.09332685172557831,
        -0.10289851576089859,
        0.1276896446943283,
        0.022316010668873787,
        0.035897064954042435,
        -0.024782724678516388,
        0.019400067627429962,
        0.0001316338311880827,
        -0.039350152015686035,
        -0.06746843457221985,
        0.059346191585063934,
        -0.03944220021367073,
        0.03241819143295288,
        -0.060532014816999435,
        0.07682622969150543,
        0.013351687230169773,
        -0.07825988531112671,
        0.035990238189697266,
        0.05578664690256119,
        -0.06304705888032913,
        -0.029700567945837975,
        0.0027182723861187696,
        -0.026503996923565865,
        -0.0808584988117218,
        -0.034666795283555984,
        -0.11375318467617035,
        0.04954387620091438,
        0.02555168978869915,
        0.024419033899903297,
        0.09779875725507736,
        0.017838334664702415,
        0.08146641403436661,
        0.022355251014232635,
        0.06501701474189758,
        0.06917574256658554,
        0.012073165737092495,
        -0.07249537855386734,
        0.06034262850880623,
        -0.007205815054476261,
        0.11113060265779495,
        0.01981591433286667,
        -0.023951280862092972,
        0.01746208779513836,
        0.01624567061662674,
        0.008125417865812778,
        0.04048692062497139,
        0.04294692724943161,
        -0.029408641159534454,
        -0.09397979825735092,
        0.0740848034620285,
        0.026287762448191643,
        -0.0013220349792391062,
        0.03474393114447594,
        -0.02192966639995575,
        0.01372018363326788,
        0.0807904303073883,
        -0.012013174593448639,
        0.029254941269755363,
        0.13620314002037048,
        -0.05597936734557152,
        -0.030639659613370895,
        0.08585549145936966,
        -0.019211463630199432,
        -0.01705286279320717,
        0.02447207272052765,
        -0.0860411748290062,
        0.009617043659090996,
        -0.0040712663903832436,
        -0.03855469450354576,
        0.06258013844490051,
        -0.009845578111708164,
        -0.008607323281466961,
        -0.012812857516109943,
        0.05218006670475006,
        0.034219518303871155,
        0.043325237929821014,
        0.010422158986330032,
        0.00011542782885953784,
        -0.03734917193651199,
        0.006846526637673378,
        -0.09096773713827133,
        0.09269842505455017,
        -0.020784329622983932,
        0.02839456871151924,
        -0.035344768315553665,
        0.03764455020427704,
        0.1097569540143013,
        0.06781565397977829,
        -0.0419425293803215,
        -9.145354852080345e-06,
        0.06996177136898041,
        0.017683357000350952,
        -0.02117314375936985,
        0.08995752781629562,
        0.023878293111920357,
        0.03091549128293991,
        -0.004025544971227646,
        -0.01094452477991581,
        -0.048837609589099884,
        -0.08738847076892853,
        -0.0714041218161583,
        0.03954547643661499,
        -0.006144838407635689,
        -0.019416457042098045,
        0.015789855271577835,
        -0.004944261163473129,
        0.0011050504399463534,
        0.051062390208244324,
        -0.05710494890809059,
        -0.08181758224964142,
        -0.020824430510401726,
        -0.031625330448150635,
        0.17381970584392548,
        -0.0014712288975715637,
        0.00318923220038414,
        -0.0011824647663161159,
        0.0703098401427269,
        -0.05538055673241615,
        0.06475044041872025,
        0.035591766238212585,
        0.0030295688193291426,
        0.08794782310724258,
        -0.06105504184961319,
        0.017848504707217216,
        0.014910758472979069,
        -0.025089163333177567,
        0.02391694113612175,
        0.13229237496852875,
        -0.014605363830924034,
        -0.0249733068048954,
        0.0135197089985013,
        0.012652725912630558,
        -0.06457053124904633,
        -0.002596612786874175,
        0.032922253012657166,
        0.017635943368077278,
        0.07601539045572281,
        0.03186972811818123,
        -0.044133126735687256,
        -0.04743288829922676,
        0.0005463284905999899,
        -0.03844061866402626,
        -0.005828695371747017,
        0.03971967473626137,
        0.0018235876923426986,
        -0.005313884932547808,
        0.004611363634467125,
        0.04150187224149704,
        0.11675353348255157,
        0.016167016699910164,
        -0.04678155481815338,
        -0.018760893493890762,
        0.03189081326127052,
        0.058622464537620544,
        0.01975979283452034,
        -0.12090887129306793,
        -0.09176366776227951,
        -0.025950653478503227,
        -0.004689175635576248,
        -0.008045565336942673,
        0.06710276752710342,
        -0.01965647004544735,
        0.03217966854572296,
        -0.054511796683073044,
        0.02229558490216732,
        0.01726527325809002,
        -0.1032751053571701,
        -0.00033727713162079453,
        -0.025838492438197136,
        0.03166446462273598,
        0.025711076334118843,
        0.05330865830183029,
        -0.0016437075100839138,
        0.08724838495254517,
        0.08803120255470276,
        -0.056891731917858124,
        0.0035695049446076155,
        -0.016695886850357056,
        -0.02339359000325203,
        -0.020957861095666885,
        -0.023662833496928215,
        0.05026441067457199,
        -0.036517027765512466,
        0.013653935864567757,
        0.040545400232076645,
        0.08576084673404694,
        -0.030032118782401085,
        0.09263341873884201,
        0.11765304952859879,
        0.03585241734981537,
        -0.0009972085244953632,
        0.010731557384133339,
        -0.012086101807653904,
        0.0746254101395607,
        0.025513438507914543,
        0.10159369558095932,
        0.0010446602245792747,
        0.06804453581571579,
        0.03335733339190483,
        0.04140510782599449,
        0.0015678566414862871,
        -0.03527151048183441,
        -0.023684490472078323,
        0.10671693086624146,
        -0.05274837836623192,
        -0.04175988584756851,
        0.00836839247494936,
        0.08005231618881226,
        -0.02011258341372013,
        -0.05504621937870979,
        0.0369415320456028,
        -0.028108250349760056,
        0.11345908790826797,
        -0.0187049712985754,
        -0.08976978808641434,
        0.0927027091383934,
        0.029543133452534676,
        0.027638455852866173,
        -0.023078501224517822,
        -0.0641498863697052,
        -0.005017912480980158,
        0.045972976833581924,
        -0.03883475810289383,
        -0.10131437331438065,
        0.06303627789020538,
        0.03462575376033783,
        -0.01426026877015829,
        -0.059405725449323654,
        -0.017883675172924995,
        0.05143330991268158,
        -0.009496744722127914,
        0.019410265609622,
        -0.07584104686975479,
        0.07275256514549255,
        0.03088999167084694,
        -0.06109645217657089,
        -0.03405563905835152,
        -0.0581001378595829,
        -0.0602334588766098,
        0.003955857828259468,
        0.01757512055337429,
        0.042045459151268005,
        -0.13846059143543243,
        0.05516902357339859,
        0.02025717869400978,
        0.07703222334384918,
        -0.02223767712712288,
        -0.12146799266338348,
        -0.043013740330934525,
        -0.11282893270254135,
        0.03287925198674202,
        -0.05470962077379227,
        0.061726223677396774,
        -0.0014602715382352471,
        -0.16535510122776031,
        -0.022160226479172707,
        0.07414202392101288,
        0.03931402415037155,
        0.0008067251183092594,
        -0.06535417586565018,
        -0.05153742432594299,
        -0.04999574273824692,
        -0.04117240384221077,
        0.004658598452806473,
        -0.07389234006404877,
        -0.03677668794989586,
        -0.04053248092532158,
        0.09551019966602325,
        0.021541714668273926,
        -0.01566506363451481,
        -0.09893514961004257,
        0.07620372623205185,
        0.052570365369319916,
        0.0342407152056694,
        0.03554874658584595,
        0.0763622298836708,
        -0.01575595512986183,
        -0.0011808847775682807,
        -0.0005692705162800848,
        0.02712162770330906,
        -0.04380011186003685,
        0.013362345285713673,
        -0.006279430352151394,
        0.0410364605486393,
        -0.06785275042057037,
        -0.055220745503902435,
        0.005097637884318829,
        -0.0046823713928461075,
        0.03239579126238823,
        0.0071158576756715775,
        -0.02437734790146351,
        -0.004307619296014309,
        -0.03758245334029198,
        -0.006582670845091343,
        -0.10035042464733124,
        -0.0031970790587365627,
        -0.07218089699745178,
        0.09170635044574738,
        0.04373415932059288,
        -0.023218613117933273,
        -0.09296490252017975,
        0.031241416931152344,
        0.03884156793355942,
        0.03767917677760124,
        0.016505979001522064,
        0.007024312857538462,
        -0.0720372423529625,
        0.08735732734203339,
        -0.06402674317359924,
        0.02241235412657261,
        -0.10117953270673752,
        -0.04931025207042694,
        -0.006048988085240126,
        0.04082019627094269,
        0.0857757106423378,
        0.1188366636633873,
        0.004200436640530825,
        0.0569271445274353,
        -0.04981781169772148,
        0.10129092633724213,
        -0.04126359522342682,
        -0.027141718193888664,
        -0.10818585008382797,
        -0.012530745007097721,
        0.07738155126571655,
        0.04663994535803795,
        -0.12484292685985565,
        -0.05989033356308937,
        0.03632311150431633,
        -0.041895750910043716,
        -0.024007216095924377,
        -0.006502910051494837,
        0.04667102172970772,
        -0.12988227605819702,
        0.029289910569787025,
        0.024161120876669884,
        0.006952628027647734,
        -0.11463914811611176,
        0.04354960843920708,
        -0.010662608779966831,
        0.02130873315036297,
        -0.013611015863716602,
        -0.0008536084787920117,
        0.07180843502283096,
        0.03650859743356705,
        0.0074983034282922745,
        0.029314741492271423,
        0.026938442140817642,
        -0.03400539979338646,
        0.032066985964775085,
        -0.06865967065095901,
        -0.01204742956906557,
        0.019627800211310387,
        0.05923742055892944,
        -0.022986354306340218,
        0.016066493466496468,
        -0.010761366225779057,
        0.01853370852768421,
        -0.010089656338095665,
        -0.013699633069336414,
        0.01271292008459568,
        0.03739411011338234,
        0.030483203008770943,
        -0.054551683366298676,
        -0.0029270057566463947,
        0.003124629845842719,
        -0.13379918038845062,
        0.0709310993552208,
        -0.03569900617003441,
        -0.01914711482822895,
        0.033307548612356186,
        0.08325506746768951,
        -0.09693815559148788,
        -0.019164638593792915,
        0.07924040406942368,
        0.08704269677400589,
        0.04121386632323265,
        0.026966556906700134,
        0.019927004352211952,
        -0.028857098892331123,
        -0.020364122465252876,
        0.042185358703136444,
        -0.07969910651445389,
        -0.045593105256557465,
        -0.0024138949811458588,
        0.0028431217651814222,
        -0.04053911939263344,
        0.005068938713520765,
        -0.05618179589509964,
        0.003126623807474971,
        0.011390666477382183,
        0.009869890287518501,
        0.061891019344329834,
        -0.06108458340167999,
        -0.03481173515319824,
        -0.008723907172679901,
        -0.055628322064876556,
        0.04771720618009567,
        0.06441499292850494,
        -0.0791761577129364,
        -0.03726955130696297,
        -0.02692141756415367,
        0.05247063934803009,
        -0.06773078441619873,
        -0.003997297026216984,
        0.024546442553400993,
        0.021282058209180832,
        -0.03297727182507515,
        -0.007557398173958063,
        -0.044523049145936966,
        0.004615615587681532,
        -0.02160489745438099,
        -0.050030674785375595,
        0.006145919673144817,
        0.08037428557872772,
        0.057861991226673126,
        -0.006143966689705849,
        0.03297802805900574,
        -0.034435153007507324,
        -0.0349748469889164,
        -0.0005001435056328773,
        -0.02406807616353035,
        0.017990613356232643,
        0.09678175300359726,
        -0.009101800620555878,
        -0.039458855986595154,
        -0.04002455994486809,
        0.015832437202334404,
        0.04405426234006882,
        0.03832901269197464,
        0.011343328282237053,
        -0.060715511441230774,
        -0.032881058752536774,
        0.014413897879421711,
        -0.024901818484067917,
        0.030561180785298347,
        -0.0062006083317101,
        0.038994647562503815,
        -0.00039205612847581506,
        -0.03567302227020264,
        -0.0020950997713953257,
        0.020405493676662445,
        -0.10150469094514847,
        -0.04418790712952614,
        -0.0109772440046072,
        -0.002266095019876957,
        0.03292231634259224,
        -0.029778355732560158,
        -0.07798472046852112,
        0.031787045300006866,
        -0.004571262281388044,
        -0.002417023992165923,
        -0.0949208065867424,
        -0.05130673572421074,
        0.05964804068207741,
        0.018648505210876465,
        -0.021558862179517746,
        0.11098028719425201,
        -0.04485280439257622,
        0.06686476618051529,
        0.13136950135231018,
        0.007457128260284662,
        0.08909865468740463,
        0.06467945128679276,
        -0.044385090470314026,
        -0.008804723620414734,
        -0.12977513670921326,
        -0.038795992732048035,
        0.025438180193305016,
        0.06806134432554245,
        0.12212130427360535,
        0.06245068088173866,
        0.024816880002617836,
        -0.049229081720113754,
        -0.045648928731679916,
        -0.08327914774417877,
        -0.050288040190935135,
        0.10618507862091064,
        -0.007481866516172886,
        -0.020595740526914597,
        0.004707961808890104,
        0.15062305331230164,
        -0.06641990691423416,
        0.05698200315237045,
        0.02359691821038723,
        0.0756029412150383,
        0.02591632306575775,
        -0.024498125538229942,
        4.452746361494064e-05,
        -0.05095130205154419,
        -0.0750935971736908,
        -0.06034228578209877,
        -0.03988340497016907,
        -0.06263290345668793,
        0.07138405740261078,
        0.04639875888824463,
        0.05444631725549698,
        0.03687804564833641,
        0.004711093846708536,
        0.10518193989992142,
        0.0030590896494686604,
        0.043716561049222946,
        0.020077059045433998,
        0.05953753739595413,
        -0.020289389416575432,
        0.006225226446986198,
        -0.005307040177285671,
        0.01012114156037569,
        0.05700505152344704,
        -0.026649262756109238,
        -0.10291970521211624,
        -0.06316358596086502,
        0.015223116613924503,
        0.0030288263224065304,
        -0.012068009935319424,
        0.03342927247285843,
        0.05272793769836426,
        0.053742628544569016,
        0.054396022111177444,
        0.04060964658856392,
        0.08342774957418442,
        0.03308667987585068,
        0.054845716804265976,
        -0.0342431366443634,
        0.0008491665939800441,
        -0.02203686162829399,
        -0.06926306337118149,
        0.11021335422992706,
        0.03399723023176193,
        -0.027901174500584602,
        0.03462223708629608,
        0.0030068715568631887,
        0.04552300274372101,
        0.006198631599545479,
        0.030459612607955933,
        -0.03916822001338005,
        0.034783389419317245,
        0.006671394687145948,
        0.036905448883771896,
        0.07427267730236053,
        -0.041336964815855026,
        0.009955876506865025,
        -0.006002134643495083,
        -0.012453814968466759,
        -0.05068175494670868,
        -0.04325348511338234,
        -0.00045091944048181176,
        0.1217639297246933,
        -0.07121455669403076,
        -3.259244840592146e-05,
        0.013160111382603645,
        -0.02303512953221798,
        -0.05085476115345955,
        -0.13024726510047913,
        0.01639731042087078,
        -0.12338399887084961,
        -0.0363764725625515,
        0.058716222643852234,
        0.0062415711581707,
        0.01075110025703907,
        -7.210782496258616e-05,
        -0.021407268941402435,
        -0.0321006141602993,
        -0.0036078235134482384,
        -0.013620452955365181,
        -0.03590897470712662,
        -0.023186787962913513,
        -0.07587599009275436,
        0.08507420122623444,
        -0.022901782765984535,
        -0.03566542640328407,
        0.024672722443938255,
        -0.04497518390417099,
        -0.009485754184424877,
        0.027364112436771393,
        -0.08385932445526123,
        -0.02229301631450653,
        -0.06405454128980637,
        -0.06796851754188538,
        0.020400654524564743,
        0.07059404999017715,
        -0.06621702015399933,
        0.02886052429676056,
        0.07135836035013199,
        0.047419823706150055,
        0.051055844873189926,
        -0.016492163762450218,
        -0.0559951514005661,
        0.028065377846360207,
        0.0066383350640535355,
        0.024954520165920258,
        0.038973353803157806,
        0.08098971098661423,
        0.007960241287946701,
        0.02651560865342617,
        0.01628665067255497,
        0.02549903467297554,
        0.006841668393462896,
        -0.035137638449668884,
        -0.0012137711746618152,
        -0.0959625095129013,
        -0.05970778688788414,
        0.03873797133564949,
        -0.0696994960308075,
        -0.007980532012879848,
        -0.012040836736559868,
        -0.025229761376976967,
        0.037345826625823975,
        0.042436037212610245,
        -0.022013382986187935,
        0.05361347272992134,
        0.019448934122920036,
        -0.055516380816698074,
        0.0046281954273581505,
        0.03691765293478966,
        -0.0709608793258667,
        0.03405335918068886,
        -0.03242158144712448,
        -0.05869276449084282,
        -0.0442480593919754,
        0.006620022933930159,
        0.006563604809343815,
        -0.022697778418660164,
        0.127901092171669,
        -0.03063422441482544,
        -0.04543061554431915,
        -0.0491267591714859,
        -0.05146826058626175,
        -0.05446533113718033,
        0.039606403559446335,
        0.10509073734283447,
        0.046304427087306976,
        0.025879016146063805,
        0.12674610316753387,
        -0.012890786863863468,
        -0.03604684770107269,
        0.041241444647312164,
        -0.02262585051357746,
        -0.02168857678771019,
        -0.004529955796897411,
        0.05221481993794441,
        0.028993353247642517,
        -0.009410383179783821,
        -0.0696628987789154,
        -0.00234327744692564,
        -0.038802485913038254,
        0.0402505062520504,
        -0.049323614686727524,
        -0.02033727429807186,
        -0.0571298748254776,
        -0.0092682596296072,
        0.036955058574676514,
        -0.03500151261687279,
        -0.07463283091783524,
        -0.01304848026484251,
        0.08809305727481842,
        0.031452298164367676,
        0.05554930493235588,
        0.019820459187030792,
        0.007764311973005533,
        0.07390861213207245,
        -0.1058674231171608,
        -0.06429870426654816,
        -0.0009860118152573705,
        0.017056357115507126,
        0.022746557369828224,
        0.028835810720920563,
        0.12226009368896484,
        0.014518160372972488,
        0.00573359290137887,
        0.05003887414932251,
        0.01101772766560316,
        0.02214827388525009,
        -0.002708545420318842,
        0.07952690124511719,
        -0.04441468417644501,
        0.04193742573261261,
        -0.09890014678239822,
        0.05437280982732773,
        0.08232682198286057,
        0.0837489515542984,
        0.03243785724043846,
        -0.07453702390193939,
        0.030323870480060577,
        -0.05655892565846443,
        0.04163239151239395,
        0.0965634360909462,
        0.05089176446199417,
        0.03464210778474808,
        -0.056118037551641464,
        0.016117945313453674,
        -0.0004970170557498932,
        -0.00030310492729768157,
        0.019453877583146095,
        0.10156886279582977,
        -0.024147504940629005,
        0.004072008188813925,
        -0.057559724897146225,
        0.04328036308288574,
        0.0006400906713679433,
        0.0731683075428009,
        -0.029185058549046516,
        0.04808223247528076,
        -0.03380291536450386,
        0.008894180878996849,
        0.01627226173877716,
        -0.0336175300180912,
        0.007308414205908775,
        -0.01828191615641117,
        -0.04584876447916031,
        -0.013399267569184303,
        0.09049464762210846,
        -0.0322147011756897,
        -0.035973306745290756,
        -0.028966352343559265,
        -0.033671289682388306,
        -0.04917314648628235,
        0.08706201612949371,
        -0.05320202186703682,
        -0.05553539842367172,
        0.0023046021815389395,
        -0.04819545894861221,
        0.009801747277379036,
        -0.024201059713959694,
        0.005753515753895044,
        0.04873759672045708,
        -0.058746013790369034,
        -0.015341710299253464,
        0.052540116012096405,
        0.024636220186948776,
        -0.03796904534101486,
        -0.00300078303553164,
        0.04127945005893707,
        -0.03834274038672447,
        -0.09550005942583084,
        0.03845718130469322,
        -0.02282228320837021,
        -0.09632660448551178,
        -0.03531140461564064,
        -0.04480775445699692,
        -0.057700563222169876,
        -0.015840580686926842,
        -0.01591833122074604,
        -0.009501575492322445,
        -0.07956823706626892,
        -0.012578106485307217,
        -0.05167405679821968,
        0.08074895292520523,
        -0.008595235645771027,
        0.04432130604982376,
        -0.0007034625159576535,
        0.07446489483118057,
        0.033258818089962006,
        -0.020506568253040314,
        -0.03342920541763306,
        -0.01842079497873783,
        0.018407797440886497,
        -0.09677807986736298,
        -0.004231555387377739,
        0.07572751492261887,
        -0.0997595265507698,
        0.02934170886874199,
        -0.07982823252677917,
        -0.04574965313076973,
        -0.021531451493501663,
        0.03737969696521759,
        -0.05513996258378029,
        -0.025857873260974884,
        0.03397918865084648,
        0.02179814875125885,
        -0.022184783592820168,
        -0.018251534551382065,
        -0.04793706163764,
        -0.02479793131351471,
        0.06573795527219772,
        -0.03373921290040016,
        -0.03709974139928818,
        -0.012280535884201527,
        -0.06024465709924698,
        -0.0401151180267334,
        0.08859006315469742,
        -0.08281337469816208,
        -0.0176846906542778,
        0.058078229427337646,
        -0.033754993230104446,
        0.021930942311882973,
        -0.01274929754436016,
        0.04065713286399841,
        -0.019924689084291458,
        0.028485454618930817,
        -0.014580815099179745,
        -0.010088957846164703,
        0.04084416851401329,
        -0.007204280700534582,
        0.02204274758696556,
        -0.08131066709756851,
        -0.0018489605281502008,
        0.03394376114010811,
        -0.13495944440364838,
        0.05793902277946472,
        -0.0724172294139862,
        0.008755791932344437,
        -0.027777697890996933,
        0.12440281361341476,
        -0.03771161288022995,
        -0.0029890730511397123,
        -0.025088459253311157,
        -0.03300786018371582,
        0.0464770533144474,
        -0.07564309984445572,
        0.01989082060754299,
        0.13101668655872345,
        -0.004580881912261248,
        0.011338034644722939,
        -0.00036734051536768675,
        -0.048402879387140274,
        0.020331813022494316,
        0.05559251829981804,
        -0.13917887210845947,
        -0.014535972848534584,
        0.004610324278473854,
        0.03426353633403778,
        0.061961643397808075,
        0.011757775209844112,
        -0.03320655599236488,
        -0.050592318177223206,
        -0.07896870374679565,
        -0.13598935306072235,
        -0.04237755388021469,
        0.04917415231466293,
        0.052774105221033096,
        -0.04134242981672287,
        0.012322045862674713,
        -0.04104095697402954,
        0.07674834132194519,
        -0.030321048572659492,
        0.04815872386097908,
        0.0698893740773201,
        0.03571447730064392,
        0.052797045558691025,
        0.018417270854115486,
        0.026387663558125496,
        0.012429779395461082,
        -0.0425596684217453,
        0.039290376007556915,
        0.03642741218209267,
        -0.06124582514166832,
        0.058454304933547974,
        -0.010721336118876934,
        -0.008822408504784107,
        -0.0582096204161644,
        0.01914762705564499,
        -0.05922850966453552,
        -0.03216172382235527,
        -0.020254390314221382,
        -0.040139153599739075,
        0.035987772047519684,
        0.10954088717699051,
        -0.05562340095639229,
        0.022505832836031914,
        -0.03209624066948891,
        -0.06444385647773743,
        -0.0570346936583519,
        -0.011704242788255215,
        -0.0028729108162224293,
        -0.03214207664132118,
        -0.007515876553952694,
        -0.059253305196762085,
        -0.049359697848558426,
        -0.04723430797457695,
        0.10251261293888092,
        -0.0762687399983406,
        0.04034413397312164,
        -0.05562076345086098,
        0.07195655256509781,
        0.02337983250617981,
        -0.0006004262249916792,
        -0.038142722100019455,
        0.021134084090590477,
        0.09405039250850677,
        0.0384322814643383,
        -0.03600078448653221,
        -0.006009905599057674,
        0.03711113706231117,
        0.04816083237528801,
        -0.09451887756586075,
        -0.016134509816765785,
        -0.03820100426673889,
        0.09306859970092773,
        0.04569936543703079,
        -0.032693665474653244,
        -0.02326473779976368,
        0.11461490392684937,
        -0.03572733700275421,
        -0.011099211871623993,
        -0.03335125371813774,
        -0.012484608218073845,
        0.015773309394717216,
        -0.007072004489600658,
        0.0720246285200119,
        0.03645159304141998,
        0.04631787911057472,
        0.011533035896718502,
        0.03249424695968628,
        0.07656485587358475,
        -0.054255567491054535,
        -0.007539207581430674,
        -0.0896361842751503,
        -0.020842306315898895,
        -0.009502432309091091,
        0.04283010959625244,
        0.02591804973781109,
        -0.09983941912651062,
        -0.04085685685276985,
        0.10728662461042404,
        0.016575217247009277,
        -0.0224880613386631,
        0.0663975179195404,
        -0.026076853275299072,
        0.04710744693875313,
        0.06416483968496323,
        0.12938465178012848,
        0.05970975384116173,
        0.013823918998241425,
        -0.0691932737827301,
        -0.013654527254402637,
        0.012992373667657375,
        0.11340387910604477,
        0.04574812948703766,
        0.022554032504558563,
        -0.012112637981772423,
        0.011433170177042484,
        0.10082066059112549,
        0.006786167621612549,
        0.0793900415301323,
        0.007737889885902405,
        0.09176813066005707,
        0.00448999460786581,
        0.00702117383480072,
        0.013035898096859455,
        -0.024445313960313797,
        0.036705996841192245,
        0.07835261523723602,
        -0.03162701055407524,
        -0.04693277180194855,
        0.07761542499065399,
        -0.1034252867102623,
        -0.030059384182095528,
        -0.03226097300648689,
        -0.04503219574689865,
        0.04705285280942917,
        0.06812062859535217,
        -0.008014352060854435,
        0.044724710285663605,
        -0.0337696298956871,
        -0.08664818108081818,
        -0.03456905856728554,
        -0.058584779500961304,
        0.06264200061559677,
        -0.09370818734169006,
        -0.002721620723605156,
        -0.0479111485183239,
        -0.00679695513099432,
        -0.07860784977674484,
        0.006211230996996164,
        -0.04638764262199402,
        -0.02925589494407177,
        0.019924141466617584,
        -0.0011345342500135303,
        -0.08179327845573425,
        -0.055081192404031754,
        0.003273473819717765,
        -0.08212870359420776,
        0.11006684601306915,
        -0.012541188858449459,
        -0.030221298336982727,
        0.05845282971858978,
        -0.044964294880628586,
        -0.0025964006781578064,
        0.01259768195450306,
        0.06541923433542252,
        0.005396480206400156,
        -0.009038287214934826,
        -0.0009337294031865895,
        -0.025376323610544205,
        0.01305875089019537,
        -0.054626431316137314,
        0.011689599603414536,
        -0.08662503957748413,
        0.00353284296579659,
        -0.05926169082522392,
        0.009803279303014278,
        -0.0668354257941246,
        -0.0036683096550405025,
        0.010598809458315372,
        -0.03371020779013634,
        0.01898323744535446,
        0.0846090167760849,
        0.11025719344615936,
        0.005098110996186733,
        0.031081508845090866,
        0.06051976978778839,
        0.11052587628364563,
        -0.02497529610991478,
        0.1371511071920395,
        0.07089125365018845,
        0.06804945319890976,
        0.04227544739842415,
        0.019139708951115608,
        0.04218378663063049,
        -0.036727648228406906,
        0.051579009741544724,
        -0.03912863880395889,
        0.02133527398109436,
        0.04985582455992699,
        0.045936912298202515,
        0.0023368531838059425,
        0.003897039918228984,
        0.08472264558076859,
        0.03134123608469963,
        -0.007547806017100811,
        -0.06440889090299606,
        -0.07666950672864914,
        -0.016935449093580246,
        -0.04510318115353584,
        -3.7616497138515115e-05,
        0.02293235994875431,
        -0.007687157019972801,
        0.08166178315877914,
        -0.0641825720667839,
        -0.0600435808300972,
        -0.005819783546030521,
        -0.11153998970985413,
        0.0072246938943862915,
        0.0440840944647789,
        -0.019444214180111885,
        -0.0147580960765481,
        0.053087666630744934,
        0.047356754541397095,
        0.0017969614127650857,
        -0.013739856891334057,
        0.08524572849273682,
        0.047554921358823776,
        -0.025918295606970787,
        -0.05448755994439125,
        -0.015985028818249702,
        -0.018041810020804405,
        0.01678922399878502,
        0.03837263956665993,
        0.004872315563261509,
        0.11596027761697769,
        0.047144293785095215,
        0.002874065889045596,
        0.01829671673476696,
        0.016785649582743645,
        0.07332538813352585,
        -0.0511028952896595,
        0.01235133595764637,
        -0.04247071593999863,
        0.08038739114999771,
        0.031726837158203125,
        0.09722968190908432,
        0.05599599331617355,
        -0.06919210404157639,
        0.02221805229783058,
        0.01126375887542963,
        -0.09942435473203659,
        0.03358793258666992,
        0.046271614730358124,
        -0.026768188923597336,
        -0.0036600749008357525,
        0.11385496705770493,
        0.048682499676942825,
        0.010083450935781002,
        0.02560540847480297,
        -0.026234162971377373,
        0.027526594698429108,
        -0.05324162170290947,
        0.06142767146229744,
        -0.10029336810112,
        -0.025959718972444534,
        -0.03643307089805603,
        0.0694960504770279,
        0.025944814085960388,
        0.10819119215011597,
        -0.011304526589810848,
        0.038277506828308105,
        0.058961283415555954,
        0.05053643137216568,
        -0.07473485171794891,
        -0.04947115108370781,
        0.0062127443961799145,
        -0.08358126133680344,
        0.05880293250083923,
        0.0785912498831749,
        0.011233905330300331,
        0.010253549553453922,
        -0.12941695749759674,
        0.09455481916666031,
        -0.08048447221517563,
        -0.05466914921998978,
        0.03919244185090065,
        0.06758926063776016,
        -0.020110825076699257,
        -0.04115496203303337,
        -0.024415306746959686,
        0.00031428696820512414,
        -0.035846855491399765,
        0.008895833976566792,
        0.0039693433791399,
        0.038868729025125504,
        0.07344446331262589,
        0.05403542146086693,
        -0.004858044907450676,
        0.11127513647079468,
        0.03714967891573906,
        0.031480543315410614,
        0.025394383817911148,
        0.019572947174310684,
        0.005975988227874041,
        0.04250258952379227,
        0.00757432309910655,
        0.0008444957784377038,
        -0.06332489103078842,
        0.04666571319103241,
        -0.07006421685218811,
        -0.012415332719683647,
        0.07396434992551804,
        -0.0079377181828022,
        -0.05816144496202469,
        0.03580503538250923,
        -0.06810155510902405,
        0.008489332161843777,
        -0.07246939837932587,
        -0.028062334284186363,
        -0.022001031786203384,
        -0.10718563199043274,
        -0.03296342119574547,
        -0.008209842257201672,
        -0.04657948762178421,
        0.06208428740501404,
        0.12555082142353058,
        0.021977877244353294,
        -0.06254015117883682,
        -0.030288435518741608,
        -0.04395236074924469,
        0.003225727239623666,
        0.07006291300058365,
        0.028695035725831985,
        -0.03087238036096096,
        0.027475180104374886,
        0.11099045723676682,
        -0.03172648698091507,
        -0.0856596902012825,
        -0.0014567772159352899,
        -0.07078878581523895,
        0.0488644614815712,
        -0.07335512340068817,
        -0.10267974436283112,
        -0.015979865565896034,
        -0.0556916780769825,
        0.10432174056768417,
        0.1261814832687378,
        0.08448962867259979,
        -0.020226381719112396,
        0.026954207569360733,
        0.11831942945718765,
        0.019799139350652695,
        0.002903755521401763,
        0.031297825276851654,
        0.022529777139425278,
        0.06317983567714691,
        -0.08951722830533981,
        0.05057842656970024,
        0.05965575575828552,
        -0.022911258041858673,
        -0.006889803800731897,
        -0.056043703109025955,
        -0.010692229494452477,
        -0.06245903670787811,
        0.027103163301944733,
        -0.11713551729917526,
        0.005612424574792385,
        -0.017855359241366386,
        0.023289473727345467,
        0.050884831696748734,
        -0.03734846040606499,
        -0.009315049275755882,
        -0.0933171883225441,
        0.008639450185000896,
        -0.08384017646312714,
        -0.0318080373108387,
        0.011641211807727814,
        0.016757525503635406,
        0.018875619396567345,
        0.021161820739507675,
        -0.04029671102762222,
        0.017967209219932556,
        0.07908657193183899,
        0.015425657853484154,
        0.010079814121127129,
        -0.0049923984333872795,
        -0.09531143307685852,
        -0.08237412571907043,
        0.02518848516047001,
        -0.014479856938123703,
        0.04556627571582794,
        -0.08101153373718262,
        0.06336794793605804,
        0.007580999750643969,
        0.08879130333662033,
        0.06011625751852989,
        -0.038335174322128296,
        0.009809120558202267,
        0.06272261589765549,
        0.033328618854284286,
        -0.07507695257663727,
        -0.09175324440002441,
        0.051848385483026505,
        -0.018097972497344017,
        -0.06768352538347244,
        -0.004533388186246157,
        0.16490055620670319,
        -0.03945116698741913,
        0.0010628207819536328,
        0.014499876648187637,
        -0.08639508485794067,
        0.03987675905227661,
        -0.10295265167951584,
        -0.006321836728602648,
        0.05156655237078667,
        -0.04757613688707352,
        -0.04918484389781952,
        -0.031156975775957108,
        0.1216885894536972,
        -0.005495881661772728,
        -0.004256484564393759,
        0.048173241317272186,
        0.005657918285578489,
        -0.017044221982359886,
        -0.011751736514270306,
        0.05167854577302933,
        -0.01544899120926857,
        0.014837617054581642,
        0.026421817019581795,
        0.08871755748987198,
        -0.12432067841291428,
        0.1191583126783371,
        0.022820720449090004,
        -0.005621952470391989,
        0.03526702895760536,
        -0.044063322246074677,
        0.05244383588433266,
        -0.13483783602714539,
        -0.06476324796676636,
        0.09623251110315323,
        -0.0006612892029806972,
        0.025842133909463882,
        -0.049086205661296844,
        0.08992516249418259,
        -0.04904238507151604,
        0.04684298485517502,
        0.04968540742993355,
        -0.0545354038476944,
        -0.07557310163974762,
        0.08158718049526215,
        0.13265074789524078,
        -0.027549544349312782,
        0.06671173125505447,
        -0.03408209607005119,
        -0.05213708057999611,
        -0.01371610164642334,
        0.0015031289076432586,
        -0.037254028022289276,
        -0.024703461676836014,
        -0.07775595784187317,
        -0.03189275041222572,
        0.05736261233687401,
        -0.010899360291659832,
        0.09121187031269073,
