{
  "weights_summary": [
    {
      "layer": "param_0",
      "shape": [
        7,
        192
      ],
      "mean": 0.0011836333433166146,
      "std_dev": 0.04889799281954765,
      "values": [
        -0.0028044660575687885,
        -0.005722444038838148,
        -0.038983188569545746,
        -0.0072152623906731606,
        -0.0427071638405323,
        0.0017828585114330053,
        -0.04148983210325241,
        0.015020225197076797,
        -0.04375726357102394,
        -0.10495111346244812,
        -0.03976324573159218,
        -0.047043327242136,
        0.0013549618888646364,
        0.019444100558757782,
        -0.002800480229780078,
        0.008971529081463814,
        0.009962751530110836,
        0.003254468087106943,
        0.056862618774175644,
        -0.011974477209150791,
        -0.042655616998672485,
        0.0035984066780656576,
        0.0055563785135746,
        -1.448945295123849e-05,
        -0.0032956337090581656,
        -0.027451636269688606,
        -0.0021801088005304337,
        0.010771751403808594,
        -0.06349486857652664,
        -0.000838601787108928,
        0.0027230586856603622,
        -0.036848898977041245,
        -0.057173699140548706,
        -0.0367434062063694,
        -0.09039346873760223,
        -0.002752503380179405,
        0.06582759320735931,
        0.04581841826438904,
        0.013054260984063148,
        -0.0015649704728275537,
        -0.07369077950716019,
        -0.010506480000913143,
        0.009658838622272015,
        -0.0034795361571013927,
        0.061134420335292816,
        0.014611167833209038,
        -0.02225540205836296,
        -0.02836155891418457,
        0.0011747655225917697,
        0.00328170252032578,
        -0.017897970974445343,
        -0.09737572073936462,
        0.008577045984566212,
        -0.0006702732061967254,
        0.030151763930916786,
        -0.008356998674571514,
        -0.0006383814616128802,
        0.002868130337446928,
        0.0020353933796286583,
        0.021597621962428093,
        -0.002712222980335355,
        -0.022582894191145897,
        0.02391769550740719,
        -0.00015346950385719538,
        -0.016983531415462494,
        -0.0012626792304217815,
        -0.03630814701318741,
        0.01263592392206192,
        0.018821287900209427,
        -0.006626390386372805,
        -0.032615404576063156,
        0.026881393045186996,
        0.004134847316890955,
        0.062088966369628906,
        0.045520707964897156,
        -0.0024736099876463413,
        0.0009451172663830221,
        0.06472285091876984,
        0.00029210231150500476,
        0.06440167874097824,
        -0.07438302785158157,
        -0.014097388833761215,
        -0.029734808951616287,
        0.008664965629577637,
        0.039989180862903595,
        -0.00223553110845387,
        -0.021701715886592865,
        -0.002142325509339571,
        0.0075401016511023045,
        -0.0029691278468817472,
        0.03861238807439804,
        0.01707274280488491,
        0.0025627315044403076,
        0.05727772414684296,
        0.001752566429786384,
        0.0011077547678723931,
        -0.005663263611495495,
        0.0004251429345458746,
        -0.005781230982393026,
        -0.0003825809108093381,
        0.0009313882328569889,
        -0.05797874927520752,
        -0.003024894976988435,
        0.0005004978738725185,
        -0.003603901481255889,
        -0.004645611625164747,
        -0.0006369397160597146,
        -0.0009327593143098056,
        -0.07491107285022736,
        -0.015289668925106525,
        0.07539519667625427,
        -0.05005435645580292,
        0.0008147901389747858,
        0.010213327594101429,
        0.009180104359984398,
        0.022312168031930923,
        -0.08027554303407669,
        0.000437726266682148,
        0.07605358213186264,
        0.0010444442741572857,
        -0.00010299775749444962,
        0.0030156068969517946,
        -0.016904763877391815,
        0.05036705732345581,
        -0.0006608498515561223,
        -0.01883445307612419,
        -7.292747613973916e-05,
        -0.017067626118659973,
        0.07379214465618134,
        -0.08695445954799652,
        0.017430515959858894,
        -0.10772654414176941,
        0.01687302067875862,
        0.036252252757549286,
        -0.07603301852941513,
        -0.029850205406546593,
        0.04203803464770317,
        0.015457743778824806,
        -0.05796514078974724,
        -0.15017682313919067,
        0.08207811415195465,
        0.08332674950361252,
        -0.05178988352417946,
        0.005990325938910246,
        0.08725114911794662,
        0.14817151427268982,
        -0.030941488221287727,
        -0.010089082643389702,
        0.04366281256079674,
        0.017148228362202644,
        0.02610527165234089,
        0.11488755792379379,
        0.03281167149543762,
        0.07083440572023392,
        -0.0011019745143130422,
        -0.11465252190828323,
        0.1245468482375145,
        -0.04169655963778496,
        0.005086262710392475,
        0.14751942455768585,
        -0.022427722811698914,
        -0.06103159114718437,
        -0.08945966511964798,
        -0.015599098987877369,
        0.01998036727309227,
        0.02031460404396057,
        -0.1137356385588646,
        0.00987077783793211,
        -0.07154615223407745,
        0.025035548955202103,
        0.059605564922094345,
        0.00774358818307519,
        0.0115576833486557,
        0.09148076176643372,
        0.05139908567070961,
        -0.02408156916499138,
        -0.04009801894426346,
        0.029736896976828575,
        -0.04196828231215477,
        0.07928179949522018,
        0.046893272548913956,
        0.035537127405405045,
        -0.09924942255020142,
        -0.038484081625938416,
        -0.068143330514431,
        0.0628698542714119,
        0.02296677604317665,
        0.057964686304330826,
        -0.12285548448562622,
        -0.08373639732599258,
        -0.04863336682319641,
        -0.04108787700533867,
        -0.08737004548311234,
        -0.048556212335824966,
        0.004721414297819138,
        0.009586451575160027,
        0.016236303374171257,
        -0.005399747751653194,
        -0.03077908791601658,
        -0.0114762457087636,
        -0.0010192497866228223,
        0.016887668520212173,
        -0.0020420565269887447,
        0.08116085827350616,
        0.0011489731259644032,
        0.0022517950274050236,
        -0.037636898458004,
        0.0031713899224996567,
        0.09071536362171173,
        -0.061300765722990036,
        0.0008188175270333886,
        0.0017022755928337574,
        0.057832442224025726,
        0.017159055918455124,
        0.037801310420036316,
        -0.01220177672803402,
        -0.0018405120354145765,
        -0.029412858188152313,
        -0.009181550703942776,
        0.00019577638886403292,
        0.0014844868564978242,
        0.009561572223901749,
        0.019869394600391388,
        -0.0007592946058139205,
        0.02677222155034542,
        0.019369712099432945,
        0.008886678144335747,
        -0.005478722043335438,
        0.04852704703807831,
        0.04508521780371666,
        0.019697239622473717,
        0.09524795413017273,
        0.007687149103730917,
        0.01560701709240675,
        0.005333970300853252,
        -0.041270673274993896,
        0.013475723564624786,
        -0.010906246490776539,
        -8.19081615190953e-05,
        -0.007544770371168852,
        0.002662770915776491,
        -0.001014693290926516,
        -0.014757842756807804,
        -0.031062230467796326,
        -0.022983653470873833,
        0.027908364310860634,
        0.0036045939195901155,
        0.08827723562717438,
        -0.000533337180968374,
        0.003124593524262309,
        -0.015582969412207603,
        -0.0004250571073498577,
        -0.002510389545932412,
        0.00018644410010892898,
        0.019613225013017654,
        0.02914120815694332,
        -0.034739769995212555,
        -0.011448796838521957,
        0.014322149567306042,
        0.0005090219783596694,
        -0.025991888716816902,
        -0.04358622059226036,
        -0.07976401597261429,
        -0.00035265975748188794,
        0.045920975506305695,
        -0.07561801373958588,
        0.04936301335692406,
        -0.001388469128869474,
        0.08064547926187515,
        0.0007598706288263202,
        0.0005333075532689691,
        0.05106077343225479,
        0.005430218763649464,
        0.0049243103712797165,
        0.010487786494195461,
        -0.0786205604672432,
        -0.01309014018625021,
        0.06878148764371872,
        -0.08795757591724396,
        -0.0020731003023684025,
        0.000159170784172602,
        0.023365521803498268,
        0.005995510146021843,
        0.09392433613538742,
        0.004804875701665878,
        -0.046666573733091354,
        -0.02347823977470398,
        -0.002040824154391885,
        0.02555319294333458,
        0.017288262024521828,
        -0.022437218576669693,
        -0.04470517486333847,
        0.049251873046159744,
        -0.008487537503242493,
        -0.0030207685194909573,
        -0.014948926866054535,
        0.04717497527599335,
        -0.0017206453485414386,
        -0.012079047039151192,
        0.02069728448987007,
        -0.03768126666545868,
        -0.00953521579504013,
        -0.07142561674118042,
        0.024403484538197517,
        0.014447633177042007,
        -0.0014360102359205484,
        -0.07230016589164734,
        0.005491937045007944,
        -0.001162045868113637,
        -0.025713495910167694,
        -0.06481187790632248,
        0.0014624419854953885,
        0.0008405183907598257,
        -0.016822215169668198,
        0.006919763516634703,
        0.0004787028592545539,
        0.02259770967066288,
        0.038395754992961884,
        -0.0017445156117901206,
        -0.001834522350691259,
        -0.09005725383758545,
        -0.0807260274887085,
        -0.09395259618759155,
        -0.12771345674991608,
        0.041108615696430206,
        -0.018410902470350266,
        -0.03555376082658768,
        0.10023289173841476,
        0.15258918702602386,
        -0.02645445615053177,
        -0.037493884563446045,
        -0.008740785531699657,
        -0.06256116181612015,
        -0.037935443222522736,
        -0.015792375430464745,
        0.08043467253446579,
        0.0145180094987154,
        -0.016271552070975304,
        0.050062961876392365,
        -0.07774185389280319,
        -0.028583278879523277,
        -0.06373385339975357,
        0.012373710982501507,
        0.026214424520730972,
        -0.08665703982114792,
        0.03959048166871071,
        0.04464809596538544,
        -0.06535641103982925,
        -0.11882881820201874,
        0.0943671464920044,
        -0.02700001932680607,
        0.004325630608946085,
        0.10645006597042084,
        -0.10005081444978714,
        -0.05262654647231102,
        0.06557445973157883,
        -0.033344816416502,
        -0.056076932698488235,
        0.12967358529567719,
        0.09582429379224777,
        -0.03710096701979637,
        -0.030119650065898895,
        0.10296125710010529,
        -0.018382880836725235,
        -0.12091740220785141,
        -0.011995670385658741,
        0.002044341526925564,
        0.0956641435623169,
        -0.09702657908201218,
        -0.09420351684093475,
        -0.035323165357112885,
        0.047145452350378036,
        0.021080682054162025,
        0.010341793298721313,
        -0.007968191057443619,
        -0.005280085373669863,
        -0.062354084104299545,
        -0.08939247578382492,
        -0.10056164115667343,
        -0.052440546452999115,
        -0.026083452627062798,
        -0.005195313133299351,
        -0.03674505278468132,
        0.02521575428545475,
        9.099423186853528e-05,
        0.004039091058075428,
        0.00013895679148845375,
        0.011000952683389187,
        -0.04952223598957062,
        0.011961434967815876,
        0.010122761130332947,
        -0.07050163298845291,
        -0.008385377936065197,
        0.04225252941250801,
        0.020792609080672264,
        -0.06401513516902924,
        -0.010016835294663906,
        0.04086640477180481,
        0.0012680436484515667,
        0.036892328411340714,
        0.004092177841812372,
        -0.001904142671264708,
        -0.012351873330771923,
        0.02546752616763115,
        -0.0052450308576226234,
        0.004011377692222595,
        0.007886030711233616,
        -0.000760593160521239,
        0.011156792752444744,
        0.041051171720027924,
        0.00963485985994339,
        0.041134435683488846,
        -0.00458998279646039,
        0.005037288181483746,
        -0.0067404587753117085,
        0.038955576717853546,
        0.00415005162358284,
        0.09250544011592865,
        0.07338159531354904,
        0.005945612210780382,
        0.004931541625410318,
        0.0024183408822864294,
        -0.04449288919568062,
        -0.016193458810448647,
        0.05343202129006386,
        -0.08864134550094604,
        0.0035112816840410233,
        -0.04069576412439346,
        0.0447799488902092,
        -0.0815788209438324,
        -0.006660222541540861,
        0.009237619116902351,
        0.022220490500330925,
        0.009347062557935715,
        0.01694905012845993,
        0.021193983033299446,
        -0.005949973128736019,
        -0.011470531113445759,
        -0.0052168178372085094,
        0.015100153163075447,
        0.005596117116510868,
        -0.014929010532796383,
        0.0038251106161624193,
        -0.013296492397785187,
        0.01751560904085636,
        0.0011621788144111633,
        -0.0351024828851223,
        0.00010036947787739336,
        -0.0035686923656612635,
        0.0032092879991978407,
        0.05850532650947571,
        1.0375339115853421e-05,
        0.003158549079671502,
        0.01232539676129818,
        0.010649621486663818,
        -0.01746288314461708,
        -0.0007717929547652602,
        -0.004923551343381405,
        0.09083671867847443,
        0.07121657580137253,
        -0.001148011302575469,
        0.03403425216674805,
        -0.011596695519983768,
        -0.003119522472843528,
        0.043074119836091995,
        0.08018847554922104,
        0.006105863954871893,
        0.08516503125429153,
        -0.0031210118904709816,
        -0.0028023601043969393,
        0.0001019276023725979,
        0.016538694500923157,
        -0.06954299658536911,
        0.007964174263179302,
        0.009360183961689472,
        0.0012823601718991995,
        0.01069132424890995,
        0.0006995616713538766,
        0.0024272885639220476,
        0.03677995502948761,
        -0.07912850379943848,
        0.007957148365676403,
        0.011894166469573975,
        0.019757123664021492,
        -0.0019517994951456785,
        0.09843432158231735,
        -0.001027455902658403,
        0.002036358928307891,
        0.023760922253131866,
        -0.0006268786382861435,
        0.01741730235517025,
        0.00044436281314119697,
        0.013058863580226898,
        -0.01088239997625351,
        0.001993448007851839,
        0.02621329016983509,
        -0.06598928570747375,
        -0.003771384246647358,
        -0.0026144718285650015,
        0.005699534900486469,
        0.013297040946781635,
        -0.001462140353396535,
        0.008770445361733437,
        -0.015987621620297432,
        -0.0008999935234896839,
        0.0030603655613958836,
        0.08197394758462906,
        0.042081233114004135,
        -0.08293695747852325,
        0.007550640497356653,
        0.019676517695188522,
        0.07398948818445206,
        0.05938371643424034,
        0.14458100497722626,
        -0.051929887384176254,
        0.0832870677113533,
        -0.10705441236495972,
        -0.0726948082447052,
        0.03153154253959656,
        -0.03859300911426544,
        -0.09404516220092773,
        0.008853336796164513,
        -0.006933052092790604,
        0.0077468170784413815,
        0.016803530976176262,
        -0.019063329324126244,
        -0.0019491964485496283,
        0.09822501242160797,
        -0.07540003210306168,
        -0.029660718515515327,
        -0.11616741120815277,
        -0.021684490144252777,
        0.021000176668167114,
        0.09995248168706894,
        -0.03936127573251724,
        0.03063536249101162,
        -0.0032650362700223923,
        -0.06504245102405548,
        0.061011023819446564,
        0.0071218679659068584,
        -0.019367989152669907,
        -0.02523905783891678,
        0.045654747635126114,
        0.013983748853206635,
        -0.1051086038351059,
        0.08643634617328644,
        0.034747421741485596,
        0.03407014533877373,
        0.08461030572652817,
        0.09790609031915665,
        -0.05239854380488396,
        0.06433539092540741,
        -0.13641025125980377,
        0.0581025704741478,
        0.06195969134569168,
        -0.045653410255908966,
        -0.08314773440361023,
        -0.043166324496269226,
        -0.014538013376295567,
        -0.08039749413728714,
        0.008082265965640545,
        0.04387054219841957,
        -0.008035470731556416,
        -0.08358491957187653,
        0.13396409153938293,
        0.03322634473443031,
        0.027363726869225502,
        -0.04889175668358803,
        -0.08244497328996658,
        -0.017319701611995697,
        -0.014290284365415573,
        0.0023937621153891087,
        -0.06981847435235977,
        0.1541694849729538,
        0.024131329730153084,
        -0.08976004272699356,
        -0.019914068281650543,
        -0.00253872387111187,
        -0.015081614255905151,
        -0.015644153580069542,
        -0.058552153408527374,
        -0.013445618562400341,
        -0.00016174103075172752,
        0.03514636680483818,
        0.04234284907579422,
        -0.006477180402725935,
        -0.0049829026684165,
        0.015866827219724655,
        6.653718446614221e-05,
        0.0006516538560390472,
        0.027114778757095337,
        0.01011663954705,
        -0.047004688531160355,
        -0.032943807542324066,
        -0.00503298407420516,
        -0.013057929463684559,
        -0.008630294352769852,
        -0.00314213614910841,
        -0.008340850472450256,
        0.07846046984195709,
        -0.002375813899561763,
        -0.004587958566844463,
        0.042879004031419754,
        0.005077611189335585,
        -0.05054662004113197,
        -0.05668801814317703,
        -0.005232522264122963,
        -0.0009749574237503111,
        -0.06423898041248322,
        0.064661905169487,
        0.0027903413865715265,
        -0.018360259011387825,
        -0.0009076966671273112,
        -0.04776317998766899,
        0.09328924119472504,
        0.012972475960850716,
        -0.044164028018713,
        -0.0023998753167688847,
        -0.08527922630310059,
        -0.004058940801769495,
        0.032647810876369476,
        -0.001795203541405499,
        -0.08400630950927734,
        -0.004456966649740934,
        0.00026616486138664186,
        -0.04902628809213638,
        0.0024198354221880436,
        -0.07299523800611496,
        0.023354552686214447,
        -0.0369737446308136,
        -0.0529005229473114,
        0.007051447406411171,
        -0.0006955976132303476,
        -0.008698681369423866,
        -0.07634029537439346,
        0.05372052639722824,
        0.005548728164285421,
        -0.0020541653502732515,
        0.014371277764439583,
        0.0006781687261536717,
        -0.05636965483427048,
        -0.001279263524338603,
        0.0016091687139123678,
        0.004843626171350479,
        -0.06344430893659592,
        0.007159853354096413,
        0.0036445744335651398,
        -0.00016954368038568646,
        -0.0057134199887514114,
        -0.008743342012166977,
        -0.004061195533722639,
        -0.028189145028591156,
        0.0008191456436179578,
        -0.0027170334942638874,
        -0.0016335415421053767,
        0.014365722425282001,
        0.06417800486087799,
        0.004842058755457401,
        0.0030682794749736786,
        -0.0056172520853579044,
        -0.0014842390082776546,
        0.0004758016439154744,
        0.002024429850280285,
        -0.002142316661775112,
        0.001488615875132382,
        -0.011949149891734123,
        -0.0051198685541749,
        -0.08570518344640732,
        0.004478521179407835,
        -0.0006009237840771675,
        -0.07498487830162048,
        0.008617406710982323,
        -0.0017531168414279819,
        -0.021153762936592102,
        -0.03973419964313507,
        0.003113367361947894,
        -0.0005445147398859262,
        0.02731846272945404,
        -0.04577383026480675,
        -0.0015477396082133055,
        0.04748852550983429,
        0.09709586203098297,
        0.03982263803482056,
        -0.013736655004322529,
        -0.005270843859761953,
        0.04397381469607353,
        0.035279881209135056,
        -0.07505058497190475,
        0.012988600879907608,
        -0.022687658667564392,
        -0.013455785810947418,
        0.0705469623208046,
        -0.0012879804708063602,
        0.0019269628683105111,
        0.0031996765173971653,
        0.010657857172191143,
        0.01677761971950531,
        -0.053375061601400375,
        0.005849491339176893,
        -0.0738026425242424,
        -0.0015450461069121957,
        0.04636554419994354,
        -0.0015894818352535367,
        0.035660356283187866,
        0.07756295800209045,
        -0.006133411545306444,
        0.08442894369363785,
        -0.07814449816942215,
        0.036182522773742676,
        -0.00791716668754816,
        -0.10617735236883163,
        0.0438227504491806,
        0.08705859631299973,
        0.027712127193808556,
        -0.14925101399421692,
        -0.09825777262449265,
        0.034474778920412064,
        0.07256916910409927,
        -0.0018888531485572457,
        0.02677159011363983,
        -0.0488155372440815,
        -0.0007573736365884542,
        -0.08767249435186386,
        -0.07929038256406784,
        -0.1436455398797989,
        -0.036502234637737274,
        0.028817713260650635,
        -0.032877951860427856,
        -0.0723038837313652,
        -0.1555889993906021,
        -0.00958297774195671,
        0.06435593217611313,
        0.12818342447280884,
        -0.023351704701781273,
        -0.005792857147753239,
        -0.06192397326231003,
        0.09880148619413376,
        0.0054975394159555435,
        -0.04978200048208237,
        -0.031236253678798676,
        -0.04450492188334465,
        -0.07274303585290909,
        -0.04643673449754715,
        -0.05339786037802696,
        0.0802851989865303,
        -0.02891700156033039,
        0.0880693793296814,
        0.006585456896573305,
        0.04218922555446625,
        0.1008417010307312,
        -0.05446331948041916,
        0.016359414905309677,
        -0.0999053567647934,
        0.1273837685585022,
        0.09968659281730652,
        0.09483052045106888,
        -0.025567742064595222,
        0.02973734401166439,
        0.0002531240461394191,
        -0.04727056995034218,
        0.06215920299291611,
        -0.07984321564435959,
        0.08399282395839691,
        -0.03566562384366989,
        -0.07007777690887451,
        0.01551941316574812,
        0.05534384772181511,
        -0.028583377599716187,
        0.0033415649086236954,
        -0.034229956567287445,
        -0.003342884825542569,
        0.056385062634944916,
        -0.06908391416072845,
        0.028526833280920982,
        -0.007424845360219479,
        0.0016691653290763497,
        -0.012037357315421104,
        -0.008608104661107063,
        -0.004363872576504946,
        0.0058301156386733055,
        0.002338762627914548,
        -0.000936421100050211,
        0.002013992518186569,
        -0.0398872084915638,
        0.02301558293402195,
        0.0441555380821228,
        0.04021603241562843,
        -0.07222449779510498,
        0.007399710826575756,
        -0.005670050159096718,
        -0.009919188916683197,
        -0.0031685498543083668,
        -0.004158939700573683,
        0.04649301990866661,
        0.039091166108846664,
        -0.014438093639910221,
        0.008896471932530403,
        -0.0006536462460644543,
        0.07553881406784058,
        0.08221131563186646,
        -0.003132148180156946,
        -0.03465607389807701,
        -0.020768888294696808,
        -0.005290855187922716,
        -0.029565872624516487,
        0.003151562763378024,
        -0.0009371567284688354,
        -0.0029431104194372892,
        -0.012562565505504608,
        -0.0009856068063527346,
        -0.01427419949322939,
        0.0015144278295338154,
        -0.04716845229268074,
        -0.008406264707446098,
        0.0020499411039054394,
        0.06672367453575134,
        -0.003875651163980365,
        0.07974271476268768,
        -0.06641935557126999,
        0.019929736852645874,
        0.020840192213654518,
        0.042897749692201614,
        -0.04210704565048218,
        0.05280571058392525,
        0.015468135476112366,
        0.034395482391119,
        -0.0009918191935867071,
        0.002178819850087166,
        -0.0024976262357085943,
        0.04385315254330635,
        0.05710499733686447,
        -0.05239519104361534,
        0.003351774765178561,
        0.027202632278203964,
        0.09218199551105499,
        0.0003994413709733635,
        -0.020307162776589394,
        0.050910014659166336,
        0.002940036356449127,
        -0.045194920152425766,
        -0.025236928835511208,
        -0.005886232014745474,
        0.01620718464255333,
        -0.00571293942630291,
        -0.003937133587896824,
        -0.028407225385308266,
        -0.04038384556770325,
        0.0050734346732497215,
        -0.002830164274200797,
        -0.009339973330497742,
        -0.012249493040144444,
        0.021955152973532677,
        0.009464229457080364,
        0.018469305709004402,
        0.03864405304193497,
        0.00031033731647767127,
        -0.00294049852527678,
        -0.01947205886244774,
        0.02371750958263874,
        -0.025463102385401726,
        -0.015300676226615906,
        -0.029633786529302597,
        -0.0032359871547669172,
        0.04811444133520126,
        0.0069125681184232235,
        0.08519229292869568,
        0.10253079980611801,
        -0.0051354337483644485,
        0.0004391589027363807,
        0.07670685648918152,
        0.00845840573310852,
        -0.004303431138396263,
        0.07234419882297516,
        0.006542420480400324,
        -0.02151169441640377,
        0.01740030013024807,
        0.07171619683504105,
        -0.030469419434666634,
        -0.002278086496517062,
        -0.028911443427205086,
        -0.0006649107672274113,
        0.005026194732636213,
        0.03147204592823982,
        -0.01908686012029648,
        0.00875191017985344,
        0.08899696916341782,
        -0.01186071615666151,
        -0.0152664203196764,
        -0.0018346074502915144,
        0.04682184010744095,
        0.008826657198369503,
        -0.03512005880475044,
        0.07068368047475815,
        -0.07377950102090836,
        0.0012566077057272196,
        0.08094765245914459,
        0.008663012646138668,
        0.07557442784309387,
        -0.0686153993010521,
        0.06721483170986176,
        -0.04279424995183945,
        0.011668785475194454,
        -0.04395199194550514,
        0.09878139942884445,
        0.01658700220286846,
        -0.028487997129559517,
        -0.0873294398188591,
        -0.00030584889464080334,
        -0.04149699956178665,
        -0.04488198086619377,
        0.03565505892038345,
        -0.11898686736822128,
        -0.047591567039489746,
        0.1306493580341339,
        -0.009817717596888542,
        0.015309937298297882,
        -0.00706196203827858,
        0.06369099020957947,
        -0.04230378195643425,
        -0.026096802204847336,
        -0.007844527252018452,
        0.04143992438912392,
        0.10273459553718567,
        -0.09222281724214554,
        -0.04791543260216713,
        -0.016951045021414757,
        0.0032203178852796555,
        0.1188303679227829,
        0.058793939650058746,
        0.011495414189994335,
        -0.10003679245710373,
        -0.12960267066955566,
        0.01398010365664959,
        -0.014854210428893566,
        0.0047112819738686085,
        -0.004554491490125656,
        -0.06837146729230881,
        -0.050120942294597626,
        -0.10575337707996368,
        0.016575759276747704,
        0.08198542892932892,
        0.05634494125843048,
        0.031841736286878586,
        0.014637750573456287,
        0.11498456448316574,
        0.0971267968416214,
        0.13713335990905762,
        -0.13930325210094452,
        -0.04175753518939018,
        -0.0732889398932457,
        0.03228292614221573,
        -0.061378978192806244,
        0.03640618547797203,
        0.04075552895665169,
        -0.008606134913861752,
        -0.031161632388830185,
        0.08235922455787659,
        -0.1278221160173416,
        -0.020497597754001617,
        -0.04796699061989784,
        -0.0008163700113072991,
        0.03620805963873863,
        -0.03483091667294502,
        0.046932682394981384,
        -0.016659459099173546,
        -0.028558792546391487,
        0.0037716024089604616,
        6.310138269327581e-05,
        0.042344726622104645,
        -0.04323460906744003,
        0.010138092562556267,
        0.018117398023605347,
        -0.02272512950003147,
        0.043003492057323456,
        0.0023982515558600426,
        -0.018124256283044815,
        0.007251065224409103,
        -0.00550317857414484,
        -0.025772491469979286,
        0.008619962260127068,
        -0.03445019945502281,
        -0.004924283362925053,
        -0.0004032354918308556,
        -0.04467218741774559,
        -0.02058202400803566,
        -0.08577855676412582,
        0.050667110830545425,
        0.0012065948685631156,
        -0.04410222917795181,
        0.06849893927574158,
        0.10467032343149185,
        0.02233400195837021,
        0.0018625386292114854,
        0.024441970512270927,
        -0.005328842904418707,
        0.06114991381764412,
        0.054767537862062454,
        0.007403864525258541,
        -0.011405057273805141,
        0.06636762619018555,
        -0.006493426393717527,
        0.04447082430124283,
        -0.014921254478394985,
        0.0010348721407353878,
        -0.02430383861064911,
        -0.000612267351243645,
        -0.001316490233875811,
        -0.05772443115711212,
        -0.0022929590195417404,
        -0.040156926959753036,
        -0.03178026154637337,
        0.010679776780307293,
        -0.008509177714586258,
        0.10590872168540955,
        0.0017427835846319795,
        0.005217232741415501,
        0.008500520139932632,
        -0.012249968945980072,
        -0.0023792122956365347,
        0.006214302033185959,
        -0.016346612945199013,
        0.004453844390809536,
        0.08564694970846176,
        0.041295625269412994,
        -0.0013587380526587367,
        -0.06902145594358444,
        0.0033577149733901024,
        0.0047174058854579926,
        -0.0076705156825482845,
        0.05848264694213867,
        -0.0860566720366478,
        0.0036641438491642475,
        -0.0024430365301668644,
        0.0012263390235602856,
        0.013478446751832962,
        0.036555834114551544,
        0.019960764795541763,
        -0.02581818588078022,
        -0.0005332373548299074,
        0.012072084471583366,
        -0.050689198076725006,
        -0.03244670107960701,
        0.08930626511573792,
        -0.05466313660144806,
        -0.07471563667058945,
        0.031203974038362503,
        -0.033720213919878006,
        -0.002125614322721958,
        0.087896429002285,
        -0.046964678913354874,
        -0.002962063066661358,
        -0.09248402714729309,
        0.004411593545228243,
        0.005571437068283558,
        -0.007600297685712576,
        -0.002013891004025936,
        0.05460749939084053,
        -0.009592206217348576,
        -0.019551753997802734,
        0.031546931713819504,
        0.004770092200487852,
        -0.007318510673940182,
        -0.002462681382894516,
        0.07011375576257706,
        0.011834557168185711,
        0.004282496403902769,
        0.017315175384283066,
        -0.0027105610352009535,
        0.006529941689223051,
        0.01652108132839203,
        0.07217106968164444,
        -0.013521088287234306,
        -0.06594297289848328,
        0.002794470638036728,
        0.007963525131344795,
        0.017626183107495308,
        0.05577627569437027,
        -0.009391319006681442,
        0.0022432252299040556,
        0.03895391896367073,
        -0.01669854111969471,
        -0.044845812022686005,
        -0.006668854970484972,
        0.010545778088271618,
        0.04544306918978691,
        -0.028263602405786514,
        0.007372718770056963,
        -0.0026044875849038363,
        -0.005285538733005524,
        -0.13516977429389954,
        0.015967004001140594,
        0.08718539029359818,
        0.04972349479794502,
        0.10046370327472687,
        -0.03955709934234619,
        -0.05029471591114998,
        0.00036755463224835694,
        -0.13422724604606628,
        0.09042533487081528,
        -0.006906028836965561,
        0.03363647684454918,
        0.005499846301972866,
        0.05111389979720116,
        0.014199643395841122,
        0.05407482385635376,
        0.01006082072854042,
        -0.0005060099647380412,
        0.00978256855159998,
        0.09072248637676239,
        -0.02802429534494877,
        0.08162524551153183,
        -0.0705559179186821,
        -0.05675337091088295,
        0.12243366986513138,
        0.04598011448979378,
        0.048536550253629684,
        0.01670779474079609,
        -0.03815027326345444,
        0.15012802183628082,
        0.02534208819270134,
        -0.01069915946573019,
        0.04516329988837242,
        -0.057401955127716064,
        0.10354085266590118,
        0.05424072593450546,
        0.019081812351942062,
        -0.08898746222257614,
        -0.030410161241889,
        0.011468583717942238,
        -0.0009637817274779081,
        0.0832715556025505,
        0.07928965985774994,
        0.0866134911775589,
        0.04228532314300537,
        -0.0791773796081543,
        0.024827947840094566,
        -0.03342605382204056,
        0.0309943538159132,
        0.025044606998562813,
        -0.11762040108442307,
        0.017867933958768845,
        -0.0034059477038681507,
        -0.15404954552650452,
        0.05657944828271866,
        -0.029908210039138794,
        0.09785886108875275,
        -0.04360384866595268,
        -0.08451692759990692,
        -0.005424941424280405,
        -0.03475753590464592,
        0.10818393528461456,
        -0.09947998076677322,
        0.061838552355766296,
        0.0034733987413346767,
        -0.00018985557835549116,
        -0.039792947471141815,
        -0.007860774174332619,
        0.025856873020529747,
        -0.08358077704906464,
        0.0005202546017244458,
        0.048047736287117004,
        -0.11711607128381729,
        0.10767021030187607,
        0.06499528884887695,
        -0.0007513143355026841,
        -0.03612122684717178,
        -0.000673350237775594,
        0.08760461211204529,
        -0.027941090986132622,
        0.008018904365599155,
        0.08497494459152222,
        -0.01733419857919216,
        0.0030972531531006098,
        -0.00263754790648818,
        -0.04269013553857803,
        0.0012112356489524245,
        -0.05119989439845085,
        0.0035785986110568047,
        -0.06235568970441818,
        0.02730715461075306,
        -0.002790522761642933,
        -0.08996232599020004,
        0.02104736678302288,
        0.0014018436195328832,
        0.017797164618968964,
        0.04063812270760536,
        -0.000435727764852345,
        0.0057665626518428326,
        0.08066367357969284,
        0.056996189057826996,
        -0.018753647804260254,
        -0.024574395269155502,
        -0.06960853189229965,
        -0.04492046684026718,
        0.055215321481227875,
        0.001076084328815341,
        -0.07334309071302414,
        0.0036419671960175037,
        -0.0009854817762970924,
        0.007535848300904036,
        -0.04433557018637657,
        -0.020740032196044922,
        -0.015585517510771751,
        0.005744407419115305,
        0.024066854268312454,
        0.0010982885723933578,
        0.044977519661188126,
        -0.0031455184798687696,
        -0.012415587902069092,
        -0.0031651367899030447,
        -0.0008356574107892811,
        0.001102508045732975,
        -0.006545264273881912,
        -0.0018365379655733705,
        0.08325500786304474,
        -0.007709760684520006,
        -0.049361247569322586,
        0.021902870386838913,
        -0.08352436125278473,
        0.009081531316041946,
        -0.009504666551947594,
        -0.04028330743312836,
        0.0017002448439598083,
        -0.00128294772002846,
        0.1019209697842598,
        0.005827938672155142,
        0.020038645714521408,
        0.0017219115979969501,
        -0.001272865105420351,
        0.044891245663166046,
        0.012261672876775265,
        0.043709006160497665,
        -0.03679167479276657,
        -0.004548468627035618,
        0.005957034882158041,
        0.03465346246957779,
        0.030978050082921982,
        0.02547238953411579,
        -0.0007685558521188796,
        -0.0001225748856086284,
        0.0015154245775192976,
        -0.02493010088801384,
        0.014749114401638508,
        -0.006457112263888121,
        -0.1015668660402298,
        -0.036876045167446136,
        -0.0012959291925653815,
        -0.029689911752939224,
        -0.015781410038471222,
        -0.0477188415825367,
        0.02572348341345787,
        -0.00023996223171707243,
        0.04569008946418762,
        -0.014892227947711945,
        0.003299491945654154,
        0.0447051078081131,
        0.0027150101959705353,
        0.0018285836558789015,
        0.0005237212753854692,
        0.07508701086044312,
        0.01250707358121872,
        0.017085000872612,
        0.034916236996650696,
        -0.04530682414770126,
        0.03694368526339531,
        0.0010783519828692079,
        0.05987752601504326,
        -0.04445279762148857,
        -0.006423443090170622,
        -0.0005852122558280826,
        0.013415099121630192,
        -0.02695964090526104,
        0.046168163418769836,
        -0.004309091717004776,
        -0.0076759629882872105,
        -0.004593524616211653,
        -0.02475607953965664,
        0.06568197906017303,
        0.004125654697418213,
        -0.001630845246836543,
        0.050197213888168335,
        0.009996716864407063,
        -0.021582260727882385,
        0.04550868272781372,
        0.10677928477525711,
        0.05769440531730652,
        0.10701889544725418,
        -0.02338477596640587,
        0.07589136064052582,
        0.1520470529794693,
        0.07964575290679932,
        -0.06929745525121689,
        0.021552255377173424,
        0.0051921154372394085,
        -0.010936328209936619,
        -0.06297452747821808,
        -0.03501293063163757,
        0.016950657591223717,
        0.031003907322883606,
        0.11961350589990616,
        0.0038979663513600826,
        0.016654713079333305,
        -0.11295392364263535,
        0.06331600248813629,
        -0.11567381769418716,
        0.02574804238975048,
        0.054018158465623856,
        0.12482775002717972,
        -0.021526610478758812,
        -0.07196279615163803,
        -0.11626215279102325,
        -0.03084929659962654,
        0.1181250736117363,
        -0.007915387861430645,
        -0.08879664540290833,
        0.10183428227901459,
        0.004665205255150795,
        0.048680827021598816,
        0.13849420845508575,
        -0.02353346347808838,
        -0.10021550953388214,
        0.03595898672938347,
        -0.0005380945513024926,
        -0.024106213822960854,
        -0.051059793680906296,
        -0.013738594017922878,
        0.06683378666639328,
        0.12738268077373505,
        0.025097403675317764,
        0.09130699932575226,
        0.10793603211641312,
        0.008661189116537571,
        0.024308735504746437,
        -0.057123273611068726,
        0.03439020365476608,
        -0.09798207879066467,
        -0.05871402099728584,
        -0.10871962457895279,
        -0.021139468997716904,
        -0.00667536212131381,
        0.11439389735460281,
        -0.05343974381685257,
        0.005168404430150986,
        0.05102501064538956
      ]
    },
    {
      "layer": "param_1",
      "shape": [
        64,
        192
      ],
      "mean": 0.0002894495555665344,
      "std_dev": 0.052467215806245804,
      "values": [
        0.035482946783304214,
        -0.009416540153324604,
        0.0452066995203495,
        0.017122484743595123,
        -0.03546084463596344,
        0.07526148110628128,
        -0.023761121556162834,
        -0.0013898609904572368,
        -0.01497370470315218,
        0.09040337800979614,
        -0.06847817450761795,
        0.04322940856218338,
        -0.04376859590411186,
        -0.0317176915705204,
        -0.00422292947769165,
        0.024040434509515762,
        0.08133664727210999,
        -0.006661604158580303,
        0.08528899401426315,
        0.051778312772512436,
        -0.04797036573290825,
        -0.06917895376682281,
        -0.0021822175476700068,
        0.02887687273323536,
        0.09211692959070206,
        -0.058411698788404465,
        0.12185695022344589,
        -0.08157376945018768,
        0.1144629567861557,
        -0.0017021538224071264,
        0.018513264134526253,
        0.07225646823644638,
        0.015263771638274193,
        -0.06377866864204407,
        0.055424902588129044,
        0.03623555973172188,
        -0.029808398336172104,
        -0.10133551806211472,
        0.0017447610152885318,
        -0.0018890032079070807,
        -0.00953773781657219,
        -0.016941329464316368,
        0.13180892169475555,
        -0.01724937930703163,
        0.03982921689748764,
        0.03838391229510307,
        -0.08889053016901016,
        0.036942578852176666,
        0.015009958297014236,
        -0.035325370728969574,
        -0.04986631125211716,
        0.026110924780368805,
        0.01435093954205513,
        0.019107425585389137,
        -0.006015079095959663,
        0.022303124889731407,
        0.02836202085018158,
        -0.020734867081046104,
        0.041719913482666016,
        0.016933467239141464,
        -0.04454959183931351,
        0.003405782161280513,
        -0.07236630469560623,
        0.0069916038773953915,
        0.09966829419136047,
        -0.0740729421377182,
        -0.09982453286647797,
        -0.01746108941733837,
        -0.02345850318670273,
        0.03494938835501671,
        -0.01599639095366001,
        0.054673727601766586,
        0.04470200091600418,
        -0.058731503784656525,
        -0.09470464289188385,
        -0.016963033005595207,
        0.049737632274627686,
        0.005407719407230616,
        0.06680326908826828,
        0.00022345635807141662,
        0.06349362432956696,
        -0.009183751419186592,
        -0.008707890287041664,
        -0.032383993268013,
        7.180316606536508e-05,
        0.10061781853437424,
        0.07389482110738754,
        0.03890807926654816,
        0.09484636783599854,
        -0.031024791300296783,
        0.059025753289461136,
        0.07111838459968567,
        0.051380615681409836,
        -0.04149647057056427,
        0.07903467118740082,
        -0.08846787363290787,
        -0.08574526757001877,
        -0.008021077141165733,
        -0.029972126707434654,
        0.01993534527719021,
        -0.06658802181482315,
        -0.023777320981025696,
        -0.01334549393504858,
        -0.013032379560172558,
        -0.03726263344287872,
        -0.05078209564089775,
        -0.056932780891656876,
        -0.031397704035043716,
        0.02709619514644146,
        0.1273909956216812,
        0.011482372879981995,
        -0.039595477283000946,
        -0.0417790450155735,
        0.00018301783711649477,
        -0.08618525415658951,
        0.053958307951688766,
        -0.030263008549809456,
        0.054554760456085205,
        0.10506440699100494,
        -0.029342206194996834,
        0.0031688110902905464,
        0.017137711867690086,
        -0.031159596517682076,
        -0.06288359314203262,
        -0.06395421177148819,
        -0.0028825055342167616,
        0.023239711299538612,
        -0.077776238322258,
        0.004938783124089241,
        -0.013577811419963837,
        0.03062286600470543,
        -0.06405173242092133,
        -0.015779130160808563,
        0.03192409127950668,
        -0.06136398762464523,
        0.01811828650534153,
        -0.0243848767131567,
        0.010986379347741604,
        -0.035103145986795425,
        0.020649844780564308,
        -0.021130213513970375,
        -0.07319357246160507,
        -0.03555088862776756,
        -0.021152090281248093,
        -0.0020756300073117018,
        -0.011802621185779572,
        -0.03032219223678112,
        0.01821628026664257,
        -0.016652503982186317,
        -0.08149976283311844,
        0.010556407272815704,
        0.00932383630424738,
        0.053854867815971375,
        0.04916701838374138,
        0.037764593958854675,
        -0.008669411763548851,
        -0.024075016379356384,
        0.038045041263103485,
        -0.057962264865636826,
        -0.02045311965048313,
        -0.0572529099881649,
        -0.048591651022434235,
        0.038870781660079956,
        -0.02485201135277748,
        -0.02804906852543354,
        0.1083579882979393,
        -0.07335589826107025,
        0.03211722522974014,
        -0.014472158625721931,
        -0.060291677713394165,
        0.017157163470983505,
        0.07754867523908615,
        0.027051420882344246,
        0.024264445528388023,
        -0.0706515833735466,
        0.05430665612220764,
        0.06394145637750626,
        0.011272101663053036,
        -0.03447703272104263,
        -0.033221516758203506,
        -0.04489511996507645,
        0.021244650706648827,
        -0.003147019539028406,
        -0.02801932394504547,
        -0.004949524067342281,
        0.09906719624996185,
        -0.011461915448307991,
        0.04568047821521759,
        0.07192081958055496,
        -0.019501738250255585,
        -0.10920684039592743,
        0.06209080293774605,
        -0.02376401238143444,
        0.04916853830218315,
        0.019231759011745453,
        0.008312524296343327,
        -0.05289430171251297,
        -0.06806754320859909,
        -0.03403268754482269,
        0.008422311395406723,
        0.04190348833799362,
        0.043403755873441696,
        -0.0003762409323826432,
        -0.05128093808889389,
        -0.08207070082426071,
        -0.044538628309965134,
        0.02218537963926792,
        -0.03358520567417145,
        -0.004088575020432472,
        0.01035855058580637,
        -0.03970659524202347,
        0.026452111080288887,
        0.04343968257308006,
        -0.06798788160085678,
        -0.1666942685842514,
        -0.03690114617347717,
        0.05970996990799904,
        0.006277862470597029,
        0.057614147663116455,
        -0.10682401061058044,
        -0.03226647526025772,
        0.06773469597101212,
        -0.07628563791513443,
        0.007879930548369884,
        -0.00915561430156231,
        0.06286481767892838,
        -0.0385204553604126,
        -0.08438846468925476,
        -0.017594657838344574,
        0.026661355048418045,
        -0.022268371656537056,
        -0.045531272888183594,
        0.07100274413824081,
        -0.018243461847305298,
        0.12697815895080566,
        0.03250303119421005,
        -0.04414879530668259,
        -0.08352069556713104,
        -0.00920497253537178,
        0.01679714024066925,
        -0.053855374455451965,
        0.05568494275212288,
        0.06844072788953781,
        0.018485866487026215,
        0.012792635709047318,
        0.03688858449459076,
        -0.009600533172488213,
        0.03771604970097542,
        0.07338763773441315,
        0.05024627596139908,
        0.02339264005422592,
        0.06448794156312943,
        -0.03388611972332001,
        0.035194527357816696,
        -0.013307955116033554,
        -0.05053756386041641,
        0.08922784775495529,
        0.015074511058628559,
        -0.06855902820825577,
        0.08830306679010391,
        -0.06106796860694885,
        -0.07657831162214279,
        0.013874342665076256,
        -0.014319656416773796,
        -0.02760261856019497,
        0.0039306096732616425,
        -0.07672813534736633,
        0.04895203188061714,
        -0.05455039441585541,
        -0.0772368386387825,
        -0.02468857727944851,
        -0.09421931207180023,
        0.0141873424872756,
        0.0054946402087807655,
        -0.05217764154076576,
        0.06165943294763565,
        0.023323189467191696,
        -0.054930198937654495,
        0.04658659175038338,
        0.07641930878162384,
        0.015729468315839767,
        -0.00047260866267606616,
        -0.05074860900640488,
        -0.03456289321184158,
        -0.016130713745951653,
        -0.028645969927310944,
        0.03517071530222893,
        0.009068088605999947,
        -0.051864128559827805,
        0.04984993860125542,
        0.05526554211974144,
        -0.03721104562282562,
        0.0027454313822090626,
        0.07808350771665573,
        0.037496309727430344,
        0.03109152428805828,
        0.009824737906455994,
        -8.880969835445285e-05,
        -0.05019159987568855,
        -0.013451081700623035,
        -0.03093631938099861,
        0.024483732879161835,
        -0.0819171741604805,
        0.02328011579811573,
        -0.060662444680929184,
        -0.019528908655047417,
        -0.076455257833004,
        -0.10203725844621658,
        0.03672180697321892,
        -0.029971161857247353,
        -0.07493848353624344,
        0.009762190282344818,
        -0.001465361681766808,
        0.0305876974016428,
        0.061516087502241135,
        -0.026277752593159676,
        -0.015639856457710266,
        -0.05540011078119278,
        -0.07326288521289825,
        0.008400393649935722,
        0.023735759779810905,
        0.0673900917172432,
        -0.1167372465133667,
        -0.007733448874205351,
        0.02310534380376339,
        -0.07538888603448868,
        -0.017046593129634857,
        -0.08190204948186874,
        -0.031191987916827202,
        -0.038430750370025635,
        0.018458236008882523,
        0.04302212595939636,
        0.009879712015390396,
        -0.01822797954082489,
        0.001308746519498527,
        -0.027556970715522766,
        -0.08055044710636139,
        0.05427630990743637,
        -0.04720572009682655,
        -0.004954203963279724,
        -0.006445648614317179,
        -0.031131811439990997,
        -0.02535194531083107,
        -0.016856083646416664,
        -0.02400529943406582,
        -0.03449774906039238,
        0.024004153907299042,
        -0.07491122931241989,
        -0.0010538927745074034,
        -0.029532430693507195,
        0.0214398130774498,
        0.04664742201566696,
        -0.03034098446369171,
        -0.006321523804217577,
        -0.004606579430401325,
        0.08318686485290527,
        -0.09812077134847641,
        0.10871847718954086,
        -0.05037245154380798,
        0.03891509771347046,
        0.023055750876665115,
        0.008287649601697922,
        0.03107362799346447,
        -0.10254170000553131,
        0.03212357312440872,
        -0.08381739258766174,
        -0.09001148492097855,
        0.07026252895593643,
        0.01897687092423439,
        0.04977693781256676,
        -0.0831562876701355,
        -0.13186392188072205,
        -0.006884946022182703,
        0.0764436200261116,
        -0.08441474288702011,
        -0.09231288731098175,
        0.0706886425614357,
        0.11711931973695755,
        0.06578303128480911,
        0.026960790157318115,
        -0.01298660971224308,
        -0.050247449427843094,
        0.005137050990015268,
        0.02008521929383278,
        -0.0288392324000597,
        -0.11403656750917435,
        0.09373262524604797,
        -0.01410001888871193,
        0.07416420429944992,
        -0.055757101625204086,
        0.014728031121194363,
        -0.14105290174484253,
        0.13279500603675842,
        -0.08447971940040588,
        0.05091717094182968,
        0.09163013845682144,
        0.06818892806768417,
        -0.052116259932518005,
        0.02280076965689659,
        -0.1363164186477661,
        -0.04038124158978462,
        0.09855704009532928,
        -0.08267051726579666,
        0.018145108595490456,
        0.0427597351372242,
        0.06674250215291977,
        0.0633799210190773,
        0.10915064066648483,
        -0.01730780117213726,
        -0.014892689883708954,
        0.05080847442150116,
        -0.013625342398881912,
        0.04894831404089928,
        -0.026458626613020897,
        -0.03109804540872574,
        0.008658505976200104,
        -0.048201512545347214,
        -0.10423451662063599,
        -0.010891512036323547,
        -0.05485980212688446,
        -0.05184619128704071,
        -0.14667515456676483,
        0.0779723972082138,
        0.01110460702329874,
        -0.08277524262666702,
        -0.005555566865950823,
        0.08015690743923187,
        0.05373016372323036,
        -0.028442464768886566,
        0.0005227421643212438,
        0.09429232776165009,
        -0.040518537163734436,
        0.021901559084653854,
        0.07093895971775055,
        -0.04167444631457329,
        -0.05436959117650986,
        -0.009646741673350334,
        -0.020482424646615982,
        0.10596350580453873,
        0.053952302783727646,
        0.03671235591173172,
        -0.0019065141677856445,
        -0.05488268658518791,
        -0.05562937259674072,
        0.04887908324599266,
        0.03063362091779709,
        -0.03950991854071617,
        0.05578891932964325,
        0.051405031234025955,
        -0.07914429903030396,
        -0.019195551052689552,
        0.01720898412168026,
        0.05808567255735397,
        0.10202977061271667,
        0.016384540125727654,
        0.006435288116335869,
        -0.09685184806585312,
        -0.009093821048736572,
        -0.0035665100440382957,
        -0.030592404305934906,
        0.10937044024467468,
        0.030788348987698555,
        -0.012295030988752842,
        -0.008964169770479202,
        -0.03773406147956848,
        0.029085231944918633,
        0.07415752112865448,
        -0.010825754143297672,
        0.08084455877542496,
        -0.07782518863677979,
        0.060349978506565094,
        0.03773794695734978,
        -0.06752924621105194,
        -0.045959945768117905,
        -0.06944284588098526,
        0.08417542278766632,
        0.12727580964565277,
        0.0179256871342659,
        -0.060746293514966965,
        -0.016658242791891098,
        0.004863020032644272,
        0.11298958212137222,
        -0.004908073227852583,
        -0.04398141801357269,
        -0.02726582996547222,
        -0.06229027360677719,
        -0.02781441994011402,
        0.07987363636493683,
        -0.0262179933488369,
        -0.08569585531949997,
        -0.05308477208018303,
        0.07021888345479965,
        -0.048009954392910004,
        -0.020287489518523216,
        0.12155435979366302,
        -0.021513696759939194,
        0.016895323991775513,
        -0.060933515429496765,
        -0.08768115192651749,
        0.07056358456611633,
        -0.023275066167116165,
        -0.036833226680755615,
        -0.038139067590236664,
        -0.057168617844581604,
        -0.010854745283722878,
        -0.02220875956118107,
        0.022944245487451553,
        0.031081272289156914,
        0.003357460256665945,
        0.038902755826711655,
        0.005311001092195511,
        0.07299651205539703,
        -0.05247878283262253,
        0.03161780908703804,
        -0.06788806617259979,
        -0.06866500526666641,
        0.09424087405204773,
        0.0009763468406163156,
        0.02256596088409424,
        0.051484666764736176,
        0.007196546997874975,
        -0.06003067269921303,
        0.08370333164930344,
        -0.025789029896259308,
        0.032594311982393265,
        -0.011237948201596737,
        0.04531492665410042,
        0.11169462651014328,
        -0.004020869731903076,
        0.025479692965745926,
        0.017011214047670364,
        -0.00023233141109813005,
        0.07249195128679276,
        -0.03278665244579315,
        -0.010980655439198017,
        0.05146609991788864,
        0.003915842156857252,
        -0.014166699722409248,
        -0.052926477044820786,
        -0.017402267083525658,
        -0.013928886502981186,
        -0.0025252054911106825,
        -0.006940106861293316,
        0.07708483189344406,
        0.01167454943060875,
        -0.016415059566497803,
        -0.025267578661441803,
        -0.04906759783625603,
        0.028589444234967232,
        0.03572278097271919,
        0.024213530123233795,
        0.1170455813407898,
        -0.004688932094722986,
        0.05058182775974274,
        -0.02845938503742218,
        -0.03523968532681465,
        -0.023571860045194626,
        -0.026151031255722046,
        -0.05148439481854439,
        -0.06100575253367424,
        -0.005379997659474611,
        -0.05236586183309555,
        0.01015707291662693,
        0.06187349557876587,
        -0.05189744755625725,
        0.033578015863895416,
        0.08027169108390808,
        0.020978368818759918,
        0.11975416541099548,
        0.08992473781108856,
        -0.024358298629522324,
        0.04624473303556442,
        -0.025423893705010414,
        0.0012152239214628935,
        0.011745432391762733,
        -0.005181576125323772,
        0.055127404630184174,
        -0.003930656239390373,
        -0.051584143191576004,
        -0.001155575504526496,
        0.0048345960676670074,
        0.004787262994796038,
        -0.09599197655916214,
        0.011474024504423141,
        -0.08586922287940979,
        0.03758370131254196,
        0.0847325325012207,
        -0.011600744910538197,
        -0.022477982565760612,
        0.05863461643457413,
        0.05141656845808029,
        -0.01711111329495907,
        0.047545094043016434,
        0.12396622449159622,
        0.002488546771928668,
        0.06727840006351471,
        0.06665995717048645,
        0.05441189929842949,
        -0.0013134587788954377,
        -0.04741174727678299,
        0.06652887165546417,
        0.15177388489246368,
        0.05546777695417404,
        -0.02146320603787899,
        0.016140660271048546,
        0.0049698976799845695,
        0.015582081861793995,
        0.046199358999729156,
        0.07633765786886215,
        -0.06385167688131332,
        0.06562288850545883,
        0.04304279014468193,
        -0.05162126570940018,
        0.037939589470624924,
        -0.012252516113221645,
        0.045863162726163864,
        -0.022878793999552727,
        0.09030377864837646,
        -0.07911830395460129,
        -0.027832234278321266,
        -0.00956866703927517,
        0.054584018886089325,
        -0.06594967842102051,
        0.03723486140370369,
        -0.056892313063144684,
        0.03724381700158119,
        0.03142857551574707,
        0.03428914397954941,
        -0.062287960201501846,
        0.019962919875979424,
        0.03484177589416504,
        0.037257496267557144,
        -0.0025148557033389807,
        -0.0393037274479866,
        0.03768210858106613,
        0.016378585249185562,
        0.029761280864477158,
        0.04351934418082237,
        0.03805705904960632,
        0.014352184720337391,
        0.033557239919900894,
        -0.005708628334105015,
        0.034045714884996414,
        0.03431375324726105,
        -0.05243576318025589,
        -0.12156935036182404,
        0.03727187216281891,
        -0.07328780740499496,
        0.004769648890942335,
        -0.11440569162368774,
        -0.03141770884394646,
        -0.011164635419845581,
        0.05012546107172966,
        0.050547268241643906,
        0.017556747421622276,
        -0.10961484163999557,
        0.07728448510169983,
        -0.0007480572676286101,
        0.03063005767762661,
        0.018937867134809494,
        0.004509844817221165,
        -0.023364737629890442,
        0.021440977230668068,
        0.031914256513118744,
        0.06190900504589081,
        0.03798510506749153,
        0.007150435820221901,
        -0.018739284947514534,
        0.028953416272997856,
        -0.00907103717327118,
        -0.031769219785928726,
        0.004062499850988388,
        0.043532595038414,
        -0.07334314286708832,
        0.08299650251865387,
        0.0709817185997963,
        -0.0028559856582432985,
        0.04359818622469902,
        -0.03548572584986687,
        0.021355051547288895,
        -0.004253506660461426,
        -0.017566638067364693,
        -0.04095925763249397,
        -0.04408479109406471,
        -0.005239179357886314,
        -0.06661191582679749,
        -0.03595157712697983,
        -0.03001989983022213,
        0.055038776248693466,
        -0.014449271373450756,
        0.04573565348982811,
        -0.04208599403500557,
        0.03628787025809288,
        -0.08417890220880508,
        -0.032892126590013504,
        -0.010434713214635849,
        0.041255418211221695,
        0.06535174697637558,
        -0.011941066011786461,
        -0.012532850727438927,
        -0.04991794005036354,
        -0.024785861372947693,
        0.1169184073805809,
        -0.02156050316989422,
        0.10315075516700745,
        -0.057589415460824966,
        -0.0533355288207531,
        -0.024817783385515213,
        -0.09545018523931503,
        0.05138880014419556,
        0.016277462244033813,
        -0.036465320736169815,
        0.0556798055768013,
        0.0597284696996212,
        0.049992065876722336,
        0.06683699786663055,
        0.06730367988348007,
        0.09580719470977783,
        0.08923137187957764,
        -0.011800973676145077,
        -0.0496438704431057,
        0.0018373741768300533,
        0.029458124190568924,
        0.03528568148612976,
        0.045268986374139786,
        -0.08252085745334625,
        0.020070327445864677,
        0.07738223671913147,
        -0.007431590463966131,
        0.08904153108596802,
        0.06110512837767601,
        0.014223028905689716,
        0.046083711087703705,
        0.056377895176410675,
        -0.040332552045583725,
        0.00831716787070036,
        0.015820637345314026,
        -0.03180813044309616,
        -0.0028487788513302803,
        -0.08300047367811203,
        0.06029568985104561,
        -0.05094246193766594,
        0.04249608889222145,
        0.006820070091634989,
        0.09210842102766037,
        0.06993109732866287,
        0.013152237981557846,
        -0.10188314318656921,
        0.04229873791337013,
        -0.011018260382115841,
        0.011076334863901138,
        0.08676407486200333,
        -0.0747520700097084,
        -0.004270249046385288,
        0.023833977058529854,
        0.01310707163065672,
        -0.05397842079401016,
        -0.04611589387059212,
        0.030843157321214676,
        0.051021695137023926,
        0.04969055950641632,
        -0.09193719923496246,
        0.06131557375192642,
        0.011074451729655266,
        0.04078518971800804,
        -0.037022825330495834,
        0.05855496600270271,
        -0.019303280860185623,
        -0.004906720016151667,
        0.05273924395442009,
        0.04785953089594841,
        0.0346941240131855,
        -0.08220309019088745,
        0.055501632392406464,
        -0.033103618770837784,
        0.05641040578484535,
        -0.0033313932362943888,
        -0.06789477169513702,
        -0.0939713716506958,
        -0.013365311548113823,
        0.0710582509636879,
        0.015736259520053864,
        -0.07360267639160156,
        -0.05664250627160072,
        0.032809775322675705,
        0.00833164993673563,
        0.05293479561805725,
        -0.02700716257095337,
        -0.008697875775396824,
        0.001341510913334787,
        0.16536124050617218,
        -0.0036742067895829678,
        -0.02426033653318882,
        0.033735405653715134,
        -0.07189252227544785,
        0.1233605444431305,
        0.02527134120464325,
        -0.07080968469381332,
        -0.026822471991181374,
        0.07652271538972855,
        0.007384497672319412,
        -0.12118349969387054,
        -0.06102728843688965,
        0.050134897232055664,
        0.049594469368457794,
        0.03181491792201996,
        0.029968397691845894,
        -0.047039058059453964,
        -0.00029237629496492445,
        0.03018634393811226,
        0.011398637667298317,
        0.16251634061336517,
        0.046331144869327545,
        -0.03924858942627907,
        -0.060774222016334534,
        -0.04188629612326622,
        -0.04249099642038345,
        -0.033338043838739395,
        0.024045398458838463,
        -0.03671256825327873,
        0.006072949152439833,
        0.01800113171339035,
        0.03052755631506443,
        -0.1024862602353096,
        0.0005095222149975598,
        -0.02715613879263401,
        0.04869471490383148,
        -0.02934936247766018,
        -0.0985940545797348,
        -0.029100943356752396,
        0.003148693824186921,
        -0.06846380978822708,
        0.004341751337051392,
        -0.042153581976890564,
        0.09959671646356583,
        0.061575762927532196,
        0.11812543869018555,
        0.044699132442474365,
        -0.10014448314905167,
        -0.04252186045050621,
        -0.0735853835940361,
        -0.007939358241856098,
        0.06731123477220535,
        -0.060557544231414795,
        0.054654378443956375,
        0.0617218054831028,
        -0.0745464637875557,
        0.013496928848326206,
        0.03788178414106369,
        0.13877443969249725,
        -0.0011237557046115398,
        0.08454533666372299,
        -0.020314594730734825,
        -0.07264755666255951,
        -0.030730385333299637,
        0.00041674685780890286,
        -0.0062378146685659885,
        -0.07722445577383041,
        0.04655089229345322,
        0.012871520593762398,
        0.038923438638448715,
        -0.02102278731763363,
        -0.0654577985405922,
        0.0982714369893074,
        -0.0020841979421675205,
        -0.024958141148090363,
        -0.018468063324689865,
        -0.03417416661977768,
        0.022864317521452904,
        -0.06534837186336517,
        -0.06965901702642441,
        -0.015139632858335972,
        0.03527497500181198,
        -0.030023377388715744,
        -0.0072674499824643135,
        0.03069138526916504,
        0.0465250238776207,
        0.04604584351181984,
        0.03882543742656708,
        0.03562474623322487,
        0.010285011492669582,
        0.02487347461283207,
        -0.00672453036531806,
        -0.04469802975654602,
        -0.08325032889842987,
        -0.00019701573182828724,
        -0.06907988339662552,
        -0.10386942327022552,
        -0.019054332748055458,
        0.017873717471957207,
        -0.003300971584394574,
        -0.09585084766149521,
        0.006649582181125879,
        -0.022179942578077316,
        -0.0638575628399849,
        -0.006109694018959999,
        0.03157907724380493,
        0.05413966625928879,
        -0.12404777109622955,
        0.05247766897082329,
        0.016224807128310204,
        -0.013168120756745338,
        -0.041511353105306625,
        -0.07118745893239975,
        0.050773654133081436,
        0.009061942808330059,
        -0.055376358330249786,
        -0.007027053274214268,
        -0.08939649164676666,
        0.05340840294957161,
        0.053722284734249115,
        -0.005246618762612343,
        -0.031561478972435,
        -0.014901039190590382,
        0.051716141402721405,
        -0.03673484921455383,
        0.021455762907862663,
        0.07545259594917297,
        0.06504838168621063,
        -0.04682936146855354,
        0.03919500485062599,
        0.03800114989280701,
        -0.05266094580292702,
        -0.035934921354055405,
        -0.05708460509777069,
        -0.010042404755949974,
        -0.01544864196330309,
        -0.008395200595259666,
        -0.014767785556614399,
        -0.0017342024948447943,
        -0.08400644361972809,
        -0.026493946090340614,
        0.04260464012622833,
        0.010960409417748451,
        -0.10900235176086426,
        -0.01963508129119873,
        -0.0695166140794754,
        -0.018068909645080566,
        -0.024656394496560097,
        -0.05948381870985031,
        0.030678609386086464,
        0.029717590659856796,
        0.03620056435465813,
        -0.03498676046729088,
        -0.026691079139709473,
        0.0778067335486412,
        0.00839565135538578,
        -0.14638619124889374,
        0.0237226914614439,
        0.037955451756715775,
        0.059615593403577805,
        -0.06086881458759308,
        0.08945553004741669,
        0.036497097462415695,
        -0.004256739746779203,
        0.013664214871823788,
        0.015539915300905704,
        -0.09193234890699387,
        -0.026518553495407104,
        0.007887139916419983,
        -0.03020670637488365,
        0.09876959770917892,
        -0.03547307476401329,
        -0.010217934846878052,
        -0.0273048747330904,
        0.039178770035505295,
        -0.06857886910438538,
        0.07863859832286835,
        0.026263227686285973,
        -0.0732361301779747,
        0.06829370558261871,
        -0.021938472986221313,
        -0.08213368058204651,
        -0.08630653470754623,
        0.02642614021897316,
        0.037279460579156876,
        0.009948880411684513,
        -0.03706972673535347,
        0.00922376848757267,
        -0.01832636445760727,
        -0.09417182207107544,
        0.06245722994208336,
        0.016728660091757774,
        0.0151531882584095,
        -0.03345334157347679,
        -0.008956292644143105,
        -0.04316273704171181,
        0.011379862204194069,
        -0.11432968825101852,
        -0.02730853669345379,
        -0.012221748009324074,
        0.00419170456007123,
        0.00014941502013243735,
        -0.10296617448329926,
        -0.0298435278236866,
        -0.0012954989215359092,
        0.01500336080789566,
        -0.007688744459301233,
        0.0741799995303154,
        -0.04654967412352562,
        -0.1537257730960846,
        0.03752077743411064,
        0.0872342512011528,
        -0.018925253301858902,
        0.029554007574915886,
        0.10718037188053131,
        0.01298527978360653,
        -0.009325934574007988,
        -0.06209668889641762,
        -0.04460080340504646,
        0.0634031593799591,
        -0.007849168963730335,
        -0.012763766571879387,
        -0.03836093097925186,
        -0.016559014096856117,
        0.0713878870010376,
        -0.005043551791459322,
        0.002114715054631233,
        0.06492724269628525,
        -0.06068100780248642,
        -0.021408800035715103,
        0.023551978170871735,
        0.027730215340852737,
        0.03977939486503601,
        0.0596785731613636,
        -0.002267839852720499,
        0.018426859751343727,
        -0.019642705097794533,
        -0.00820091925561428,
        0.09346769750118256,
        -0.03850151225924492,
        -0.10212405771017075,
        0.026845267042517662,
        -0.03908056393265724,
        0.016546612605452538,
        0.03797692432999611,
        -0.01755777932703495,
        0.020672665908932686,
        0.027561599388718605,
        0.007018835749477148,
        -0.04887695237994194,
        0.042326878756284714,
        0.033687248826026917,
        0.08770178258419037,
        -0.022506190463900566,
        -0.061102285981178284,
        -0.04220011085271835,
        0.003960564732551575,
        0.1047561764717102,
        -0.054573625326156616,
        -0.02313023805618286,
        -0.01820763759315014,
        0.005757534876465797,
        0.06386841088533401,
        -0.00792399886995554,
        -0.03467245772480965,
        0.05317484959959984,
        0.009119672700762749,
        0.053490739315748215,
        -0.03896598890423775,
        -0.0044285086914896965,
        -0.008304577320814133,
        -0.026584342122077942,
        0.002148914849385619,
        0.05230499058961868,
        0.025522058829665184,
        -0.009616320952773094,
        -0.0811200737953186,
        0.13092125952243805,
        0.03842807933688164,
        0.06385742872953415,
        -0.022593559697270393,
        -0.014377910643815994,
        0.015421340242028236,
        0.0022793509997427464,
        0.05186624825000763,
        -0.017708448693156242,
        -0.018391404300928116,
        0.03881317749619484,
        -0.03704487159848213,
        0.02699684165418148,
        0.006998136639595032,
        0.024055585265159607,
        -0.03158649802207947,
        -0.06641959398984909,
        0.036710601300001144,
        0.019953230395913124,
        0.03237282857298851,
        -0.07177802175283432,
        -0.06735990196466446,
        -0.06498566269874573,
        -0.05556359514594078,
        -0.07864793390035629,
        0.05732050910592079,
        0.04009689390659332,
        0.014699636958539486,
        -0.04356498643755913,
        -0.05252130329608917,
        0.04305431619286537,
        0.03862839564681053,
        -0.07412160933017731,
        -0.001653152285143733,
        0.007323719095438719,
        0.020861752331256866,
        0.07034023106098175,
        -0.008996998891234398,
        -0.01819264516234398,
        0.04446300491690636,
        0.06224824860692024,
        -0.032575011253356934,
        -0.028025731444358826,
        -0.004941820632666349,
        -0.006307865492999554,
        0.030897289514541626,
        -0.028330441564321518,
        -0.06872151046991348,
        0.0683082714676857,
        0.01860356703400612,
        -0.05893830582499504,
        -0.040197622030973434,
        -0.11177292466163635,
        0.007933055981993675,
        -0.06418190151453018,
        0.038149021565914154,
        0.04920458421111107,
        -0.04200473055243492,
        0.05242926999926567,
        -0.02451247163116932,
        -0.016151348128914833,
        0.09645791351795197,
        -0.13957644999027252,
        0.020077047869563103,
        0.07994081825017929,
        -0.019561564549803734,
        0.002744749654084444,
        0.08032037317752838,
        0.05629869922995567,
        0.08839830756187439,
        -0.002580530010163784,
        0.041231121867895126,
        0.03523014858365059,
        0.011289198882877827,
        -0.013675525784492493,
        -0.040253765881061554,
        -0.048863768577575684,
        0.013138839043676853,
        0.030634110793471336,
        0.0003678857465274632,
        0.04569437727332115,
        0.10104244202375412,
        0.07797618210315704,
        0.04467470943927765,
        0.0035910909064114094,
        -0.07066213339567184,
        -0.021561874076724052,
        -0.026556089520454407,
        -0.06566333025693893,
        0.02110203541815281,
        0.05843883752822876,
        0.07913428544998169,
        0.005529696121811867,
        0.048015743494033813,
        0.0695633515715599,
        -0.02259729988873005,
        -0.01166866160929203,
        -0.06534474343061447,
        -0.024358423426747322,
        0.024903900921344757,
        -0.06793791055679321,
        -0.0323125422000885,
        0.05618984252214432,
        -0.01473242323845625,
        -0.08073625713586807,
        0.051935650408267975,
        -0.01751122623682022,
        -0.1145055964589119,
        -0.028590412810444832,
        0.06128555163741112,
        -0.05368919298052788,
        -0.03587699308991432,
        -0.0228263046592474,
        0.08377385884523392,
        -0.04440309852361679,
        -0.10411927103996277,
        0.009319523349404335,
        -0.005041990429162979,
        0.09698985517024994,
        0.0033043508883565664,
        0.1200372576713562,
        -0.054201651364564896,
        -0.07294009625911713,
        -0.01125203538686037,
        0.05333467572927475,
        0.05459793657064438,
        -0.10573607683181763,
        0.05727805197238922,
        0.019015735015273094,
        -0.018696164712309837,
        -0.04105696082115173,
        0.05214208737015724,
        -0.04084102436900139,
        0.007226806599646807,
        -0.12780311703681946,
        -0.04913613200187683,
        -0.007451477460563183,
        0.02723618969321251,
        -0.03271907567977905,
        0.04656680300831795,
        -0.15705852210521698,
        0.020835120230913162,
        0.028273409232497215,
        0.021881720051169395,
        -0.027945859357714653,
        -0.0035513248294591904,
        -0.060913171619176865,
        0.006904415786266327,
        0.026337629184126854,
        0.07149774581193924,
        -0.03594726324081421,
        0.0035781573969870806,
        0.09004350006580353,
        0.008268490433692932,
        0.014524558559060097,
        0.02245648391544819,
        -0.05125407874584198,
        0.052049670368433,
        -0.03745124861598015,
        -0.053580813109874725,
        0.04206794127821922,
        -0.01717798225581646,
        0.08187984675168991,
        0.01604290120303631,
        -0.03150109574198723,
        0.05515831336379051,
        -0.05897923558950424,
        0.029219552874565125,
        0.1310560703277588,
        0.07251235097646713,
        0.03843711316585541,
        -0.03659858927130699,
        0.058031704276800156,
        0.014945002272725105,
        -0.01026999019086361,
        0.040720511227846146,
        0.015241168439388275,
        0.06292662024497986,
        -0.031933899968862534,
        -0.05041935294866562,
        -0.045445527881383896,
        0.012033404782414436,
        -0.03470708429813385,
        0.026911886408925056,
        -0.03668038174510002,
        -0.03786348178982735,
        0.04666387289762497,
        -0.0809994786977768,
        -0.0333794541656971,
        -0.0019188589649274945,
        -0.004592836368829012,
        0.049686938524246216,
        -0.011782589368522167,
        -0.040300991386175156,
        -0.05144783854484558,
        -0.11773401498794556,
        0.03794414922595024,
        -0.06927822530269623,
        -0.0193916168063879,
        0.035582393407821655,
        0.03850188106298447,
        -0.03266974538564682,
        0.007727395743131638,
        0.00508386455476284,
        0.07741706073284149,
        -0.021465931087732315,
        0.04964764043688774,
        0.07297622412443161,
        -0.03190995752811432,
        -0.058944907039403915,
        0.0030672159045934677,
        -0.07259359210729599,
        -0.12891848385334015,
        0.007076312322169542,
        -0.021407322958111763,
        0.022532960399985313,
        0.0943879783153534,
        0.08870179951190948,
        -0.08746068924665451,
        -0.04488835483789444,
        0.02459784224629402,
        0.012635580264031887,
        0.06018714979290962,
        -0.016400085762143135,
        0.009969589300453663,
        -0.04255153611302376,
        0.03568509593605995,
        -0.03800053521990776,
        -0.00259257759898901,
        0.06949459761381149,
        0.012096269987523556,
        -0.13429780304431915,
        -0.014715924859046936,
        0.020636577159166336,
        0.06602407246828079,
        -0.05560155212879181,
        -0.052141789346933365,
        -0.05395191162824631,
        -0.03489029034972191,
        -0.008632691577076912,
        0.062439508736133575,
        -0.0075772833079099655,
        -0.12176074087619781,
        0.054513223469257355,
        0.047898177057504654,
        0.02326107956469059,
        -0.00956165324896574,
        -0.010486457496881485,
        0.029438132420182228,
        -0.01733950898051262,
        0.018667230382561684,
        -0.09932371228933334,
        0.013414754532277584,
        0.07044927775859833,
        0.0851481705904007,
        0.037858251482248306,
        0.005005496088415384,
        -0.00127589819021523,
        -0.02945968322455883,
        -0.022993410006165504,
        -0.06573975831270218,
        0.07570517063140869,
        0.09256940335035324,
        -0.00861357245594263,
        -0.0026777684688568115,
        -0.050518978387117386,
        -0.05370740592479706,
        0.03735748678445816,
        0.03262355923652649,
        0.009907674044370651,
        0.012021386064589024,
        -0.0448601208627224,
        -0.08737751841545105,
        0.033625662326812744,
        -0.020176641643047333,
        0.008726347237825394,
        0.11294077336788177,
        0.06264722347259521,
        -0.08106987923383713,
        -0.0397380031645298,
        0.0020783015061169863,
        0.027029212564229965,
        0.02359911799430847,
        0.10466651618480682,
        -0.0523400716483593,
        0.036835748702287674,
        -0.02818613499403,
        0.1075652688741684,
        0.07459897547960281,
        0.004270702134817839,
        -0.005669793579727411,
        0.11455484479665756,
        -0.052937038242816925,
        0.054560188204050064,
        0.00768237141892314,
        -0.0986117422580719,
        -0.04061025381088257,
        -0.011321011930704117,
        0.04614781215786934,
        0.008634212426841259,
        -0.09393804520368576,
        -0.04049307107925415,
        0.023875445127487183,
        0.030667264014482498,
        0.010823480784893036,
        0.008905153721570969,
        0.02531161718070507,
        -0.06491529941558838,
        -0.045283496379852295,
        -0.09063269942998886,
        -0.003267260268330574,
        -0.0098506985232234,
        -0.0588490329682827,
        -0.031184731051325798,
        0.07175426185131073,
        0.02206575684249401,
        -0.05245313420891762,
        -0.012572424486279488,
        0.06827796995639801,
        -0.07342920452356339,
        0.02719106152653694,
        0.005363557953387499,
        -0.02165343053638935,
        0.011362498626112938,
        0.00331605551764369,
        0.0813639685511589,
        0.0265441183000803,
        0.04332816228270531,
        -0.07851841300725937,
        0.02084982767701149,
        -0.03045952133834362,
        -0.036139439791440964,
        0.010924565605819225,
        0.08338449895381927,
        0.04109901934862137,
        0.07357420027256012,
        0.09002098441123962,
        -0.0449066087603569,
        0.013691123574972153,
        0.01740599237382412,
        -0.08864250034093857,
        -0.026033952832221985,
        -0.021588079631328583,
        0.0012161910999566317,
        0.04905014485120773,
        -0.012255319394171238,
        0.0096305375918746,
        -0.06895183026790619,
        -0.14467301964759827,
        0.018306732177734375,
        0.0640077143907547,
        -0.0036760885268449783,
        0.016424041241407394,
        -0.07740014046430588,
        0.028160670772194862,
        0.05698984116315842,
        0.040518052875995636,
        -0.017647337168455124,
        -0.06194058060646057,
        -0.0026139728724956512,
        0.04000650346279144,
        0.13791675865650177,
        0.02480180189013481,
        0.07873282581567764,
        -0.04705435410141945,
        -0.020465275272727013,
        0.008990912698209286,
        -0.008750523440539837,
        0.031114496290683746,
        -0.015522469766438007,
        0.04885818064212799,
        -0.07931042462587357,
        0.029936442151665688,
        0.06405901163816452,
        0.01342686451971531,
        -0.0496843121945858,
        -0.011910814791917801,
        -0.022838911041617393,
        -0.04761546477675438,
        0.024372689425945282,
        -0.04548037797212601,
        -0.027386751025915146,
        -0.07019798457622528,
        0.0535273477435112,
        -0.08048973977565765,
        0.05832264944911003,
        -0.026021912693977356,
        0.003292502835392952,
        -0.011756747029721737,
        0.040146902203559875,
        -0.061762239784002304,
        -0.03341367840766907,
        -0.030683213844895363,
        0.024379665032029152,
        0.002897040219977498,
        0.004884400404989719,
        -0.011500729247927666,
        0.023270532488822937,
        -0.07013332843780518,
        -0.06726401299238205,
        -0.01788513734936714,
        -0.005092787090688944,
        -0.04290270060300827,
        -0.003004574915394187,
        -0.029614673927426338,
        0.00866136234253645,
        0.06665071845054626,
        0.03495074063539505,
        0.002461556810885668,
        0.07402285188436508,
        -0.01337134838104248,
        -0.04907518997788429,
        0.027560120448470116,
        -0.01163703203201294,
        0.01912429742515087,
        -0.009244822897017002,
        0.014575186185538769,
        0.0786673054099083,
        -0.01641763187944889,
        -0.0821826234459877,
        0.004044561646878719,
        0.023424016311764717,
        -0.0857035294175148,
        -0.08580099046230316,
        0.01567891612648964,
        -0.01251095999032259,
        0.0866904929280281,
        0.005505667068064213,
        0.03158890828490257,
        0.03529433161020279,
        0.007941889576613903,
        0.01970468834042549,
        -0.009750797413289547,
        -0.10427083820104599,
        -0.04046376422047615,
        0.0647067278623581,
        -0.015615287236869335,
        -0.06911081820726395,
        0.004344405140727758,
        -0.040738075971603394,
        0.023876549676060677,
        0.057739291340112686,
        -0.06511552631855011,
        -0.02215227670967579,
        0.05468621850013733,
        0.052380986511707306,
        -0.10519441217184067,
        0.030595628544688225,
        0.04233338311314583,
        0.09146466106176376,
        0.090903140604496,
        -0.009869725443422794,
        0.07236570864915848,
        -0.01155407726764679,
        -0.07708465307950974,
        0.04344899207353592,
        -0.017777366563677788,
        0.027817130088806152,
        0.06292807310819626,
        0.022984862327575684,
        -0.06553186476230621,
        0.008526402525603771,
        0.03898782655596733,
        -0.05398412421345711,
        -0.0516420342028141,
        0.04837886244058609,
        0.0161745585501194,
        0.03975636139512062,
        -0.007732127793133259,
        0.01177266612648964,
        0.022636843845248222,
        0.06352277845144272,
        0.09490588307380676,
        -0.1546911597251892,
        0.011548087932169437,
        -0.002016686135903001,
        -0.044563133269548416,
        0.09729811549186707,
        -0.05016650632023811,
        0.07728017866611481,
        0.07326093316078186,
        -0.013758658431470394,
        -0.043171707540750504,
        4.866535891778767e-05,
        -0.09356635063886642,
        0.07183577120304108,
        0.0008617835701443255,
        -0.039021771401166916,
        0.024764912202954292,
        -0.036421433091163635,
        -0.06662919372320175,
        -0.06968716531991959,
        -0.0646139606833458,
        -0.20459870994091034,
        -0.1009894609451294,
        0.06493644416332245,
        -0.014827019535005093,
        -0.04696411266922951,
        -0.00015272331074811518,
        0.08504385501146317,
        0.04049791768193245,
        0.049022696912288666,
        -0.07518420368432999,
        0.1307513415813446,
        -0.030959006398916245,
        -0.11101049184799194,
        -0.04141310602426529,
        0.005018183961510658,
        -0.0661715418100357,
        0.10135450214147568,
        0.0371083989739418,
        0.07601166516542435,
        -0.07346364110708237,
        -0.0001583968405611813,
        0.0778338611125946,
        -0.024344610050320625,
        0.07160326093435287,
        -0.015633007511496544,
        -0.014493354596197605,
        -0.024717018008232117,
        0.05102694779634476,
        -0.036250919103622437,
        0.03998115658760071,
        0.03478109464049339,
        -0.013508445583283901,
        0.06364646553993225,
        -0.052216824144124985,
        -0.07057537138462067,
        -0.061330411583185196,
        0.05039335414767265,
        -0.02943209558725357,
        0.13615675270557404,
        0.00443596625700593,
        0.049859896302223206,
        0.02237118035554886,
        0.022352218627929688,
        0.024198543280363083,
        0.003888800274580717,
        -0.07400143146514893,
        -0.0918404832482338,
        -0.0065359678119421005,
        0.020596815273165703,
        0.05166823789477348,
        -0.10618487745523453,
        -0.04272964596748352,
        0.02902652882039547,
        -0.0201115645468235,
        0.053306955844163895,
        0.040650565177202225,
        0.07222943753004074,
        -0.040571361780166626,
        -0.1314195990562439,
        -0.011256108060479164,
        0.02231854945421219,
        -0.07072366029024124,
        -0.013627071864902973,
        -0.04626268893480301,
        -0.01814543642103672,
        0.022771799936890602,
        -0.06253820657730103,
        0.014857152476906776,
        -0.05703597888350487,
        -0.08666855096817017,
        0.0026825556997209787,
        -0.05225950479507446,
        -0.014407387934625149,
        -0.047077663242816925,
        -0.010268129408359528,
        0.017806312069296837,
        -0.031273968517780304,
        0.022336356341838837,
        0.029367579147219658,
        -0.05947735160589218,
        -0.08455142378807068,
        -0.030979229137301445,
        -0.05910200625658035,
        0.0033431854099035263,
        0.018057016655802727,
        -0.032306183129549026,
        -0.025971228256821632,
        0.035170651972293854,
        -0.05538713186979294,
        0.0036382132675498724,
        -0.007737728767096996,
        -0.024058647453784943,
        -0.0027479170821607113,
        0.07197591662406921,
        -0.009691797196865082,
        -0.04292641580104828,
        0.03109130635857582,
        -0.04901668801903725,
        -0.059786368161439896,
        -0.07591469585895538,
        0.1102738007903099,
        0.04353107511997223,
        0.009690594859421253,
        0.0369214229285717,
        -0.007613152731209993,
        -0.06771444529294968,
        -0.03111654333770275,
        0.027437185868620872,
        -0.03849167749285698,
        0.014359837397933006,
        0.021968388929963112,
        -0.04618437960743904,
        0.007494996301829815,
        -0.028217585757374763,
        0.05322125554084778,
        0.030811233446002007,
        0.04516429826617241,
        -0.029912054538726807,
        0.05994204431772232,
        0.0586266927421093,
        0.018991125747561455,
        0.0492931567132473,
        -0.03977767378091812,
        -0.02665180340409279,
        -0.045451536774635315,
        0.011030335910618305,
        -0.061585020273923874,
        -0.0827295333147049,
        -0.04034440591931343,
        0.027442531660199165,
        -0.016914036124944687,
        -0.043795011937618256,
        -0.039454780519008636,
        -0.008147554472088814,
        0.002915739081799984,
        -0.002465583849698305,
        0.028120098635554314,
        0.026757581159472466,
        0.029041018337011337,
        -0.006256665103137493,
        0.0010211227927356958,
        -0.031078575178980827,
        -0.006382270250469446,
        0.02973954565823078,
        0.013058032840490341,
        -0.05730413272976875,
        -0.06722887605428696,
        -0.012762499041855335,
        0.04453114792704582,
        0.007925822399556637,
        0.028453068807721138,
        -0.02460779994726181,
        0.03716646879911423,
        -0.04575348272919655,
        0.06347755342721939,
        0.01280882116407156,
        -0.025179317221045494,
        -0.02911694534122944,
        -0.1169724389910698,
        -0.011688251048326492,
        -0.042257748544216156,
        -0.056840065866708755,
        0.02290513925254345,
        0.0383395291864872,
        0.0093563012778759,
        -0.011103352531790733,
        0.07811859250068665,
        -0.042913611978292465,
        -0.024289313703775406,
        0.027201300486922264,
        0.06268933415412903,
        0.02339891530573368,
        0.018572045490145683,
        -0.019900623708963394,
        -0.03519468382000923,
        -0.08010804653167725,
        0.00812629982829094,
        -0.015574263408780098,
        0.004331029485911131,
        -0.03183913603425026,
        0.00937839038670063,
        -0.003239785088226199,
        0.03393400087952614,
        0.0392330102622509,
        0.09333373606204987,
        0.02367614209651947,
        0.06359851360321045,
        -0.029566125944256783,
        -0.08589634299278259,
        -0.03303475305438042,
        -0.08542145043611526,
        0.04095436632633209,
        0.05159265175461769,
        0.01414075680077076,
        -0.030871007591485977,
        -0.0749659463763237,
        0.007272196933627129,
        -0.04370161145925522,
        0.025142986327409744,
        -0.001641216455027461,
        -0.023837869986891747,
        0.05030815303325653,
        -0.04964875802397728,
        0.01331353560090065,
        0.04257474094629288,
        0.026498768478631973,
        0.12297197431325912,
        -0.05968109145760536,
        -0.030235495418310165,
        0.03769693896174431,
        0.1131514236330986,
        -0.056267816573381424,
        0.05863520875573158,
        0.01989828795194626,
        0.00981493666768074,
        0.06441161036491394,
        0.0190707016736269,
        -0.003611922962591052,
        0.10779742151498795,
        0.06390771269798279,
        0.014038876630365849,
        -0.11459270119667053,
        0.09109583497047424,
        -0.031976744532585144,
        0.017277559265494347,
        0.08873330056667328,
        0.04135389253497124,
        0.08325302600860596,
        0.12413876503705978,
        0.055010054260492325,
        -0.052101850509643555,
        -0.04730359464883804,
        0.010338624007999897,
        -0.017576729878783226,
        -0.033824291080236435,
        0.09439738094806671,
        0.024325821548700333,
        -0.05424271896481514,
        0.12579917907714844,
        -0.13014255464076996,
        0.01759261079132557,
        0.08579213172197342,
        -0.014959114603698254,
        -0.09000654518604279,
        -0.05120134353637695,
        0.08974107354879379,
        -0.005766625981777906,
        -0.03953111916780472,
        -0.08020348846912384,
        0.08862072974443436,
        -0.006154067348688841,
        -0.0268644317984581,
        -0.03568561002612114,
        -0.012115156278014183,
        -0.047916997224092484,
        0.05140559375286102,
        0.02513710781931877,
        0.009486879222095013,
        -0.00564976129680872,
        0.050859905779361725,
        -0.013298237696290016,
        0.022809958085417747,
        -0.0654112920165062,
        -0.05902077630162239,
        -0.00028094701701775193,
        0.0068563842214643955,
        -0.020132174715399742,
        0.10216997563838959,
        0.07636147737503052,
        -0.018753595650196075,
        0.008780169300734997,
        -0.016199421137571335,
        -0.006834469735622406,
        -0.06128222495317459,
        0.019765503704547882,
        0.040290623903274536,
        -0.0374719612300396,
        -0.0268170777708292,
        -0.05562309920787811,
        0.18344740569591522,
        -0.10336509346961975,
        -0.030916202813386917,
        0.061569470912218094,
        -0.031210653483867645,
        -0.018326343968510628,
        -0.008286484517157078,
        -0.09714987128973007,
        0.015287681482732296,
        -0.028042756021022797,
        -0.0291033536195755,
        0.02182294987142086,
        0.04547637328505516,
        -0.06330104917287827,
        0.0996488407254219,
        -0.017014283686876297,
        -0.06145630404353142,
        0.04804205149412155,
        -0.009911651723086834,
        0.01377564761787653,
        0.062078818678855896,
        0.0157192163169384,
        0.039626747369766235,
        0.03207986429333687,
        -0.10407902300357819,
        0.05251516401767731,
        -0.02230082079768181,
        -0.017597459256649017,
        -0.010618139058351517,
        -0.02830655127763748,
        -0.013737254776060581,
        0.02433851920068264,
        0.08449152857065201,
        -0.007391491439193487,
        -0.031803198158741,
        0.0029469039291143417,
        -0.029344143345952034,
        -0.02047906257212162,
        -0.0014483282575383782,
        -0.1055644229054451,
        0.05506804585456848,
        0.00280484720133245,
        0.0009621063945814967,
        -0.02603236399590969,
        -0.12482841312885284,
        0.02893584780395031,
        0.04845840483903885,
        0.015188702382147312,
        -0.01296172570437193,
        0.028331778943538666,
        -0.09154991060495377,
        0.03290065377950668,
        -0.06718891113996506,
        0.03588223457336426,
        0.0005929927574470639,
        -0.07949806749820709,
        0.052525125443935394,
        -0.08261532336473465,
        -0.06137201935052872,
        0.015257848426699638,
        0.02241493947803974,
        0.03993217274546623,
        0.0030291411094367504,
        0.1452912986278534,
        0.05051309987902641,
        0.022809293121099472,
        0.009493805468082428,
        0.010174299590289593,
        -0.03606316074728966,
        -0.021927686408162117,
        -0.010993922129273415,
        0.051274728029966354,
        0.04400040954351425,
        0.04328305274248123,
        0.020263146609067917,
        0.012157173827290535,
        -0.011010261252522469,
        -0.022762402892112732,
        -0.06346762925386429,
        -0.011992950923740864,
        0.0020693624392151833,
        0.02400869131088257,
        -0.06733566522598267,
        -0.06981201469898224,
        0.0456492081284523,
        -0.04739674925804138,
        0.048013973981142044,
        0.09869282692670822,
        0.05363500863313675,
        0.0267502274364233,
        0.08480802178382874,
        -0.02742588520050049,
        -0.00492662750184536,
        -0.07098616659641266,
        0.042659979313611984,
        -0.030286163091659546,
        -0.045069631189107895,
        -0.06136276200413704,
        -0.07855928689241409,
        0.06398651748895645,
        0.05672278627753258,
        -0.026078693568706512,
        -0.016589704900979996,
        0.11068509519100189,
        0.02582809142768383,
        -0.047123514115810394,
        -0.013980192132294178,
        0.035284508019685745,
        0.03212637081742287,
        0.08174844086170197,
        -0.04899045452475548,
        -0.07176712900400162,
        -0.07313331216573715,
        -0.04485252499580383,
        -0.028383634984493256,
        0.019188987091183662,
        0.011020539328455925,
        0.047638606280088425,
        -0.052281226962804794,
        -0.07250452041625977,
        0.07676751166582108,
        -0.04659702628850937,
        -0.03880976513028145,
        -0.01829499378800392,
        0.022162098437547684,
        0.09037882089614868,
        -0.16028837859630585,
        0.09767501056194305,
        -0.07743291556835175,
        0.010631549172103405,
        -0.017153961583971977,
        -0.02209947258234024,
        0.0038874619640409946,
        -0.011100595816969872,
